tree
version=v3
num_class=1
num_tree_per_iteration=1
label_index=0
max_feature_idx=319
objective=regression
feature_names=fLaggingRtn_1 spreadRatio_1 volumeImbalanceRatio_1 slope_b_1 slope_a_1 slope_ab_1 sLaggingRtn_1 stockSpreadRatio_1 stockVolumeImbalanceRatio_1 stockSlope_b_1 stockSlope_a_1 stockSlope_ab_1 fAskSize1_1 fBidSize1_1 sAskSize1_1 sBidSize1_1 fAskSize2_1 fBidSize2_1 sAskSize2_1 sBidSize2_1 fAskSize3_1 fBidSize3_1 sAskSize3_1 sBidSize3_1 fAskSize4_1 fBidSize4_1 sAskSize4_1 sBidSize4_1 fAskSize5_1 fBidSize5_1 sAskSize5_1 sBidSize5_1 fLaggingRtn_2 spreadRatio_2 volumeImbalanceRatio_2 slope_b_2 slope_a_2 slope_ab_2 sLaggingRtn_2 stockSpreadRatio_2 stockVolumeImbalanceRatio_2 stockSlope_b_2 stockSlope_a_2 stockSlope_ab_2 fAskSize1_2 fBidSize1_2 sAskSize1_2 sBidSize1_2 fAskSize2_2 fBidSize2_2 sAskSize2_2 sBidSize2_2 fAskSize3_2 fBidSize3_2 sAskSize3_2 sBidSize3_2 fAskSize4_2 fBidSize4_2 sAskSize4_2 sBidSize4_2 fAskSize5_2 fBidSize5_2 sAskSize5_2 sBidSize5_2 fLaggingRtn_3 spreadRatio_3 volumeImbalanceRatio_3 slope_b_3 slope_a_3 slope_ab_3 sLaggingRtn_3 stockSpreadRatio_3 stockVolumeImbalanceRatio_3 stockSlope_b_3 stockSlope_a_3 stockSlope_ab_3 fAskSize1_3 fBidSize1_3 sAskSize1_3 sBidSize1_3 fAskSize2_3 fBidSize2_3 sAskSize2_3 sBidSize2_3 fAskSize3_3 fBidSize3_3 sAskSize3_3 sBidSize3_3 fAskSize4_3 fBidSize4_3 sAskSize4_3 sBidSize4_3 fAskSize5_3 fBidSize5_3 sAskSize5_3 sBidSize5_3 fLaggingRtn_4 spreadRatio_4 volumeImbalanceRatio_4 slope_b_4 slope_a_4 slope_ab_4 sLaggingRtn_4 stockSpreadRatio_4 stockVolumeImbalanceRatio_4 stockSlope_b_4 stockSlope_a_4 stockSlope_ab_4 fAskSize1_4 fBidSize1_4 sAskSize1_4 sBidSize1_4 fAskSize2_4 fBidSize2_4 sAskSize2_4 sBidSize2_4 fAskSize3_4 fBidSize3_4 sAskSize3_4 sBidSize3_4 fAskSize4_4 fBidSize4_4 sAskSize4_4 sBidSize4_4 fAskSize5_4 fBidSize5_4 sAskSize5_4 sBidSize5_4 fLaggingRtn_5 spreadRatio_5 volumeImbalanceRatio_5 slope_b_5 slope_a_5 slope_ab_5 sLaggingRtn_5 stockSpreadRatio_5 stockVolumeImbalanceRatio_5 stockSlope_b_5 stockSlope_a_5 stockSlope_ab_5 fAskSize1_5 fBidSize1_5 sAskSize1_5 sBidSize1_5 fAskSize2_5 fBidSize2_5 sAskSize2_5 sBidSize2_5 fAskSize3_5 fBidSize3_5 sAskSize3_5 sBidSize3_5 fAskSize4_5 fBidSize4_5 sAskSize4_5 sBidSize4_5 fAskSize5_5 fBidSize5_5 sAskSize5_5 sBidSize5_5 fLaggingRtn_6 spreadRatio_6 volumeImbalanceRatio_6 slope_b_6 slope_a_6 slope_ab_6 sLaggingRtn_6 stockSpreadRatio_6 stockVolumeImbalanceRatio_6 stockSlope_b_6 stockSlope_a_6 stockSlope_ab_6 fAskSize1_6 fBidSize1_6 sAskSize1_6 sBidSize1_6 fAskSize2_6 fBidSize2_6 sAskSize2_6 sBidSize2_6 fAskSize3_6 fBidSize3_6 sAskSize3_6 sBidSize3_6 fAskSize4_6 fBidSize4_6 sAskSize4_6 sBidSize4_6 fAskSize5_6 fBidSize5_6 sAskSize5_6 sBidSize5_6 fLaggingRtn_7 spreadRatio_7 volumeImbalanceRatio_7 slope_b_7 slope_a_7 slope_ab_7 sLaggingRtn_7 stockSpreadRatio_7 stockVolumeImbalanceRatio_7 stockSlope_b_7 stockSlope_a_7 stockSlope_ab_7 fAskSize1_7 fBidSize1_7 sAskSize1_7 sBidSize1_7 fAskSize2_7 fBidSize2_7 sAskSize2_7 sBidSize2_7 fAskSize3_7 fBidSize3_7 sAskSize3_7 sBidSize3_7 fAskSize4_7 fBidSize4_7 sAskSize4_7 sBidSize4_7 fAskSize5_7 fBidSize5_7 sAskSize5_7 sBidSize5_7 fLaggingRtn_8 spreadRatio_8 volumeImbalanceRatio_8 slope_b_8 slope_a_8 slope_ab_8 sLaggingRtn_8 stockSpreadRatio_8 stockVolumeImbalanceRatio_8 stockSlope_b_8 stockSlope_a_8 stockSlope_ab_8 fAskSize1_8 fBidSize1_8 sAskSize1_8 sBidSize1_8 fAskSize2_8 fBidSize2_8 sAskSize2_8 sBidSize2_8 fAskSize3_8 fBidSize3_8 sAskSize3_8 sBidSize3_8 fAskSize4_8 fBidSize4_8 sAskSize4_8 sBidSize4_8 fAskSize5_8 fBidSize5_8 sAskSize5_8 sBidSize5_8 fLaggingRtn_9 spreadRatio_9 volumeImbalanceRatio_9 slope_b_9 slope_a_9 slope_ab_9 sLaggingRtn_9 stockSpreadRatio_9 stockVolumeImbalanceRatio_9 stockSlope_b_9 stockSlope_a_9 stockSlope_ab_9 fAskSize1_9 fBidSize1_9 sAskSize1_9 sBidSize1_9 fAskSize2_9 fBidSize2_9 sAskSize2_9 sBidSize2_9 fAskSize3_9 fBidSize3_9 sAskSize3_9 sBidSize3_9 fAskSize4_9 fBidSize4_9 sAskSize4_9 sBidSize4_9 fAskSize5_9 fBidSize5_9 sAskSize5_9 sBidSize5_9 fLaggingRtn_10 spreadRatio_10 volumeImbalanceRatio_10 slope_b_10 slope_a_10 slope_ab_10 sLaggingRtn_10 stockSpreadRatio_10 stockVolumeImbalanceRatio_10 stockSlope_b_10 stockSlope_a_10 stockSlope_ab_10 fAskSize1_10 fBidSize1_10 sAskSize1_10 sBidSize1_10 fAskSize2_10 fBidSize2_10 sAskSize2_10 sBidSize2_10 fAskSize3_10 fBidSize3_10 sAskSize3_10 sBidSize3_10 fAskSize4_10 fBidSize4_10 sAskSize4_10 sBidSize4_10 fAskSize5_10 fBidSize5_10 sAskSize5_10 sBidSize5_10
feature_infos=[-0.011992149045264355:0.010652564116207408] [-0.71850672439196372:0.67514632313961809] [0:1] [0:10.52785120095359] [-4.7887359592568419:0.16443043821059508] [-11.13179297851841:0.091718910935261494] [-0.0070484873310618923:0.0076239251106597905] [-0.74327458478770903:0.61303814551202396] [-12773.889203097333:23622.793469197797] [0:0.02352387478994122] [-0.96067765503149183:0.025189383137540981] [-0.9694840695508482:0.018145820648808479] [0:1] [0:1] [0:1] [0:1] [0:1] [0:1] [0:1] [0:1] [0:1] [0:1] [0:1] [0:1] [0:1] [0:1] [0:1] [0:1] [0:1] [0:1] [0:1] [0:1] [-0.014676714415933212:0.011527505171067709] [-0.71850672439196372:0.67514632313961809] [0:1] [0:10.52785120095359] [-4.7887359592568419:0.10822784642287822] [-11.13179297851841:0.091718910935261494] [-0.0092422099648210576:0.0078947778470084273] [-0.74327458478770903:0.61303814551202396] [-12773.889203097333:23622.793469197797] [0:0.02352387478994122] [-0.96067765503149183:0.025189383137540981] [-0.9694840695508482:0.018145820648808479] [0:1] [0:1] [0:1] [0:1] [0:1] [0:1] [0:1] [0:1] [0:1] [0:1] [0:1] [0:1] [0:1] [0:1] [0:1] [0:1] [0:1] [0:1] [0:1] [0:1] [-0.011992149045264355:0.013333530869465093] [-0.71850672439196372:0.67514632313961809] [0:1] [0:10.52785120095359] [-4.7887359592568419:0.10822784642287822] [-11.13179297851841:0.091718910935261494] [-0.0092422099648210576:0.010481277467583539] [-0.74327458478770903:0.61303814551202396] [-12773.889203097333:23622.793469197797] [0:0.02352387478994122] [-0.96067765503149183:0.025189383137540981] [-0.9694840695508482:0.018145820648808479] [0:1] [0:1] [0:1] [0:1] [0:1] [0:1] [0:1] [0:1] [0:1] [0:1] [0:1] [0:1] [0:1] [0:1] [0:1] [0:1] [0:1] [0:1] [0:1] [0:1] [-0.014676714415933212:0.021033280170768442] [-0.71850672439196372:0.67514632313961809] [0:1] [0:10.52785120095359] [-4.7887359592568419:0.10822784642287822] [-11.13179297851841:0.091718910935261494] [-0.011080445776571857:0.015282054810939805] [-0.74327458478770903:0.61303814551202396] [-12773.889203097333:23622.793469197797] [0:0.02352387478994122] [-0.96067765503149183:0.025189383137540981] [-0.9694840695508482:0.018145820648808479] [0:1] [0:1] [0:1] [0:1] [0:1] [0:1] [0:1] [0:1] [0:1] [0:1] [0:1] [0:1] [0:1] [0:1] [0:1] [0:1] [0:1] [0:1] [0:1] [0:1] [-0.014676714415933212:0.022923639901937243] [-0.71850672439196372:0.67514632313961809] [0:1] [0:10.52785120095359] [-4.7887359592568419:0.10822784642287822] [-11.13179297851841:0.091718910935261494] [-0.012915308676682002:0.017175994771010394] [-0.74327458478770903:0.61303814551202396] [-12773.889203097333:23622.793469197797] [0:0.02352387478994122] [-0.96067765503149183:0.025189383137540981] [-0.9694840695508482:0.018145820648808479] [0:1] [0:1] [0:1] [0:1] [0:1] [0:1] [0:1] [0:1] [0:1] [0:1] [0:1] [0:1] [0:1] [0:1] [0:1] [0:1] [0:1] [0:1] [0:1] [0:1] [-0.016605547614775951:0.022923639901937243] [-0.71850672439196372:0.67514632313961809] [0:1] [0:10.52785120095359] [-4.7887359592568419:0.10822784642287822] [-11.13179297851841:0.091718910935261494] [-0.014746811020150297:0.017175994771010394] [-0.74327458478770903:0.61303814551202396] [-12773.889203097333:23622.793469197797] [0:0.02352387478994122] [-0.96067765503149183:0.025189383137540981] [-0.9694840695508482:0.018145820648808479] [0:1] [0:1] [0:1] [0:1] [0:1] [0:1] [0:1] [0:1] [0:1] [0:1] [0:1] [0:1] [0:1] [0:1] [0:1] [0:1] [0:1] [0:1] [0:1] [0:1] [-0.018365989145486594:0.022923639901937243] [-0.71850672439196372:0.67514632313961809] [0:1] [0:10.52785120095359] [-4.7887359592568419:0.10822784642287822] [-11.13179297851841:0.091718910935261494] [-0.016514136764413045:0.017208837680639633] [-0.74327458478770903:0.61303814551202396] [-12773.889203097333:23622.793469197797] [0:0.02352387478994122] [-0.96067765503149183:0.025189383137540981] [-0.9694840695508482:0.018145820648808479] [0:1] [0:1] [0:1] [0:1] [0:1] [0:1] [0:1] [0:1] [0:1] [0:1] [0:1] [0:1] [0:1] [0:1] [0:1] [0:1] [0:1] [0:1] [0:1] [0:1] [-0.022080013841858204:0.02296751675059916] [-0.71850672439196372:0.67514632313961809] [0:1] [0:10.52785120095359] [-4.7887359592568419:0.10822784642287822] [-11.13179297851841:0.091718910935261494] [-0.02022127724723255:0.019139340210697853] [-0.74327458478770903:0.61303814551202396] [-12773.889203097333:23622.793469197797] [0:0.02352387478994122] [-0.96067765503149183:0.025189383137540981] [-0.9694840695508482:0.018145820648808479] [0:1] [0:1] [0:1] [0:1] [0:1] [0:1] [0:1] [0:1] [0:1] [0:1] [0:1] [0:1] [0:1] [0:1] [0:1] [0:1] [0:1] [0:1] [0:1] [0:1] [-0.022080013841858204:0.02485787648176796] [-0.71850672439196372:0.67514632313961809] [0:1] [0:10.52785120095359] [-4.7887359592568419:0.10822784642287822] [-11.13179297851841:0.091718910935261494] [-0.022039459566291164:0.021033280170768442] [-0.74327458478770903:0.61303814551202396] [-12773.889203097333:23622.793469197797] [0:0.02352387478994122] [-0.96067765503149183:0.025189383137540981] [-0.9694840695508482:0.018145820648808479] [0:1] [0:1] [0:1] [0:1] [0:1] [0:1] [0:1] [0:1] [0:1] [0:1] [0:1] [0:1] [0:1] [0:1] [0:1] [0:1] [0:1] [0:1] [0:1] [0:1] [-0.022080013841858204:0.02485787648176796] [-0.71850672439196372:0.67514632313961809] [0:1] [0:10.52785120095359] [-4.7887359592568419:0.10822784642287822] [-11.13179297851841:0.091718910935261494] [-0.022039459566291164:0.021033280170768442] [-0.74327458478770903:0.61303814551202396] [-12773.889203097333:23622.793469197797] [0:0.02352387478994122] [-0.96067765503149183:0.025189383137540981] [-0.9694840695508482:0.018145820648808479] [0:1] [0:1] [0:1] [0:1] [0:1] [0:1] [0:1] [0:1] [0:1] [0:1] [0:1] [0:1] [0:1] [0:1] [0:1] [0:1] [0:1] [0:1] [0:1] [0:1]
tree_sizes=855 846 846 841 843 842 848 836 836 842 836 841 842 844 835 843 834 840 844 841 839 836 838 840 801 831 809 833 838 839 833 835 830 814 810 778 826 830 791 839 805 835 795 833 832 773 831 793 830 784 823 835 819 829 819 792 785 799 801 780 815 827 802 809 773 830 838 768 821 803 831 799 833 832 814 796 838 768 805 757 810 742 831 827 771 780 822 794 824 832 780 756 799 806 808 796 819 785 798 826

Tree=0
num_leaves=7
num_cat=0
split_feature=15 6 160 6 14 160
split_gain=0.000398062 0.000428133 0.000386477 0.000329719 0.000357049 0.000115436
threshold=0.095393457834952247 -0.0012870019975861344 0.0013262607245656535 0.00096899255133919848 0.044489047517379095 -1.0000000180025095e-35
decision_type=2 2 2 2 2 2
left_child=1 -1 3 4 -2 -6
right_child=2 -3 -4 -5 5 -7
leaf_value=4.0800493707966933e-05 2.3306360170802237e-05 -2.2518079932531958e-05 2.7182300786322388e-05 -4.605398425490148e-05 -1.2891812490965343e-05 -4.8049712434449321e-07
leaf_weight=1154 6007 13060 5226 1588 8723 53019
leaf_count=1154 6007 13060 5226 1588 8723 53019
internal_value=-1.97152e-06 -1.73081e-05 9.52101e-07 -1.0391e-06 3.0563e-08 -2.21804e-06
internal_weight=0 14214 74563 69337 67749 61742
internal_count=88777 14214 74563 69337 67749 61742
is_linear=0
shrinkage=1


Tree=1
num_leaves=7
num_cat=0
split_feature=224 14 6 6 47 128
split_gain=0.000333315 0.000244642 0.000391294 0.000181707 0.00022727 0.00016306
threshold=0.0026791722619869955 0.076526294880560883 0.0010989015412397054 -0.0011037532076052512 0.067333636639369129 -0.0008880997006279755
decision_type=2 2 2 2 2 2
left_child=1 2 -1 -3 -5 -6
right_child=-2 3 -4 4 5 -7
leaf_value=1.7757896184551299e-05 3.9129031233338253e-05 2.3837787217060933e-05 -4.5495069406517321e-05 -1.9465231252738652e-05 -1.6670277502446716e-05 -2.0938213854599115e-07
leaf_weight=11131 2125 2409 1065 8441 6748 56858
leaf_count=11131 2125 2409 1065 8441 6748 56858
internal_value=0 -9.58442e-07 1.21537e-05 -3.11945e-06 -4.03447e-06 -1.97121e-06
internal_weight=0 86652 12196 74456 72047 63606
internal_count=88777 86652 12196 74456 72047 63606
is_linear=0
shrinkage=0.1


Tree=2
num_leaves=7
num_cat=0
split_feature=192 15 38 128 38 14
split_gain=0.000296308 0.000293483 0.000201046 0.000143253 0.000140799 0.000173468
threshold=0.0035062125784190994 0.15810284015264955 -0.00090090114463148286 0.00089047218549742635 0.00090090114463148307 0.067451921598959949
decision_type=2 2 2 2 2 2
left_child=1 2 -1 4 5 -3
right_child=-2 3 -4 -5 -6 -7
leaf_value=2.6786877639087006e-05 4.4173055877443804e-05 1.49045179744715e-05 -1.3195121347635931e-05 1.7034279022655539e-05 -3.4142696232518164e-05 -5.0502385156011763e-07
leaf_weight=1324 1493 8554 20698 6229 1112 49367
leaf_count=1324 1493 8554 20698 6229 1112 49367
internal_value=0 -7.55699e-07 -1.07466e-05 2.60055e-06 1.06086e-06 1.75372e-06
internal_weight=0 87284 22022 65262 59033 57921
internal_count=88777 87284 22022 65262 59033 57921
is_linear=0
shrinkage=0.1


Tree=3
num_leaves=7
num_cat=0
split_feature=224 230 14 6 6 160
split_gain=0.000255496 0.000218958 0.000190018 0.000127331 0.000123043 0.00011653
threshold=0.0018665431788726929 0.0010893250496111231 0.058870814566312706 0.0022446726812970223 -0.0010845991237724559 -0.0008880997006279755
decision_type=2 2 2 2 2 2
left_child=1 2 3 -1 -4 -6
right_child=-2 -3 4 -5 5 -7
leaf_value=1.5542555926433012e-05 1.8812479561989487e-05 -2.2969350845237926e-05 2.060846886412532e-05 -6.9952011444567689e-05 -1.3882794562028706e-05 -1.231423075944898e-06
leaf_weight=8454 6677 4503 2309 174 8365 58295
leaf_count=8454 6677 4503 2309 174 8365 58295
internal_value=0 -1.52888e-06 -2.71989e-07 1.37042e-05 -2.03469e-06 -2.83379e-06
internal_weight=0 82100 77597 8628 68969 66660
internal_count=88777 82100 77597 8628 68969 66660
is_linear=0
shrinkage=0.1


Tree=4
num_leaves=7
num_cat=0
split_feature=15 6 160 6 14 64
split_gain=0.000248249 0.000271006 0.000227132 0.000189324 0.000213433 0.000100096
threshold=0.079565972943408253 -0.0012870019975861344 0.0013262607245656535 0.00096899255133919848 0.023535706417398421 -0.001356852935798347
decision_type=2 2 2 2 2 2
left_child=1 -1 3 4 -2 -6
right_child=2 -3 -4 -5 5 -7
leaf_value=3.3822888209713477e-05 2.6898525109403817e-05 -1.8277469113769353e-05 2.1728764220806947e-05 -3.3489873416952428e-05 -1.7054307516697226e-05 1.0292163909259601e-06
leaf_weight=1088 3125 10821 5468 1594 3215 63466
leaf_count=1088 3125 10821 5468 1594 3215 63466
internal_value=0 -1.34349e-05 2.08121e-06 5.62757e-07 1.35445e-06 1.42557e-07
internal_weight=0 11909 76868 71400 69806 66681
internal_count=88777 11909 76868 71400 69806 66681
is_linear=0
shrinkage=0.1


Tree=5
num_leaves=7
num_cat=0
split_feature=192 15 38 128 14 38
split_gain=0.000210654 0.000211578 0.000136287 0.000114224 9.92133e-05 0.000115336
threshold=0.0042283408344028226 0.095393457834952247 -0.0011013220311713032 0.00089047218549742635 0.14103723280938474 0.00090090114463148307
decision_type=2 2 2 2 2 2
left_child=1 2 -1 4 5 -3
right_child=-2 3 -4 -5 -6 -7
leaf_value=2.359086788946812e-05 4.9051424898703388e-05 7.9097797621867675e-06 -1.4491176273977427e-05 1.3126999513809807e-05 -2.1679411171554538e-06 -3.4097382869221125e-05
leaf_weight=994 867 18395 13075 7760 47016 670
leaf_count=994 867 18395 13075 7760 47016 670
internal_value=0 -4.82827e-07 -1.17306e-05 1.64689e-06 2.83858e-07 6.38187e-06
internal_weight=0 87910 14069 73841 66081 19065
internal_count=88777 87910 14069 73841 66081 19065
is_linear=0
shrinkage=0.1


Tree=6
num_leaves=7
num_cat=0
split_feature=160 15 38 15 0 38
split_gain=0.000184626 0.000176098 0.000105828 9.62425e-05 9.42797e-05 9.19477e-05
threshold=0.0026578100469376591 0.15810284015264955 -0.00090090114463148286 0.021983775386916753 -1.0000000180025095e-35 0.0011025362791565743
decision_type=2 2 2 2 2 2
left_child=1 2 -1 -4 -3 -6
right_child=-2 4 3 -5 5 -7
leaf_value=1.8755973780775049e-05 3.3451413541969368e-05 -1.4988638451124753e-05 -2.4877894861009589e-05 -6.8927649663360574e-06 3.5347754637901933e-06 -1.8751240955026497e-05
leaf_weight=1325 1620 3102 3702 16911 60219 1898
leaf_count=1325 1620 3102 3702 16911 60219 1898
internal_value=0 -6.19787e-07 -8.37861e-06 -1.01706e-05 1.97498e-06 2.83797e-06
internal_weight=0 87157 21938 20613 65219 62117
internal_count=88777 87157 21938 20613 65219 62117
is_linear=0
shrinkage=0.1


Tree=7
num_leaves=7
num_cat=0
split_feature=64 15 6 160 6 14
split_gain=0.000156559 0.000142028 0.000163768 0.000161257 0.000145934 0.000133569
threshold=0.0026572208623627529 0.15810284015264955 0.00096899255133919848 0.00090090114463148307 -0.001290323296745832 0.019135070181872642
decision_type=2 2 2 2 2 2
left_child=1 4 3 5 -1 -3
right_child=-2 2 -4 -5 -6 -7
leaf_value=2.4490218112306998e-05 4.5961524886061552e-05 2.4710894451379e-05 -2.5291779717771505e-05 1.809377862540994e-05 -9.3970332341897143e-06 1.7531606593513227e-07
leaf_weight=1339 735 2316 2130 6276 20863 55118
leaf_count=1339 735 2316 2130 6276 20863 55118
internal_value=0 -3.83056e-07 1.93748e-06 2.86328e-06 -7.30894e-06 1.18185e-06
internal_weight=0 88042 65840 63710 22202 57434
internal_count=88777 88042 65840 63710 22202 57434
is_linear=0
shrinkage=0.1


Tree=8
num_leaves=7
num_cat=0
split_feature=96 102 14 192 6 6
split_gain=0.000136498 0.000170821 0.000116435 0.0001029 0.00012258 8.64591e-05
threshold=0.0017969471272945017 0.0012285018465263422 0.076526294880560883 -0.0017597896201060335 -0.0011037532076052512 0.00131406120313482
decision_type=2 2 2 2 2 2
left_child=1 2 5 -4 -5 -1
right_child=-2 -3 3 4 -6 -7
leaf_value=1.1050856989562576e-05 1.6693632723076753e-05 -2.355622662577026e-05 -1.4810424683232493e-05 2.8459158810761616e-05 -1.089450695493931e-06 -3.9386310558662417e-05
leaf_weight=10897 4644 3206 5398 1435 62854 343
leaf_count=10897 4644 3206 5398 1435 62854 343
internal_value=0 -9.1734e-07 -8.31e-09 -1.54382e-06 -4.14575e-07 9.42409e-06
internal_weight=0 84133 80927 69687 64289 11240
internal_count=88777 84133 80927 69687 64289 11240
is_linear=0
shrinkage=0.1


Tree=9
num_leaves=7
num_cat=0
split_feature=192 5 262 256 160 297
split_gain=0.000127613 0.000118066 8.2271e-05 7.13292e-05 6.73064e-05 7.45884e-05
threshold=0.0042283408344028226 0.00036693735939117607 0.0018709095729976257 0.0018921498456196952 -0.0027372285560889327 0.0099027607540591988
decision_type=2 2 2 2 2 2
left_child=1 2 4 -3 5 -1
right_child=-2 3 -4 -5 -6 -7
leaf_value=-5.2673067319339721e-05 3.8179770443095228e-05 3.0258328463016592e-06 -1.6081337255634292e-05 2.0229352144801812e-05 -1.4936864626762279e-06 7.0415059022757887e-06
leaf_weight=538 867 28899 4530 2665 50979 299
leaf_count=538 867 28899 4530 2665 50979 299
internal_value=0 -3.74115e-07 -3.12733e-06 4.50955e-06 -1.97583e-06 -3.01649e-05
internal_weight=0 87910 56346 31564 51816 837
internal_count=88777 87910 56346 31564 51816 837
is_linear=0
shrinkage=0.1


Tree=10
num_leaves=7
num_cat=0
split_feature=15 6 224 6 14 0
split_gain=0.000117458 0.000160421 0.000121265 9.49567e-05 0.000127341 8.69497e-05
threshold=0.064533338037434038 -0.0017777796506668329 0.0018665431788726929 0.0010989015412397054 0.0088448636266913686 -0.0013227520942118429
decision_type=2 2 2 2 2 2
left_child=1 -1 3 4 -2 -6
right_child=2 -3 -4 -5 5 -7
leaf_value=3.2208968893358374e-05 3.3813414515555869e-05 -1.4089343324019286e-05 1.531352993511293e-05 -2.3604233727793084e-05 -2.415401948328396e-05 7.1088933951520739e-07
leaf_weight=804 1146 9131 5724 1638 1435 68899
leaf_count=804 1146 9131 5724 1638 1435 68899
internal_value=0 -1.02435e-05 1.29448e-06 1.83542e-07 7.42428e-07 1.89577e-07
internal_weight=0 9935 78842 73118 71480 70334
internal_count=88777 9935 78842 73118 71480 70334
is_linear=0
shrinkage=0.1


Tree=11
num_leaves=7
num_cat=0
split_feature=32 15 6 6 14 295
split_gain=0.000107301 0.000103408 0.000104645 0.000101947 0.000112358 8.81178e-05
threshold=0.0013245040857885473 0.095393457834952247 -0.0019102219986928402 0.0010989015412397054 0.023535706417398421 0.0019944064214567456
decision_type=2 2 2 2 2 2
left_child=1 2 -1 4 -3 -4
right_child=-2 3 5 -5 -6 -7
leaf_value=3.0348108382283029e-05 1.8171887452287498e-05 1.9794385453855287e-05 -2.2365101014105802e-05 -2.3892991152321208e-05 5.3704482984105214e-07 -4.6822368264910786e-06
leaf_weight=642 3136 3181 4335 1625 67232 8626
leaf_count=642 3136 3181 4335 1625 67232 8626
internal_value=0 -6.61214e-07 -8.66413e-06 8.36314e-07 1.42101e-06 -1.06725e-05
internal_weight=0 85641 13603 72038 70413 12961
internal_count=88777 85641 13603 72038 70413 12961
is_linear=0
shrinkage=0.1


Tree=12
num_leaves=7
num_cat=0
split_feature=5 224 9 134 160 6
split_gain=0.000102016 0.00010133 6.11636e-05 6.06421e-05 9.58268e-05 5.78387e-05
threshold=-0.00051867951875372408 0.0041407971034743704 0.01074137181880516 -0.0018814697647711041 -0.0026472561800003898 0.0017809457831803324
decision_type=2 2 2 2 2 2
left_child=2 3 -1 -2 -5 -4
right_child=1 -3 5 4 -6 -7
leaf_value=-7.0018627741712435e-06 1.6752777266248321e-05 4.2708407954289136e-05 1.2038548501495834e-06 -5.8677961789422655e-05 2.1099979514055187e-06 -4.6501570470982743e-05
leaf_weight=23095 2889 646 19505 260 42125 257
leaf_count=23095 2889 646 19505 260 42125 257
internal_value=0 3.27963e-06 -3.50416e-06 2.69528e-06 1.71387e-06 5.33617e-07
internal_weight=0 45920 42857 45274 42385 19762
internal_count=88777 45920 42857 45274 42385 19762
is_linear=0
shrinkage=0.1


Tree=13
num_leaves=7
num_cat=0
split_feature=64 32 102 38 47 160
split_gain=9.16304e-05 8.75596e-05 0.000131475 7.10602e-05 6.82148e-05 7.03172e-05
threshold=0.0026572208623627529 -0.0010471208015569997 -0.00090826546319888724 -0.002107484679656046 0.022008492686366909 0.00089047218549742635
decision_type=2 2 2 2 2 2
left_child=1 3 -3 -1 -4 -6
right_child=-2 2 4 -5 5 -7
leaf_value=7.4122084936634006e-06 3.5167008175847678e-05 1.74812375217955e-05 -1.4134681739821676e-05 -1.8633537287845816e-05 -9.5548965984296366e-07 8.1578878048517226e-06
leaf_weight=1321 735 4335 3460 4315 64881 9730
leaf_count=1321 735 4335 3460 4315 64881 9730
internal_value=0 -2.88148e-07 5.25127e-07 -1.23541e-05 -4.03772e-07 2.19786e-07
internal_weight=0 88042 82406 5636 78071 74611
internal_count=88777 88042 82406 5636 78071 74611
is_linear=0
shrinkage=0.1


Tree=14
num_leaves=7
num_cat=0
split_feature=64 70 15 192 6 6
split_gain=8.51686e-05 0.000144596 0.000107814 8.14032e-05 8.07332e-05 6.63122e-05
threshold=-0.001356852935798347 -0.00090826546319888724 0.021983775386916753 0.004460808610081469 0.0022050752387765553 -0.0011037532076052512
decision_type=2 2 2 2 2 2
left_child=-1 -2 5 4 -4 -3
right_child=1 2 3 -5 -6 -7
leaf_value=-1.4002111294335416e-05 2.1735937952874177e-05 3.6213061414421922e-05 7.1373600288589788e-07 3.5344531216810699e-05 -3.0352980076345256e-05 -2.0165199369210303e-05
leaf_weight=4138 3144 210 76248 672 845 3520
leaf_count=4138 3144 210 76248 672 845 3520
internal_value=0 6.90818e-07 -1.09001e-07 6.75422e-07 3.60445e-07 -1.6727e-05
internal_weight=0 84639 81495 77765 77093 3730
internal_count=88777 84639 81495 77765 77093 3730
is_linear=0
shrinkage=0.1


Tree=15
num_leaves=7
num_cat=0
split_feature=5 256 96 134 192 0
split_gain=7.97517e-05 6.99558e-05 5.77945e-05 6.25873e-05 5.78224e-05 4.95984e-05
threshold=0.00032457624238189155 0.0018921498456196952 -0.001129943983718906 -0.0023952141613161611 -0.0032555682936421522 0.0026578100469376591
decision_type=2 2 2 2 2 2
left_child=2 -2 3 -1 -5 -4
right_child=1 -3 5 4 -6 -7
leaf_value=6.9135864286388776e-06 2.4063361665784086e-06 1.8337665809538769e-05 -1.4016372055206962e-06 -5.758783716505948e-05 -1.4256801265577431e-05 6.0057129082430926e-05
leaf_weight=1229 29538 3077 50764 359 3679 131
leaf_count=1229 29538 3077 50764 359 3679 131
internal_value=0 3.93954e-06 -2.27758e-06 -1.22704e-05 -1.83531e-05 -1.22409e-06
internal_weight=0 32615 56162 5267 4038 50895
internal_count=88777 32615 56162 5267 4038 50895
is_linear=0
shrinkage=0.1


Tree=16
num_leaves=7
num_cat=0
split_feature=224 230 15 262 310 160
split_gain=6.82205e-05 0.000134543 8.81622e-05 7.38111e-05 9.35104e-05 6.35924e-05
threshold=-0.0013297880178795294 -1.0000000180025095e-35 0.023974503587553892 -0.0057748048433721158 0.25372801470497724 0.0042194202377485732
decision_type=2 2 2 2 2 2
left_child=3 -2 -3 4 -1 -4
right_child=1 2 5 -5 -6 -7
leaf_value=-0.00012954844444514066 1.7592931249429025e-05 -1.4665640805895628e-05 3.7913706088751611e-07 -1.0380702706985117e-05 7.6303447624144054e-05 3.109232946058105e-05
leaf_weight=22 4549 3946 71492 7902 184 682
leaf_count=22 4549 3946 71492 7902 184 682
internal_value=0 8.85777e-07 -9.97221e-08 -8.7369e-06 4.95367e-05 6.83004e-07
internal_weight=0 80669 76120 8108 206 72174
internal_count=88777 80669 76120 8108 206 72174
is_linear=0
shrinkage=0.1


Tree=17
num_leaves=7
num_cat=0
split_feature=0 6 14 224 6 196
split_gain=6.78147e-05 8.10206e-05 9.86498e-05 6.80561e-05 8.08517e-05 5.7952e-05
threshold=0.0013245040857885473 0.00096899255133919848 0.025597764198189012 -0.0013297880178795294 -0.0011037532076052512 0.00807082145137142
decision_type=2 2 2 2 2 2
left_child=1 2 -1 5 -5 -4
right_child=-2 -3 3 4 -6 -7
leaf_value=1.6228108658112762e-05 1.9340428921412169e-05 -2.1571207668225072e-05 -2.2780962500022855e-05 2.2746188171159832e-05 -2.483375248591365e-07 -3.3896012004422713e-06
leaf_weight=3610 1778 1769 2384 1561 72874 4801
leaf_count=3610 1778 1769 2384 1561 72874 4801
internal_value=0 -3.87759e-07 4.03641e-08 -6.63545e-07 2.2066e-07 -9.96076e-06
internal_weight=0 86999 85230 81620 74435 7185
internal_count=88777 86999 85230 81620 74435 7185
is_linear=0
shrinkage=0.1


Tree=18
num_leaves=7
num_cat=0
split_feature=15 6 6 160 38 299
split_gain=5.84461e-05 7.67419e-05 7.53237e-05 7.39748e-05 7.01833e-05 6.28479e-05
threshold=0.29582955232909863 0.0022099483490753973 -0.0024539926560964704 0.00090090114463148307 0.0033389054014136836 1.0000000180025095e-35
decision_type=2 2 2 2 2 2
left_child=2 3 -1 -2 5 -4
right_child=1 -3 4 -5 -6 -7
leaf_value=3.8132690722724473e-05 1.5233327612552816e-06 -2.9629427545941125e-05 -9.0302499783289522e-06 1.4832693795652408e-05 7.7536094601733075e-05 -5.9553661079418241e-07
leaf_weight=440 43498 735 13710 4658 106 25630
leaf_count=440 43498 735 13710 4658 106 25630
internal_value=0 2.32302e-06 -2.83523e-06 2.83116e-06 -3.31717e-06 -3.56007e-06
internal_weight=0 48891 39886 48156 39446 39340
internal_count=88777 48891 39886 48156 39446 39340
is_linear=0
shrinkage=0.1


Tree=19
num_leaves=7
num_cat=0
split_feature=0 70 15 192 37 80
split_gain=6.61368e-05 7.45368e-05 7.07606e-05 6.32132e-05 5.43379e-05 4.53812e-05
threshold=-0.00094161986398244568 -0.00090826546319888724 0.021983775386916753 0.0013262607245656535 -0.00056408472392866459 0.037123169681309222
decision_type=2 2 2 2 2 2
left_child=5 -2 -3 -4 -5 -1
right_child=1 2 3 4 -6 -7
leaf_value=-0.00010553066190489939 1.3568077895219744e-05 -1.3682067835168474e-05 -3.1022853283895978e-07 -1.7768684708846415e-06 1.6915400397460941e-05 -1.146231834825684e-05
leaf_weight=55 4197 3662 70763 2349 4138 3613
leaf_count=55 4197 3662 70763 2349 4138 3613
internal_value=0 5.72695e-07 -8.92216e-08 5.42394e-07 9.99497e-06 -1.31414e-05
internal_weight=0 85109 80912 77250 6487 3668
internal_count=88777 85109 80912 77250 6487 3668
is_linear=0
shrinkage=0.1


Tree=20
num_leaves=7
num_cat=0
split_feature=5 0 224 179 134 291
split_gain=6.10094e-05 5.11865e-05 5.41039e-05 7.16754e-05 4.72736e-05 4.03904e-05
threshold=-0.00051867951875372408 -0.0013280220290581288 0.0062333250691737349 0.76414174850123218 -0.0018814697647711041 0.010468645091394696
decision_type=2 2 2 2 2 2
left_child=5 -2 4 -4 -3 -1
right_child=1 2 3 -5 -6 -7
leaf_value=-7.1848121717926251e-06 -1.7579349330274985e-05 1.6203008798304767e-05 1.8557096689835963e-05 0.00018558321107484994 2.0314618849663525e-06 -5.6483425274779777e-07
leaf_weight=13748 1217 2525 147 37 41994 29109
leaf_count=13748 1217 2525 147 37 41994 29109
internal_value=0 2.53468e-06 3.1043e-06 5.74994e-05 2.85736e-06 -2.71142e-06
internal_weight=0 45920 44703 184 44519 42857
internal_count=88777 45920 44703 184 44519 42857
is_linear=0
shrinkage=0.1


Tree=21
num_leaves=7
num_cat=0
split_feature=5 32 6 14 32 6
split_gain=5.22e-05 5.07819e-05 4.77167e-05 4.9933e-05 6.08572e-05 5.55129e-05
threshold=0.00053071402894484907 -0.0010905129731804129 -0.0011037532076052512 0.11755908128637794 0.0026601657428924068 0.0011223349269120499
decision_type=2 2 2 2 2 2
left_child=1 -1 -3 5 -5 -4
right_child=-2 2 3 4 -6 -7
leaf_value=-1.3112380403292282e-05 3.4424173827817521e-06 1.9656044388872579e-05 7.0291041122093796e-06 -3.1140847868606215e-06 4.8110116306304382e-05 -2.2035823372017219e-05
leaf_weight=3675 29476 1097 9418 44187 231 693
leaf_count=3675 29476 1097 9418 44187 231 693
internal_value=0 -1.70654e-06 -9.353e-07 -1.36761e-06 -2.82551e-06 4.93962e-06
internal_weight=0 59301 55626 54529 44418 10111
internal_count=88777 59301 55626 54529 44418 10111
is_linear=0
shrinkage=0.1


Tree=22
num_leaves=7
num_cat=0
split_feature=96 102 102 9 15 111
split_gain=4.87653e-05 7.62688e-05 5.39428e-05 6.10248e-05 5.01166e-05 4.44511e-05
threshold=-0.0011337873338899127 -0.00090826546319888724 -0.0018231560765098462 0.01016422196230307 0.012300874975329645 0.54594262022481888
decision_type=2 2 2 2 2 2
left_child=2 -2 5 -4 -3 -1
right_child=1 4 3 -5 -6 -7
leaf_value=9.2675257720203302e-06 1.6591838323398196e-05 -1.4878131041502153e-05 -2.7010487713513066e-05 -3.6681252729081678e-06 5.5820714016463808e-07 -2.1377043733545928e-05
leaf_weight=2334 2921 2162 2106 2638 76032 584
leaf_count=2334 2921 2162 2106 2638 76032 584
internal_value=0 7.24155e-07 -7.62194e-06 -1.42381e-05 1.18811e-07 2.79692e-06
internal_weight=0 81115 7662 4744 78194 2918
internal_count=88777 81115 7662 4744 78194 2918
is_linear=0
shrinkage=0.1


Tree=23
num_leaves=7
num_cat=0
split_feature=0 6 14 192 4 6
split_gain=4.77934e-05 5.95848e-05 7.28899e-05 5.97638e-05 7.66512e-05 5.65971e-05
threshold=0.0013245040857885473 0.00096899255133919848 0.010994656241949827 -0.0032555682936421522 0.0076324941475616158 -0.0011037532076052512
decision_type=2 2 2 2 2 2
left_child=1 2 -1 4 -4 -5
right_child=-2 -3 3 5 -6 -7
leaf_value=2.1785092600776953e-05 1.6232548889968836e-05 -1.8495898712466715e-05 -6.1418202487265074e-05 1.5783559649325656e-05 -4.8256257108370916e-06 -4.5558274813176659e-07
leaf_weight=1515 1778 1769 359 2205 855 80296
leaf_count=1515 1778 1769 359 2205 855 80296
internal_value=0 -3.29355e-07 3.61499e-08 -3.45682e-07 -2.23723e-05 -9.62318e-09
internal_weight=0 86999 85230 83715 1214 82501
internal_count=88777 86999 85230 83715 1214 82501
is_linear=0
shrinkage=0.1


Tree=24
num_leaves=7
num_cat=0
split_feature=262 218 192 70 170 76
split_gain=4.43663e-05 0.000112371 7.59348e-05 5.67152e-05 5.43141e-05 5.39644e-05
threshold=-0.0057748048433721158 0.28558592134619215 -0.0027322427034461856 -0.001100110454801406 0.010005165637219284 0.087778568041725943
decision_type=2 2 2 2 2 2
left_child=1 -1 4 -4 -2 -3
right_child=2 5 3 -5 -6 -7
leaf_value=-0.00015870163926393849 -3.7217834718197048e-05 0 1.1257869314128395e-05 -3.4315661041954235e-07 7.0904205244127331e-06 0.00011276980268109813
leaf_weight=21 925 62 4436 82863 346 124
leaf_count=21 925 62 4436 82863 346 124
internal_value=0 4.62422e-05 -1.07075e-07 2.35057e-07 -2.43812e-05 7.46786e-05
internal_weight=0 207 88570 87299 1271 186
internal_count=88777 207 88570 87299 1271 186
is_linear=0
shrinkage=0.1


Tree=25
num_leaves=7
num_cat=0
split_feature=0 32 164 14 6 142
split_gain=4.36811e-05 4.57159e-05 6.91048e-05 4.86166e-05 7.272e-05 6.68384e-05
threshold=-0.00093720739717539903 0.0026601657428924068 0.0084848336068666669 0.20699604405849217 0.0022396454020232608 0.22443310366104488
decision_type=2 2 2 2 2 2
left_child=-1 3 -3 4 5 -2
right_child=1 2 -4 -5 -6 -7
leaf_value=-1.0635769864298121e-05 2.2517605448155371e-06 7.2664728016286315e-05 -3.8773305349954451e-06 -1.5623200854393932e-06 -3.0206592336432943e-05 1.6072052446156279e-05
leaf_weight=3700 27174 219 207 52780 625 4072
leaf_count=3700 27174 219 207 52780 625 4072
internal_value=0 4.63379e-07 3.31606e-05 2.87198e-07 3.38099e-06 4.08435e-06
internal_weight=0 85077 426 84651 31871 31246
internal_count=88777 85077 426 84651 31871 31246
is_linear=0
shrinkage=0.1


Tree=26
num_leaves=7
num_cat=0
split_feature=15 38 271 6 256 109
split_gain=4.14555e-05 6.32088e-05 5.8262e-05 5.18862e-05 5.05861e-05 5.13429e-05
threshold=0.15810284015264955 0.0033389054014136836 0.1769206463550532 -0.0020986389676700408 0.00090334261247448932 0.21932654216185629
decision_type=2 2 2 2 2 2
left_child=1 2 -1 -4 -2 -6
right_child=4 -3 3 -5 5 -7
leaf_value=-6.9870396439529276e-07 1.5244090006095208e-07 9.988622673824237e-05 2.0787528149243645e-05 -1.4477173836375798e-05 1.5288730769950967e-05 0
leaf_weight=15884 57443 58 426 6073 4803 4090
leaf_count=15884 57443 58 426 6073 4803 4090
internal_value=0 -3.7157e-06 -4.02817e-06 -1.20141e-05 1.25647e-06 8.27702e-06
internal_weight=0 22441 22383 6499 66336 8893
internal_count=88777 22441 22383 6499 66336 8893
is_linear=0
shrinkage=0.1


Tree=27
num_leaves=7
num_cat=0
split_feature=128 298 198 91 38 262
split_gain=3.89357e-05 6.33101e-05 7.90093e-05 6.52561e-05 5.79497e-05 5.02017e-05
threshold=-0.0011325033154259143 0.0084940679112378761 -0.0049019779621999318 0.25139145784241695 -0.00090826546319888724 -0.0076482278287537389
decision_type=2 2 2 2 2 2
left_child=1 3 -3 -1 -2 -5
right_child=4 2 -4 5 -6 -7
leaf_value=-9.701857189705502e-05 1.7084046050632225e-05 6.3712653509489229e-05 -3.4767007472212467e-06 0.0001044337380365111 2.4174540672927902e-07 -1.947922749190823e-05
leaf_weight=115 2103 179 6633 31 77869 1847
leaf_count=115 2103 179 6633 31 77869 1847
internal_value=0 -6.30936e-06 -1.56655e-06 -2.2026e-05 6.96957e-07 -1.69092e-05
internal_weight=0 8805 6812 1993 79972 1878
internal_count=88777 8805 6812 1993 79972 1878
is_linear=0
shrinkage=0.1


Tree=28
num_leaves=7
num_cat=0
split_feature=5 288 222 15 275 262
split_gain=3.86617e-05 4.46577e-05 4.2606e-05 4.57659e-05 3.53542e-05 3.49334e-05
threshold=-0.00062931044861280056 0.0018850163702706093 0.33166398244837736 0.019955102264299335 0.26216357411148211 -0.0018165324249408419
decision_type=2 2 2 2 2 2
left_child=2 5 3 -1 -3 -2
right_child=1 4 -4 -5 -6 -7
leaf_value=-6.1001811365944836e-05 8.7076075736354387e-06 -1.913534636669674e-05 -1.1748537185683352e-06 -9.480593013696756e-06 1.3464681604283702e-05 -1.3941025055425546e-07
leaf_weight=191 5040 335 37697 3629 4552 37333
leaf_count=191 5040 335 37697 3629 4552 37333
internal_value=0 1.95891e-06 -2.22354e-06 -1.23145e-05 1.10285e-05 8.89648e-07
internal_weight=0 47260 41517 3820 4887 42373
internal_count=88777 47260 41517 3820 4887 42373
is_linear=0
shrinkage=0.1


Tree=29
num_leaves=7
num_cat=0
split_feature=0 15 271 239 69 190
split_gain=3.52721e-05 3.95182e-05 4.12947e-05 3.84606e-05 3.76808e-05 3.16589e-05
threshold=-1.0000000180025095e-35 0.42039488644172412 0.40031154537668123 0.35524164424969534 -0.0017556825154970135 0.23370556961376884
decision_type=2 2 2 2 2 2
left_child=5 2 -2 4 -3 -1
right_child=1 3 -4 -5 -6 -7
leaf_value=-3.9327174940681947e-05 -6.6498112584559844e-08 -3.3139287563467222e-06 -8.0601624675379776e-06 1.7669133477978407e-06 1.7258445689541245e-05 -6.0422249152207954e-06
leaf_weight=325 43137 1116 7656 29146 3311 4086
leaf_count=325 43137 1116 7656 29146 3311 4086
internal_value=0 4.55115e-07 -1.29077e-06 3.12581e-06 1.18499e-05 -8.71792e-06
internal_weight=0 84366 50793 33573 4427 4411
internal_count=88777 84366 50793 33573 4427 4411
is_linear=0
shrinkage=0.1


Tree=30
num_leaves=7
num_cat=0
split_feature=6 0 73 14 170 170
split_gain=3.70038e-05 4.99788e-05 4.64998e-05 4.45659e-05 4.58246e-05 4.45191e-05
threshold=0.0022396454020232608 0.0013175238190026308 0.0076038635664248616 0.11948738349624917 0.0068540839955411213 0.0099849526913284876
decision_type=2 2 2 2 2 2
left_child=1 3 -2 5 -5 -1
right_child=2 -3 -4 4 -6 -7
leaf_value=7.7932946916694877e-07 0.00012394364898033245 1.8422618976902693e-05 -2.3469337479754105e-05 -2.6783104526931718e-05 -9.9499267952095302e-07 1.1453286291671741e-05
leaf_weight=12260 20 1482 951 700 67468 5896
leaf_count=12260 20 1482 951 700 67468 5896
internal_value=0 2.10773e-07 -1.94183e-05 -9.04792e-08 -1.27425e-06 4.29984e-06
internal_weight=0 87806 971 86324 68168 18156
internal_count=88777 87806 971 86324 68168 18156
is_linear=0
shrinkage=0.1


Tree=31
num_leaves=7
num_cat=0
split_feature=6 0 15 128 298 9
split_gain=3.41987e-05 4.78451e-05 4.44582e-05 3.72678e-05 4.07231e-05 3.63489e-05
threshold=-0.0024539926560964704 -0.0013227520942118429 0.023974503587553892 0.00089047218549742635 0.0084940679112378761 0.012473356883489778
decision_type=2 2 2 2 2 2
left_child=5 -2 -3 4 -4 -1
right_child=1 2 3 -5 -6 -7
leaf_value=3.2166433483753806e-05 -1.7482389772463264e-05 -9.6515002552716177e-06 -6.0860983662488552e-06 6.4541004968973186e-06 8.3233971943785805e-07 -6.8267397494660507e-05
leaf_weight=531 1567 4387 9841 9836 62582 33
leaf_count=531 1567 4387 9841 9836 62582 33
internal_value=0 -1.59358e-07 1.42567e-07 6.76871e-07 -9.41566e-08 2.45435e-05
internal_weight=0 88213 86646 82259 72423 564
internal_count=88777 88213 86646 82259 72423 564
is_linear=0
shrinkage=0.1


Tree=32
num_leaves=7
num_cat=0
split_feature=12 186 156 32 134 294
split_gain=3.42398e-05 4.37241e-05 6.06239e-05 4.17401e-05 5.92172e-05 4.01603e-05
threshold=0.18926915080761239 0.12734161939165892 0.57185886402753883 0.0026601657428924068 0.0018467241676760617 -0.0084567194682407792
decision_type=2 2 2 2 2 2
left_child=3 2 -2 4 -1 -3
right_child=1 5 -4 -5 -6 -7
leaf_value=-1.1158755782061857e-06 -1.7479243152068053e-05 0.00010319411380018931 -0.00018226017329500035 3.9439429814905943e-05 -1.5997976384718234e-05 2.3466746673107667e-06
leaf_weight=45455 292 40 27 242 2861 39860
leaf_count=45455 292 40 27 242 2861 39860
internal_value=0 2.15461e-06 -3.45156e-05 -1.7906e-06 -2.01749e-06 2.47247e-06
internal_weight=0 40219 319 48558 48316 39900
internal_count=88777 40219 319 48558 48316 39900
is_linear=0
shrinkage=0.1


Tree=33
num_leaves=7
num_cat=0
split_feature=17 4 160 218 230 59
split_gain=3.2368e-05 3.53622e-05 4.96173e-05 4.24675e-05 6.34499e-05 4.07201e-05
threshold=0.50170068027210901 0.0082248741171458469 -0.0026367857980931215 0.38341615319617589 -0.0054005575553799359 0.5633421629402916
decision_type=2 2 2 2 2 2
left_child=-1 2 3 5 -5 -2
right_child=1 -3 -4 4 -6 -7
leaf_value=2.4938216400485001e-06 -0.00017997007489323715 -2.3951085929808e-07 -5.2477835484111066e-06 6.883687087565687e-05 -4.455297847920777e-05 -1.782850886945008e-05
leaf_weight=32743 43 45599 10045 57 241 49
leaf_count=32743 43 45599 10045 57 241 49
internal_value=0 -1.46369e-06 -6.71875e-06 -4.20801e-05 -1.95592e-05 -0.00010432
internal_weight=0 56034 10435 390 298 92
internal_count=88777 56034 10435 390 298 92
is_linear=0
shrinkage=0.1


Tree=34
num_leaves=7
num_cat=0
split_feature=96 68 6 11 171 256
split_gain=3.12116e-05 4.6829e-05 3.84228e-05 3.78706e-05 4.28285e-05 4.08968e-05
threshold=0.0064471817518438898 0.007851538691018017 0.0022909547525555856 -0.0015044134037525316 -0.0016933651262667213 0.0013262607245656535
decision_type=2 2 2 2 2 2
left_child=2 -2 3 -1 -5 -6
right_child=1 -3 -4 4 5 -7
leaf_value=4.4142660108755089e-06 0.0001639900521893273 0 -2.1780513627173967e-05 -1.2649867847970789e-05 -1.1314998854004562e-06 7.4073775609262377e-06
leaf_weight=16721 29 60 808 2964 62040 6155
leaf_count=16721 29 60 808 2964 62040 6155
internal_value=0 5.91806e-05 -6.63886e-08 1.22055e-07 -8.72695e-07 -3.46376e-07
internal_weight=0 89 88688 87880 71159 68195
internal_count=88777 89 88688 87880 71159 68195
is_linear=0
shrinkage=0.1


Tree=35
num_leaves=7
num_cat=0
split_feature=13 294 279 259 214 96
split_gain=3.01329e-05 4.65982e-05 4.66411e-05 4.11729e-05 3.72245e-05 3.26722e-05
threshold=0.30571895424836609 -0.00561432079968771 0.57588493862267021 0.0076942460837144582 0.82057967157052536 0.0018921498456196952
decision_type=2 2 2 2 2 2
left_child=1 2 4 -2 -1 -3
right_child=3 5 -4 -5 -6 -7
leaf_value=0.00014113533391672326 -1.489119553084264e-05 7.7323839872444994e-07 0 -1.2565983836209314e-06 0 1.2306357288184697e-05
leaf_weight=67 2388 48147 72 35458 34 2611
leaf_count=67 2388 48147 72 35458 34 2611
internal_value=0 1.58242e-06 5.35454e-05 -2.14293e-06 9.76146e-05 1.38591e-06
internal_weight=0 50931 173 37846 101 50758
internal_count=88777 50931 173 37846 101 50758
is_linear=0
shrinkage=0.1


Tree=36
num_leaves=7
num_cat=0
split_feature=190 294 262 288 243 166
split_gain=2.81467e-05 5.93205e-05 5.57755e-05 4.51308e-05 4.89271e-05 4.59575e-05
threshold=0.29318227733665886 0.0071824380095981697 -0.0076482278287537389 0.0063854666687603876 0.61719823471415836 0.0022857182662905377
decision_type=2 2 2 2 2 2
left_child=1 -1 -2 5 -5 -4
right_child=2 -3 3 4 -6 -7
leaf_value=-5.5262097563805185e-06 9.534863537630407e-05 -0.00011395751505443604 6.9759819899949838e-07 1.1863127845631725e-06 7.6776489438487228e-05 -1.1626368289642083e-05
leaf_weight=5918 62 52 79198 243 161 3143
leaf_count=5918 62 52 79198 243 161 3143
internal_value=0 -6.6357e-06 4.73847e-07 3.90852e-07 3.37481e-05 2.15226e-07
internal_weight=0 5970 82807 82745 404 82341
internal_count=88777 5970 82807 82745 404 82341
is_linear=0
shrinkage=0.1


Tree=37
num_leaves=7
num_cat=0
split_feature=192 298 19 198 102 215
split_gain=2.97203e-05 4.64568e-05 5.28641e-05 5.03386e-05 4.41946e-05 4.31768e-05
threshold=-0.0009285053736061143 0.0084940679112378761 0.18116813406668483 -0.0049019779621999318 -0.00090826546319888724 0.45613232724312258
decision_type=2 2 2 2 2 2
left_child=1 2 -1 5 -2 -3
right_child=4 3 -4 -5 -6 -7
leaf_value=-9.1358815765921002e-05 1.3469998543324933e-05 0.00011616562924040679 -1.2891187406798773e-05 -2.2734366510123241e-06 2.6406167307074766e-07 7.6663646607735987e-06
leaf_weight=94 2633 66 2728 9296 73825 135
leaf_count=94 2633 66 2728 9296 73825 135
internal_value=0 -4.56098e-06 -1.5854e-05 -1.1016e-06 7.31717e-07 4.81939e-05
internal_weight=0 12319 2822 9497 76458 201
internal_count=88777 12319 2822 9497 76458 201
is_linear=0
shrinkage=0.1


Tree=38
num_leaves=7
num_cat=0
split_feature=64 50 265 97 38 237
split_gain=2.70803e-05 5.00593e-05 5.31524e-05 6.42906e-05 4.36417e-05 3.97986e-05
threshold=-0.0026660759165277876 0.1531204727378466 0.009683296814185326 -0.30327667423457155 -0.0018570123481858045 0.19678585258809864
decision_type=2 2 2 2 2 2
left_child=1 -1 3 -3 -2 -5
right_child=4 2 -4 5 -6 -7
leaf_value=5.9690011384686115e-05 1.3842483334329713e-05 -0.00017814176507944523 2.2821002709886213e-06 0 -1.9721487431418083e-07 -7.164778820645418e-05
leaf_weight=64 2271 41 255 175 85813 158
leaf_count=64 2271 41 255 175 85813 158
internal_value=0 -1.96919e-05 -2.93348e-05 -5.35244e-05 1.53581e-07 -3.52218e-05
internal_weight=0 693 629 374 88084 333
internal_count=88777 693 629 374 88084 333
is_linear=0
shrinkage=0.1


Tree=39
num_leaves=7
num_cat=0
split_feature=17 5 259 298 9 230
split_gain=2.53828e-05 2.97021e-05 3.08612e-05 2.89447e-05 4.32325e-05 2.62927e-05
threshold=0.50170068027210901 -0.0011044671336597315 0.010468645091394696 0.0085948292997154955 0.013914788363933922 -0.0050761612068583864
decision_type=2 2 2 2 2 2
left_child=1 2 -1 4 -2 -5
right_child=3 -3 -4 5 -6 -7
leaf_value=-1.1471165656797967e-05 -6.6580785535339233e-06 4.5914590529195687e-06 8.434406137208623e-07 4.9254333917327856e-05 -0.00015624449105197059 -5.2649124094034818e-07
leaf_weight=2523 7208 20231 9989 106 20 48700
leaf_count=2523 7208 20231 9989 106 20 48700
internal_value=0 2.21034e-06 -1.56106e-06 -1.29423e-06 -7.20833e-06 -3.98193e-07
internal_weight=0 32743 12512 56034 7228 48806
internal_count=88777 32743 12512 56034 7228 48806
is_linear=0
shrinkage=0.1


Tree=40
num_leaves=7
num_cat=0
split_feature=6 0 112 292 184 230
split_gain=2.60518e-05 4.62468e-05 3.98613e-05 3.82337e-05 3.41966e-05 3.372e-05
threshold=-0.0011737094591524053 -0.00094161986398244568 0.75819892473118289 0.0077986382757166519 0.3340136054421769 -0.0050761612068583864
decision_type=2 2 2 2 2 2
left_child=2 3 -1 -2 -4 -3
right_child=1 5 4 -5 -6 -7
leaf_value=1.3671306410924088e-06 -3.9801987935626882e-05 3.9833588995287625e-05 5.6054596432376072e-05 -7.1494688133623871e-06 8.6578597508610738e-06 0
leaf_weight=1775 471 213 305 2061 426 83526
leaf_count=1775 471 213 305 2061 426 83526
internal_value=0 -2.94568e-07 1.00484e-05 -1.36124e-05 2.97808e-05 9.63628e-08
internal_weight=0 86271 2506 2532 731 83739
internal_count=88777 86271 2506 2532 731 83739
is_linear=0
shrinkage=0.1


Tree=41
num_leaves=7
num_cat=0
split_feature=32 230 192 213 265 38
split_gain=2.57173e-05 5.71393e-05 4.18369e-05 4.96119e-05 4.70925e-05 3.9632e-05
threshold=0.00090334261247448932 -0.0037664861350417129 -0.0032555682936421522 0.96128871128871141 0.0089387401338206513 0.0012422366638307205
decision_type=2 2 2 2 2 2
left_child=2 -2 3 -1 -5 -4
right_child=1 -3 5 4 -6 -7
leaf_value=-3.8030370717962069e-06 7.9896909967171298e-05 4.7378002385648007e-06 1.2537294773702326e-07 -8.4846158925113284e-05 -9.9134069512367416e-06 -1.5643043236272018e-05
leaf_weight=870 105 6231 79544 190 212 1625
leaf_count=870 105 6231 79544 190 212 1625
internal_value=0 6.13881e-06 -4.72439e-07 -1.84755e-05 -4.77795e-05 -1.78179e-07
internal_weight=0 6336 82441 1272 402 81169
internal_count=88777 6336 82441 1272 402 81169
is_linear=0
shrinkage=0.1


Tree=42
num_leaves=7
num_cat=0
split_feature=14 138 10 254 224 289
split_gain=2.51989e-05 3.11589e-05 3.84496e-05 3.45085e-05 3.65651e-05 5.84664e-05
threshold=0.38930277211181397 0.01242371297503026 0.008733044042232312 0.36483917835103885 -0.0047847049694915702 -0.15048875291689065
decision_type=2 2 2 2 2 2
left_child=1 3 -3 4 5 -1
right_child=-2 2 -4 -5 -6 -7
leaf_value=-0.00021027876331214959 -2.1606798178921238e-06 0.0001471119734178295 1.5175561718714756e-05 1.9632506561616677e-06 -4.6906757622060956e-06 0
leaf_weight=23 33599 25 854 47469 6755 52
leaf_count=23 33599 25 854 47469 6755 52
internal_value=0 1.31304e-06 2.00491e-05 9.91597e-07 -5.61729e-06 -7.59395e-05
internal_weight=0 55178 879 54299 6830 75
internal_count=88777 55178 879 54299 6830 75
is_linear=0
shrinkage=0.1


Tree=43
num_leaves=7
num_cat=0
split_feature=6 0 64 14 298 262
split_gain=2.47964e-05 3.72318e-05 4.15747e-05 3.33517e-05 3.40254e-05 4.41004e-05
threshold=0.0022050752387765553 0.00088652505494257749 0.0026572208623627529 0.056912272851530089 0.0066057530371536168 -0.0076482278287537389
decision_type=2 2 2 2 2 2
left_child=1 3 -3 -1 -5 -6
right_child=-2 2 -4 4 5 -7
leaf_value=5.6871853775128964e-06 -1.5481297247952414e-05 6.3318029835103217e-06 4.4579914771289047e-05 -2.1761533423751456e-05 0.00010280375083859273 -7.6764809468202176e-07
leaf_weight=8463 1023 3485 325 779 41 74661
leaf_count=8463 1023 3485 325 779 41 74661
internal_value=0 1.78e-07 9.85295e-06 -2.49391e-07 -9.28052e-07 -6.97615e-07
internal_weight=0 87754 3810 83944 75481 74702
internal_count=88777 87754 3810 83944 75481 74702
is_linear=0
shrinkage=0.1


Tree=44
num_leaves=7
num_cat=0
split_feature=44 166 256 189 27 120
split_gain=2.47678e-05 3.63193e-05 2.91276e-05 4.18978e-05 4.78316e-05 4.21728e-05
threshold=0.18926915080761239 0.001857012348185805 0.0018850163702706093 0.15235814296241715 0.78155856042658622 0.085801928133216493
decision_type=2 2 2 2 2 2
left_child=1 -1 -2 -4 -5 -6
right_child=2 -3 3 4 5 -7
leaf_value=-7.6266132690459097e-07 9.7809397326216692e-07 -1.1722812858540529e-05 -2.721940871402075e-06 3.5056116501080956e-05 6.4918639057314232e-05 -1.2359601262316107e-06
leaf_weight=45324 36713 3268 1325 1026 104 1017
leaf_count=45324 36713 3268 1325 1026 104 1017
internal_value=0 -1.52004e-06 1.83563e-06 1.06196e-05 1.93118e-05 4.0233e-06
internal_weight=0 48592 40185 3472 2147 1121
internal_count=88777 48592 40185 3472 2147 1121
is_linear=0
shrinkage=0.1


Tree=45
num_leaves=7
num_cat=0
split_feature=6 190 156 16 0 262
split_gain=2.32619e-05 4.3972e-05 4.31164e-05 3.89026e-05 3.35506e-05 2.83153e-05
threshold=-0.0010976952817176586 0.1072987787482621 0.1924501424501425 0.83263305322128867 -0.00094161986398244568 -0.0068027823025880165
decision_type=2 2 2 2 2 2
left_child=1 2 -1 -3 -2 -6
right_child=4 3 -4 -5 5 -7
leaf_value=0 -1.1712838934563402e-05 4.8273601562887718e-06 -0.00016401435985087572 3.5445166750174151e-05 6.5026118040841232e-05 0
leaf_weight=67 2495 1953 27 568 67 83600
leaf_count=67 2495 1953 27 568 67 83600
internal_value=0 9.28958e-06 -5.60459e-05 1.21164e-05 -2.84093e-07 4.49498e-08
internal_weight=0 2615 94 2521 86162 83667
internal_count=88777 2615 94 2521 86162 83667
is_linear=0
shrinkage=0.1


Tree=46
num_leaves=7
num_cat=0
split_feature=128 4 6 15 56 20
split_gain=2.2635e-05 3.83003e-05 3.40285e-05 3.96724e-05 3.75487e-05 2.7684e-05
threshold=-0.0011325033154259143 0.0099849401223332107 -0.001129307037392113 0.012300874975329645 0.062323446327683628 0.73598008385744251
decision_type=2 2 2 2 2 2
left_child=1 5 -2 4 -4 -1
right_child=2 -3 3 -5 -6 -7
leaf_value=-1.7273826074265323e-05 1.6157436144907206e-05 3.9123443962709602e-06 1.7251804004282199e-05 6.1723127433257239e-07 -1.9702235368666857e-05 -2.8392140942945209e-06
leaf_weight=2654 1371 3098 300 76605 1696 3053
leaf_count=2654 1371 3098 300 76605 1696 3053
internal_value=0 -4.81459e-06 5.27437e-07 2.42281e-07 -1.36546e-05 -9.72448e-06
internal_weight=0 8805 79972 78601 1996 5707
internal_count=88777 8805 79972 78601 1996 5707
is_linear=0
shrinkage=0.1


Tree=47
num_leaves=7
num_cat=0
split_feature=141 192 176 173 24 96
split_gain=2.42064e-05 3.14844e-05 3.40302e-05 2.74564e-05 3.47307e-05 2.73326e-05
threshold=0.22564832384566733 0.0043859772165260056 0.1114066193853428 0.077152014652014669 0.31187728124691733 -0.0013315587097419976
decision_type=2 2 2 2 2 2
left_child=1 -1 -3 4 -4 -2
right_child=5 2 3 -5 -6 -7
leaf_value=1.3889111438306342e-06 -1.2648509110923102e-05 0.00013192018851619554 0.00011462009701602081 1.5609530232325981e-06 0 -1.033275663355115e-06
leaf_weight=42462 2150 32 58 357 44 43674
leaf_count=42462 2150 32 58 357 44 43674
internal_value=0 1.70451e-06 2.69918e-05 1.75299e-05 6.37648e-05 -1.59974e-06
internal_weight=0 42953 491 459 102 45824
internal_count=88777 42953 491 459 102 45824
is_linear=0
shrinkage=0.1


Tree=48
num_leaves=7
num_cat=0
split_feature=11 267 32 231 164 19
split_gain=2.24705e-05 3.35033e-05 3.55047e-05 4.69832e-05 3.71326e-05 3.26289e-05
threshold=-0.0019806132098165214 -0.0019066404536962724 0.0026601657428924068 0.15270225100600987 0.0083014809297457508 0.24512125219599451
decision_type=2 2 2 2 2 2
left_child=5 -2 -3 4 -4 -1
right_child=1 2 3 -5 -6 -7
leaf_value=-2.1714525272955031e-05 -9.3251109670014022e-06 -2.6806823092837736e-07 9.3064745112466575e-05 -2.8255601399110656e-05 9.0377789108888586e-06 5.2629989469313166e-06
leaf_weight=455 4179 72701 129 79 139 11095
leaf_count=455 4179 72701 129 79 139 11095
internal_value=0 -6.14147e-07 -1.02321e-07 3.17856e-05 5.31588e-05 4.11498e-06
internal_weight=0 77227 73048 347 268 11550
internal_count=88777 77227 73048 347 268 11550
is_linear=0
shrinkage=0.1


Tree=49
num_leaves=7
num_cat=0
split_feature=6 15 39 14 11 11
split_gain=2.19922e-05 4.60345e-05 4.67591e-05 4.32192e-05 2.931e-05 2.54775e-05
threshold=0.0010989015412397054 0.11231434118302433 0.033749457888636085 0.010994656241949827 -0.00097110086546169561 -0.0015044134037525316
decision_type=2 2 2 2 2 2
left_child=3 2 -2 -1 -3 -5
right_child=1 4 -4 5 -6 -7
leaf_value=1.6872645420517745e-05 0.00014665026374213275 -2.2051704811360807e-05 0 3.6807582231048628e-06 0 -8.4223696515388249e-07
leaf_weight=1540 36 1358 67 15167 1069 69540
leaf_count=1540 36 1358 67 15167 1069 69540
internal_value=0 -9.18968e-06 5.45701e-05 2.69469e-07 -1.23014e-05 -2.07581e-08
internal_weight=0 2530 103 86247 2427 84707
internal_count=88777 2530 103 86247 2427 84707
is_linear=0
shrinkage=0.1


Tree=50
num_leaves=7
num_cat=0
split_feature=25 311 170 230 10 192
split_gain=2.18204e-05 3.54614e-05 3.03407e-05 3.85165e-05 2.81761e-05 3.23193e-05
threshold=0.43947718947718956 0.2494165348459236 0.0097353411914307131 -0.0048192934316526595 0.0098239017105003299 -0.0024479853061034613
decision_type=2 2 2 2 2 2
left_child=2 -2 4 -4 5 -1
right_child=1 -3 3 -5 -6 -7
leaf_value=-2.6359809004247324e-05 2.4492400153034902e-05 1.5566683719716105e-06 5.6518917952004655e-05 0 -1.9601336155717937e-05 -2.5148783364674563e-06
leaf_weight=608 697 31384 121 41668 1251 13048
leaf_count=608 697 31384 121 41668 1251 13048
internal_value=0 2.08567e-06 -1.17781e-06 1.81151e-07 -5.05345e-06 -3.64863e-06
internal_weight=0 32081 56696 41789 14907 13656
internal_count=88777 32081 56696 41789 14907 13656
is_linear=0
shrinkage=0.1


Tree=51
num_leaves=7
num_cat=0
split_feature=24 36 15 13 0 292
split_gain=2.06501e-05 2.62081e-05 2.44459e-05 2.08404e-05 3.1009e-05 3.5063e-05
threshold=0.71257183908045996 0.012070212710674015 0.026063033990922784 0.24278779472954234 1.0000000180025095e-35 0.0077700398504061113
decision_type=2 2 2 2 2 2
left_child=3 2 -2 4 -1 -6
right_child=1 -3 -4 -5 5 -7
leaf_value=2.2311538426532953e-06 -1.5812827499308439e-05 5.3303819307503061e-06 -2.5439234816265328e-06 -8.3478289522837843e-07 4.4260247680927925e-05 5.1282690475081289e-06
leaf_weight=29602 1517 3926 23783 28819 383 747
leaf_count=29602 1517 3926 23783 28819 383 747
internal_value=0 -2.17488e-06 -3.37846e-06 1.07062e-06 2.88946e-06 1.92632e-05
internal_weight=0 29226 25300 59551 30732 1130
internal_count=88777 29226 25300 59551 30732 1130
is_linear=0
shrinkage=0.1


Tree=52
num_leaves=7
num_cat=0
split_feature=6 9 0 311 160 15
split_gain=2.05747e-05 2.86509e-05 2.62774e-05 2.67023e-05 3.85807e-05 2.58601e-05
threshold=-0.0024539926560964704 0.012473356883489778 -0.001800181962588798 0.80719606739569016 -0.0038461601679289355 0.012300874975329645
decision_type=2 2 2 2 2 2
left_child=1 -1 3 -2 -5 -4
right_child=2 -3 5 4 -6 -7
leaf_value=2.6008009817991905e-05 -3.8376941927368804e-06 -6.3200986429934986e-05 -9.9412751502111432e-06 -0.00012187957254792852 -2.060505948004965e-05 3.9337371577961088e-07
leaf_weight=531 964 33 2491 51 340 84367
leaf_count=531 964 33 2491 51 340 84367
internal_value=0 1.90419e-05 -1.18659e-07 -1.39418e-05 -3.63345e-05 8.56486e-08
internal_weight=0 564 88213 1355 391 86858
internal_count=88777 564 88213 1355 391 86858
is_linear=0
shrinkage=0.1


Tree=53
num_leaves=7
num_cat=0
split_feature=303 15 6 288 43 288
split_gain=2.01703e-05 5.79099e-05 3.30568e-05 2.49147e-05 2.63812e-05 2.40177e-05
threshold=0.19581836289047025 0.19287480513895611 0.0021953932087446231 0.007269456502851491 -0.0010976687470321039 0.0013089012710394423
decision_type=2 2 2 2 2 2
left_child=5 -2 3 -3 -5 -1
right_child=1 2 -4 4 -6 -7
leaf_value=1.220432289483964e-06 -9.0336372458942615e-06 3.2098530331755485e-07 -2.1647745671300268e-05 -1.7289161499529272e-05 6.8355657669347941e-05 1.1153841192993747e-05
leaf_weight=24639 7845 52713 685 30 109 2756
leaf_count=24639 7845 52713 685 30 109 2756
internal_value=0 -1.00755e-06 1.50156e-07 4.51306e-07 4.27871e-05 2.2557e-06
internal_weight=0 61382 53537 52852 139 27395
internal_count=88777 61382 53537 52852 139 27395
is_linear=0
shrinkage=0.1


Tree=54
num_leaves=7
num_cat=0
split_feature=6 190 15 23 16 206
split_gain=1.97153e-05 3.79443e-05 3.43807e-05 3.3663e-05 3.09362e-05 2.9515e-05
threshold=-0.0010976952817176586 0.17315288159556524 0.010662729945724326 0.31566318653122599 0.83263305322128867 0.31502518048078598
decision_type=2 2 2 2 2 2
left_child=1 -1 3 -2 5 -3
right_child=2 4 -4 -5 -6 -7
leaf_value=-4.0183706379570543e-05 1.3970915798198048e-05 1.6297985561824524e-05 2.4329145397208529e-08 -2.0259842342653538e-05 3.3098544438209502e-05 -8.2320153901644034e-06
leaf_weight=142 319 1093 84323 1520 547 833
leaf_count=142 319 1093 84323 1520 547 833
internal_value=0 8.55468e-06 -2.59016e-07 -1.37866e-05 1.17515e-05 5.17742e-06
internal_weight=0 2615 86162 1839 2473 1926
internal_count=88777 2615 86162 1839 2473 1926
is_linear=0
shrinkage=0.1


Tree=55
num_leaves=7
num_cat=0
split_feature=190 294 294 262 90 15
split_gain=1.86767e-05 4.94815e-05 3.46796e-05 3.35655e-05 3.76422e-05 2.89004e-05
threshold=0.29318227733665886 0.0080377283363106695 -0.0053050563770358208 -0.0076482278287537389 0.65357395812141639 0.09287148870048742
decision_type=2 2 2 2 2 2
left_child=1 2 -1 4 -2 -4
right_child=3 -3 5 -5 -6 -7
leaf_value=-0.00010963759497804252 0.00013726334382924206 -0.00015002791796787083 -2.1045531643575178e-05 3.240329218636073e-07 0 -8.5038861813698836e-07
leaf_weight=32 38 24 849 82745 24 5065
leaf_count=32 38 24 849 82745 24 5065
internal_value=0 -5.40024e-06 -4.65075e-06 3.911e-07 7.40104e-05 -3.91608e-06
internal_weight=0 5970 5946 82807 62 5914
internal_count=88777 5970 5946 82807 62 5914
is_linear=0
shrinkage=0.1


Tree=56
num_leaves=7
num_cat=0
split_feature=63 192 48 208 30 253
split_gain=1.85218e-05 3.10595e-05 3.92238e-05 4.74557e-05 3.58758e-05 3.47089e-05
threshold=0.5351435521993162 -0.0026660759165277876 0.11692109060530113 0.17174815641073313 0.84654133176395996 0.098126750700280124
decision_type=2 2 2 2 2 2
left_child=1 2 5 -4 -5 -1
right_child=-2 -3 3 4 -6 -7
leaf_value=0 -1.0363029388414389e-06 2.5242141468992675e-06 5.0754221937012641e-05 5.99526014808806e-06 -4.7115485267430757e-05 -0.00013433971089465063
leaf_weight=46 58664 29455 105 191 263 53
leaf_count=46 58664 29455 105 191 263 53
internal_value=0 2.0146e-06 -1.93013e-05 -7.0618e-06 -2.26027e-05 -7.84616e-05
internal_weight=0 30113 658 559 454 99
internal_count=88777 30113 658 559 454 99
is_linear=0
shrinkage=0.1


Tree=57
num_leaves=7
num_cat=0
split_feature=14 6 110 238 32 164
split_gain=1.8435e-05 4.46045e-05 5.0941e-05 3.2206e-05 4.72847e-05 3.70809e-05
threshold=0.20699604405849217 0.0012285018465263422 0.20919602941749574 0.18399789619132337 0.00271677790263869 0.0087259575227741498
decision_type=2 2 2 2 2 2
left_child=1 2 -1 4 -2 -6
right_child=3 -3 -4 -5 5 -7
leaf_value=1.1417873634893792e-06 -9.4660265782417781e-06 -1.4454379902624463e-05 1.3303223287858236e-05 -2.8630072660771454e-07 0.00013174974862181836 0
leaf_weight=27936 5606 1580 3975 49606 42 32
leaf_count=27936 5606 1580 3975 49606 42 32
internal_value=0 1.84943e-06 2.68754e-06 -1.1236e-06 -8.26275e-06 6.95823e-05
internal_weight=0 33491 31911 55286 5680 74
internal_count=88777 33491 31911 55286 5680 74
is_linear=0
shrinkage=0.1


Tree=58
num_leaves=7
num_cat=0
split_feature=160 283 24 166 252 248
split_gain=1.86403e-05 3.28496e-05 2.65501e-05 4.98565e-05 3.93286e-05 4.59216e-05
threshold=0.00089047218549742635 0.22283080890293769 0.098476102516739786 0.0018165324249408423 0.16107719495541814 0.1498898678414097
decision_type=2 2 2 2 2 2
left_child=-1 -2 4 -4 -3 -6
right_child=1 2 3 -5 5 -7
leaf_value=-5.6299928349149202e-07 3.7077911557256569e-05 1.3310719943036568e-06 6.7085370180105088e-06 -7.6086241880376645e-06 0 7.2571604756468895e-05
leaf_weight=77214 293 619 6375 3902 148 226
leaf_count=77214 293 619 6375 3902 148 226
internal_value=0 3.74219e-06 2.78813e-06 1.17674e-06 1.84734e-05 4.4212e-05
internal_weight=0 11563 11270 10277 993 374
internal_count=88777 11563 11270 10277 993 374
is_linear=0
shrinkage=0.1


Tree=59
num_leaves=7
num_cat=0
split_feature=141 262 80 96 106 140
split_gain=1.83617e-05 2.57215e-05 4.37607e-05 3.4256e-05 3.22546e-05 3.04492e-05
threshold=0.21073190789473686 -0.0049628580978344763 0.14438717067583048 -0.0013315587097419976 0.0098241141473108477 0.10423057259713703
decision_type=2 2 2 2 2 2
left_child=-1 2 5 4 -3 -2
right_child=1 3 -4 -5 -6 -7
leaf_value=1.5488028378794444e-06 -0.00012921819636459264 -2.5598436451324905e-05 5.3824170133621009e-05 -9.2085848631536552e-07 0 0
leaf_weight=41114 24 1124 198 45322 972 23
leaf_count=41114 24 1124 198 45322 972 23
internal_value=0 -1.33536e-06 3.07949e-05 -1.52215e-06 -1.4054e-05 -4.52683e-05
internal_weight=0 47663 245 47418 2096 47
internal_count=88777 47663 245 47418 2096 47
is_linear=0
shrinkage=0.1


Tree=60
num_leaves=7
num_cat=0
split_feature=6 59 51 15 46 55
split_gain=1.76934e-05 3.73111e-05 3.41181e-05 2.75692e-05 2.69781e-05 2.66895e-05
threshold=-0.0010976952817176586 0.28291552593199093 0.22093264134922266 0.0044838480033556902 0.51069293427033802 0.45637227759320786
decision_type=2 2 2 2 2 2
left_child=1 2 -1 5 -3 -2
right_child=3 4 -4 -5 -6 -7
leaf_value=-0.00011893553548066331 7.4106336295345538e-06 1.8047883074944314e-05 -1.2487047791874281e-06 -6.9272063923596841e-08 -4.2622796376274849e-06 -3.1867410108308924e-05
leaf_weight=40 204 1772 114 85430 689 528
leaf_count=40 204 1772 114 85430 689 528
internal_value=0 8.10311e-06 -3.82136e-05 -2.46422e-07 1.14016e-05 -1.95758e-05
internal_weight=0 2615 154 86162 2461 732
internal_count=88777 2615 154 86162 2461 732
is_linear=0
shrinkage=0.1


Tree=61
num_leaves=7
num_cat=0
split_feature=303 15 31 183 6 13
split_gain=1.74421e-05 4.35461e-05 2.79147e-05 2.36411e-05 2.31238e-05 2.19225e-05
threshold=0.19581836289047025 0.19287480513895611 0.4362124932448852 0.60768573153226535 0.0021953932087446231 0.23697775366250681
decision_type=2 2 2 2 2 2
left_child=5 2 3 -2 -3 -1
right_child=1 4 -4 -5 -6 -7
leaf_value=5.1272581278364174e-06 -8.2243870185611243e-06 3.16115205744788e-07 -1.0722234306463121e-05 1.7297653521632762e-05 -1.8170143935643698e-05 -4.8918628852161775e-07
leaf_weight=12777 666 52852 6448 731 685 14618
leaf_count=12777 666 52852 6448 731 685 14618
internal_value=0 -9.40164e-07 -7.89927e-06 4.42551e-06 6.11906e-08 2.09437e-06
internal_weight=0 61382 7845 1397 53537 27395
internal_count=88777 61382 7845 1397 53537 27395
is_linear=0
shrinkage=0.1


Tree=62
num_leaves=7
num_cat=0
split_feature=288 94 88 205 22 134
split_gain=1.75673e-05 2.75838e-05 3.07467e-05 5.33057e-05 3.03847e-05 2.89058e-05
threshold=0.00090090114463148307 0.21657088887115231 0.082675697508233406 0.53629776021080378 0.36404419189513598 0.0022050752387765553
decision_type=2 2 2 2 2 2
left_child=-1 -2 3 4 -3 -4
right_child=1 2 5 -5 -6 -7
leaf_value=-6.1024109864107424e-07 -1.3990556057059411e-05 0 5.5631142749231237e-06 -1.453173069864387e-05 5.6773521763063053e-05 -6.6857667003853673e-06
leaf_weight=74890 843 144 9982 212 383 2323
leaf_count=74890 843 144 9982 212 383 2323
internal_value=0 3.26219e-06 4.45269e-06 2.44666e-05 4.20233e-05 3.17068e-06
internal_weight=0 13887 13044 739 527 12305
internal_count=88777 13887 13044 739 527 12305
is_linear=0
shrinkage=0.1


Tree=63
num_leaves=7
num_cat=0
split_feature=12 122 100 91 30 38
split_gain=1.71678e-05 3.20868e-05 2.66164e-05 3.33116e-05 3.02105e-05 2.65415e-05
threshold=0.18926915080761239 0.12734161939165892 0.007597018969867848 0.63615159477529537 0.50935616303164066 0.0026631221413371269
decision_type=2 2 2 2 2 2
left_child=5 2 4 -4 -2 -1
right_child=1 -3 3 -5 -6 -7
leaf_value=-1.4050368823985e-06 6.9645044516328235e-06 1.7824637108775974e-06 -0.00020665604906640225 -1.3693131402655015e-05 -7.2291608158528653e-05 4.6462932271320794e-05
leaf_weight=48443 159 39938 20 41 61 115
leaf_count=48443 159 39938 20 41 61 115
internal_value=0 1.52217e-06 -3.19676e-05 -9.31125e-05 -1.05362e-05 -1.27139e-06
internal_weight=0 40219 281 61 220 48558
internal_count=88777 40219 281 61 220 48558
is_linear=0
shrinkage=0.1


Tree=64
num_leaves=7
num_cat=0
split_feature=24 4 262 174 53 14
split_gain=1.69723e-05 2.77296e-05 2.64038e-05 4.33833e-05 3.26085e-05 2.65175e-05
threshold=0.53693957115009761 0.012070212710674015 0.0065717730472742994 0.30573199095268722 0.47849213691026832 0.14103723280938474
decision_type=2 2 2 2 2 2
left_child=-1 2 5 -4 -5 -2
right_child=1 -3 3 4 -6 -7
leaf_value=1.3127559624679693e-06 1.6059403165892504e-06 4.6163899784139004e-06 0 0 0.00018825396759135837 -4.4052229005228263e-06
leaf_weight=46476 9943 6288 54 20 28 25968
leaf_count=46476 9943 6288 54 20 28 25968
internal_value=0 -1.45563e-06 -2.54317e-06 4.77478e-05 0.000117821 -2.71344e-06
internal_weight=0 42301 36013 102 48 35911
internal_count=88777 42301 36013 102 48 35911
is_linear=0
shrinkage=0.1


Tree=65
num_leaves=7
num_cat=0
split_feature=17 214 198 198 291 14
split_gain=1.6233e-05 2.04378e-05 3.57936e-05 2.65887e-05 2.62414e-05 2.03721e-05
threshold=0.50170068027210901 0.60326703207699994 0.0071048312275894263 0.0024479853061034622 0.0083447792413990484 0.18182694667461349
decision_type=2 2 2 2 2 2
left_child=-1 -2 3 5 -5 -3
right_child=1 2 -4 4 -6 -7
leaf_value=1.7661180309069854e-06 -2.951331659399264e-06 6.1975377636163827e-06 0.00012578418360424039 -6.7533578069932666e-05 -8.8023276722129356e-06 -1.7952946151488777e-07
leaf_weight=32743 28060 6518 23 94 857 20482
leaf_count=32743 28060 6518 23 94 857 20482
internal_value=0 -1.0365e-06 8.49021e-07 7.10964e-07 -1.56433e-05 1.32347e-06
internal_weight=0 56034 27974 27951 951 27000
internal_count=88777 56034 27974 27951 951 27000
is_linear=0
shrinkage=0.1


Tree=66
num_leaves=7
num_cat=0
split_feature=32 230 304 45 298 160
split_gain=1.55204e-05 4.39046e-05 2.89164e-05 2.75488e-05 2.50143e-05 4.57155e-05
threshold=0.00090334261247448932 -0.0037664861350417129 0.50877312993809232 0.18454070201643022 0.0084940679112378761 -0.0022111679668719293
decision_type=2 2 2 2 2 2
left_child=4 -2 3 -3 5 -1
right_child=1 2 -4 -5 -6 -7
leaf_value=-3.0074283712206798e-05 6.9405252708035017e-05 2.2727892013343968e-05 -3.5929641389278254e-06 2.9160165613120604e-06 3.3780081746438059e-07 -2.9909683815765988e-06
leaf_weight=673 105 1134 2875 2222 70382 11386
leaf_count=673 105 1134 2875 2222 70382 11386
internal_value=0 4.76574e-06 3.5184e-06 9.90394e-06 -3.70207e-07 -4.58413e-06
internal_weight=0 6336 6231 3356 82441 12059
internal_count=88777 6336 6231 3356 82441 12059
is_linear=0
shrinkage=0.1


Tree=67
num_leaves=7
num_cat=0
split_feature=6 123 126 229 20 46
split_gain=1.64231e-05 3.25985e-05 3.80854e-05 3.22937e-05 3.10428e-05 2.90119e-05
threshold=-0.0010976952817176586 0.38185943284220697 0.65073494418231526 -0.00071061346694124914 0.99725274725274737 0.081126727125629808
decision_type=2 2 2 2 2 2
left_child=1 2 3 -1 -5 -3
right_child=-2 5 -4 4 -6 -7
leaf_value=0 -2.3912886563335577e-07 3.7535659494374454e-05 1.0266102557508262e-05 -0.00012819453325347993 0 6.5527512456494289e-06
leaf_weight=68 86162 396 160 69 40 1882
leaf_count=68 86162 396 160 69 40 1882
internal_value=0 7.80508e-06 -2.01371e-05 -5.31831e-05 -8.69223e-05 1.23711e-05
internal_weight=0 2615 337 177 109 2278
internal_count=88777 2615 337 177 109 2278
is_linear=0
shrinkage=0.1


Tree=68
num_leaves=7
num_cat=0
split_feature=14 238 70 222 166 198
split_gain=1.62361e-05 2.69735e-05 2.28847e-05 2.36999e-05 2.25819e-05 2.25817e-05
threshold=0.57728265184597072 0.57311398082276532 0.0024783198199638261 0.33166398244837736 0.0076997778323568697 -0.0055996425426938492
decision_type=2 2 2 2 2 2
left_child=1 2 -1 -4 -5 -3
right_child=-2 5 3 4 -6 -7
leaf_value=4.2942140492967012e-07 -2.6894982432440682e-06 0.00010494523144205079 -6.2879095223777667e-05 -1.2298265221084864e-05 8.6297864588247923e-05 7.9438123397406745e-06
leaf_weight=66120 17932 26 101 786 22 3790
leaf_count=66120 17932 26 101 786 22 3790
internal_value=0 6.78885e-07 1.98272e-07 -1.5532e-05 -8.39451e-06 8.8629e-06
internal_weight=0 70845 67029 909 808 3816
internal_count=88777 70845 67029 909 808 3816
is_linear=0
shrinkage=0.1


Tree=69
num_leaves=7
num_cat=0
split_feature=25 307 68 298 10 149
split_gain=1.55804e-05 2.74271e-05 2.8793e-05 2.26561e-05 2.32725e-05 3.73419e-05
threshold=0.39043445121951226 0.14255780978598767 0.0072121728609698304 0.0084940679112378761 0.012013019589058526 0.33442982456140352
decision_type=2 2 2 2 2 2
left_child=3 -2 -3 4 -1 -6
right_child=1 2 -4 -5 5 -7
leaf_value=-6.7844569806712815e-06 2.6824097737007058e-05 -6.252104014068858e-06 2.4075947302555818e-06 -4.2628740281284854e-07 -0.00014131180030732294 0
leaf_weight=4486 431 4350 30382 49070 34 24
leaf_count=4486 431 4350 30382 49070 34 24
internal_value=0 1.63559e-06 1.29466e-06 -1.07309e-06 -7.84115e-06 -7.25873e-05
internal_weight=0 35163 34732 53614 4544 58
internal_count=88777 35163 34732 53614 4544 58
is_linear=0
shrinkage=0.1


Tree=70
num_leaves=7
num_cat=0
split_feature=0 230 6 14 132 277
split_gain=1.50211e-05 2.79817e-05 2.61572e-05 2.74273e-05 2.54829e-05 3.9619e-05
threshold=0.00088652505494257749 -0.0022650095358747175 0.00096899255133919848 0.0068422861241340055 0.0085034304733458566 0.72249724972497253
decision_type=2 2 2 2 2 2
left_child=2 -2 3 -1 5 -3
right_child=1 4 -4 -5 -6 -7
leaf_value=1.6834367678341961e-05 3.7147608212339774e-05 2.6067579522028181e-05 -1.4088956928783676e-05 -2.6872575249711114e-07 -3.564143451590518e-06 -1.9335669190122023e-06
leaf_weight=948 272 981 1354 82088 2215 919
leaf_count=948 272 981 1354 82088 2215 919
internal_value=0 5.70331e-06 -2.98336e-07 -6.16043e-08 3.38551e-06 1.20056e-05
internal_weight=0 4387 84390 83036 4115 1900
internal_count=88777 4387 84390 83036 4115 1900
is_linear=0
shrinkage=0.1


Tree=71
num_leaves=7
num_cat=0
split_feature=192 19 74 114 145 134
split_gain=1.47212e-05 3.3017e-05 3.23489e-05 3.26374e-05 3.39455e-05 2.71288e-05
threshold=-0.00090497762261998449 0.18813070590646552 0.0089634580217384813 0.57639284809324731 0.56192077421471354 -0.0049818248223432162
decision_type=2 2 2 2 2 2
left_child=1 2 3 4 -1 -3
right_child=-2 5 -4 -5 -6 -7
leaf_value=-2.5850726277965064e-05 5.2206210777466512e-07 3.607250950311269e-05 -1.4713233985696927e-06 0 -0.0001608281509971665 -2.8273466324953379e-06
leaf_weight=63 76134 179 211 52 52 12086
leaf_count=63 76134 179 211 52 52 12086
internal_value=0 -3.16267e-06 -3.24638e-05 -6.57245e-05 -9.54506e-05 -2.17933e-06
internal_weight=0 12643 378 167 115 12265
internal_count=88777 12643 378 167 115 12265
is_linear=0
shrinkage=0.1


Tree=72
num_leaves=7
num_cat=0
split_feature=11 6 171 157 27 299
split_gain=1.44653e-05 2.8411e-05 2.54748e-05 3.7963e-05 4.29768e-05 2.44911e-05
threshold=-0.0019806132098165214 0.0011049728254017845 -0.0019806426289192612 0.29459980713596917 0.38986691903603915 1.6033325667677224e-05
decision_type=2 2 2 2 2 2
left_child=1 2 -1 -4 -5 -2
right_child=5 -3 3 4 -6 -7
leaf_value=1.7758394101404254e-06 -2.2667153755010003e-06 -1.5024111031649177e-05 2.1472705113814457e-05 -4.8866718667548353e-05 6.8589106062055455e-06 1.2879505364409625e-06
leaf_weight=8140 39084 765 1813 171 661 38143
leaf_count=8140 39084 765 1813 171 661 38143
internal_value=0 3.29604e-06 4.68683e-06 1.32731e-05 -3.41096e-06 -4.98288e-07
internal_weight=0 11550 10785 2645 832 77227
internal_count=88777 11550 10785 2645 832 77227
is_linear=0
shrinkage=0.1


Tree=73
num_leaves=7
num_cat=0
split_feature=141 229 124 128 283 311
split_gain=1.45801e-05 2.48512e-05 4.8049e-05 2.32836e-05 2.95287e-05 2.50439e-05
threshold=0.51887464387464399 -0.00076888783757006593 0.76609560652113851 0.0011235959784521301 0.22805297723333426 0.38644866578402431
decision_type=2 2 2 2 2 2
left_child=3 -2 -3 -1 -5 -6
right_child=1 2 -4 4 5 -7
leaf_value=1.8870577220161061e-07 -5.0693931981255773e-07 -3.498014796061269e-06 -3.0188025906440343e-05 4.7307886723757327e-05 -1.0164698821608898e-05 8.2236836484447047e-06
leaf_weight=56624 21644 3784 856 181 830 4858
leaf_count=56624 21644 3784 856 181 830 4858
internal_value=0 -1.97912e-06 -8.63411e-06 8.28043e-07 6.82857e-06 5.3673e-06
internal_weight=0 26284 4640 62493 5869 5688
internal_count=88777 26284 4640 62493 5869 5688
is_linear=0
shrinkage=0.1


Tree=74
num_leaves=7
num_cat=0
split_feature=95 11 60 15 70 115
split_gain=1.42957e-05 2.6229e-05 2.68563e-05 2.8082e-05 2.52549e-05 3.30371e-05
threshold=0.53543583367868497 0.0024444742485471081 0.072328788839568822 0.30950333155747584 0.0025284503944869034 0.90724882281953534
decision_type=2 2 2 2 2 2
left_child=-1 4 3 -3 -2 -6
right_child=1 2 -4 -5 5 -7
leaf_value=1.7648954012424206e-06 -1.944342341448639e-07 1.7268995353019108e-06 -1.5534255788177271e-05 0.0001124757610991497 -3.0641636648256026e-05 2.80988138233356e-05
leaf_weight=30167 55381 404 2153 26 547 99
leaf_count=30167 55381 404 2153 26 547 99
internal_value=0 -9.14267e-07 -1.07833e-05 1.07145e-05 -4.41701e-07 -2.01151e-05
internal_weight=0 58610 2583 430 56027 646
internal_count=88777 58610 2583 430 56027 646
is_linear=0
shrinkage=0.1


Tree=75
num_leaves=7
num_cat=0
split_feature=6 80 0 183 292 49
split_gain=1.43514e-05 2.50611e-05 2.37121e-05 3.02513e-05 4.41139e-05 2.52918e-05
threshold=-0.0011737094591524053 0.33220720720720726 -0.00094161986398244568 0.35452140452140457 0.0076624717032949133 0.196675262479278
decision_type=2 2 2 2 2 2
left_child=1 -1 3 4 5 -2
right_child=2 -3 -4 -5 -6 -7
leaf_value=-3.5750719723313807e-06 0 1.6076691806224191e-05 5.7528970058436044e-08 -5.2679666035215574e-06 -1.112460149734015e-05 -0.00013612907081205094
leaf_weight=1049 20 1457 83739 2236 214 62
leaf_count=1049 20 1457 83739 2236 214 62
internal_value=0 7.45762e-06 -2.19072e-07 -9.75578e-06 -4.03296e-05 -0.000104534
internal_weight=0 2506 86271 2532 296 82
internal_count=88777 2506 86271 2532 296 82
is_linear=0
shrinkage=0.1


Tree=76
num_leaves=7
num_cat=0
split_feature=177 5 170 192 21 276
split_gain=1.40133e-05 3.11687e-05 2.81872e-05 2.71491e-05 3.26192e-05 3.64464e-05
threshold=0.50893141945773535 -0.0011044671336597315 0.0097353411914307131 -0.0035010983387331325 0.37155499367888756 0.60063291139240516
decision_type=2 2 2 2 2 2
left_child=1 -1 3 4 -2 -6
right_child=2 -3 -4 -5 5 -7
leaf_value=-2.1674677690595954e-06 4.6438158401010317e-06 4.0961648722732955e-06 4.8216652855655066e-07 -3.6989402235180218e-06 -8.8938050325632924e-05 -7.6962480493752858e-06
leaf_weight=12879 130 20183 38925 16381 133 146
leaf_count=12879 130 20183 38925 16381 133 146
internal_value=0 1.62644e-06 -9.72326e-07 -4.40299e-06 -3.01932e-05 -4.99547e-05
internal_weight=0 33062 55715 16790 409 279
internal_count=88777 33062 55715 16790 409 279
is_linear=0
shrinkage=0.1


Tree=77
num_leaves=7
num_cat=0
split_feature=56 230 75 151 273 166
split_gain=1.36646e-05 4.34755e-05 4.04787e-05 3.28011e-05 2.58596e-05 2.14687e-05
threshold=0.091895378841191658 0.0036297710395274412 -0.00025447229162217899 0.98919959279760772 0.54084841483763324 0.0022050752387765553
decision_type=2 2 2 2 2 2
left_child=1 -1 -3 4 -4 -2
right_child=5 2 3 -5 -6 -7
leaf_value=3.1167352831174707e-06 2.9266504718558786e-08 0 0.00018349487684666865 0 2.5803384253001617e-05 -7.5289688859161084e-06
leaf_weight=5034 79648 59 44 24 36 3932
leaf_count=5034 79648 59 44 24 36 3932
internal_value=0 4.97014e-06 5.61668e-05 9.40017e-05 0.000124848 -3.14527e-07
internal_weight=0 5197 163 104 80 83580
internal_count=88777 5197 163 104 80 83580
is_linear=0
shrinkage=0.1


Tree=78
num_leaves=7
num_cat=0
split_feature=14 238 307 128 30 299
split_gain=1.36885e-05 2.30384e-05 2.26372e-05 3.276e-05 2.45623e-05 2.25394e-05
threshold=0.40829703893139269 0.45072132451952512 0.2504055977749064 0.0035487247836192286 0.9184807954595452 -1.0000000180025095e-35
decision_type=2 2 2 2 2 2
left_child=5 2 3 4 -2 -1
right_child=1 -3 -4 -5 -6 -7
leaf_value=-3.7999034643529075e-07 -4.7271074107028601e-05 -2.6885418834139312e-08 -4.5998838781844532e-06 8.5254363689979385e-05 0 3.9121153680977078e-06
leaf_weight=39287 359 23645 7702 21 205 17558
leaf_count=39287 359 23645 7702 21 205 17558
internal_value=0 -1.65902e-06 -6.1971e-06 -2.55422e-05 -3.14143e-05 9.28411e-07
internal_weight=0 31932 8287 585 564 56845
internal_count=88777 31932 8287 585 564 56845
is_linear=0
shrinkage=0.1


Tree=79
num_leaves=7
num_cat=0
split_feature=0 155 41 313 283 208
split_gain=1.31558e-05 2.86252e-05 3.09646e-05 3.02165e-05 2.96289e-05 3.48218e-05
threshold=0.0013175238190026308 0.58964054276610234 0.0071341053629069709 0.079077644606565925 0.39001044932079421 0.29080338266384781
decision_type=2 2 2 2 2 2
left_child=-1 2 3 -2 5 -3
right_child=1 4 -4 -5 -6 -7
leaf_value=-1.8331471230085648e-07 0.00015641223807314999 0.00015130011496143034 -1.5165747223056794e-05 0 1.2321535706888671e-05 0
leaf_weight=86914 21 37 595 23 1142 45
leaf_count=86914 21 37 595 23 1142 45
internal_value=0 8.30953e-06 -7.80387e-06 6.9362e-05 1.75262e-05 7.79974e-05
internal_weight=0 1863 639 44 1224 82
internal_count=88777 1863 639 44 1224 82
is_linear=0
shrinkage=0.1


Tree=80
num_leaves=7
num_cat=0
split_feature=6 9 64 54 265 179
split_gain=1.27722e-05 2.23216e-05 2.03963e-05 2.64341e-05 3.58369e-05 4.20787e-05
threshold=-0.0024539926560964704 0.012473356883489778 -0.0026660759165277876 0.26507066105618132 0.010381482120985601 0.52181033481211203
decision_type=2 2 2 2 2 2
left_child=1 -1 3 -2 5 -5
right_child=2 -3 -4 4 -6 -7
leaf_value=2.1342905211334289e-05 2.4830517258012607e-05 -5.7255177374670947e-05 1.7542794786595582e-08 -5.4737690127457725e-06 8.3663150580288932e-06 -7.9207612756531837e-05
leaf_weight=531 96 33 87597 186 147 187
leaf_count=531 96 33 87597 186 147 187
internal_value=0 1.49977e-05 -9.87434e-08 -1.82334e-05 -2.80775e-05 -4.50801e-05
internal_weight=0 564 88213 616 520 373
internal_count=88777 564 88213 616 520 373
is_linear=0
shrinkage=0.1


Tree=81
num_leaves=7
num_cat=0
split_feature=96 315 134 140 90 276
split_gain=1.27499e-05 2.84809e-05 1.72259e-05 3.70817e-05 2.45805e-05 1.72116e-05
threshold=0.0064471817518438898 0.90053700946251036 0.005056933118464447 0.31458565072302563 0.74370417396784727 0.43341543513957315
decision_type=2 2 2 2 2 2
left_child=2 -2 -1 5 -5 -4
right_child=1 -3 3 4 -6 -7
leaf_value=1.0007889430367913e-08 0 0.00013385349301460854 4.1512687932503252e-05 -0.00015232509464087901 0 -3.6916283370888918e-05
leaf_weight=88521 66 23 54 34 21 58
leaf_count=88521 66 23 54 34 21 58
internal_value=0 3.78278e-05 -3.94072e-08 -3.21283e-05 -9.9376e-05 0
internal_weight=0 89 88688 167 55 112
internal_count=88777 89 88688 167 55 112
is_linear=0
shrinkage=0.1


Tree=82
num_leaves=7
num_cat=0
split_feature=25 311 68 29 95 160
split_gain=1.26342e-05 2.39679e-05 2.06783e-05 2.22505e-05 2.29701e-05 2.09023e-05
threshold=0.39043445121951226 0.2494165348459236 0.007597018969867848 0.10229915433403806 0.53543583367868497 -0.0022038583103278771
decision_type=2 2 2 2 2 2
left_child=-1 -2 5 -4 -5 -3
right_child=1 2 3 4 -6 -7
leaf_value=-9.6630151411781186e-07 1.921120483021066e-05 -3.2537387888213022e-05 -1.8629310662189172e-06 1.0596634402424138e-05 2.2107953453650585e-06 -2.674134295195623e-06
leaf_weight=53614 752 253 8709 4376 14896 6177
leaf_count=53614 752 253 8709 4376 14896 6177
internal_value=0 1.47287e-06 1.05661e-06 2.25434e-06 4.16603e-06 -4.00233e-06
internal_weight=0 35163 34411 27981 19272 6430
internal_count=88777 35163 34411 27981 19272 6430
is_linear=0
shrinkage=0.1


Tree=83
num_leaves=7
num_cat=0
split_feature=40 6 298 56 166 257
split_gain=1.26466e-05 2.45395e-05 2.54592e-05 2.13768e-05 2.95781e-05 3.24139e-05
threshold=1.0000000180025095e-35 0.0022446726812970223 0.0076623014548160328 0.091895378841191658 0.0012886605071500414 -0.041626703694000032
decision_type=2 2 2 2 2 2
left_child=-1 3 -3 4 -2 -6
right_child=1 2 -4 -5 5 -7
leaf_value=1.2236913530377187e-06 3.0089419453772542e-06 -0.00012846447821471548 -1.5910532818503523e-05 -1.4761289946513631e-06 1.4074724733865995e-06 6.613444114717581e-05
leaf_weight=43235 2345 25 443 42356 200 173
leaf_count=43235 2345 25 443 42356 200 173
internal_value=0 -1.1642e-06 -2.40284e-05 -9.04949e-07 7.63373e-06 3.40687e-05
internal_weight=0 45542 468 45074 2718 373
internal_count=88777 45542 468 45074 2718 373
is_linear=0
shrinkage=0.1


Tree=84
num_leaves=7
num_cat=0
split_feature=6 27 133 186 58 128
split_gain=1.25816e-05 2.81055e-05 2.20801e-05 2.18617e-05 2.82144e-05 2.13111e-05
threshold=-0.00089126583314147456 0.24482767961368049 -0.0011666634556310891 0.46021961441459458 0.52273958435930279 -0.0024242471733106892
decision_type=2 2 2 2 2 2
left_child=1 3 -3 4 -1 -4
right_child=-2 2 5 -5 -6 -7
leaf_value=0 -2.1296831866359713e-07 -2.3636381478544353e-06 -2.0418457910123047e-06 0 -0.00017727632702680483 2.2223698964253644e-05
leaf_weight=22 86025 952 404 58 22 1294
leaf_count=22 86025 952 404 58 22 1294
internal_value=0 6.65584e-06 8.94829e-06 -4.32469e-05 -9.64544e-05 1.58703e-05
internal_weight=0 2752 2650 102 44 1698
internal_count=88777 2752 2650 102 44 1698
is_linear=0
shrinkage=0.1


Tree=85
num_leaves=7
num_cat=0
split_feature=15 239 109 74 303 299
split_gain=1.26517e-05 3.28227e-05 2.93841e-05 3.19685e-05 3.8073e-05 2.33865e-05
threshold=0.33591691439554061 0.33583712277429584 0.44761059089441402 0.014646558298767796 0.22901686569293525 1.6033325667677224e-05
decision_type=2 2 2 2 2 2
left_child=5 2 3 -2 -5 -1
right_child=1 -3 -4 4 -6 -7
leaf_value=-4.1844072146713814e-06 1.0126598183294877e-05 0 -2.9743578387618037e-06 0 0.00016001622287437439 5.3662141849823183e-07
leaf_weight=16526 5355 36983 1902 23 32 27956
leaf_count=16526 5355 36983 1902 23 32 27956
internal_value=0 1.19235e-06 7.31446e-06 1.11137e-05 8.93124e-05 -1.1952e-06
internal_weight=0 44295 7312 5410 55 44482
internal_count=88777 44295 7312 5410 55 44482
is_linear=0
shrinkage=0.1


Tree=86
num_leaves=7
num_cat=0
split_feature=222 262 170 197 134 230
split_gain=1.24171e-05 3.48004e-05 3.00652e-05 6.78404e-05 3.13385e-05 2.71613e-05
threshold=0.29320423214570507 -0.0076482278287537389 0.01296166742051749 -0.0012670095910974541 -0.0053238854444090924 0.0044677840978688552
decision_type=2 2 2 2 2 2
left_child=2 -2 4 -4 -1 -6
right_child=1 -3 3 -5 5 -7
leaf_value=-0.00012975234418310561 7.7801335795315784e-05 2.4934811468892909e-07 -7.8762227060640366e-06 0.0001061741159356234 -4.2896148205384635e-06 -7.0489182026647995e-05
leaf_weight=21 58 82697 114 79 5743 65
leaf_count=21 58 82697 114 79 5743 65
internal_value=0 3.15605e-07 -4.38757e-06 3.37069e-05 -5.81785e-06 -5.20009e-06
internal_weight=0 82755 6022 193 5829 5808
internal_count=88777 82755 6022 193 5829 5808
is_linear=0
shrinkage=0.1


Tree=87
num_leaves=7
num_cat=0
split_feature=14 238 170 74 312 251
split_gain=1.30965e-05 2.00288e-05 1.8983e-05 2.3859e-05 1.86937e-05 2.40529e-05
threshold=0.56137712718738142 0.56805674751946056 0.0067575113656352095 0.007340218446920314 0.37664109121909639 0.98466829267312661
decision_type=2 2 2 2 2 2
left_child=1 -1 3 -2 5 -3
right_child=2 4 -4 -5 -6 -7
leaf_value=2.1403306088969726e-07 0 5.7886672799228819e-06 -2.1376818168275241e-06 -0.00014923077789884571 1.9936154574188514e-06 3.5715106981088667e-05
leaf_weight=66176 20 839 18891 20 2349 482
leaf_count=66176 20 839 18891 20 2349 482
internal_value=0 6.28134e-07 -2.33716e-06 -7.19178e-05 7.8267e-06 1.74536e-05
internal_weight=0 69846 18931 40 3670 1321
internal_count=88777 69846 18931 40 3670 1321
is_linear=0
shrinkage=0.1


Tree=88
num_leaves=7
num_cat=0
split_feature=256 312 166 218 262 298
split_gain=1.23562e-05 2.52779e-05 2.95151e-05 2.58975e-05 4.26165e-05 4.24246e-05
threshold=-0.0020345908033627676 0.15408357075023746 0.0022857182662905377 0.28558592134619215 -0.0068027823025880165 0.0066057530371536168
decision_type=2 2 2 2 2 2
left_child=1 -1 3 5 -5 -3
right_child=-2 2 -4 4 -6 -7
leaf_value=1.1151662777379544e-05 3.3734694870923957e-07 -0.0001815300395178704 -7.1433406621013802e-05 5.7663499494298407e-05 -5.2104040096644192e-06 -2.0501280234860107e-05
leaf_weight=894 82014 20 72 108 5362 307
leaf_count=894 82014 20 72 108 5362 307
internal_value=0 -4.10976e-06 -6.60226e-06 -5.62712e-06 -3.78895e-06 -3.3364e-05
internal_weight=0 6763 5869 5797 5470 327
internal_count=88777 6763 5869 5797 5470 327
is_linear=0
shrinkage=0.1


Tree=89
num_leaves=7
num_cat=0
split_feature=14 6 174 14 201 96
split_gain=1.24301e-05 3.2726e-05 4.65283e-05 3.58923e-05 2.74485e-05 3.15306e-05
threshold=0.16123492180598251 0.0012562820679415945 0.15765544305367316 0.0088448636266913686 0.0098990855283010125 -0.0022766095750643696
decision_type=2 2 2 2 2 2
left_child=1 2 3 -1 5 -4
right_child=-2 -3 4 -5 -6 -7
leaf_value=2.1332961020614075e-05 -7.6661832633412642e-07 -1.2694146191681583e-05 -3.3206035714229161e-05 -5.221659029047876e-07 1.7438531572271648e-05 6.4686022890466422e-06
leaf_weight=782 62646 1442 214 18333 2956 2404
leaf_count=782 62646 1442 214 18333 2956 2404
internal_value=0 1.82972e-06 2.7179e-06 3.20422e-07 1.07629e-05 2.84934e-06
internal_weight=0 26131 24689 19115 5574 2618
internal_count=88777 26131 24689 19115 5574 2618
is_linear=0
shrinkage=0.1


Tree=90
num_leaves=7
num_cat=0
split_feature=44 122 260 91 11 128
split_gain=1.19395e-05 1.92669e-05 2.75826e-05 3.56416e-05 1.72231e-05 2.1175e-05
threshold=0.37544326241134757 0.12734161939165892 0.0076621586998932038 0.93329461667816493 0.0024444742485471081 -0.0010928966099901236
decision_type=2 2 2 2 2 2
left_child=4 2 -2 -4 -1 -6
right_child=1 -3 3 -5 5 -7
leaf_value=-2.5903395598500653e-07 0 2.2980878298691205e-06 -0.00019031682104033175 0 -3.1083372096026294e-05 -4.4943650200220087e-06
leaf_weight=62592 127 22149 22 23 351 3513
leaf_count=62592 127 22149 22 23 351 3513
internal_value=0 1.99775e-06 -3.09514e-05 -9.89454e-05 -6.75365e-07 -7.16455e-06
internal_weight=0 22321 172 45 66456 3864
internal_count=88777 22321 172 45 66456 3864
is_linear=0
shrinkage=0.1


Tree=91
num_leaves=7
num_cat=0
split_feature=0 45 8 215 166 266
split_gain=1.21136e-05 2.74223e-05 2.21628e-05 2.37551e-05 1.23876e-05 5.53053e-05
threshold=0.0027460339604270527 0.2208547266686802 -0.044056654784992648 0.65819252279755891 -0.0048899926023158171 0.0079221539847546627
decision_type=2 2 2 2 2 2
left_child=4 2 -2 -4 5 -1
right_child=1 -3 3 -5 -6 -7
leaf_value=-3.4194830482654547e-05 0 -3.2523294898979344e-06 0.00017457892997305415 0 -1.3254845855764911e-07 5.5276115599672179e-05
leaf_weight=97 22 71 28 24 88351 184
leaf_count=97 22 71 28 24 88351 184
internal_value=0 2.88714e-05 7.29973e-05 0.000108833 -5.47972e-08 2.08868e-05
internal_weight=0 145 74 52 88632 281
internal_count=88777 145 74 52 88632 281
is_linear=0
shrinkage=0.1


Tree=92
num_leaves=7
num_cat=0
split_feature=118 262 275 90 96 254
split_gain=1.19973e-05 2.36555e-05 3.30517e-05 2.2925e-05 2.15676e-05 6.40587e-05
threshold=0.75701109565773939 -0.0057748048433721158 0.72322056543155133 0.66469493865383333 -0.0037453260137576545 0.71395055888047898
decision_type=2 2 2 2 2 2
left_child=1 2 3 -1 5 -2
right_child=4 -3 -4 -5 -6 -7
leaf_value=4.0851879049438904e-05 -0.000118581903801272 -9.7461566649438288e-07 0.00010224829548275149 -5.3132352210419744e-05 1.7887645194743027e-06 1.8759961361657041e-05
leaf_weight=68 58 57967 53 41 30531 59
leaf_count=68 58 57967 53 41 30531 59
internal_value=0 -8.51412e-07 3.71538e-05 0 1.59362e-06 -4.09099e-05
internal_weight=0 58129 162 109 30648 117
internal_count=88777 58129 162 109 30648 117
is_linear=0
shrinkage=0.1


Tree=93
num_leaves=7
num_cat=0
split_feature=160 272 278 189 285 134
split_gain=1.19284e-05 2.1872e-05 2.47194e-05 2.45887e-05 4.6234e-05 1.73378e-05
threshold=0.00089047218549742635 0.51522881880024751 0.8898897832991769 0.092372333548804156 0.081725417439703171 0.0055300102874680243
decision_type=2 2 2 2 2 2
left_child=-1 2 3 -2 -5 -3
right_child=1 5 -4 4 -6 -7
leaf_value=-4.5404624223208607e-07 0 -7.4874446218538656e-07 -4.9630821013069861e-06 6.4262809120799687e-05 1.2044414584354987e-05 -5.6642174152500591e-05
leaf_weight=77214 1700 5322 1250 192 3042 57
leaf_count=77214 1700 5322 1250 192 3042 57
internal_value=0 2.98987e-06 7.07552e-06 1.0325e-05 1.54492e-05 -1.52415e-06
internal_weight=0 11563 6184 4934 3234 5379
internal_count=88777 11563 6184 4934 3234 5379
is_linear=0
shrinkage=0.1


Tree=94
num_leaves=7
num_cat=0
split_feature=7 287 24 230 237 60
split_gain=1.17161e-05 1.39944e-05 1.21501e-05 2.17147e-05 2.72674e-05 3.68863e-05
threshold=-0.5676297422505131 0.48861764299429772 0.2669211195928754 0.002705754807986072 0.1115257048092869 0.95521390374331572
decision_type=2 2 2 2 2 2
left_child=1 -1 -2 -4 -5 -6
right_child=2 -3 3 4 5 -7
leaf_value=6.7496916779535078e-05 1.8555851955036137e-06 5.952804906510731e-06 -5.7149908509829724e-07 6.8220122188638924e-06 -4.075540959091995e-05 2.7375478223398887e-05
leaf_weight=54 23534 297 64067 261 487 77
leaf_count=54 23534 297 64067 261 487 77
internal_value=0 1.82274e-05 -7.84258e-08 -7.94997e-07 -1.69575e-05 -2.97077e-05
internal_weight=0 351 88426 64892 825 564
internal_count=88777 351 88426 64892 825 564
is_linear=0
shrinkage=0.1


Tree=95
num_leaves=7
num_cat=0
split_feature=288 275 102 10 300 24
split_gain=1.13634e-05 2.70986e-05 2.8652e-05 2.29168e-05 3.13005e-05 2.8412e-05
threshold=0.002176281999421104 0.2878496797507431 0.00090744126541153502 0.011352211690270031 0.56479568926807378 0.091895378841191658
decision_type=2 2 2 2 2 2
left_child=-1 2 -2 5 -5 -3
right_child=1 3 -4 4 -6 -7
leaf_value=-3.2674036874869119e-07 0 3.8495721140466146e-05 -3.7741068004230024e-05 -8.488175553297838e-06 3.6191699552925651e-05 7.5141965742101519e-06
leaf_weight=82024 472 344 297 1479 171 3990
leaf_count=82024 472 344 297 1479 171 3990
internal_value=0 3.94087e-06 -1.33245e-05 6.3242e-06 -3.26082e-06 1.02005e-05
internal_weight=0 6753 769 5984 1650 4334
internal_count=88777 6753 769 5984 1650 4334
is_linear=0
shrinkage=0.1


Tree=96
num_leaves=7
num_cat=0
split_feature=303 15 31 230 310 191
split_gain=1.13119e-05 2.85919e-05 2.50676e-05 2.33484e-05 2.40672e-05 2.29068e-05
threshold=0.16615899886580418 0.19027288644240084 0.4362124932448852 -0.002574008258700466 0.30380100944763672 0.41302080779753098
decision_type=2 2 2 2 2 2
left_child=-1 2 5 4 -4 -2
right_child=1 -3 3 -5 -6 -7
leaf_value=1.864521709658033e-06 -1.4682979686640241e-06 1.7166550147019356e-07 -3.4531237487802609e-05 -9.2425742078695365e-06 4.0521038783478538e-05 2.3737983177011372e-05
leaf_weight=23796 1300 55391 42 7594 184 470
leaf_count=23796 1300 55391 42 7594 184 470
internal_value=0 -6.83907e-07 -5.7283e-06 -8.20748e-06 2.22157e-05 4.6686e-06
internal_weight=0 64981 9590 7820 226 1770
internal_count=88777 64981 9590 7820 226 1770
is_linear=0
shrinkage=0.1


Tree=97
num_leaves=7
num_cat=0
split_feature=6 123 46 218 69 51
split_gain=1.11564e-05 2.428e-05 2.90594e-05 2.58409e-05 3.50979e-05 2.28287e-05
threshold=-0.00089126583314147456 0.38185943284220697 0.060821622413544461 0.46061819273293647 0.00021218100278894367 0.44319581918503109
decision_type=2 2 2 2 2 2
left_child=1 3 -3 4 -1 -6
right_child=-2 2 -4 -5 5 -7
leaf_value=-1.3368943896680673e-06 -2.0013291539155754e-07 3.7259536999164316e-05 5.0180854723570194e-06 0 -1.6243591616866696e-05 -0.00021105901332634866
leaf_weight=85 86025 349 2054 216 27 21
leaf_count=85 86025 349 2054 216 27 21
internal_value=0 6.26795e-06 1.01105e-05 -1.7368e-05 -5.22913e-05 -0.000122001
internal_weight=0 2752 2403 349 133 48
internal_count=88777 2752 2403 349 133 48
is_linear=0
shrinkage=0.1


Tree=98
num_leaves=7
num_cat=0
split_feature=224 4 211 293 145 262
split_gain=1.11183e-05 2.85235e-05 4.01728e-05 4.40538e-05 5.93515e-05 2.59201e-05
threshold=-0.0020345908033627676 0.0076324941475616158 0.51667058086738704 -0.0013321229820116209 0.48255578093306295 -0.0068027823025880165
decision_type=2 2 2 2 2 2
left_child=1 2 -1 -4 -5 -3
right_child=-2 5 3 4 -6 -7
leaf_value=0 3.0579263347063857e-07 5.0834838167178981e-05 3.2291446266226226e-06 -1.2846743754605448e-05 -0.0001169414521748765 -2.4100777491192877e-06
leaf_weight=416 82576 92 93 136 131 5333
leaf_count=416 82576 92 93 136 131 5333
internal_value=0 -4.08468e-06 -2.21045e-05 -4.65738e-05 -6.76086e-05 -1.32556e-06
internal_weight=0 6201 776 360 267 5425
internal_count=88777 6201 776 360 267 5425
is_linear=0
shrinkage=0.1


Tree=99
num_leaves=7
num_cat=0
split_feature=141 128 102 132 77 137
split_gain=1.09191e-05 1.99949e-05 2.18717e-05 2.90394e-05 3.16689e-05 2.1491e-05
threshold=0.22564832384566733 0.0011235959784521301 0.0025413015317328207 0.0084407162715312064 0.14246682279469167 0.0086136670105218562
decision_type=2 2 2 2 2 2
left_child=1 -1 5 4 -4 -3
right_child=-2 2 3 -5 -6 -7
leaf_value=4.7675368089299665e-07 -1.0749538972735017e-06 -9.5983690002751939e-07 -1.0774740664056919e-05 -2.2787854448026629e-05 6.0711723639351941e-05 1.7632881994266701e-05
leaf_weight=39469 45824 748 104 443 108 2081
leaf_count=39469 45824 748 104 443 108 2081
internal_value=0 1.14427e-06 8.42367e-06 -7.11231e-06 2.09986e-05 1.23688e-05
internal_weight=0 42953 3484 655 212 2829
internal_count=88777 42953 3484 655 212 2829
is_linear=0
shrinkage=0.1


end of trees

feature_importances:
sLaggingRtn_1=52
sBidSize1_1=30
sAskSize1_1=27
fLaggingRtn_1=20
fLaggingRtn_6=17
fLaggingRtn_7=16
sLaggingRtn_9=15
sLaggingRtn_2=13
sLaggingRtn_8=13
fLaggingRtn_5=11
fLaggingRtn_2=10
fLaggingRtn_4=10
sLaggingRtn_5=9
fLaggingRtn_8=9
stockSlope_a_10=9
slope_ab_1=8
sLaggingRtn_6=8
stockSlope_ab_1=7
fLaggingRtn_3=7
sLaggingRtn_4=7
stockSlope_a_6=7
stockSlope_b_1=6
fAskSize4_1=6
fLaggingRtn_9=6
fLaggingRtn_10=6
slope_a_1=5
sLaggingRtn_3=5
sAskSize5_6=5
sLaggingRtn_7=5
sLaggingRtn_10=5
stockSlope_a_1=4
fBidSize1_5=4
sAskSize4_7=4
sAskSize1_8=4
stockSlope_ab_10=4
sBidSize1_10=4
sBidSize3_10=4
fBidSize1_1=3
fBidSize2_1=3
sBidSize2_1=3
fBidSize4_1=3
sBidSize4_1=3
sAskSize5_1=3
sAskSize1_2=3
fAskSize4_2=3
slope_a_3=3
stockSlope_a_3=3
fAskSize2_3=3
sAskSize4_3=3
sBidSize4_3=3
slope_a_6=3
sAskSize5_7=3
stockSlope_b_9=3
sBidSize2_9=3
sBidSize4_9=3
slope_a_10=3
fAskSize1_1=2
fAskSize2_1=2
fAskSize3_1=2
sBidSize5_1=2
fAskSize1_2=2
fBidSize1_2=2
sBidSize1_2=2
sBidSize2_2=2
sBidSize4_2=2
fAskSize5_2=2
slope_ab_3=2
sBidSize5_3=2
fBidSize1_4=2
sAskSize4_4=2
sBidSize4_4=2
slope_a_5=2
fAskSize1_5=2
fBidSize2_5=2
fAskSize5_5=2
stockSlope_ab_6=2
sAskSize1_6=2
sBidSize2_6=2
sBidSize3_6=2
sAskSize4_6=2
fBidSize5_6=2
fAskSize2_7=2
sAskSize3_7=2
sBidSize3_7=2
slope_ab_8=2
fBidSize1_8=2
sBidSize1_8=2
sAskSize5_8=2
slope_b_9=2
sBidSize1_9=2
fAskSize3_9=2
slope_b_10=2
sBidSize2_10=2
sAskSize3_10=2
fAskSize4_10=2
stockSpreadRatio_1=1
stockVolumeImbalanceRatio_1=1
fBidSize3_1=1
sAskSize3_1=1
sBidSize3_1=1
fBidSize5_1=1
slope_a_2=1
slope_ab_2=1
stockSpreadRatio_2=1
stockVolumeImbalanceRatio_2=1
stockSlope_b_2=1
stockSlope_ab_2=1
fAskSize2_2=1
fBidSize2_2=1
sAskSize2_2=1
fBidSize3_2=1
sAskSize3_2=1
sBidSize3_2=1
sAskSize4_2=1
sBidSize5_2=1
stockSlope_b_3=1
stockSlope_ab_3=1
fAskSize1_3=1
fBidSize1_3=1
fAskSize4_3=1
sAskSize5_3=1
spreadRatio_4=1
slope_a_4=1
stockSlope_a_4=1
sAskSize1_4=1
sBidSize1_4=1
fAskSize2_4=1
sAskSize2_4=1
sBidSize2_4=1
sAskSize3_4=1
fAskSize4_4=1
fAskSize5_4=1
sAskSize5_4=1
slope_ab_5=1
stockSlope_b_5=1
stockSlope_a_5=1
sAskSize1_5=1
fBidSize3_5=1
sBidSize3_5=1
sBidSize4_5=1
fBidSize5_5=1
fBidSize1_6=1
fAskSize2_6=1
fBidSize2_6=1
fAskSize4_6=1
sBidSize5_6=1
slope_a_7=1
slope_ab_7=1
stockSlope_b_7=1
fBidSize1_7=1
sAskSize1_7=1
sBidSize2_7=1
fBidSize3_7=1
stockSpreadRatio_8=1
sBidSize2_8=1
fAskSize4_8=1
sBidSize4_8=1
fAskSize5_8=1
fBidSize5_8=1
spreadRatio_9=1
slope_a_9=1
stockSlope_a_9=1
stockSlope_ab_9=1
fAskSize2_9=1
fBidSize2_9=1
fBidSize3_9=1
sAskSize3_9=1
sBidSize3_9=1
fBidSize5_9=1
sBidSize5_9=1
spreadRatio_10=1
slope_ab_10=1
stockSpreadRatio_10=1
stockSlope_b_10=1
fAskSize1_10=1
fAskSize2_10=1
fBidSize4_10=1
sBidSize4_10=1

parameters:
[boosting: gbdt]
[objective: regression]
[metric: l2]
[tree_learner: serial]
[device_type: cpu]
[data: ]
[valid: ]
[num_iterations: 100]
[learning_rate: 0.1]
[num_leaves: 7]
[num_threads: -1]
[deterministic: 0]
[force_col_wise: 0]
[force_row_wise: 0]
[histogram_pool_size: -1]
[max_depth: 5]
[min_data_in_leaf: 20]
[min_sum_hessian_in_leaf: 0.001]
[bagging_fraction: 0.8]
[pos_bagging_fraction: 1]
[neg_bagging_fraction: 1]
[bagging_freq: 0]
[bagging_seed: 3]
[feature_fraction: 0.8]
[feature_fraction_bynode: 1]
[feature_fraction_seed: 2]
[extra_trees: 0]
[extra_seed: 6]
[early_stopping_round: 0]
[first_metric_only: 0]
[max_delta_step: 0]
[lambda_l1: 0.00984729]
[lambda_l2: 0.00469262]
[linear_lambda: 0]
[min_gain_to_split: 0]
[drop_rate: 0.1]
[max_drop: 50]
[skip_drop: 0.5]
[xgboost_dart_mode: 0]
[uniform_drop: 0]
[drop_seed: 4]
[top_rate: 0.2]
[other_rate: 0.1]
[min_data_per_group: 100]
[max_cat_threshold: 32]
[cat_l2: 10]
[cat_smooth: 10]
[max_cat_to_onehot: 4]
[top_k: 20]
[monotone_constraints: ]
[monotone_constraints_method: basic]
[monotone_penalty: 0]
[feature_contri: ]
[forcedsplits_filename: ]
[refit_decay_rate: 0.9]
[cegb_tradeoff: 1]
[cegb_penalty_split: 0]
[cegb_penalty_feature_lazy: ]
[cegb_penalty_feature_coupled: ]
[path_smooth: 0]
[interaction_constraints: ]
[verbosity: -1]
[saved_feature_importance_type: 0]
[linear_tree: 0]
[max_bin: 255]
[max_bin_by_feature: ]
[min_data_in_bin: 3]
[bin_construct_sample_cnt: 200000]
[data_random_seed: 1]
[is_enable_sparse: 1]
[enable_bundle: 1]
[use_missing: 1]
[zero_as_missing: 0]
[feature_pre_filter: 1]
[pre_partition: 0]
[two_round: 0]
[header: 0]
[label_column: ]
[weight_column: ]
[group_column: ]
[ignore_column: ]
[categorical_feature: ]
[forcedbins_filename: ]
[precise_float_parser: 0]
[objective_seed: 5]
[num_class: 1]
[is_unbalance: 0]
[scale_pos_weight: 1]
[sigmoid: 1]
[boost_from_average: 1]
[reg_sqrt: 0]
[alpha: 0.9]
[fair_c: 1]
[poisson_max_delta_step: 0.7]
[tweedie_variance_power: 1.5]
[lambdarank_truncation_level: 30]
[lambdarank_norm: 1]
[label_gain: ]
[eval_at: ]
[multi_error_top_k: 1]
[auc_mu_weights: ]
[num_machines: 1]
[local_listen_port: 12400]
[time_out: 120]
[machine_list_filename: ]
[machines: ]
[gpu_platform_id: -1]
[gpu_device_id: -1]
[gpu_use_dp: 0]
[num_gpu: 1]

end of parameters

pandas_categorical:[]
