tree
version=v3
num_class=1
num_tree_per_iteration=1
label_index=0
max_feature_idx=319
objective=regression
feature_names=fLaggingRtn_1 spreadRatio_1 volumeImbalanceRatio_1 slope_b_1 slope_a_1 slope_ab_1 sLaggingRtn_1 stockSpreadRatio_1 stockVolumeImbalanceRatio_1 stockSlope_b_1 stockSlope_a_1 stockSlope_ab_1 fAskSize1_1 fBidSize1_1 sAskSize1_1 sBidSize1_1 fAskSize2_1 fBidSize2_1 sAskSize2_1 sBidSize2_1 fAskSize3_1 fBidSize3_1 sAskSize3_1 sBidSize3_1 fAskSize4_1 fBidSize4_1 sAskSize4_1 sBidSize4_1 fAskSize5_1 fBidSize5_1 sAskSize5_1 sBidSize5_1 fLaggingRtn_2 spreadRatio_2 volumeImbalanceRatio_2 slope_b_2 slope_a_2 slope_ab_2 sLaggingRtn_2 stockSpreadRatio_2 stockVolumeImbalanceRatio_2 stockSlope_b_2 stockSlope_a_2 stockSlope_ab_2 fAskSize1_2 fBidSize1_2 sAskSize1_2 sBidSize1_2 fAskSize2_2 fBidSize2_2 sAskSize2_2 sBidSize2_2 fAskSize3_2 fBidSize3_2 sAskSize3_2 sBidSize3_2 fAskSize4_2 fBidSize4_2 sAskSize4_2 sBidSize4_2 fAskSize5_2 fBidSize5_2 sAskSize5_2 sBidSize5_2 fLaggingRtn_3 spreadRatio_3 volumeImbalanceRatio_3 slope_b_3 slope_a_3 slope_ab_3 sLaggingRtn_3 stockSpreadRatio_3 stockVolumeImbalanceRatio_3 stockSlope_b_3 stockSlope_a_3 stockSlope_ab_3 fAskSize1_3 fBidSize1_3 sAskSize1_3 sBidSize1_3 fAskSize2_3 fBidSize2_3 sAskSize2_3 sBidSize2_3 fAskSize3_3 fBidSize3_3 sAskSize3_3 sBidSize3_3 fAskSize4_3 fBidSize4_3 sAskSize4_3 sBidSize4_3 fAskSize5_3 fBidSize5_3 sAskSize5_3 sBidSize5_3 fLaggingRtn_4 spreadRatio_4 volumeImbalanceRatio_4 slope_b_4 slope_a_4 slope_ab_4 sLaggingRtn_4 stockSpreadRatio_4 stockVolumeImbalanceRatio_4 stockSlope_b_4 stockSlope_a_4 stockSlope_ab_4 fAskSize1_4 fBidSize1_4 sAskSize1_4 sBidSize1_4 fAskSize2_4 fBidSize2_4 sAskSize2_4 sBidSize2_4 fAskSize3_4 fBidSize3_4 sAskSize3_4 sBidSize3_4 fAskSize4_4 fBidSize4_4 sAskSize4_4 sBidSize4_4 fAskSize5_4 fBidSize5_4 sAskSize5_4 sBidSize5_4 fLaggingRtn_5 spreadRatio_5 volumeImbalanceRatio_5 slope_b_5 slope_a_5 slope_ab_5 sLaggingRtn_5 stockSpreadRatio_5 stockVolumeImbalanceRatio_5 stockSlope_b_5 stockSlope_a_5 stockSlope_ab_5 fAskSize1_5 fBidSize1_5 sAskSize1_5 sBidSize1_5 fAskSize2_5 fBidSize2_5 sAskSize2_5 sBidSize2_5 fAskSize3_5 fBidSize3_5 sAskSize3_5 sBidSize3_5 fAskSize4_5 fBidSize4_5 sAskSize4_5 sBidSize4_5 fAskSize5_5 fBidSize5_5 sAskSize5_5 sBidSize5_5 fLaggingRtn_6 spreadRatio_6 volumeImbalanceRatio_6 slope_b_6 slope_a_6 slope_ab_6 sLaggingRtn_6 stockSpreadRatio_6 stockVolumeImbalanceRatio_6 stockSlope_b_6 stockSlope_a_6 stockSlope_ab_6 fAskSize1_6 fBidSize1_6 sAskSize1_6 sBidSize1_6 fAskSize2_6 fBidSize2_6 sAskSize2_6 sBidSize2_6 fAskSize3_6 fBidSize3_6 sAskSize3_6 sBidSize3_6 fAskSize4_6 fBidSize4_6 sAskSize4_6 sBidSize4_6 fAskSize5_6 fBidSize5_6 sAskSize5_6 sBidSize5_6 fLaggingRtn_7 spreadRatio_7 volumeImbalanceRatio_7 slope_b_7 slope_a_7 slope_ab_7 sLaggingRtn_7 stockSpreadRatio_7 stockVolumeImbalanceRatio_7 stockSlope_b_7 stockSlope_a_7 stockSlope_ab_7 fAskSize1_7 fBidSize1_7 sAskSize1_7 sBidSize1_7 fAskSize2_7 fBidSize2_7 sAskSize2_7 sBidSize2_7 fAskSize3_7 fBidSize3_7 sAskSize3_7 sBidSize3_7 fAskSize4_7 fBidSize4_7 sAskSize4_7 sBidSize4_7 fAskSize5_7 fBidSize5_7 sAskSize5_7 sBidSize5_7 fLaggingRtn_8 spreadRatio_8 volumeImbalanceRatio_8 slope_b_8 slope_a_8 slope_ab_8 sLaggingRtn_8 stockSpreadRatio_8 stockVolumeImbalanceRatio_8 stockSlope_b_8 stockSlope_a_8 stockSlope_ab_8 fAskSize1_8 fBidSize1_8 sAskSize1_8 sBidSize1_8 fAskSize2_8 fBidSize2_8 sAskSize2_8 sBidSize2_8 fAskSize3_8 fBidSize3_8 sAskSize3_8 sBidSize3_8 fAskSize4_8 fBidSize4_8 sAskSize4_8 sBidSize4_8 fAskSize5_8 fBidSize5_8 sAskSize5_8 sBidSize5_8 fLaggingRtn_9 spreadRatio_9 volumeImbalanceRatio_9 slope_b_9 slope_a_9 slope_ab_9 sLaggingRtn_9 stockSpreadRatio_9 stockVolumeImbalanceRatio_9 stockSlope_b_9 stockSlope_a_9 stockSlope_ab_9 fAskSize1_9 fBidSize1_9 sAskSize1_9 sBidSize1_9 fAskSize2_9 fBidSize2_9 sAskSize2_9 sBidSize2_9 fAskSize3_9 fBidSize3_9 sAskSize3_9 sBidSize3_9 fAskSize4_9 fBidSize4_9 sAskSize4_9 sBidSize4_9 fAskSize5_9 fBidSize5_9 sAskSize5_9 sBidSize5_9 fLaggingRtn_10 spreadRatio_10 volumeImbalanceRatio_10 slope_b_10 slope_a_10 slope_ab_10 sLaggingRtn_10 stockSpreadRatio_10 stockVolumeImbalanceRatio_10 stockSlope_b_10 stockSlope_a_10 stockSlope_ab_10 fAskSize1_10 fBidSize1_10 sAskSize1_10 sBidSize1_10 fAskSize2_10 fBidSize2_10 sAskSize2_10 sBidSize2_10 fAskSize3_10 fBidSize3_10 sAskSize3_10 sBidSize3_10 fAskSize4_10 fBidSize4_10 sAskSize4_10 sBidSize4_10 fAskSize5_10 fBidSize5_10 sAskSize5_10 sBidSize5_10
feature_infos=[-0.0060606246116918783:0.0072605736436042179] [-0.66952163165376533:0.67732337018802469] [0:1] [0:0.02358452948810056] [-1.0308739056644718:0.01768003259594059] [-1.0356585946587591:0.012981732124283139] [-0.0064102783609207847:0.0096444388306657913] [-0.77823043298572236:0.81157931613373047] [-9607679205057056:2771445924535689] [0:0.021351308578182886] [-0.82200404583382547:0.027259760053971949] [-0.82656009402634545:0.022358273187505402] [0:1] [0:1] [0:1] [0:1] [0:1] [0:1] [0:1] [0:1] [0:1] [0:1] [0:1] [0:1] [0:1] [0:1] [0:1] [0:1] [0:1] [0:1] [0:1] [0:1] [-0.0076004708984545033:0.011525756951410671] [-0.66952163165376533:0.67732337018802469] [0:1] [0:0.02358452948810056] [-1.0308739056644718:0.01768003259594059] [-1.0356585946587591:0.012981732124283139] [-0.008690983547419151:0.018160305379659292] [-0.77823043298572236:0.81157931613373047] [-9607679205057056:2771445924535689] [0:0.021351308578182886] [-0.82200404583382547:0.027259760053971949] [-0.82656009402634545:0.022358273187505402] [0:1] [0:1] [0:1] [0:1] [0:1] [0:1] [0:1] [0:1] [0:1] [0:1] [0:1] [0:1] [0:1] [0:1] [0:1] [0:1] [0:1] [0:1] [0:1] [0:1] [-0.0089859397977161137:0.012731302606759698] [-0.66952163165376533:0.67732337018802469] [0:1] [0:0.02358452948810056] [-1.0308739056644718:0.01768003259594059] [-1.0356585946587591:0.012981732124283139] [-0.0092851177756791969:0.014554532242160079] [-0.77823043298572236:0.81157931613373047] [-9607679205057056:2771445924535689] [0:0.021351308578182886] [-0.82200404583382547:0.027259760053971949] [-0.82656009402634545:0.022358273187505402] [0:1] [0:1] [0:1] [0:1] [0:1] [0:1] [0:1] [0:1] [0:1] [0:1] [0:1] [0:1] [0:1] [0:1] [0:1] [0:1] [0:1] [0:1] [0:1] [0:1] [-0.0096970456828664453:0.013935396671563183] [-0.66952163165376533:0.67732337018802469] [0:1] [0:0.02358452948810056] [-1.0308739056644718:0.01768003259594059] [-1.0356585946587591:0.012981732124283139] [-0.0097826867126133976:0.015757901821793041] [-0.77823043298572236:0.81157931613373047] [-9607679205057056:2771445924535689] [0:0.021351308578182886] [-0.82200404583382547:0.027259760053971949] [-0.82656009402634545:0.022358273187505402] [0:1] [0:1] [0:1] [0:1] [0:1] [0:1] [0:1] [0:1] [0:1] [0:1] [0:1] [0:1] [0:1] [0:1] [0:1] [0:1] [0:1] [0:1] [0:1] [0:1] [-0.010875582996259681:0.01384903842498808] [-0.66952163165376533:0.67732337018802469] [0:1] [0:0.02358452948810056] [-1.0308739056644718:0.01768003259594059] [-1.0356585946587591:0.012981732124283139] [-0.010875582996259681:0.014554532242160079] [-0.77823043298572236:0.81157931613373047] [-9607679205057056:2771445924535689] [0:0.021351308578182886] [-0.82200404583382547:0.027259760053971949] [-0.82656009402634545:0.022358273187505402] [0:1] [0:1] [0:1] [0:1] [0:1] [0:1] [0:1] [0:1] [0:1] [0:1] [0:1] [0:1] [0:1] [0:1] [0:1] [0:1] [0:1] [0:1] [0:1] [0:1] [-0.01054927561687613:0.014149728541241302] [-0.66952163165376533:0.67732337018802469] [0:1] [0:0.02358452948810056] [-1.0308739056644718:0.01768003259594059] [-1.0356585946587591:0.012981732124283139] [-0.011435230383275652:0.015323621938490462] [-0.77823043298572236:0.81157931613373047] [-9607679205057056:2771445924535689] [0:0.021351308578182886] [-0.82200404583382547:0.027259760053971949] [-0.82656009402634545:0.022358273187505402] [0:1] [0:1] [0:1] [0:1] [0:1] [0:1] [0:1] [0:1] [0:1] [0:1] [0:1] [0:1] [0:1] [0:1] [0:1] [0:1] [0:1] [0:1] [0:1] [0:1] [-0.012526259819178875:0.018737326666970588] [-0.66952163165376533:0.67732337018802469] [0:1] [0:0.02358452948810056] [-1.0308739056644718:0.01768003259594059] [-1.0356585946587591:0.012981732124283139] [-0.012571594141924436:0.017560245355653592] [-0.77823043298572236:0.81157931613373047] [-9607679205057056:2771445924535689] [0:0.021351308578182886] [-0.82200404583382547:0.027259760053971949] [-0.82656009402634545:0.022358273187505402] [0:1] [0:1] [0:1] [0:1] [0:1] [0:1] [0:1] [0:1] [0:1] [0:1] [0:1] [0:1] [0:1] [0:1] [0:1] [0:1] [0:1] [0:1] [0:1] [0:1] [-0.01344880981261376:0.020532122242993722] [-0.66952163165376533:0.67732337018802469] [0:1] [0:0.02358452948810056] [-1.0308739056644718:0.01768003259594059] [-1.0356585946587591:0.012981732124283139] [-0.013647854517875757:0.019359346290700685] [-0.77823043298572236:0.81157931613373047] [-9607679205057056:2771445924535689] [0:0.021351308578182886] [-0.82200404583382547:0.027259760053971949] [-0.82656009402634545:0.022358273187505402] [0:1] [0:1] [0:1] [0:1] [0:1] [0:1] [0:1] [0:1] [0:1] [0:1] [0:1] [0:1] [0:1] [0:1] [0:1] [0:1] [0:1] [0:1] [0:1] [0:1] [-0.01281247507908212:0.020532122242993722] [-0.66952163165376533:0.67732337018802469] [0:1] [0:0.02358452948810056] [-1.0308739056644718:0.01768003259594059] [-1.0356585946587591:0.012981732124283139] [-0.013647854517875757:0.018160305379659292] [-0.77823043298572236:0.81157931613373047] [-9607679205057056:2771445924535689] [0:0.021351308578182886] [-0.82200404583382547:0.027259760053971949] [-0.82656009402634545:0.022358273187505402] [0:1] [0:1] [0:1] [0:1] [0:1] [0:1] [0:1] [0:1] [0:1] [0:1] [0:1] [0:1] [0:1] [0:1] [0:1] [0:1] [0:1] [0:1] [0:1] [0:1] [-0.012399414905036821:0.020532122242993722] [-0.66952163165376533:0.67732337018802469] [0:1] [0:0.02358452948810056] [-1.0308739056644718:0.01768003259594059] [-1.0356585946587591:0.012981732124283139] [-0.013647854517875757:0.019359346290700685] [-0.77823043298572236:0.81157931613373047] [-9607679205057056:2771445924535689] [0:0.021351308578182886] [-0.82200404583382547:0.027259760053971949] [-0.82656009402634545:0.022358273187505402] [0:1] [0:1] [0:1] [0:1] [0:1] [0:1] [0:1] [0:1] [0:1] [0:1] [0:1] [0:1] [0:1] [0:1] [0:1] [0:1] [0:1] [0:1] [0:1] [0:1]
tree_sizes=864 858 846 853 852 850 854 859 829 821 853 819 826 840 844 846 839 851 848 834 823 842 838 823 814 793 839 850 843 841 809 844 811 813 837 844 789 842 814 823 830 817 813 808 842 807 833 826 832 781 844 805 782 836 840 783 812 802 844 778 824 850 805 787 808 810 751 832 843 790 787 814 840 819 829 803 804 723 815 808 781 810 747 779 799 810 815 776 784 785 837 851 806 798 760 695 781 791 809 809

Tree=0
num_leaves=7
num_cat=0
split_feature=160 64 128 70 28 198
split_gain=0.00182674 0.000580553 0.000551606 0.000366833 0.000275677 0.000256933
threshold=0.00056242975559239749 -0.0006329114769147991 0.0013016599376358686 -0.0005665722985845888 0.92582417582417598 -0.0044848520185762899
decision_type=2 2 2 2 2 2
left_child=1 5 -2 -3 -5 -1
right_child=2 3 -4 4 -6 -7
leaf_value=-5.6600686210093028e-06 -2.5531293076744958e-05 -2.1961536780544688e-05 9.0793310730619494e-06 -4.0147349418071863e-05 -5.6630117093413218e-05 -7.126149699379667e-05
leaf_weight=546 20281 6686 6295 25815 17588 11814
leaf_count=546 20281 6686 6295 25815 17588 11814
internal_value=-3.90822e-05 -4.84268e-05 -1.71247e-05 -4.35074e-05 -4.6953e-05 -6.79167e-05
internal_weight=0 62449 26576 50089 43403 12360
internal_count=89025 62449 26576 50089 43403 12360
is_linear=0
shrinkage=1


Tree=1
num_leaves=7
num_cat=0
split_feature=224 96 32 198 166 256
split_gain=0.00150042 0.000508746 0.000495334 0.000334036 0.000331984 0.000254975
threshold=0.0005627462608668311 -0.00085323231169365233 0.0010790398379256774 -0.00056689348476357526 -0.0022889854500434122 -0.0005512679720496293
decision_type=2 2 2 2 2 2
left_child=1 4 -2 -3 -1 -5
right_child=2 3 -4 5 -6 -7
leaf_value=3.6307367699860494e-06 1.2053721987182006e-05 9.2714565674789749e-06 4.586917341097173e-05 -2.1434042908273822e-05 -3.5706735898664847e-05 -3.0454778877195446e-06
leaf_weight=2443 22942 13050 5615 11749 9671 23555
leaf_count=2443 22942 13050 5615 11749 9671 23555
internal_value=0 -8.91532e-06 1.88966e-05 -4.18977e-06 -2.73229e-05 -9.3208e-06
internal_weight=0 60468 28557 48354 12114 35304
internal_count=89025 60468 28557 48354 12114 35304
is_linear=0
shrinkage=0.1


Tree=2
num_leaves=7
num_cat=0
split_feature=64 192 224 198 198 256
split_gain=0.00136441 0.00072858 0.000346807 0.000327697 0.000288988 0.000285885
threshold=0.00060642821260437085 -0.00064350073232333205 0.0019775882027808227 -0.0044848520185762899 -0.00056689348476357526 0.00062150411979899911
decision_type=2 2 2 2 2 2
left_child=1 3 -2 -1 -3 -6
right_child=2 4 -4 -5 5 -7
leaf_value=4.2597871314562295e-05 1.7789384457862937e-05 1.7510990221608425e-05 5.428616515308814e-05 -2.5909618807419597e-05 -7.3746432201826518e-06 1.1098786458727302e-05
leaf_weight=667 12282 8028 3660 17550 36098 10740
leaf_count=667 12282 8028 3660 17550 36098 10740
internal_value=0 -5.77035e-06 2.65166e-05 -2.30971e-05 0 -3.02164e-06
internal_weight=0 73083 15942 18217 54866 46838
internal_count=89025 73083 15942 18217 54866 46838
is_linear=0
shrinkage=0.1


Tree=3
num_leaves=7
num_cat=0
split_feature=64 288 262 224 28 262
split_gain=0.00110889 0.000611473 0.000288896 0.000285923 0.00026347 0.000256886
threshold=0.00060132298288007046 -0.00063856969088327265 -0.0005720824422725811 0.0019775882027808227 0.59175084175084181 -0.0033955900886759589
decision_type=2 2 2 2 2 2
left_child=1 5 -3 -2 -4 -1
right_child=3 2 4 -5 -6 -7
leaf_value=1.3718661433011394e-05 1.5635984723032471e-05 1.906735385523053e-05 7.8424006447551907e-06 4.8509321396773662e-05 -8.2599300198467891e-06 -2.3359325751270154e-05
leaf_weight=1878 13036 7211 15468 3695 28712 19025
leaf_count=1878 13036 7211 15468 3695 28712 19025
internal_value=0 -5.33988e-06 4.21762e-07 2.32273e-05 -2.49841e-06 -1.97656e-05
internal_weight=0 72294 51391 16731 44180 20903
internal_count=89025 72294 51391 16731 44180 20903
is_linear=0
shrinkage=0.1


Tree=4
num_leaves=7
num_cat=0
split_feature=192 29 96 166 160 102
split_gain=0.000944722 0.000446055 0.000305621 0.000278167 0.000307967 0.000255842
threshold=0.00056179781191278988 0.407785336356765 0.0012957567150655438 -0.0011321824929906297 -0.0010949906102988292 0.0011813354579848225
decision_type=2 2 2 2 2 2
left_child=1 -1 5 -3 -5 -2
right_child=2 3 -4 4 -6 -7
leaf_value=-1.9045914469404129e-05 1.4335779036785315e-05 1.6394471627038498e-05 3.8232846266127977e-05 -2.9177480856517644e-05 -8.2385358715865896e-07 -1.6728513200079973e-05
leaf_weight=20232 19835 7570 4971 4497 29015 2905
leaf_count=20232 19835 7570 4971 4497 29015 2905
internal_value=0 -6.88035e-06 1.53674e-05 -7.55375e-07 -4.79321e-06 1.01259e-05
internal_weight=0 61314 27711 41082 33512 22740
internal_count=89025 61314 27711 41082 33512 22740
is_linear=0
shrinkage=0.1


Tree=5
num_leaves=7
num_cat=0
split_feature=288 29 21 32 294 15
split_gain=0.000799776 0.000353243 0.000268393 0.000249873 0.000218971 0.000201375
threshold=0.00061387361916054328 0.61200716845878145 0.63762626262626265 -0.00057504319161871809 -0.0022396432956330865 0.18762755102040821
decision_type=2 2 2 2 2 2
left_child=1 3 -2 -1 -3 -6
right_child=2 4 -4 -5 5 -7
leaf_value=-2.8980887965996258e-05 2.7043448156841544e-05 3.128506479657978e-05 4.8738730604769593e-06 -7.8288296236120117e-06 -8.9423759875596613e-06 7.4680858580078197e-06
leaf_weight=7627 11395 2330 11869 25963 14620 15221
leaf_count=7627 11395 2330 11869 25963 14620 15221
internal_value=0 -5.60319e-06 1.59691e-05 -1.27958e-05 1.73694e-06 -3.8868e-07
internal_weight=0 65761 23264 33590 32171 29841
internal_count=89025 65761 23264 33590 32171 29841
is_linear=0
shrinkage=0.1


Tree=6
num_leaves=7
num_cat=0
split_feature=64 224 230 166 28 0
split_gain=0.000728023 0.000449024 0.000264096 0.000261214 0.000224853 0.000207706
threshold=0.00060827258110141013 -0.00065573779890470963 -0.00056593101684132552 -0.0022889854500434122 0.81101190476190488 0.0012841094580675618
decision_type=2 2 2 2 2 2
left_child=1 3 -3 -1 -4 -2
right_child=5 2 4 -5 -6 -7
leaf_value=8.9011089491370452e-06 1.5559432626370059e-05 1.6448053250821666e-05 3.714703041498742e-06 -2.2878834778190072e-05 -1.0130906038256747e-05 5.8104461646481179e-05
leaf_weight=2829 14111 8628 24983 15508 21577 1389
leaf_count=2829 14111 8628 24983 15508 21577 1389
internal_value=0 -4.11508e-06 2.92478e-07 -1.76773e-05 -2.58436e-06 1.97311e-05
internal_weight=0 73525 55188 18337 46560 15500
internal_count=89025 73525 55188 18337 46560 15500
is_linear=0
shrinkage=0.1


Tree=7
num_leaves=7
num_cat=0
split_feature=160 160 166 166 166 198
split_gain=0.000636195 0.000319378 0.000422772 0.000331963 0.000252412 0.000224697
threshold=0.00064850852152265059 -0.0010949906102988292 -0.00056625147614930416 -0.0022889854500434122 0.00058105759008864066 0.005606967751246473
decision_type=2 2 2 2 2 2
left_child=1 3 -3 -1 -4 -2
right_child=5 2 4 -5 -6 -7
leaf_value=1.1416836552983195e-05 2.0256291267500289e-05 1.8519416386203044e-05 -9.3295019483068517e-07 -2.3735701517550077e-05 -2.0827923487699027e-05 -5.1186104653978328e-05
leaf_weight=3167 15629 9768 39481 12798 7772 410
leaf_count=3167 15629 9768 39481 12798 7772 410
internal_value=0 -3.91094e-06 -3.12447e-07 -1.64194e-05 -4.32161e-06 1.80835e-05
internal_weight=0 72986 57021 15965 47253 16039
internal_count=89025 72986 57021 15965 47253 16039
is_linear=0
shrinkage=0.1


Tree=8
num_leaves=7
num_cat=0
split_feature=96 192 166 198 157 86
split_gain=0.000549212 0.000360818 0.000242352 0.000218524 0.000198727 0.000202509
threshold=0.0011277137699039488 -0.00054734542959078414 -0.00056625147614930416 -0.0044848520185762899 0.56385869565217395 0.36118382780686448
decision_type=2 2 2 2 2 2
left_child=1 3 -3 -1 5 -5
right_child=-2 2 -4 4 -6 -7
leaf_value=4.1260693317700324e-05 2.1161233110575303e-05 2.2946891379179382e-05 0 -2.0384983392999052e-06 -5.1033320300086256e-06 -3.05368946793462e-05
leaf_weight=714 10814 5118 43154 4016 16065 9144
leaf_count=714 10814 5118 43154 4016 16065 9144
internal_value=0 -2.88022e-06 2.37528e-06 -1.15362e-05 -1.30157e-05 -2.22571e-05
internal_weight=0 78211 48272 29939 29225 13160
internal_count=89025 78211 48272 29939 29225 13160
is_linear=0
shrinkage=0.1


Tree=9
num_leaves=7
num_cat=0
split_feature=288 29 262 1 21 266
split_gain=0.000474979 0.000271352 0.000231652 0.000213716 0.000197427 0.00016915
threshold=0.00066533609285279749 0.36474501108647456 0.00058207224268702628 0.07685252722178279 0.7974358974358976 0.0036575815304330374
decision_type=2 2 2 2 2 2
left_child=1 -1 3 5 -2 -3
right_child=4 2 -4 -5 -6 -7
leaf_value=-1.3438537826753928e-05 2.1423567971966173e-05 -7.1233910740002077e-05 -1.729291475152713e-05 1.3914093927491818e-05 0 -4.8188219187324171e-07
leaf_weight=20515 12486 343 6534 12575 6448 30124
leaf_count=20515 12486 343 6534 12575 6448 30124
internal_value=0 -3.76303e-06 1.30809e-07 2.9035e-06 1.40862e-05 -1.46209e-06
internal_weight=0 70091 49576 43042 18934 30467
internal_count=89025 70091 49576 43042 18934 30467
is_linear=0
shrinkage=0.1


Tree=10
num_leaves=7
num_cat=0
split_feature=32 224 179 15 29 198
split_gain=0.000468929 0.000322149 0.000202202 0.000195065 0.000167844 0.000177401
threshold=0.00060827258110141013 -0.00054764518070804502 0.031498015873015879 0.12518656716417911 0.39767441860465119 -0.0022656482763387937
decision_type=2 2 2 2 2 2
left_child=1 4 -3 -4 -1 -6
right_child=-2 2 3 -5 5 -7
leaf_value=-2.1167005807101134e-05 1.7835255950948283e-05 -6.7733255562584682e-05 -5.6941046707786711e-06 7.7214658683325663e-06 2.333041618434285e-05 -8.5174377972443086e-06
leaf_weight=10917 12666 403 16547 29976 1884 16632
leaf_count=10917 12666 403 16547 29976 1884 16632
internal_value=0 -2.93927e-06 2.10717e-06 2.83231e-06 -1.11704e-05 -4.97962e-06
internal_weight=0 76359 46926 46523 29433 18516
internal_count=89025 76359 46926 46523 29433 18516
is_linear=0
shrinkage=0.1


Tree=11
num_leaves=7
num_cat=0
split_feature=64 256 15 198 89 60
split_gain=0.000400869 0.000324529 0.000240781 0.000208909 0.000193698 0.00017725
threshold=-0.00058207224268702607 0.001858736773007408 0.18036001285760209 0.0046703784478792096 0.19782608695652179 0.69337606837606847
decision_type=2 2 2 2 2 2
left_child=5 2 -2 -3 -4 -1
right_child=1 3 4 -5 -6 -7
leaf_value=0 -5.1365615376233364e-06 3.1254074512253575e-05 -2.6063978548381185e-05 -2.6013212475934094e-05 8.9525128753764897e-06 -2.0639261852633384e-05
leaf_weight=7241 30215 5808 1589 609 31992 11571
leaf_count=7241 30215 5808 1589 609 31992 11571
internal_value=0 3.48224e-06 1.23536e-06 2.49613e-05 7.13142e-06 -1.29544e-05
internal_weight=0 70213 63796 6417 33581 18812
internal_count=89025 70213 63796 6417 33581 18812
is_linear=0
shrinkage=0.1


Tree=12
num_leaves=7
num_cat=0
split_feature=32 28 262 61 198 224
split_gain=0.000352235 0.000290019 0.000239687 0.000245947 0.000172609 0.000199929
threshold=0.00054466236322792138 0.65058139534883741 0.0051120136949682768 0.6198686371100165 -0.0012044567438271867 0.0019775882027808227
decision_type=2 2 2 2 2 2
left_child=1 -1 3 -3 -2 -6
right_child=4 2 -4 -5 5 -7
leaf_value=5.0249990907562641e-06 4.1612939047452035e-05 -1.4816952147523794e-05 -0.00014132047555323252 0 2.6914070584504341e-06 3.007216692660284e-05
leaf_weight=25514 1863 23191 138 20795 14048 3476
leaf_count=25514 1863 23191 138 20795 14048 3476
internal_value=0 -3.32885e-06 -8.28328e-06 -7.73577e-06 1.19109e-05 8.43716e-06
internal_weight=0 69638 44124 43986 19387 17524
internal_count=89025 69638 44124 43986 19387 17524
is_linear=0
shrinkage=0.1


Tree=13
num_leaves=7
num_cat=0
split_feature=96 7 25 1 166 128
split_gain=0.000309444 0.000252861 0.000248795 0.000194094 0.000175524 0.000160808
threshold=0.0012882450782889523 0.13529025324356533 0.47140522875816998 0.17574325647750158 -0.0042130682454670767 -0.00109739388271457
decision_type=2 2 2 2 2 2
left_child=1 2 3 -1 -4 -6
right_child=-2 -3 4 -5 5 -7
leaf_value=-1.5630713290220056e-05 2.2417019213170845e-05 -9.7001987214442279e-06 8.4809844529376723e-05 1.0678521438168309e-05 -8.7545507528654967e-06 8.1076576367090025e-06
leaf_weight=11136 5761 26263 289 3492 6425 35659
leaf_count=11136 5761 26263 289 3492 6425 35659
internal_value=0 -1.54401e-06 2.11817e-06 -8.97579e-06 6.07731e-06 5.40307e-06
internal_weight=0 83264 57001 14628 42373 42084
internal_count=89025 83264 57001 14628 42373 42084
is_linear=0
shrinkage=0.1


Tree=14
num_leaves=7
num_cat=0
split_feature=64 128 70 134 15 28
split_gain=0.000286413 0.000234861 0.000232261 0.000202253 0.0001913 0.000163297
threshold=-0.00058207224268702607 0.0024191123776580174 -0.00056593101684132552 0.0036253829379271356 0.11325401989032439 0.52041666666666686
decision_type=2 2 2 2 2 2
left_child=-1 2 -2 -3 -4 -6
right_child=1 3 4 -5 5 -7
leaf_value=-1.0944751065061922e-05 1.9666105300244758e-05 4.9873896297875446e-05 -8.4791994583304449e-06 -5.7603623928517034e-06 1.3637497005756947e-05 -1.1845895121490291e-07
leaf_weight=18812 6516 1911 19141 744 11666 30235
leaf_count=18812 6516 1911 19141 744 11666 30235
internal_value=0 2.94861e-06 1.716e-06 3.22319e-05 -1.11032e-07 3.58135e-06
internal_weight=0 70213 67558 2655 61042 41901
internal_count=89025 70213 67558 2655 61042 41901
is_linear=0
shrinkage=0.1


Tree=15
num_leaves=7
num_cat=0
split_feature=29 9 64 25 7 294
split_gain=0.000254275 0.000195424 0.000190724 0.000120373 0.00013056 0.000103865
threshold=0.61200716845878145 0.0052740142073545255 -0.0011477764041538661 0.47140522875816998 0.064624121495216361 -0.001115760314143621
decision_type=2 2 2 2 2 2
left_child=2 -2 -1 -4 5 -5
right_child=1 -3 3 4 -6 -7
leaf_value=-2.4243323764068728e-05 7.8069177562708085e-07 1.5215836704165793e-05 -1.1730996641108668e-05 2.4178081564211553e-05 -7.3041047472429871e-06 2.2588064897126016e-06
leaf_weight=4947 33395 13553 11144 2882 11345 11759
leaf_count=4947 33395 13553 11144 2882 11345 11759
internal_value=0 5.06476e-06 -5.63977e-06 -3.01279e-06 5.16089e-07 6.94945e-06
internal_weight=0 46948 42077 37130 25986 14641
internal_count=89025 46948 42077 37130 25986 14641
is_linear=0
shrinkage=0.1


Tree=16
num_leaves=7
num_cat=0
split_feature=32 38 28 25 22 9
split_gain=0.000235565 0.000279353 0.000242784 0.000193033 0.000191744 0.000138899
threshold=0.001092001281901567 0.0011179434506418675 0.70900537634408611 0.21807065217391305 0.24450483091787442 0.0049099898531726974
decision_type=2 2 2 2 2 2
left_child=1 2 5 -4 -5 -1
right_child=-2 -3 3 4 -6 -7
leaf_value=-9.4312294905205022e-07 1.6948542466744075e-05 -3.1828239485103373e-05 -3.062288515041687e-05 9.6724092403840257e-06 -6.78630963141139e-06 1.1845784123385965e-05
leaf_weight=14269 7516 2940 2837 8712 34141 18610
leaf_count=14269 7516 2940 2837 8712 34141 18610
internal_value=0 -1.55123e-06 -3.4797e-07 -5.12898e-06 -3.31237e-06 6.12951e-06
internal_weight=0 81509 78569 45690 42853 32879
internal_count=89025 81509 78569 45690 42853 32879
is_linear=0
shrinkage=0.1


Tree=17
num_leaves=7
num_cat=0
split_feature=0 6 224 230 198 221
split_gain=0.000231962 0.000213413 0.00020053 0.000164787 0.000120568 0.000130972
threshold=0.00060790281044464944 0.00058445360249059785 -0.00054764518070804502 -0.00056242975559239728 -0.0022656482763387937 0.29217479674796754
decision_type=2 2 2 2 2 2
left_child=1 2 4 -4 -1 -6
right_child=-2 -3 3 -5 5 -7
leaf_value=9.8121929597613067e-06 1.5580640739991507e-05 -2.4617661969663226e-05 2.0191182067606783e-05 1.2432057782390274e-06 -2.520584929806266e-05 -5.8512635807258444e-06
leaf_weight=3387 8631 3865 5272 42617 4617 20636
leaf_count=3387 8631 3865 5272 42617 4617 20636
internal_value=0 -1.669e-06 -4.37992e-07 3.44403e-06 -7.11989e-06 -9.60797e-06
internal_weight=0 80394 76529 47889 28640 25253
internal_count=89025 80394 76529 47889 28640 25253
is_linear=0
shrinkage=0.1


Tree=18
num_leaves=7
num_cat=0
split_feature=1 128 166 166 28 294
split_gain=0.00023261 0.000233397 0.000165574 0.000148233 0.000141862 0.000257384
threshold=0.1510909550558974 -0.00066137575780800251 -0.0011321824929906297 -0.0012982800984175922 0.47913043478260875 0.007205090934649939
decision_type=2 2 2 2 2 2
left_child=1 -1 -3 -2 -4 -6
right_child=3 2 4 -5 5 -7
leaf_value=-1.4757180230089987e-05 4.6249398472365432e-05 1.8377224424572703e-05 7.1659717759147366e-06 7.6568111284860951e-06 -3.774044521962928e-06 -0.00013210056064406702
leaf_weight=12702 1150 4606 14074 15549 40786 158
leaf_count=12702 1150 4606 14074 15549 40786 158
internal_value=0 -2.44681e-06 8.43745e-08 1.06467e-05 -1.34822e-06 -4.40862e-06
internal_weight=0 72326 59624 16699 55018 40944
internal_count=89025 72326 59624 16699 55018 40944
is_linear=0
shrinkage=0.1


Tree=19
num_leaves=7
num_cat=0
split_feature=0 1 17 259 262 19
split_gain=0.000209782 0.000214445 0.000212186 0.000156367 0.00014797 0.000135249
threshold=-0.0011524058699770021 0.11375216998552949 0.56330128205128216 0.0045102418106950258 -0.0037873710242166676 0.31509051667180554
decision_type=2 2 2 2 2 2
left_child=3 -2 4 -1 -3 -6
right_child=1 2 -4 -5 5 -7
leaf_value=-8.5515867785403483e-05 -1.799938411160971e-06 9.6165312746170783e-05 -1.1539351846319121e-05 -1.4171475846557392e-05 2.1537359732206016e-07 1.9584998056771429e-05
leaf_weight=401 64319 238 3592 3135 6185 11155
leaf_count=401 64319 238 3592 3135 6185 11155
internal_value=0 1.00193e-06 9.77236e-06 -2.38477e-05 1.44392e-05 1.29922e-05
internal_weight=0 85489 21170 3536 17578 17340
internal_count=89025 85489 21170 3536 17578 17340
is_linear=0
shrinkage=0.1


Tree=20
num_leaves=7
num_cat=0
split_feature=32 198 256 230 256 10
split_gain=0.000189287 0.000213421 0.000198003 0.000228948 0.000187397 0.000172067
threshold=0.0019392380436631387 0.005606967751246473 0.0019480527694604179 1.0000000180025095e-35 -0.0005512679720496293 0.0048888750624268926
decision_type=2 2 2 2 2 2
left_child=1 2 3 4 -1 -3
right_child=-2 5 -4 -5 -6 -7
leaf_value=-4.5974930300330003e-06 3.479803500154796e-05 0 1.8606610480604919e-05 -1.1969418786009311e-05 6.114080200987154e-06 -0.0001715738476810705
leaf_weight=30234 1535 115 5177 16813 35021 130
leaf_count=30234 1535 115 5177 16813 35021 130
internal_value=0 -6.04236e-07 -2.78645e-07 -1.53699e-06 1.06739e-06 -9.35377e-05
internal_weight=0 87490 87245 82068 65255 245
internal_count=89025 87490 87245 82068 65255 245
is_linear=0
shrinkage=0.1


Tree=21
num_leaves=7
num_cat=0
split_feature=288 7 21 230 198 317
split_gain=0.000178047 0.000166679 0.000145824 0.000134513 0.000104954 0.000277495
threshold=0.00056338034129499459 -0.02443068297481343 0.63762626262626265 1.0000000180025095e-35 -0.0038263609830790908 0.33030303030303038
decision_type=2 2 2 2 2 2
left_child=1 -1 -2 -4 5 -3
right_child=2 4 3 -5 -6 -7
leaf_value=2.8303227308327298e-06 1.3536443974006985e-05 0.00011596114501943073 9.6322281805281344e-06 -9.0596982605309938e-06 -8.7271889356605581e-06 -6.7194903979990351e-06
leaf_weight=25198 14422 246 7114 8345 33243 457
leaf_count=25198 14422 246 7114 8345 33243 457
internal_value=0 -3.17331e-06 6.29688e-06 -1.04089e-07 -7.79081e-06 2.86373e-05
internal_weight=0 59144 29881 15459 33946 703
internal_count=89025 59144 29881 15459 33946 703
is_linear=0
shrinkage=0.1


Tree=22
num_leaves=7
num_cat=0
split_feature=0 6 64 70 100 61
split_gain=0.000172893 0.000188044 0.0001729 0.000173124 0.00014895 0.00014325
threshold=-0.0012574664955602442 -0.00060422968078466244 0.0012824626352720971 0.0012364763189616215 0.0045363009945152957 0.29217479674796754
decision_type=2 2 2 2 2 2
left_child=4 -2 3 5 -1 -3
right_child=1 2 -4 -5 -6 -7
leaf_value=-0.00010950817871989577 1.9124244997557688e-05 -9.869980582335672e-06 1.8717947900081544e-05 -3.246702861881279e-05 -1.5521546488893878e-05 1.2239810215943854e-06
leaf_weight=228 5207 14248 4415 1782 1753 61392
leaf_count=228 5207 14248 4415 1782 1753 61392
internal_value=0 6.76342e-07 -4.31001e-07 -1.59402e-06 -2.9187e-05 -7.93626e-07
internal_weight=0 87044 81837 77422 1981 75640
internal_count=89025 87044 81837 77422 1981 75640
is_linear=0
shrinkage=0.1


Tree=23
num_leaves=7
num_cat=0
split_feature=32 134 224 38 21 131
split_gain=0.000165769 0.000165942 0.000150515 0.000161674 0.000157314 0.000118731
threshold=-0.00055157203607869565 -0.0011321824929906297 0.0012974378793222387 1.0000000180025095e-35 0.6198686371100165 1.0000000180025095e-35
decision_type=2 2 2 2 2 2
left_child=5 -2 3 -3 -4 -1
right_child=1 2 4 -5 -6 -7
leaf_value=-0.00015000420454778585 1.7986814595201294e-05 9.8547747436625806e-07 2.764753502528917e-05 -1.4552445972917554e-05 0 -7.3415690520286087e-06
leaf_weight=61 6177 47205 3977 7731 4164 19710
leaf_count=61 6177 47205 3977 7731 4164 19710
internal_value=0 2.30936e-06 6.86921e-07 -1.10199e-06 1.34278e-05 -8.07199e-06
internal_weight=0 69254 63077 54936 8141 19771
internal_count=89025 69254 63077 54936 8141 19771
is_linear=0
shrinkage=0.1


Tree=24
num_leaves=7
num_cat=0
split_feature=25 7 262 160 134 182
split_gain=0.000158524 0.000167191 0.000132125 0.000134499 0.00012692 0.000126447
threshold=0.20991432068543456 0.13813815182554526 -0.0033955900886759589 -0.0010949906102988292 -0.00056625147614930416 0.50882383473476611
decision_type=2 2 2 2 2 2
left_child=-1 2 5 -4 -5 -2
right_child=1 -3 3 4 -6 -7
leaf_value=-2.0092962495720118e-05 6.669888532931129e-05 -5.6729431621831345e-06 -7.921225697187091e-06 1.8314980990889891e-05 3.0366241816865941e-06 0
leaf_weight=3758 659 26216 9010 6562 42120 700
leaf_count=3758 659 26216 9010 6562 42120 700
internal_value=0 8.88414e-07 3.89406e-06 3.06341e-06 5.20899e-06 3.5087e-05
internal_weight=0 85267 59051 57692 48682 1359
internal_count=89025 85267 59051 57692 48682 1359
is_linear=0
shrinkage=0.1


Tree=25
num_leaves=7
num_cat=0
split_feature=33 49 9 25 166 67
split_gain=0.000151611 0.000200804 0.000141776 0.000141233 0.000131154 0.000124481
threshold=0.088786522381325075 0.57793522267206487 0.0068171139868030218 0.47140522875816998 -0.0033538331463383027 0.0051229610206923572
decision_type=2 2 2 2 2 2
left_child=2 -2 3 -1 5 -5
right_child=1 -3 -4 4 -6 -7
leaf_value=-1.0904002887881267e-05 1.0633981590794423e-05 -1.1426045203092041e-05 -3.1388171904127934e-05 0 0 8.8797553085988464e-05
leaf_weight=13338 21562 4881 1695 295 46929 325
leaf_count=13338 21562 4881 1695 295 46929 325
internal_value=0 6.3547e-06 -2.67616e-06 -1.78613e-06 6.56827e-07 4.62843e-05
internal_weight=0 26443 62582 60887 47549 620
internal_count=89025 26443 62582 60887 47549 620
is_linear=0
shrinkage=0.1


Tree=26
num_leaves=7
num_cat=0
split_feature=29 9 54 6 270 281
split_gain=0.000142051 0.000134241 0.000132818 0.000109622 0.000104785 0.000100133
threshold=0.61200716845878145 0.0052740142073545255 0.56422949987306426 -0.00060422968078466244 0.30877418081326496 0.76253132832080206
decision_type=2 2 2 2 2 2
left_child=2 3 -1 -2 -4 -3
right_child=1 5 4 -5 -6 -7
leaf_value=4.6686735182953163e-07 2.0590774354319142e-05 1.858535336240772e-06 -1.8120766665620318e-05 -1.2457811744566135e-06 -2.1184137132963997e-06 2.0201528344535523e-05
leaf_weight=23894 2474 6221 9377 30921 8806 7332
leaf_count=23894 2474 6221 9377 30921 8806 7332
internal_value=0 3.78371e-06 -4.21717e-06 2.09198e-07 -1.06726e-05 1.21867e-05
internal_weight=0 46948 42077 33395 18183 13553
internal_count=89025 46948 42077 33395 18183 13553
is_linear=0
shrinkage=0.1


Tree=27
num_leaves=7
num_cat=0
split_feature=0 6 28 22 96 230
split_gain=0.000154369 0.000165358 0.000156072 0.000139148 0.000141719 0.000112531
threshold=0.00054555379116738589 1.0000000180025095e-35 0.70900537634408611 0.37229008658299217 -0.0011584132009234691 -0.0012995458907596456
decision_type=2 2 2 2 2 2
left_child=1 2 -1 -4 -5 -2
right_child=5 -3 3 4 -6 -7
leaf_value=4.8084747475093698e-06 3.7327748024874752e-05 -2.0796313130381164e-05 2.6877625335520252e-06 -2.6353454436784616e-05 -5.5770902359742384e-06 6.1246741231491492e-06
leaf_weight=30140 1400 4330 15004 4207 21299 12645
leaf_count=30140 1400 4330 15004 4207 21299 12645
internal_value=0 -1.79418e-06 -5.5166e-07 -4.67471e-06 -9.22001e-06 9.62874e-06
internal_weight=0 74980 70650 40510 25506 14045
internal_count=89025 74980 70650 40510 25506 14045
is_linear=0
shrinkage=0.1


Tree=28
num_leaves=7
num_cat=0
split_feature=212 221 128 102 70 128
split_gain=0.000133116 0.000228446 0.000150842 0.000157911 0.000148646 0.000170195
threshold=0.32173123486682814 0.19292803970223329 0.0025292459893639934 0.0045377334219391949 -0.0011245433617332876 -0.0011058890554078713
decision_type=2 2 2 2 2 2
left_child=1 -1 4 -4 -2 -6
right_child=2 -3 3 -5 5 -7
leaf_value=-4.8610024877360707e-05 1.3732469919434497e-05 -4.1437517030362122e-06 4.098750244094301e-05 -3.0394155885515875e-05 -1.4906871121753361e-05 9.1065277411277653e-07
leaf_weight=1392 7837 9285 1756 285 7612 60858
leaf_count=1392 7837 9285 1756 285 7612 60858
internal_value=0 -1.04604e-05 1.44099e-06 2.83246e-05 6.49601e-07 -7.68297e-07
internal_weight=0 10677 78348 2041 76307 68470
internal_count=89025 10677 78348 2041 76307 68470
is_linear=0
shrinkage=0.1


Tree=29
num_leaves=7
num_cat=0
split_feature=0 102 96 0 166 100
split_gain=0.00013528 0.000138355 0.000170297 0.000103991 0.000109633 8.92601e-05
threshold=-0.0011611032761758009 -0.0011334657833481641 -0.00054854640718726688 0.0019083977188261161 0.0038935821587653412 0.0045363009945152957
decision_type=2 2 2 2 2 2
left_child=5 -2 -3 4 -4 -1
right_child=1 2 3 -5 -6 -7
leaf_value=-7.6100781647821128e-05 1.280493413161578e-05 -9.6247152213069431e-06 1.8908425492356463e-06 4.2169013952764158e-05 -3.8303373494155101e-05 -1.237519998456019e-05
leaf_weight=294 8644 16296 59346 641 675 3129
leaf_count=294 8644 16296 59346 641 675 3129
internal_value=0 7.85562e-07 -4.93669e-07 1.86932e-06 1.34656e-06 -1.94827e-05
internal_weight=0 85602 76958 60662 60021 3423
internal_count=89025 85602 76958 60662 60021 3423
is_linear=0
shrinkage=0.1


Tree=30
num_leaves=7
num_cat=0
split_feature=65 81 166 150 276 285
split_gain=0.000129004 0.000165644 0.000157662 0.000136179 0.000119911 0.000161251
threshold=0.11374094037527557 0.5270467836257311 -0.0021413290550071902 0.5536097486204784 0.32173123486682814 0.19292803970223329
decision_type=2 2 2 2 2 2
left_child=4 2 3 -2 5 -1
right_child=1 -3 -4 -5 -6 -7
leaf_value=-4.6566835577637417e-05 0.00010126475017715385 -9.6793327586852508e-06 8.8786364556934462e-06 0 -3.7097243460862666e-07 -6.7199539018820675e-06
leaf_weight=1268 368 4601 16980 305 57245 8258
leaf_count=1268 368 4601 16980 305 57245 8258
internal_value=0 6.59247e-06 1.11438e-05 6.00136e-05 -2.19867e-06 -1.26058e-05
internal_weight=0 22254 17653 673 66771 9526
internal_count=89025 22254 17653 673 66771 9526
is_linear=0
shrinkage=0.1


Tree=31
num_leaves=7
num_cat=0
split_feature=76 254 233 32 20 134
split_gain=0.00011674 0.000140711 0.000127543 0.000117247 0.000105856 0.000103737
threshold=0.3133928571428572 0.21701769782068162 0.004932378908901699 1.0000000180025095e-35 0.92153846153846175 -0.0038585272832740709
decision_type=2 2 2 2 2 2
left_child=1 2 -1 4 -3 -2
right_child=5 3 -4 -5 -6 -7
leaf_value=-3.9383643325981529e-05 7.0390694392035729e-05 -6.7954975338595392e-06 -2.3868980391966355e-06 7.5646617666063335e-06 4.7406163253226194e-06 4.1106217864966791e-06
leaf_weight=1946 248 30662 2458 11529 10169 32013
leaf_count=1946 248 30662 2458 11529 10169 32013
internal_value=0 -2.73961e-06 -1.99855e-05 -1.18397e-06 -3.78839e-06 4.79357e-06
internal_weight=0 56764 4404 52360 40831 32261
internal_count=89025 56764 4404 52360 40831 32261
is_linear=0
shrinkage=0.1


Tree=32
num_leaves=7
num_cat=0
split_feature=0 150 33 57 7 198
split_gain=0.000116634 0.000121597 0.000112889 0.000118357 0.000138874 0.000114471
threshold=-0.0012574664955602442 0.5273179556761648 0.18126254645940235 0.47140522875816998 0.13529025324356533 -0.001862198110445412
decision_type=2 2 2 2 2 2
left_child=1 -1 3 -2 -5 -4
right_child=2 -3 5 4 -6 -7
leaf_value=0 -8.2012656555123416e-06 -4.8843261936144507e-05 5.2476250818142037e-05 4.649356506257611e-06 -5.8417191286681619e-06 6.696745776344976e-06
leaf_weight=995 17076 986 625 39485 18267 11591
leaf_count=995 17076 986 625 39485 18267 11591
internal_value=0 -2.39843e-05 5.43781e-07 -8.44485e-07 1.23624e-06 9.49399e-06
internal_weight=0 1981 87044 74828 57752 12216
internal_count=89025 1981 87044 74828 57752 12216
is_linear=0
shrinkage=0.1


Tree=33
num_leaves=7
num_cat=0
split_feature=60 294 160 231 57 22
split_gain=0.000110294 0.000217897 0.000184653 0.000133847 0.000111985 0.000114736
threshold=0.65058139534883741 0.007205090934649939 0.0022811531564190806 -0.16729605034189982 0.26726190476190481 0.24450483091787442
decision_type=2 2 2 2 2 2
left_child=-1 2 4 -3 -2 -6
right_child=1 3 -4 -5 5 -7
leaf_value=4.5493539255922561e-06 -1.7857938386137687e-05 0 2.8962951328214235e-05 -0.00017877241822485468 7.4934752176589447e-06 -4.4096372450756726e-06
leaf_weight=33321 4979 36 1790 112 9998 38789
leaf_count=33321 4979 36 1790 112 9998 38789
internal_value=0 -2.72374e-06 -2.29854e-06 -0.000123873 -3.44197e-06 -1.85803e-06
internal_weight=0 55704 55556 148 53766 48787
internal_count=89025 55704 55556 148 53766 48787
is_linear=0
shrinkage=0.1


Tree=34
num_leaves=7
num_cat=0
split_feature=32 198 30 192 0 198
split_gain=0.000104619 0.00013331 0.000109127 0.000103924 9.25186e-05 0.000134977
threshold=-0.00058139541434520925 -0.0011321824929906297 0.41548451548451554 -0.00055187643571930056 0.0019083977188261161 0.005606967751246473
decision_type=2 2 2 2 2 2
left_child=2 -2 -1 -3 5 -5
right_child=1 3 -4 4 -6 -7
leaf_value=-2.3040281159090319e-05 1.2837405047705335e-05 -8.2624287219614741e-06 -2.3987973966098676e-06 1.8645040360276267e-06 4.1415026299242524e-05 -6.6413705250713869e-05
leaf_weight=3544 9210 12367 12190 50833 595 286
leaf_count=3544 9210 12367 12190 50833 595 286
internal_value=0 1.58874e-06 -7.39785e-06 0 1.94107e-06 1.37318e-06
internal_weight=0 73291 15734 64081 51714 51119
internal_count=89025 73291 15734 64081 51714 51119
is_linear=0
shrinkage=0.1


Tree=35
num_leaves=7
num_cat=0
split_feature=44 17 239 259 29 294
split_gain=9.80658e-05 0.000112667 0.000109831 0.000108714 8.70703e-05 8.14242e-05
threshold=0.30151515151515157 0.70185185185185195 0.18762755102040821 0.0044749373199970211 0.21807065217391305 -0.0025839818442472402
decision_type=2 2 2 2 2 2
left_child=3 2 -2 -1 -5 -6
right_child=1 -3 -4 4 5 -7
leaf_value=-1.557855442524206e-05 6.119350440636435e-07 -3.6472925394020547e-06 1.5076782434854069e-05 -1.3806254576676498e-05 2.3452135346256052e-05 -3.712582936341011e-07
leaf_weight=5838 10970 11216 11773 4785 1475 42968
leaf_count=5838 10970 11216 11773 4785 1475 42968
internal_value=0 4.22032e-06 8.34078e-06 -2.61226e-06 -9.62964e-07 2.97272e-07
internal_weight=0 33959 22743 55066 49228 44443
internal_count=89025 33959 22743 55066 49228 44443
is_linear=0
shrinkage=0.1


Tree=36
num_leaves=7
num_cat=0
split_feature=155 247 198 17 99 224
split_gain=9.98466e-05 0.000118328 0.000112194 0.000143188 0.000228704 0.000126741
threshold=0.71940522036799326 0.42884510125889441 0.0051105625972045496 0.54692082111436957 0.0056927179632558708 0.0021851963344108332
decision_type=2 2 2 2 2 2
left_child=2 -2 5 -4 -5 -1
right_child=1 -3 3 4 -6 -7
leaf_value=-3.6054448787628114e-06 -3.6367086765966258e-06 8.1061016572832179e-06 0 -0.00020893582221060723 0 1.8543378111081648e-05
leaf_weight=49214 12500 24345 152 112 37 2665
leaf_count=49214 12500 24345 152 112 37 2665
internal_value=0 3.97383e-06 -2.82555e-06 -6.4229e-05 -0.000133335 -2.36165e-06
internal_weight=0 36845 52180 301 149 51879
internal_count=89025 36845 52180 301 149 51879
is_linear=0
shrinkage=0.1


Tree=37
num_leaves=7
num_cat=0
split_feature=0 6 108 318 192 210
split_gain=9.41446e-05 0.000150986 0.000109785 0.000120305 0.000117616 9.02613e-05
threshold=0.00060790281044464944 0.00058445360249059785 0.3133928571428572 0.2334549878345499 -0.0011399261208326903 0.77842377260981921
decision_type=2 2 2 2 2 2
left_child=1 2 3 4 -1 -5
right_child=-2 -3 -4 5 -6 -7
leaf_value=-5.4865325727483672e-05 9.9116673137769399e-06 -2.0361464893240414e-05 4.9543781402262326e-06 -3.5113663186647095e-06 -8.9192544214290409e-06 8.0721049073186939e-06
leaf_weight=817 8631 3865 27485 36901 3268 8058
leaf_count=817 8631 3865 27485 36901 3268 8058
internal_value=0 -1.07756e-06 -3.17247e-08 -2.9376e-06 -1.94669e-05 -1.31338e-06
internal_weight=0 80394 76529 49044 4085 44959
internal_count=89025 80394 76529 49044 4085 44959
is_linear=0
shrinkage=0.1


Tree=38
num_leaves=7
num_cat=0
split_feature=153 21 230 288 73 11
split_gain=9.14454e-05 0.000109431 0.000122734 0.000111436 0.000110404 0.000115335
threshold=0.19782608695652179 0.58477011494252884 1.0000000180025095e-35 0.0020000008888896308 0.0044388263878815991 -0.00022027452563611741
decision_type=2 2 2 2 2 2
left_child=-1 3 -3 -2 5 -5
right_child=1 2 -4 4 -6 -7
leaf_value=-1.5926652365710083e-05 3.1051742402444534e-06 5.564012954759545e-07 -1.043339663181876e-05 0 1.2317218490778747e-05 9.3375864160636637e-05
leaf_weight=3470 29664 39425 13335 118 2604 409
leaf_count=3470 29664 39425 13335 118 2604 409
internal_value=0 6.2855e-07 -2.11786e-06 5.21355e-06 2.34298e-05 6.77672e-05
internal_weight=0 85555 52760 32795 3131 527
internal_count=89025 85555 52760 32795 3131 527
is_linear=0
shrinkage=0.1


Tree=39
num_leaves=7
num_cat=0
split_feature=28 262 106 128 134 183
split_gain=9.29619e-05 0.000162885 0.000200218 0.000122942 0.000109408 0.000126966
threshold=0.46737588652482276 0.0055629530741665443 0.0048674531560808565 0.0024592698395347061 0.00058241124814628631 0.057509517165348911
decision_type=2 2 2 2 2 2
left_child=-1 3 -3 4 5 -2
right_child=1 2 -4 -5 -6 -7
leaf_value=6.0710938882278197e-06 -5.7355505946566939e-05 0 -0.00013451155102592671 2.8002750890571354e-05 -1.1305254042009518e-05 1.6154364857721198e-07
leaf_weight=19623 384 176 204 1379 10587 56672
leaf_count=19623 384 176 204 1379 10587 56672
internal_value=0 -1.72402e-06 -6.71486e-05 -1.28284e-06 -1.96145e-06 -1.31509e-07
internal_weight=0 69402 380 69022 67643 57056
internal_count=89025 69402 380 69022 67643 57056
is_linear=0
shrinkage=0.1


Tree=40
num_leaves=7
num_cat=0
split_feature=7 57 198 43 60 128
split_gain=8.86876e-05 0.000100647 0.000119081 0.000124951 8.9196e-05 8.5891e-05
threshold=0.15164392768195775 0.26726190476190481 -0.0044848520185762899 -0.00085665555160334449 0.68090909090909102 -0.0010866614204889655
decision_type=2 2 2 2 2 2
left_child=1 4 3 -3 -1 -4
right_child=-2 2 5 -5 -6 -7
leaf_value=5.7630285814943106e-06 -4.9508181130907258e-06 -6.6906654992850817e-07 -6.0668932530806632e-06 9.0473042433461136e-05 -2.1062578034699383e-05 4.4590259248327956e-06
leaf_weight=1539 25749 81 8813 317 3358 49168
leaf_count=1539 25749 81 8813 317 3358 49168
internal_value=0 2.01023e-06 3.2389e-06 5.83252e-05 -1.15165e-05 2.76464e-06
internal_weight=0 63276 58379 398 4897 57981
internal_count=89025 63276 58379 398 4897 57981
is_linear=0
shrinkage=0.1


Tree=41
num_leaves=7
num_cat=0
split_feature=244 102 192 189 32 135
split_gain=8.80909e-05 0.000110622 0.000114427 0.000103256 9.67753e-05 0.000113287
threshold=0.32173123486682814 -0.0011334657833481641 -0.0011611032761758009 0.29217479674796754 -0.00054318310611023424 0.12715710006288608
decision_type=2 2 2 2 2 2
left_child=3 -2 -3 4 5 -1
right_child=1 2 -4 -5 -6 -7
leaf_value=-0.0001001581238062397 1.1568472800913853e-05 -1.2298200142847142e-05 1.1601483582745848e-06 -2.561980538911394e-06 -1.1931894861286593e-05 0
leaf_weight=357 9037 7017 62247 8365 1791 211
leaf_count=357 9037 7017 62247 8365 1791 211
internal_value=0 1.15531e-06 -1.24616e-07 -8.50797e-06 -2.72577e-05 -6.57932e-05
internal_weight=0 78301 69264 10724 2359 568
internal_count=89025 78301 69264 10724 2359 568
is_linear=0
shrinkage=0.1


Tree=42
num_leaves=7
num_cat=0
split_feature=0 38 15 276 150 63
split_gain=8.47012e-05 0.000111622 0.000116751 0.000100498 9.9944e-05 7.99479e-05
threshold=-0.0012574664955602442 -0.00056625147614930416 0.11325401989032439 0.32173123486682814 0.5273179556761648 0.57933771209633289
decision_type=2 2 2 2 2 2
left_child=4 3 5 -2 -1 -3
right_child=1 2 -4 -5 -6 -7
leaf_value=0 -1.2349265854959424e-05 1.4603232639456767e-06 1.6191021392474799e-06 1.365428296976906e-05 -4.3034084784932217e-05 -1.0817902090421918e-05
leaf_weight=995 1529 6843 52770 9899 986 16003
leaf_count=995 1529 6843 52770 9899 986 16003
internal_value=0 4.43263e-07 -8.82881e-07 9.69526e-06 -2.04586e-05 -6.90104e-06
internal_weight=0 87044 75616 11428 1981 22846
internal_count=89025 87044 75616 11428 1981 22846
is_linear=0
shrinkage=0.1


Tree=43
num_leaves=7
num_cat=0
split_feature=64 70 148 30 279 14
split_gain=8.5004e-05 0.000138577 0.000107256 0.000107399 0.00010457 0.000169923
threshold=-0.0011477764041538661 -0.00056593101684132552 0.91833333333333345 0.68956442831215992 0.057509517165348911 0.18074045452948825
decision_type=2 2 2 2 2 2
left_child=2 -2 3 -1 5 -3
right_child=1 4 -4 -5 -6 -7
leaf_value=-3.1027944472080046e-05 1.204835088819514e-05 0 7.5755231071865961e-06 -2.7943408699613417e-06 -8.6158309299179692e-08 -0.00010193073501384592
leaf_weight=2865 9971 249 2271 3458 69947 264
leaf_count=2865 9971 249 2271 3458 69947 264
internal_value=0 9.92179e-07 -9.46988e-06 -1.64571e-05 -4.95062e-07 -4.5429e-05
internal_weight=0 80431 8594 6323 70460 513
internal_count=89025 80431 8594 6323 70460 513
is_linear=0
shrinkage=0.1


Tree=44
num_leaves=7
num_cat=0
split_feature=97 81 0 35 155 9
split_gain=8.10173e-05 0.000134432 0.000102852 8.77586e-05 8.38843e-05 9.96867e-05
threshold=0.090771135874865919 0.57321428571428579 -0.0012574664955602442 0.0047024026775707656 0.64724736048265474 0.0053501530094267067
decision_type=2 2 2 2 2 2
left_child=2 -2 3 -1 -4 -6
right_child=1 -3 4 -5 5 -7
leaf_value=-8.8100454104679776e-05 8.6820199571869185e-06 -8.1312440852091273e-06 -4.7586520986858616e-06 -1.1555610919390824e-05 -4.4955227716206128e-07 1.3304178390110262e-05
leaf_weight=243 20168 5909 33060 1120 21848 6677
leaf_count=243 20168 5909 33060 1120 21848 6677
internal_value=0 4.66215e-06 -1.96609e-06 -2.93081e-05 -1.27132e-06 2.57878e-06
internal_weight=0 26077 62948 1363 61585 28525
internal_count=89025 26077 62948 1363 61585 28525
is_linear=0
shrinkage=0.1


Tree=45
num_leaves=7
num_cat=0
split_feature=38 32 0 166 84 39
split_gain=8.11968e-05 0.000134517 0.000119154 0.000105839 0.000104217 0.000100457
threshold=0.0011302629966660762 0.0019392380436631387 0.00054555379116738589 0.0038935821587653412 0.60791925465838526 -0.052744397231959554
decision_type=2 2 2 2 2 2
left_child=2 3 -1 -2 -3 -6
right_child=1 4 -4 -5 5 -7
leaf_value=-6.5778155435314421e-07 -1.4304620368822406e-05 -8.8889155849269924e-06 1.0403296485909779e-05 -8.2636920856559055e-05 8.8036274801962634e-05 0
leaf_weight=71986 4349 559 11166 288 295 382
leaf_count=71986 4349 559 11166 288 295 382
internal_value=0 -1.14015e-05 7.61968e-07 -1.97582e-05 1.55144e-05 4.36913e-05
internal_weight=0 5873 83152 4637 1236 677
internal_count=89025 5873 83152 4637 1236 677
is_linear=0
shrinkage=0.1


Tree=46
num_leaves=7
num_cat=0
split_feature=9 9 29 18 16 164
split_gain=7.93616e-05 0.000101044 0.000100423 0.000105056 0.000100219 9.88278e-05
threshold=0.0068171139868030218 0.0052891679003487044 0.54653679653679665 0.36010752688172049 0.51787994891443179 0.0045523775395819414
decision_type=2 2 2 2 2 2
left_child=1 -1 3 -3 -5 -4
right_child=-2 2 5 4 -6 -7
leaf_value=-1.6575105972989993e-06 -1.6655236897735636e-05 9.7291115088989649e-06 -1.0171324037293068e-05 -2.1037768579252947e-05 1.7599690974330667e-06 1.5223090140919732e-05
leaf_weight=60725 2784 5428 1496 3452 3485 11655
leaf_count=60725 2784 5428 1496 3452 3485 11655
internal_value=0 4.916e-07 5.82031e-06 -2.2303e-07 -8.799e-06 1.19175e-05
internal_weight=0 86241 25516 12365 6937 13151
internal_count=89025 86241 25516 12365 6937 13151
is_linear=0
shrinkage=0.1


Tree=47
num_leaves=7
num_cat=0
split_feature=93 33 54 192 299 90
split_gain=7.38434e-05 0.000101582 9.28905e-05 0.000140892 0.000141392 0.000126038
threshold=0.90692640692640702 0.042932399630328834 0.35769390540620744 -0.0011611032761758009 0.00026123987853677325 0.43766891891891896
decision_type=2 2 2 2 2 2
left_child=2 -2 5 4 -4 -1
right_child=1 -3 3 -5 -6 -7
leaf_value=-4.524665211885784e-06 -8.499380186501401e-07 1.0977248612306108e-05 -2.8729573933497548e-05 -1.8274201631636767e-06 0 1.0606389492433961e-05
leaf_weight=10211 15626 12438 4453 31936 3132 11229
leaf_count=10211 15626 12438 4453 31936 3132 11229
internal_value=0 4.19739e-06 -2.00049e-06 -4.93042e-06 -1.72709e-05 3.14524e-06
internal_weight=0 28064 60961 39521 7585 21440
internal_count=89025 28064 60961 39521 7585 21440
is_linear=0
shrinkage=0.1


Tree=48
num_leaves=7
num_cat=0
split_feature=44 222 114 36 50 32
split_gain=7.23448e-05 8.3752e-05 0.000110755 9.32752e-05 0.000128555 7.62657e-05
threshold=0.30151515151515157 0.21701769782068162 0.78619047619047622 0.0052114294082706977 0.44906606710480806 0.0012095557464251174
decision_type=2 2 2 2 2 2
left_child=1 3 5 4 -1 -3
right_child=-2 2 -4 -5 -6 -7
leaf_value=-4.843045015188511e-06 3.5714785995360876e-06 -4.4721200347530898e-06 8.7527481556325171e-06 7.8192541836442534e-06 -4.90039713905863e-05 1.3840782648645627e-05
leaf_weight=1960 33959 39427 9135 932 1325 2287
leaf_count=1960 33959 39427 9135 932 1325 2287
internal_value=0 -2.29587e-06 -1.05684e-06 -1.5933e-05 -2.43364e-05 -3.33644e-06
internal_weight=0 55066 50849 4217 3285 41714
internal_count=89025 55066 50849 4217 3285 41714
is_linear=0
shrinkage=0.1


Tree=49
num_leaves=7
num_cat=0
split_feature=294 288 105 288 315 11
split_gain=8.19009e-05 0.000174736 0.00013176 0.000107197 0.000140952 0.000137229
threshold=0.0011730210658758013 0.001128986944263666 0.0044121056969961174 0.003899907857237928 0.3835101452260789 -0.00027167248294534093
decision_type=2 2 2 2 2 2
left_child=1 -1 3 -2 5 -5
right_child=2 -3 -4 4 -6 -7
leaf_value=-2.8893277005596116e-07 1.8528319386720102e-06 1.5604228984605096e-05 -1.0812675014675585e-05 0 0 0.00026148581815071742
leaf_weight=67629 1188 7635 12293 22 195 63
leaf_count=67629 1188 7635 12293 22 195 63
internal_value=0 1.25099e-06 -7.13795e-06 1.98885e-05 7.65016e-05 0.000187716
internal_weight=0 75264 13761 1468 280 85
internal_count=89025 75264 13761 1468 280 85
is_linear=0
shrinkage=0.1


Tree=50
num_leaves=7
num_cat=0
split_feature=6 0 15 6 0 230
split_gain=7.93235e-05 0.000112654 9.89098e-05 9.32824e-05 9.73754e-05 9.3245e-05
threshold=-0.00060422968078466244 -1.0000000180025095e-35 0.11460391963109355 1.0000000180025095e-35 0.0011386281685963342 -0.0022701492657510865
decision_type=2 2 2 2 2 2
left_child=-1 -2 -3 5 -5 -4
right_child=1 2 3 4 -6 -7
leaf_value=1.0520791667773082e-05 -1.060674921119976e-05 -5.1266784462638985e-06 2.8614882798458325e-05 -1.4695300894481976e-05 1.1650425950316123e-05 3.6769468955137076e-06
leaf_weight=6596 10435 21503 1642 5261 1687 41901
leaf_count=6596 10435 21503 1642 5261 1687 41901
internal_value=0 -8.73838e-07 4.61142e-07 2.94928e-06 -7.51014e-06 4.7441e-06
internal_weight=0 82429 71994 50491 6948 43543
internal_count=89025 82429 71994 50491 6948 43543
is_linear=0
shrinkage=0.1


Tree=51
num_leaves=7
num_cat=0
split_feature=14 260 234 262 30 73
split_gain=7.20319e-05 0.000126814 0.00010681 0.00025134 0.000105879 8.94534e-05
threshold=0.42891986062717774 1.0000000180025095e-35 0.0058438702905016454 0.0055629530741665443 0.31262065637065645 0.0067060139972795448
decision_type=2 2 2 2 2 2
left_child=2 4 5 -4 -2 -1
right_child=1 -3 3 -5 -6 -7
leaf_value=1.1214631897176965e-06 0 -3.554200976752842e-06 1.777197694233959e-05 -0.00014433325777411354 -0.00015478439017672468 -2.4963872093518245e-05
leaf_weight=54232 59 27198 6007 89 102 1338
leaf_count=54232 59 27198 6007 89 102 1338
internal_value=0 -4.29049e-06 1.87435e-06 1.44663e-05 -9.36616e-05 3.9418e-07
internal_weight=0 27359 61666 6096 161 55570
internal_count=89025 27359 61666 6096 161 55570
is_linear=0
shrinkage=0.1


Tree=52
num_leaves=7
num_cat=0
split_feature=60 294 160 171 281 0
split_gain=7.13516e-05 0.000130208 0.000126341 0.000111925 0.000106755 9.3089e-05
threshold=0.65058139534883741 0.007205090934649939 0.0025567290428307747 -0.0005196336887313503 0.73431372549019625 0.0019083977188261161
decision_type=2 2 2 2 2 2
left_child=5 2 -2 -3 -4 -1
right_child=1 3 4 -5 -6 -7
leaf_value=2.9567885393441248e-06 -2.6882326489167245e-06 0 0 -0.00015676488460351305 5.8656367501127859e-05 6.0662066724276464e-05
leaf_weight=33029 54293 48 645 100 618 292
leaf_count=33029 54293 48 645 100 618 292
internal_value=0 -2.21967e-06 -1.8681e-06 -9.6071e-05 2.90168e-05 3.62986e-06
internal_weight=0 55704 55556 148 1263 33321
internal_count=89025 55704 55556 148 1263 33321
is_linear=0
shrinkage=0.1


Tree=53
num_leaves=7
num_cat=0
split_feature=12 294 288 1 288 166
split_gain=7.03845e-05 0.000106485 9.88874e-05 0.000105688 8.53868e-05 0.000125328
threshold=0.28759398496240607 -0.0006172840290208369 -0.0012718603954269268 0.14833347107969383 -0.0068408233586225711 -0.0038594127557347586
decision_type=2 2 2 2 2 2
left_child=2 4 3 -1 -2 -6
right_child=1 -3 -4 -5 5 -7
leaf_value=-1.7286977540307575e-05 -6.2411640622858956e-05 5.1446772927064012e-08 -4.4462138056825164e-07 1.9338528225437854e-05 8.1593038309638925e-05 1.1517573038946211e-05
leaf_weight=6836 120 26973 45483 753 295 8565
leaf_count=6836 120 26973 45483 753 295 8565
internal_value=0 3.39707e-06 -2.3332e-06 -1.29287e-05 1.28353e-05 1.44841e-05
internal_weight=0 35953 53072 7589 8980 8860
internal_count=89025 35953 53072 7589 8980 8860
is_linear=0
shrinkage=0.1


Tree=54
num_leaves=7
num_cat=0
split_feature=6 64 148 15 95 288
split_gain=6.85625e-05 8.97845e-05 8.09012e-05 7.82592e-05 0.000110443 0.000138287
threshold=-0.00056593101684132552 -0.0010878435382970506 0.81365740740740755 0.17309882600315404 0.68846519363269187 0.0025632826663191115
decision_type=2 2 2 2 2 2
left_child=-1 2 -2 4 5 -3
right_child=1 3 -4 -5 -6 -7
leaf_value=8.5142308415777715e-06 -1.9245116677782531e-05 9.6630331947999371e-07 1.0458723886169879e-06 3.0478293205010822e-06 -8.0298416755703508e-06 5.2501529746163864e-05
leaf_weight=8528 4780 11170 2518 40860 20608 561
leaf_count=8528 4780 11170 2518 40860 20608 561
internal_value=0 -9.1422e-07 -1.14964e-05 6.63794e-08 -3.5315e-06 3.90467e-06
internal_weight=0 80497 7298 73199 32339 11731
internal_count=89025 80497 7298 73199 32339 11731
is_linear=0
shrinkage=0.1


Tree=55
num_leaves=7
num_cat=0
split_feature=18 25 198 256 161 319
split_gain=7.03886e-05 8.20344e-05 9.72146e-05 0.000145042 0.000132135 0.000121185
threshold=0.1072112753147236 0.20991432068543456 -0.0044848520185762899 -0.0050335712174787153 0.033765612493268558 0.52387659289067756
decision_type=2 2 2 2 2 2
left_child=-1 -2 4 -4 -3 -6
right_child=1 2 3 -5 5 -7
leaf_value=9.3683255687501469e-06 -1.5961588222217952e-05 0 -7.5122703798312005e-05 -1.5529148738622516e-07 0.00018885888042508651 0
leaf_weight=7368 3439 358 258 77376 96 130
leaf_count=7368 3439 358 258 77376 96 130
internal_value=0 -8.36003e-07 -1.00705e-07 -4.76618e-07 4.03825e-05 9.99692e-05
internal_weight=0 81657 78218 77634 584 226
internal_count=89025 81657 78218 77634 584 226
is_linear=0
shrinkage=0.1


Tree=56
num_leaves=7
num_cat=0
split_feature=38 256 294 288 166 55
split_gain=7.04508e-05 9.59051e-05 9.65847e-05 8.4268e-05 8.95978e-05 8.26553e-05
threshold=0.0011302629966660762 0.0019480527694604179 0.0011730210658758013 0.00062150411979899911 -0.0022889854500434122 0.50984267224676449
decision_type=2 2 2 2 2 2
left_child=1 2 3 4 -1 -3
right_child=-2 5 -4 -5 -6 -7
leaf_value=1.6135911532381982e-05 -1.0575554888200546e-05 0 -1.1253356957198685e-05 9.7469424443355555e-06 -1.183266695250013e-06 2.7770993263356766e-05
leaf_weight=3134 5873 2032 7005 9663 58943 2375
leaf_count=3134 5873 2032 7005 9663 58943 2375
internal_value=0 7.55448e-07 0 1.04617e-06 -2.20352e-07 1.51094e-05
internal_weight=0 83152 78745 71740 62077 4407
internal_count=89025 83152 78745 71740 62077 4407
is_linear=0
shrinkage=0.1


Tree=57
num_leaves=7
num_cat=0
split_feature=125 192 267 198 54 65
split_gain=6.32025e-05 8.66163e-05 0.000138429 0.000111346 9.04705e-05 7.43889e-05
threshold=0.90692640692640702 -0.0019181593519475013 -0.00013614910824425892 -0.0012634245509541839 0.46791352093342492 0.061127158220269574
decision_type=2 2 2 2 2 2
left_child=1 2 -1 4 -3 -2
right_child=5 3 -4 -5 -6 -7
leaf_value=-3.6376154813924381e-05 0 4.1050145570500622e-05 0 -1.7711152815726122e-06 1.0002739349026227e-06 1.021869331183449e-05
leaf_weight=1830 16764 1109 2538 53729 1771 11284
leaf_count=1830 16764 1109 2538 53729 1771 11284
internal_value=0 -1.79936e-06 -1.54242e-05 -6.5099e-07 1.83361e-05 3.9362e-06
internal_weight=0 60977 4368 56609 2880 28048
internal_count=89025 60977 4368 56609 2880 28048
is_linear=0
shrinkage=0.1


Tree=58
num_leaves=7
num_cat=0
split_feature=180 176 134 128 288 128
split_gain=6.18763e-05 7.90545e-05 7.69218e-05 9.85929e-05 9.14215e-05 7.42533e-05
threshold=0.26006441223832533 0.81016731016731025 -0.00056625147614930416 -0.001313629230415003 0.0011353961827946792 0.0024592698395347061
decision_type=2 2 2 2 2 2
left_child=1 -1 3 -2 -5 -4
right_child=2 -3 5 4 -6 -7
leaf_value=-1.5787988053271775e-05 -4.0803110424741823e-06 1.4614640461590618e-05 -1.6112237120593619e-06 8.2599038845233643e-06 4.1966604984540598e-05 1.6382280081305306e-05
leaf_weight=4754 5584 860 62273 12226 982 2346
leaf_count=4754 5584 860 62273 12226 982 2346
internal_value=0 -1.01536e-05 6.90774e-07 6.35825e-06 1.11854e-05 -8.72893e-07
internal_weight=0 5614 83411 18792 13208 64619
internal_count=89025 5614 83411 18792 13208 64619
is_linear=0
shrinkage=0.1


Tree=59
num_leaves=7
num_cat=0
split_feature=102 116 96 96 265 131
split_gain=6.50406e-05 0.000152186 0.000129147 0.000104131 0.00012642 9.75197e-05
threshold=0.0022753145733505069 0.60922587486744451 0.0016638940226556544 0.0018214942962648808 0.0057403724740989577 0.0050341325606996787
decision_type=2 2 2 2 2 2
left_child=2 5 -1 -3 -5 -2
right_child=1 3 -4 4 -6 -7
leaf_value=-2.5593915245998568e-07 0 -4.7397034404953665e-05 2.033922913262791e-05 0 9.5892681939726269e-05 -8.0676933461682108e-05
leaf_weight=83842 380 269 3145 727 183 479
leaf_count=83842 380 269 3145 727 183 479
internal_value=0 -1.76383e-05 4.2621e-07 1.36755e-06 2.18461e-05 -5.0026e-05
internal_weight=0 2038 86987 1179 910 859
internal_count=89025 2038 86987 1179 910 859
is_linear=0
shrinkage=0.1


Tree=60
num_leaves=7
num_cat=0
split_feature=230 192 195 294 195 288
split_gain=6.29467e-05 8.99607e-05 9.29318e-05 0.000143017 0.000193517 8.73327e-05
threshold=1.0000000180025095e-35 0.00066577905975595552 0.0050041910091844794 0.0038400051118223648 0.0061297120736388258 1.0000000180025095e-35
decision_type=2 2 2 2 2 2
left_child=5 -2 -3 -4 -5 -1
right_child=1 2 3 4 -6 -7
leaf_value=-2.5020515674985235e-07 -1.0785078673361709e-05 1.1750914193031056e-05 0 -6.2164402104707234e-05 9.6341692108332022e-05 8.4591256001576715e-06
leaf_weight=51664 11558 5123 5404 786 59 14431
leaf_count=51664 11558 5123 5404 786 59 14431
internal_value=0 -4.51173e-06 1.38406e-06 -6.24078e-06 -4.44567e-05 1.5688e-06
internal_weight=0 22930 11372 6249 845 66095
internal_count=89025 22930 11372 6249 845 66095
is_linear=0
shrinkage=0.1


Tree=61
num_leaves=7
num_cat=0
split_feature=279 294 299 38 64 102
split_gain=6.07293e-05 0.000116977 0.000119834 8.45771e-05 8.53814e-05 0.000115882
threshold=0.43408639523336651 -0.001115760314143621 -0.00061871089414539495 0.0010816661871286828 -0.00063011980614380281 -0.0038952056908891915
decision_type=2 2 2 2 2 2
left_child=3 2 -2 4 5 -1
right_child=1 -3 -4 -5 -6 -7
leaf_value=5.8653967306352892e-05 -9.392274007092336e-06 -1.1942082069947216e-07 1.6449472137116473e-05 -2.0075507200214743e-05 3.7885603578243383e-07 -1.7100735763461576e-05
leaf_weight=180 1949 41290 9039 2774 28780 5013
leaf_count=180 1949 41290 9039 2774 28780 5013
internal_value=0 2.19061e-06 1.13673e-05 -3.11427e-06 -1.56736e-06 -1.34026e-05
internal_weight=0 52278 10988 36747 33973 5193
internal_count=89025 52278 10988 36747 33973 5193
is_linear=0
shrinkage=0.1


Tree=62
num_leaves=7
num_cat=0
split_feature=189 31 57 59 113 23
split_gain=6.00108e-05 0.000100256 9.6935e-05 9.4851e-05 8.22545e-05 8.21653e-05
threshold=0.62678571428571439 0.49261982570806107 0.37638888888888894 0.59413115224565949 0.54692082111436957 0.45978859444875636
decision_type=2 2 2 2 2 2
left_child=1 2 4 -4 -1 -5
right_child=-2 -3 3 5 -6 -7
leaf_value=5.882406794425455e-06 2.5429824013341249e-06 -5.7124006469759799e-06 0 4.2669108013346808e-06 -2.3227978137762582e-05 3.5086218653997227e-05
leaf_weight=1540 45343 31488 4362 2185 1892 2215
leaf_count=1540 45343 31488 4362 2185 1892 2215
internal_value=0 -2.65045e-06 4.80751e-06 1.06747e-05 -8.57666e-06 2.10321e-05
internal_weight=0 43682 12194 8762 3432 4400
internal_count=89025 43682 12194 8762 3432 4400
is_linear=0
shrinkage=0.1


Tree=63
num_leaves=7
num_cat=0
split_feature=108 256 286 265 294 93
split_gain=6.05132e-05 0.000102468 9.89713e-05 0.00010462 9.44485e-05 0.00011146
threshold=0.3133928571428572 -0.0065829411219455727 0.21701769782068162 0.0049325530523855318 -0.0062250848791718374 0.17445652173913045
decision_type=2 2 2 2 2 2
left_child=1 -1 3 -3 5 -2
right_child=4 2 -4 -5 -6 -7
leaf_value=-8.6142233283982778e-05 0 -3.3082638198906095e-05 -3.1539545229679722e-07 0 2.8846243475746947e-06 0.00012624045150312708
leaf_weight=145 44 1993 52209 2440 32059 135
leaf_count=145 44 1993 52209 2440 32059 135
internal_value=0 -1.95571e-06 -1.6409e-06 -1.60122e-05 3.46879e-06 7.6771e-05
internal_weight=0 56787 56642 4433 32238 179
internal_count=89025 56787 56642 4433 32238 179
is_linear=0
shrinkage=0.1


Tree=64
num_leaves=7
num_cat=0
split_feature=14 279 170 262 293 41
split_gain=5.89397e-05 0.000109848 9.31705e-05 0.00012209 0.000112325 8.77768e-05
threshold=0.42891986062717774 0.057509517165348911 0.0058783450210718397 0.004736545988179409 -0.0002166115266233853 0.0068171139868030218
decision_type=2 2 2 2 2 2
left_child=2 -2 5 -4 -5 -1
right_child=1 -3 3 4 -6 -7
leaf_value=1.0968595898214171e-06 -7.2598906659762728e-05 -3.0661367470969435e-06 1.7849347999667475e-05 0 -0.0001521711987749059 -2.6342073662236128e-05
leaf_weight=55272 236 27123 5084 51 77 1182
leaf_count=55272 236 27123 5084 51 77 1182
internal_value=0 -3.87057e-06 1.70607e-06 1.45318e-05 -7.35179e-05 4.2466e-07
internal_weight=0 27359 61666 5212 128 56454
internal_count=89025 27359 61666 5212 128 56454
is_linear=0
shrinkage=0.1


Tree=65
num_leaves=7
num_cat=0
split_feature=288 294 198 25 231 24
split_gain=5.82543e-05 0.000138012 0.000122961 0.000127504 0.000100758 9.79363e-05
threshold=-0.0012718603954269268 -0.001115760314143621 -0.0032674429549821578 0.81101190476190488 -0.28710974774504266 0.80810147299509005
decision_type=2 2 2 2 2 2
left_child=2 -2 3 -1 -5 -4
right_child=1 -3 5 4 -6 -7
leaf_value=0 1.2439087426389733e-05 -4.8261970080579783e-07 -2.03409361563571e-05 -3.6327530925059309e-06 7.0555399285508958e-05 -4.1372733404010749e-07
leaf_weight=1060 9337 66979 5279 79 562 5729
leaf_count=1060 9337 66979 5279 79 562 5729
internal_value=0 1.0269e-06 -6.28482e-06 1.75606e-05 5.29193e-05 -1.04685e-05
internal_weight=0 76316 12709 1701 641 11008
internal_count=89025 76316 12709 1701 641 11008
is_linear=0
shrinkage=0.1


Tree=66
num_leaves=7
num_cat=0
split_feature=28 262 227 99 207 63
split_gain=5.78164e-05 9.23206e-05 0.000151003 0.0001208 9.11186e-05 8.23517e-05
threshold=0.46247654784240161 0.0055629530741665443 0.0049698456776609157 0.0059060572276486136 0.5572599531615926 0.088073691014867506
decision_type=2 2 2 2 2 2
left_child=5 -2 -3 4 -4 -1
right_child=1 2 3 -5 -6 -7
leaf_value=6.9526492722890698e-05 -1.021985485332296e-06 0 -0.00017723477000480348 0 0 3.8288133428141511e-06
leaf_weight=203 69330 171 145 21 45 19110
leaf_count=203 69330 171 145 21 45 19110
internal_value=0 -1.37336e-06 -5.05897e-05 -0.00010822 -0.000138895 4.80896e-06
internal_weight=0 69712 382 211 190 19313
internal_count=89025 69712 382 211 190 19313
is_linear=0
shrinkage=0.1


Tree=67
num_leaves=7
num_cat=0
split_feature=0 50 6 14 170 259
split_gain=5.47849e-05 8.9566e-05 7.61322e-05 7.05724e-05 0.000104158 9.8759e-05
threshold=0.0019083977188261161 0.67954941498630828 0.00058445360249059785 0.4381487426431247 0.0055019318226480528 1.0000000180025095e-35
decision_type=2 2 2 2 2 2
left_child=2 -2 3 4 -1 -5
right_child=1 -3 -4 5 -6 -7
leaf_value=4.8981651323584153e-07 5.1953204220850024e-05 -1.2331843384946412e-05 -1.0754671079280528e-05 -9.7943436558900162e-05 1.2110246748864941e-05 -3.1212935289818386e-06
leaf_weight=46869 521 177 6436 113 9523 25386
leaf_count=46869 521 177 6436 113 9523 25386
internal_value=0 2.78467e-05 -2.42479e-07 5.17132e-07 2.54948e-06 -3.76288e-06
internal_weight=0 698 88327 81891 56392 25499
internal_count=89025 698 88327 81891 56392 25499
is_linear=0
shrinkage=0.1


Tree=68
num_leaves=7
num_cat=0
split_feature=18 316 242 102 128 134
split_gain=5.67124e-05 7.85288e-05 6.37558e-05 0.000147978 8.17271e-05 8.42373e-05
threshold=0.1072112753147236 0.87026647966339421 0.18757716049382719 0.0022522539183809091 0.0024592698395347061 0.00058241124814628631
decision_type=2 2 2 2 2 2
left_child=1 -1 3 -2 5 -4
right_child=2 -3 4 -5 -6 -7
leaf_value=1.8354372866417555e-05 -4.7277676205536111e-06 -1.0124186101241005e-06 1.3469108065959243e-06 -6.5853329248184104e-05 2.0913671095395791e-05 -8.4109872861982306e-06
leaf_weight=3853 13125 3515 55727 428 1888 10489
leaf_count=3853 13125 3515 55727 428 1888 10489
internal_value=0 8.3751e-06 -7.83971e-07 -7.0701e-06 3.86846e-07 -1.16391e-07
internal_weight=0 7368 81657 13553 68104 66216
internal_count=89025 7368 81657 13553 68104 66216
is_linear=0
shrinkage=0.1


Tree=69
num_leaves=7
num_cat=0
split_feature=76 102 231 291 17 224
split_gain=5.41575e-05 8.48496e-05 0.000118982 7.86271e-05 6.02431e-05 9.65046e-05
threshold=0.3133928571428572 -0.0038952056908891915 -0.12303748943654873 0.0044749373199970211 0.57321428571428579 -0.003312723917971105
decision_type=2 2 2 2 2 2
left_child=3 2 -2 -1 -3 -6
right_child=1 4 -4 -5 5 -7
leaf_value=-1.268496060873355e-05 0 6.7841835691211047e-06 0.00012712542105288308 -4.881596107165982e-07 -5.1361877805663618e-05 0
leaf_weight=6068 44 17193 131 50696 380 14513
leaf_count=6068 44 17193 131 50696 380 14513
internal_value=0 3.24191e-06 7.35497e-05 -1.88869e-06 2.68389e-06 -1.6827e-06
internal_weight=0 32261 175 56764 32086 14893
internal_count=89025 32261 175 56764 32086 14893
is_linear=0
shrinkage=0.1


Tree=70
num_leaves=7
num_cat=0
split_feature=155 129 247 294 96 299
split_gain=5.32876e-05 0.000100339 7.95061e-05 6.67105e-05 7.8369e-05 6.53407e-05
threshold=0.71940522036799326 0.33476025633300927 0.42884510125889441 -0.0025388781666153544 -0.0018393630458328756 0.00095920127126461702
decision_type=2 2 2 2 2 2
left_child=1 -1 -2 4 -4 -6
right_child=2 -3 3 -5 5 -7
leaf_value=-2.7849499864947935e-06 -3.3334405732225268e-06 3.0075526912082426e-05 0 4.9621799669604719e-06 7.3220682722240836e-05 0
leaf_weight=51258 12500 922 377 23425 462 81
leaf_count=51258 12500 922 377 23425 462 81
internal_value=0 -2.09849e-06 2.86802e-06 6.27683e-06 3.37419e-05 5.80072e-05
internal_weight=0 52180 36845 24345 920 543
internal_count=89025 52180 36845 24345 920 543
is_linear=0
shrinkage=0.1


Tree=71
num_leaves=7
num_cat=0
split_feature=288 294 262 256 234 18
split_gain=5.43385e-05 0.000122594 9.69265e-05 0.000163743 9.14164e-05 0.00012337
threshold=-0.0011638058743361766 -0.001115760314143621 -0.0033955900886759589 -0.0036199137845427383 0.0072404580809048808 0.7013956193060672
decision_type=2 2 2 2 2 2
left_child=2 -2 3 4 5 -1
right_child=1 -3 -4 -5 -6 -7
leaf_value=0 1.3434281396957563e-05 -1.4214109164817951e-07 -8.2620566816617783e-06 5.0734577138175039e-05 7.7412721144524491e-05 -6.5305724489228686e-05
leaf_weight=905 7322 64791 14761 786 107 353
leaf_count=905 7322 64791 14761 786 107 353
internal_value=0 1.1608e-06 -5.1363e-06 1.37623e-05 -3.56466e-06 -1.48946e-05
internal_weight=0 72113 16912 2151 1365 1258
internal_count=89025 72113 16912 2151 1365 1258
is_linear=0
shrinkage=0.1


Tree=72
num_leaves=7
num_cat=0
split_feature=64 198 82 38 108 262
split_gain=5.07383e-05 8.01382e-05 9.02699e-05 7.97668e-05 7.47861e-05 0.000106182
threshold=0.00054495918201258331 -0.0012247403551697287 0.28599439775910368 0.0011353961827946792 0.3133928571428572 -0.0059559458656384115
decision_type=2 2 2 2 2 2
left_child=3 2 -2 4 -1 -6
right_child=1 -3 -4 -5 5 -7
leaf_value=-3.4507259707013558e-06 6.2748665213501568e-05 2.177712116807359e-06 3.6343487677281286e-06 -2.5615732279633142e-05 9.3047564181771117e-05 2.8070936882227614e-06
leaf_weight=41559 497 21084 1028 1349 134 23374
leaf_count=41559 497 21084 1028 1349 134 23374
internal_value=0 4.06439e-06 2.65333e-05 -1.4197e-06 -8.33304e-07 3.56122e-06
internal_weight=0 22609 1525 66416 65067 23508
internal_count=89025 22609 1525 66416 65067 23508
is_linear=0
shrinkage=0.1


Tree=73
num_leaves=7
num_cat=0
split_feature=9 141 150 11 203 166
split_gain=5.03834e-05 9.10226e-05 7.38702e-05 7.37853e-05 8.31377e-05 0.000121809
threshold=0.0068171139868030218 0.27718676122931446 0.38814749780509222 -0.00049839820661269705 -0.00010356322449036431 -0.0034762538229440305
decision_type=2 2 2 2 2 2
left_child=3 -2 -3 -1 -5 -6
right_child=1 2 -4 4 5 -7
leaf_value=6.143350764341295e-06 4.4382236163108095e-08 0 -4.761363307826774e-05 -6.3275093339787557e-06 5.2969528730996689e-05 5.8634722443346625e-07
leaf_weight=18090 1499 344 941 20811 451 46889
leaf_count=18090 1499 344 941 20811 451 46889
internal_value=0 -1.32417e-05 -3.29689e-05 4.22058e-07 -1.01648e-06 1.20292e-06
internal_weight=0 2784 1285 86241 68151 47340
internal_count=89025 2784 1285 86241 68151 47340
is_linear=0
shrinkage=0.1


Tree=74
num_leaves=7
num_cat=0
split_feature=30 18 17 288 63 15
split_gain=5.20334e-05 0.000100989 8.3955e-05 8.29503e-05 8.38249e-05 7.52901e-05
threshold=0.44843699645504359 0.28923594231080868 0.34833164812942369 -0.0017361116925318496 0.91058102345415792 0.16006535947712422
decision_type=2 2 2 2 2 2
left_child=1 5 -3 4 -4 -1
right_child=-2 2 3 -5 -6 -7
leaf_value=-5.6602872268113405e-06 1.3182784243637069e-06 6.0116844541360743e-06 -9.0346623994398716e-06 -8.9881689467904253e-06 -6.4278454209207149e-05 1.5000164243559148e-05
leaf_weight=2870 68863 2376 950 9570 677 3719
leaf_count=2870 68863 2376 950 9570 677 3719
internal_value=0 -4.45759e-06 -9.53527e-06 -1.33231e-05 -3.54253e-05 5.1721e-06
internal_weight=0 20162 13573 11197 1627 6589
internal_count=89025 20162 13573 11197 1627 6589
is_linear=0
shrinkage=0.1


Tree=75
num_leaves=7
num_cat=0
split_feature=92 134 221 224 150 57
split_gain=4.94448e-05 7.6974e-05 7.2054e-05 6.98985e-05 8.53162e-05 7.72824e-05
threshold=0.65058139534883741 -0.0011972465837022381 0.55086206896551737 -0.0017431731626285083 0.5011848341232229 0.67006802721088443
decision_type=2 2 2 2 2 2
left_child=1 2 -1 4 5 -2
right_child=3 -3 -4 -5 -6 -7
leaf_value=0 -1.4527113782254506e-05 1.404654223169548e-06 3.2020881166618243e-05 -4.6051456550474553e-07 -2.2872227174903391e-05 1.8604400677044915e-05
leaf_weight=1084 1512 30565 1695 49563 3298 1308
leaf_count=1084 1512 30565 1695 49563 3298 1308
internal_value=0 3.04817e-06 1.91451e-05 -1.82088e-06 -1.19443e-05 0
internal_weight=0 33344 2779 55681 6118 2820
internal_count=89025 33344 2779 55681 6118 2820
is_linear=0
shrinkage=0.1


Tree=76
num_leaves=7
num_cat=0
split_feature=6 187 297 207 176 32
split_gain=4.82041e-05 7.08668e-05 0.00010731 8.4649e-05 6.53823e-05 6.15419e-05
threshold=-0.00056593101684132552 0.51861754802931281 0.0045991559518518887 0.2169243009774949 0.81016731016731025 -0.00057504319161871809
decision_type=2 2 2 2 2 2
left_child=1 2 3 -1 -5 -2
right_child=5 -3 -4 4 -6 -7
leaf_value=-5.8451085598768972e-06 -7.4103932181272989e-06 1.4760382348500226e-05 6.0854781992985018e-06 -0.00011469754860042974 0 3.203973645683058e-07
leaf_weight=663 11915 5134 2499 187 45 68582
leaf_count=663 11915 5134 2499 187 45 68582
internal_value=0 7.14964e-06 -2.75406e-06 -3.34967e-05 -8.84708e-05 -7.56098e-07
internal_weight=0 8528 3394 895 232 80497
internal_count=89025 8528 3394 895 232 80497
is_linear=0
shrinkage=0.1


Tree=77
num_leaves=7
num_cat=0
split_feature=288 61 230 202 36 284
split_gain=4.69941e-05 0.000113932 9.70506e-05 0.000106211 9.13532e-05 8.90028e-05
threshold=-0.0068408233586225711 0.31072796934865904 -0.0050704338006299912 0.005133655551481626 0.005125356226721705 0.70900537634408611
decision_type=2 2 2 2 2 2
left_child=1 5 3 -2 -5 -1
right_child=2 -3 -4 4 -6 -7
leaf_value=0 0 0 -2.9895240016902418e-08 0 0.00016383706980239746 -0.00019785885818499345
leaf_weight=35 192 159 88388 81 108 62
leaf_count=35 192 159 88388 81 108 62
internal_value=0 -4.26309e-05 1.25901e-07 5.03856e-05 0.000103246 -0.000127565
internal_weight=0 256 88769 381 189 97
internal_count=89025 256 88769 381 189 97
is_linear=0
shrinkage=0.1


Tree=78
num_leaves=7
num_cat=0
split_feature=93 299 18 157 15 274
split_gain=4.6362e-05 6.86832e-05 0.000103234 8.43494e-05 8.21249e-05 7.91766e-05
threshold=0.55718954248366026 0.00025263378430025581 0.39593646864686477 0.27842377260981915 0.3706088029617442 0.18757716049382719
decision_type=2 2 2 2 2 2
left_child=1 2 -1 -4 -3 -5
right_child=-2 4 3 5 -6 -7
leaf_value=-1.264930544342531e-07 1.9677490683299815e-06 -1.0192507800191365e-06 -2.6640584293848428e-05 -3.4837740081965897e-05 1.6864340514644147e-05 0
leaf_weight=12930 51037 12798 3662 780 3089 4729
leaf_count=12930 51037 12798 3662 780 3089 4729
internal_value=0 -2.64608e-06 -6.31605e-06 -1.44446e-05 2.11526e-06 -5.33903e-06
internal_weight=0 37988 22101 9171 15887 5509
internal_count=89025 37988 22101 9171 15887 5509
is_linear=0
shrinkage=0.1


Tree=79
num_leaves=7
num_cat=0
split_feature=0 100 165 6 150 224
split_gain=4.46476e-05 8.67787e-05 8.15065e-05 7.40833e-05 6.13379e-05 6.04488e-05
threshold=-0.0013320016766451557 0.0045363009945152957 -0.00051662108759470361 -0.00056593101684132552 0.68780940594059414 0.00054734542959078436
decision_type=2 2 2 2 2 2
left_child=1 2 -1 5 -3 -2
right_child=3 4 -4 -5 -6 -7
leaf_value=0 3.942644403630674e-06 9.7650972071549372e-06 -0.00011172546484024813 -5.5389157498458044e-07 -3.6746195456179037e-05 2.7558583447233512e-05
leaf_weight=55 5776 750 168 80247 402 1627
leaf_count=55 5776 750 168 80247 402 1627
internal_value=0 -1.78834e-05 -7.61775e-05 2.64892e-07 -1.7574e-06 9.87691e-06
internal_weight=0 1375 223 87650 1152 7403
internal_count=89025 1375 223 87650 1152 7403
is_linear=0
shrinkage=0.1


Tree=80
num_leaves=7
num_cat=0
split_feature=294 9 256 18 103 288
split_gain=4.4879e-05 0.000111838 0.000125693 0.000153116 0.000106863 9.30735e-05
threshold=0.0011730210658758013 0.0044300620373547454 0.0044162371579199453 0.23337147215865753 -0.11438505222595205 0.0011353961827946792
decision_type=2 2 2 2 2 2
left_child=5 2 -2 -4 -5 -1
right_child=1 -3 3 4 -6 -7
leaf_value=-1.0921614238163663e-07 4.2594310523296142e-06 -8.9667395867121382e-06 0 0 0.00020693764367659166 1.1840790780208253e-05
leaf_weight=68151 1526 12049 39 47 100 7113
leaf_count=68151 1526 12049 39 47 100 7113
internal_value=0 -5.26277e-06 1.75964e-05 9.68019e-05 0.000148715 9.47739e-07
internal_weight=0 13761 1712 186 147 75264
internal_count=89025 13761 1712 186 147 75264
is_linear=0
shrinkage=0.1


Tree=81
num_leaves=7
num_cat=0
split_feature=97 187 134 188 158 183
split_gain=4.47769e-05 5.12461e-05 7.95534e-05 0.000111255 0.00014193 6.07607e-05
threshold=0.28331520074815514 0.88146743978590558 0.002358492479236141 0.78759398496240618 0.21701769782068162 0.44465568229826785
decision_type=2 2 2 2 2 2
left_child=1 2 -1 4 -4 -5
right_child=-2 -3 3 5 -6 -7
leaf_value=-1.4689929914585111e-06 1.0604641931267842e-05 3.1263282830313934e-06 4.5093129795940092e-05 -2.8761581731488929e-05 -6.397100252840453e-05 3.2418062638932161e-05
leaf_weight=57624 3804 26081 78 254 809 375
leaf_count=57624 3804 26081 78 254 809 375
internal_value=0 -4.81687e-07 -2.16536e-06 -2.49981e-05 -4.81547e-05 0
internal_weight=0 85221 59140 1516 887 629
internal_count=89025 85221 59140 1516 887 629
is_linear=0
shrinkage=0.1


Tree=82
num_leaves=7
num_cat=0
split_feature=32 84 142 204 38 289
split_gain=4.74918e-05 0.000106749 9.09043e-05 0.00011233 8.44827e-05 7.35682e-05
threshold=0.0019392380436631387 0.60922587486744451 0.65545505935556825 0.17902930402930406 0.0011444923502388351 0.14600689632490813
decision_type=2 2 2 2 2 2
left_child=4 -2 3 -3 -1 -5
right_child=1 2 -4 5 -6 -7
leaf_value=3.1581206286338352e-07 -4.7614804774080228e-06 0 0 0.00011281018353512468 -1.4398284159768678e-05 0
leaf_weight=83417 702 230 153 335 4073 115
leaf_count=83417 702 230 153 335 4073 115
internal_value=0 1.7426e-05 4.26455e-05 5.9666e-05 -3.06959e-07 8.86487e-05
internal_weight=0 1535 833 680 87490 450
internal_count=89025 1535 833 680 87490 450
is_linear=0
shrinkage=0.1


Tree=83
num_leaves=7
num_cat=0
split_feature=288 319 109 294 137 313
split_gain=4.53587e-05 0.000135429 0.000169267 0.000164253 0.000204677 0.000142587
threshold=0.0022682177694859367 0.4204183555298206 0.69337606837606847 0.0034652073370775587 0.0046402436925407535 0.88516483516483524
decision_type=2 2 2 2 2 2
left_child=-1 2 3 -2 -5 -3
right_child=1 5 -4 4 -6 -7
leaf_value=-6.1235858865333512e-07 0 5.2609654046519587e-07 8.2353164542079847e-05 0 -0.00012546417428114232 3.7712107397601887e-05
leaf_weight=82984 686 2896 115 99 319 1926
leaf_count=82984 686 2896 115 99 319 1926
internal_value=0 8.36138e-06 -1.94134e-05 -3.50771e-05 -8.45789e-05 1.65213e-05
internal_weight=0 6041 1219 1104 418 4822
internal_count=89025 6041 1219 1104 418 4822
is_linear=0
shrinkage=0.1


Tree=84
num_leaves=7
num_cat=0
split_feature=12 207 58 166 251 254
split_gain=4.34861e-05 7.78989e-05 9.78454e-05 7.95384e-05 7.35971e-05 0.000102281
threshold=0.28759398496240607 0.30017064846416391 0.3913968547641074 0.002317498918290362 0.3313781477913858 0.88017094017094022
decision_type=2 2 2 2 2 2
left_child=-1 3 -3 -2 -5 -6
right_child=1 2 -4 4 5 -7
leaf_value=-1.8142299238627259e-06 4.2364433884401128e-07 -2.1543946796219428e-06 1.5688819496706182e-05 6.1381462200896645e-06 -8.0553675786798143e-05 0
leaf_weight=53072 22870 4163 8098 152 391 279
leaf_count=53072 22870 4163 8098 152 391 279
internal_value=0 2.69e-06 9.18506e-06 -4.4092e-07 -3.10823e-05 -4.76611e-05
internal_weight=0 35953 12261 23692 822 670
internal_count=89025 35953 12261 23692 822 670
is_linear=0
shrinkage=0.1


Tree=85
num_leaves=7
num_cat=0
split_feature=28 16 30 102 132 295
split_gain=4.29818e-05 7.8528e-05 7.37398e-05 7.9116e-05 8.57088e-05 7.847e-05
threshold=0.46737588652482276 0.76568627450980398 0.44843699645504359 -0.0022222238225904074 0.0045196742020574459 -0.057305271364860542
decision_type=2 2 2 2 2 2
left_child=1 -1 -2 4 -4 -6
right_child=2 -3 3 -5 5 -7
leaf_value=3.0991202961859487e-08 -7.2620134042309783e-06 1.4897505906812732e-05 -2.6448327395726877e-05 -5.0061490064165775e-08 0 5.4579440790153198e-05
leaf_weight=14574 15520 5049 178 52402 525 777
leaf_count=14574 15520 5049 178 52402 525 777
internal_value=0 4.13585e-06 -1.16459e-06 4.90377e-07 2.32932e-05 3.43155e-05
internal_weight=0 19623 69402 53882 1480 1302
internal_count=89025 19623 69402 53882 1480 1302
is_linear=0
shrinkage=0.1


Tree=86
num_leaves=7
num_cat=0
split_feature=244 183 288 180 192 127
split_gain=4.27811e-05 6.98822e-05 7.13376e-05 6.83115e-05 9.42584e-05 0.000149503
threshold=0.32173123486682814 0.45166314943221791 -0.0017162477012790942 0.29893617021276603 0.0025632826663191115 0.74652710785259513
decision_type=2 2 2 2 2 2
left_child=1 2 -1 -2 -5 -6
right_child=3 -3 -4 4 5 -7
leaf_value=-4.9324764286152735e-05 -1.4680811654770073e-05 1.0679207190318233e-06 -8.6615814429431064e-06 6.9740678552960431e-07 4.7974420216563564e-05 0
leaf_weight=587 2683 5488 4649 73031 1110 1477
leaf_count=587 2683 5488 4649 73031 1110 1477
internal_value=0 -5.91689e-06 -1.42799e-05 8.1731e-07 1.43986e-06 2.02716e-05
internal_weight=0 10724 5236 78301 75618 2587
internal_count=89025 10724 5236 78301 75618 2587
is_linear=0
shrinkage=0.1


Tree=87
num_leaves=7
num_cat=0
split_feature=0 294 54 288 299 24
split_gain=4.03575e-05 7.07498e-05 6.32319e-05 6.21008e-05 6.99805e-05 7.96443e-05
threshold=0.00054555379116738589 -0.0018326213313990534 0.54559793518784072 -0.0022008263643868982 -0.00010350936461941744 0.76095238095238105
decision_type=2 2 2 2 2 2
left_child=3 2 -2 4 5 -1
right_child=1 -3 -4 -5 -6 -7
leaf_value=-4.1057378377627424e-05 4.8995976280784033e-05 2.1367438463862147e-06 0 0 0 -3.0247661540342041e-06
leaf_weight=1283 674 12697 674 68701 3411 1585
leaf_count=1283 674 12697 674 68701 3411 1585
internal_value=0 4.92349e-06 2.70824e-05 -9.17135e-07 -1.04363e-05 -2.19596e-05
internal_weight=0 14045 1348 74980 6279 2868
internal_count=89025 14045 1348 74980 6279 2868
is_linear=0
shrinkage=0.1


Tree=88
num_leaves=7
num_cat=0
split_feature=5 85 294 294 216 29
split_gain=4.15013e-05 6.18856e-05 9.8009e-05 8.58454e-05 0.000106928 8.31731e-05
threshold=-0.0011137718151035582 0.58477011494252884 0.0012395416474335621 -0.0030075221521013158 0.57294832826747732 0.19836065573770495
decision_type=2 2 2 2 2 2
left_child=-1 3 -3 4 5 -2
right_child=1 2 -4 -5 -6 -7
leaf_value=-9.2795107451900346e-06 0 0 -1.4047938869689322e-05 2.863413040953507e-06 6.4512871167153767e-06 0.00011742912773096112
leaf_weight=4569 49 46916 5590 30885 801 215
leaf_count=4569 49 46916 5590 30885 801 215
internal_value=0 5.03653e-07 -1.53315e-06 4.02196e-06 3.24315e-05 9.01025e-05
internal_weight=0 84456 52506 31950 1065 264
internal_count=89025 84456 52506 31950 1065 264
is_linear=0
shrinkage=0.1


Tree=89
num_leaves=7
num_cat=0
split_feature=15 239 262 71 9 265
split_gain=4.02239e-05 0.000106641 0.000109539 7.73083e-05 7.41083e-05 6.07544e-05
threshold=0.99772727272727291 0.33275058275058284 0.00061162087137223164 -0.23286727258346918 0.0052296836058462765 0.0078058598785912519
decision_type=2 2 2 2 2 2
left_child=4 2 -2 -4 -1 -6
right_child=1 -3 3 -5 5 -7
leaf_value=-1.5111146061645786e-06 -1.1593397430434847e-05 0 0 -0.00012388017486119455 5.3647960368258125e-06 -4.6978825124713967e-05
leaf_weight=57923 974 2432 68 206 27220 202
leaf_count=57923 974 2432 68 206 27220 202
internal_value=0 -1.02302e-05 -3.40818e-05 -9.35931e-05 4.4519e-07 4.77671e-06
internal_weight=0 3680 1248 274 85345 27422
internal_count=89025 3680 1248 274 85345 27422
is_linear=0
shrinkage=0.1


Tree=90
num_leaves=7
num_cat=0
split_feature=89 70 108 73 128 255
split_gain=4.01501e-05 5.52279e-05 0.00011542 7.72823e-05 7.24967e-05 6.47187e-05
threshold=0.24744897959183676 -0.0011334657833481641 0.26138716356107666 0.0050469327131770153 -0.00066137575780800251 0.61920122887864837
decision_type=2 2 2 2 2 2
left_child=-1 2 -2 -4 5 -3
right_child=1 4 3 -5 -6 -7
leaf_value=-8.2532486369543231e-06 -1.5716138560037153e-06 -2.1258321653117985e-05 3.5222630328408361e-05 1.3172348821625729e-06 8.5131972797396496e-07 -1.8567193540451431e-06
leaf_weight=5539 4097 2888 2003 1550 66827 6121
leaf_count=5539 4097 2888 2003 1550 66827 6121
internal_value=0 5.3708e-07 8.65376e-06 2.19781e-05 -2.09764e-07 -8.68623e-06
internal_weight=0 83486 7650 3553 75836 9009
internal_count=89025 83486 7650 3553 75836 9009
is_linear=0
shrinkage=0.1


Tree=91
num_leaves=7
num_cat=0
split_feature=26 146 11 196 252 160
split_gain=3.93595e-05 0.000115609 7.68993e-05 7.34659e-05 0.000103778 6.02711e-05
threshold=0.38480769230769235 0.78619047619047622 -0.00046752492906925201 0.0043848339639294973 0.85960591133004927 0.00055865927599629839
decision_type=2 2 2 2 2 2
left_child=-1 2 3 -2 -5 -4
right_child=1 -3 5 4 -6 -7
leaf_value=-3.3957915308333035e-06 -1.6919904065642934e-05 1.032252369050386e-05 -5.5823380479460295e-06 1.7371020643720674e-05 -1.1239066103255214e-07 2.7743154200164937e-06
leaf_weight=24830 1148 11671 27404 6265 6095 11612
leaf_count=24830 1148 11671 27404 6265 6095 11612
internal_value=0 1.29253e-06 -6.10122e-07 5.75749e-06 8.30837e-06 -2.95503e-06
internal_weight=0 64195 52524 13508 12360 39016
internal_count=89025 64195 52524 13508 12360 39016
is_linear=0
shrinkage=0.1


Tree=92
num_leaves=7
num_cat=0
split_feature=189 31 186 57 116 187
split_gain=3.89045e-05 8.62325e-05 8.91204e-05 6.95828e-05 6.68485e-05 5.83535e-05
threshold=0.62678571428571439 0.49261982570806107 0.86632302405498296 0.76095238095238105 0.51787994891443179 0.87637429020176405
decision_type=2 2 2 2 2 2
left_child=1 2 3 -1 5 -3
right_child=-2 4 -4 -5 -6 -7
leaf_value=-7.5892504644127882e-06 2.0319406824048914e-06 -1.5522785181115311e-05 1.9392250182682876e-05 1.0161895234874304e-05 -1.1416040757505407e-06 0
leaf_weight=5324 45343 8355 3104 3766 19779 3354
leaf_count=5324 45343 8355 3104 3766 19779 3354
internal_value=0 -2.14946e-06 4.76375e-06 0 -5.00046e-06 -1.10507e-05
internal_weight=0 43682 12194 9090 31488 11709
internal_count=89025 43682 12194 9090 31488 11709
is_linear=0
shrinkage=0.1


Tree=93
num_leaves=7
num_cat=0
split_feature=18 316 288 218 43 26
split_gain=3.71465e-05 6.19931e-05 5.26801e-05 5.19802e-05 5.14513e-05 5.12896e-05
threshold=0.1072112753147236 0.87026647966339421 -0.0023930614818041813 0.93295880149812749 -0.0008377602812770275 0.23939044100669593
decision_type=2 2 2 2 2 2
left_child=1 2 4 5 -1 -3
right_child=-2 3 -4 -5 -6 -7
leaf_value=-8.8821434554994469e-05 -6.3104319393426004e-07 7.1605914260560004e-06 1.9832980286161147e-05 1.6923198116249081e-05 0 -1.9959486943647896e-05
leaf_weight=73 81657 745 3564 919 216 1851
leaf_count=73 81657 745 3564 919 216 1851
internal_value=0 6.78169e-06 1.57105e-05 -1.45364e-06 -1.61287e-05 -1.00717e-05
internal_weight=0 7368 3853 3515 289 2596
internal_count=89025 7368 3853 3515 289 2596
is_linear=0
shrinkage=0.1


Tree=94
num_leaves=7
num_cat=0
split_feature=198 288 315 224 155 26
split_gain=3.64799e-05 7.30908e-05 6.91896e-05 6.82917e-05 6.18285e-05 7.01241e-05
threshold=1.0000000180025095e-35 0.0019575871030470542 0.66545012165450135 0.00066533609285279749 0.51090923516344033 0.68123905080426839
decision_type=2 2 2 2 2 2
left_child=1 -1 -3 -2 -4 -6
right_child=3 2 4 -5 5 -7
leaf_value=6.5253021397953803e-07 -9.7161095334233384e-06 0 0 1.1283972812473417e-06 0.0001202513105829288 0
leaf_weight=65956 9999 512 139 12054 192 173
leaf_count=65956 9999 512 139 12054 192 173
internal_value=0 1.14797e-06 2.78791e-05 -3.541e-06 5.41472e-05 7.56872e-05
internal_weight=0 66972 1016 22053 504 365
internal_count=89025 66972 1016 22053 504 365
is_linear=0
shrinkage=0.1


Tree=95
num_leaves=7
num_cat=0
split_feature=288 61 54 314 294 164
split_gain=3.62714e-05 9.30004e-05 8.09899e-05 8.49083e-05 6.73903e-05 0.000106661
threshold=-0.0068408233586225711 0.31072796934865904 0.290199458261512 0.83380952380952389 -0.0062250848791718374 0.0053506469585553598
decision_type=2 2 2 2 2 2
left_child=1 2 -1 -4 5 -2
right_child=4 -3 3 -5 -6 -7
leaf_value=0 0 0 -0.00022790485447677917 0 0 0.0001546682594477704
leaf_weight=20 130 159 55 22 88568 71
leaf_count=20 130 159 55 22 88568 71
internal_value=0 -3.74485e-05 -0.000114331 -0.000163298 1.14733e-07 5.76945e-05
internal_weight=0 256 97 77 88769 201
internal_count=89025 256 97 77 88769 201
is_linear=0
shrinkage=0.1


Tree=96
num_leaves=7
num_cat=0
split_feature=14 279 30 231 310 128
split_gain=3.62421e-05 6.76887e-05 7.91559e-05 8.90689e-05 7.66723e-05 6.81754e-05
threshold=0.42891986062717774 0.057509517165348911 0.31262065637065645 0.29513232219953983 0.048544833274419712 0.0011239114180536804
decision_type=2 2 2 2 2 2
left_child=-1 2 -2 -4 -3 -6
right_child=1 4 3 -5 5 -7
leaf_value=1.3516240906229121e-06 0 4.9957690333571316e-05 -0.00013765776876170961 0 -5.1883783705964419e-06 9.2825458103590475e-06
leaf_weight=61666 79 264 128 29 23298 3561
leaf_count=61666 79 264 128 29 23298 3561
internal_value=0 -3.02133e-06 -5.71804e-05 -9.94009e-05 -2.34468e-06 -3.0657e-06
internal_weight=0 27359 236 157 27123 26859
internal_count=89025 27359 236 157 27123 26859
is_linear=0
shrinkage=0.1


Tree=97
num_leaves=7
num_cat=0
split_feature=220 112 262 110 147 47
split_gain=3.62572e-05 8.19637e-05 7.12293e-05 6.70539e-05 5.7102e-05 8.38639e-05
threshold=0.58477011494252884 0.90121951219512209 -0.0012102877018040912 0.091057151317737658 0.12526150627615065 0.23194202898550728
decision_type=2 2 2 2 2 2
left_child=1 2 -1 -3 5 -4
right_child=-2 3 4 -5 -6 -7
leaf_value=1.5542017248674017e-05 -1.3458841203439897e-06 -7.8736846774620182e-06 0 2.0015129571728242e-05 0 -5.9910747544701793e-05
leaf_weight=2743 61119 765 1013 4225 18755 405
leaf_count=2743 61119 765 1013 4225 18755 405
internal_value=0 3.0041e-06 2.30188e-07 1.46427e-05 -1.58194e-06 -2.09223e-05
internal_weight=0 27906 22916 4990 20173 1418
internal_count=89025 27906 22916 4990 20173 1418
is_linear=0
shrinkage=0.1


Tree=98
num_leaves=7
num_cat=0
split_feature=256 262 291 262 295 61
split_gain=3.51387e-05 6.09108e-05 5.44189e-05 7.77329e-05 9.55307e-05 0.000107847
threshold=-0.0005512679720496293 -0.00055772454193281351 0.0048374890772974232 -0.0030048102244473181 -0.29336026695087192 0.39767441860465119
decision_type=2 2 2 2 2 2
left_child=2 -2 -1 4 -4 -6
right_child=1 -3 3 -5 5 -7
leaf_value=-8.5209369907226425e-06 1.0763422964150488e-05 2.2633504171145107e-07 -3.2193966087289534e-05 -1.5552801061281989e-06 0 5.34290335405148e-05
leaf_weight=10577 6334 50446 205 19883 689 891
leaf_count=10577 6334 50446 205 19883 689 891
internal_value=0 1.49841e-06 -2.63501e-06 0 2.0202e-05 3.04867e-05
internal_weight=0 56780 32245 21668 1785 1580
internal_count=89025 56780 32245 21668 1785 1580
is_linear=0
shrinkage=0.1


Tree=99
num_leaves=7
num_cat=0
split_feature=256 230 17 236 102 197
split_gain=3.55176e-05 0.000135593 9.36682e-05 0.000112098 0.000107284 0.00012283
threshold=-0.0029994026384692059 -0.0022701492657510865 0.57793522267206487 0.077935222672064791 -0.004479292208314333 -0.0005051968223321895
decision_type=2 2 2 2 2 2
left_child=2 -2 -1 -4 -5 -6
right_child=1 -3 3 4 5 -7
leaf_value=3.551376111613261e-06 2.4830202956776393e-05 -1.9009148424221131e-07 3.6434647831157178e-05 3.4867762186597111e-05 0 -6.434978839784369e-05
leaf_weight=1678 2214 83528 155 97 304 1049
leaf_count=1678 2214 83528 155 97 304 1049
internal_value=0 3.92698e-07 -1.0203e-05 -2.79746e-05 -3.86636e-05 -4.80116e-05
internal_weight=0 85742 3283 1605 1450 1353
internal_count=89025 85742 3283 1605 1450 1353
is_linear=0
shrinkage=0.1


end of trees

feature_importances:
fLaggingRtn_10=24
sLaggingRtn_7=22
sLaggingRtn_10=21
fLaggingRtn_1=19
sLaggingRtn_6=18
sLaggingRtn_9=16
fLaggingRtn_2=14
fLaggingRtn_5=13
fLaggingRtn_8=13
fLaggingRtn_3=12
fLaggingRtn_9=12
sLaggingRtn_1=11
fAskSize5_1=11
stockSlope_b_1=10
sBidSize1_1=10
sLaggingRtn_4=10
fLaggingRtn_7=10
sLaggingRtn_8=10
fBidSize5_1=9
fLaggingRtn_4=9
sLaggingRtn_5=9
sAskSize2_1=8
sLaggingRtn_2=8
fLaggingRtn_6=8
fBidSize4_1=7
stockSpreadRatio_1=6
fBidSize2_1=6
sAskSize5_1=6
fBidSize4_2=6
sLaggingRtn_3=6
sAskSize3_5=6
spreadRatio_1=5
sAskSize1_1=5
fBidSize3_1=5
sAskSize3_2=5
fBidSize5_2=5
stockSlope_ab_10=5
stockSlope_ab_1=4
fAskSize5_2=4
fAskSize1_4=4
sBidSize4_5=4
stockSpreadRatio_8=4
sBidSize3_9=4
sAskSize3_1=3
sAskSize4_1=3
spreadRatio_2=3
sBidSize5_2=3
stockSlope_b_3=3
fBidSize5_3=3
slope_a_4=3
sBidSize3_6=3
sBidSize4_6=3
fBidSize5_6=3
sBidSize1_7=3
fBidSize5_7=3
slope_b_9=3
stockSlope_b_9=3
fAskSize1_1=2
fAskSize2_1=2
fAskSize4_1=2
sBidSize5_1=2
slope_a_2=2
stockSlope_ab_2=2
fAskSize1_2=2
sAskSize2_2=2
spreadRatio_3=2
fAskSize1_3=2
fBidSize2_3=2
fAskSize3_3=2
fBidSize4_3=2
spreadRatio_4=2
slope_b_4=2
fAskSize3_4=2
slope_b_5=2
fAskSize3_5=2
fBidSize5_5=2
slope_a_6=2
stockSlope_a_6=2
fAskSize2_6=2
fAskSize3_6=2
slope_b_7=2
stockSlope_a_8=2
sBidSize1_8=2
fAskSize3_8=2
sBidSize3_8=2
sAskSize5_8=2
fAskSize3_9=2
fBidSize4_9=2
slope_b_10=2
stockSpreadRatio_10=2
sBidSize4_10=2
fAskSize5_10=2
sBidSize5_10=2
slope_ab_1=1
stockSlope_a_1=1
sBidSize2_1=1
fAskSize3_1=1
sBidSize3_1=1
slope_b_2=1
stockSpreadRatio_2=1
stockSlope_b_2=1
sBidSize1_2=1
fBidSize2_2=1
sBidSize3_2=1
sAskSize4_2=1
sBidSize4_2=1
slope_b_3=1
stockSpreadRatio_3=1
sAskSize2_3=1
fBidSize3_3=1
sAskSize3_3=1
sAskSize4_3=1
fAskSize5_3=1
sBidSize5_3=1
stockSpreadRatio_4=1
stockSlope_b_4=1
stockSlope_a_4=1
fBidSize1_4=1
sAskSize1_4=1
fAskSize2_4=1
fBidSize2_4=1
sAskSize2_4=1
fBidSize5_4=1
sBidSize5_4=1
spreadRatio_5=1
slope_a_5=1
stockSpreadRatio_5=1
stockSlope_b_5=1
fBidSize1_5=1
sAskSize1_5=1
sAskSize2_5=1
sBidSize2_5=1
fBidSize4_5=1
sAskSize5_5=1
spreadRatio_6=1
slope_ab_6=1
stockSlope_ab_6=1
sBidSize2_6=1
sAskSize3_6=1
sAskSize4_6=1
fAskSize5_6=1
slope_a_7=1
slope_ab_7=1
stockSlope_a_7=1
stockSlope_ab_7=1
fAskSize1_7=1
sAskSize2_7=1
fAskSize3_7=1
fAskSize4_7=1
sAskSize4_7=1
fAskSize5_7=1
sAskSize5_7=1
slope_b_8=1
stockSlope_b_8=1
fAskSize1_8=1
sAskSize2_8=1
sBidSize4_8=1
fAskSize5_8=1
sBidSize5_8=1
slope_a_9=1
stockSlope_a_9=1
stockSlope_ab_9=1
sAskSize1_9=1
sAskSize2_9=1
fAskSize5_9=1
fBidSize5_9=1
sAskSize5_9=1
spreadRatio_10=1
slope_ab_10=1
stockSlope_b_10=1
sAskSize3_10=1
fBidSize4_10=1
sAskSize4_10=1
fBidSize5_10=1
sAskSize5_10=1

parameters:
[boosting: gbdt]
[objective: regression]
[metric: l2]
[tree_learner: serial]
[device_type: cpu]
[data: ]
[valid: ]
[num_iterations: 100]
[learning_rate: 0.1]
[num_leaves: 7]
[num_threads: -1]
[deterministic: 0]
[force_col_wise: 0]
[force_row_wise: 0]
[histogram_pool_size: -1]
[max_depth: 5]
[min_data_in_leaf: 20]
[min_sum_hessian_in_leaf: 0.001]
[bagging_fraction: 0.8]
[pos_bagging_fraction: 1]
[neg_bagging_fraction: 1]
[bagging_freq: 0]
[bagging_seed: 3]
[feature_fraction: 0.8]
[feature_fraction_bynode: 1]
[feature_fraction_seed: 2]
[extra_trees: 0]
[extra_seed: 6]
[early_stopping_round: 0]
[first_metric_only: 0]
[max_delta_step: 0]
[lambda_l1: 0.0546917]
[lambda_l2: 1.80584]
[linear_lambda: 0]
[min_gain_to_split: 0]
[drop_rate: 0.1]
[max_drop: 50]
[skip_drop: 0.5]
[xgboost_dart_mode: 0]
[uniform_drop: 0]
[drop_seed: 4]
[top_rate: 0.2]
[other_rate: 0.1]
[min_data_per_group: 100]
[max_cat_threshold: 32]
[cat_l2: 10]
[cat_smooth: 10]
[max_cat_to_onehot: 4]
[top_k: 20]
[monotone_constraints: ]
[monotone_constraints_method: basic]
[monotone_penalty: 0]
[feature_contri: ]
[forcedsplits_filename: ]
[refit_decay_rate: 0.9]
[cegb_tradeoff: 1]
[cegb_penalty_split: 0]
[cegb_penalty_feature_lazy: ]
[cegb_penalty_feature_coupled: ]
[path_smooth: 0]
[interaction_constraints: ]
[verbosity: -1]
[saved_feature_importance_type: 0]
[linear_tree: 0]
[max_bin: 255]
[max_bin_by_feature: ]
[min_data_in_bin: 3]
[bin_construct_sample_cnt: 200000]
[data_random_seed: 1]
[is_enable_sparse: 1]
[enable_bundle: 1]
[use_missing: 1]
[zero_as_missing: 0]
[feature_pre_filter: 1]
[pre_partition: 0]
[two_round: 0]
[header: 0]
[label_column: ]
[weight_column: ]
[group_column: ]
[ignore_column: ]
[categorical_feature: ]
[forcedbins_filename: ]
[precise_float_parser: 0]
[objective_seed: 5]
[num_class: 1]
[is_unbalance: 0]
[scale_pos_weight: 1]
[sigmoid: 1]
[boost_from_average: 1]
[reg_sqrt: 0]
[alpha: 0.9]
[fair_c: 1]
[poisson_max_delta_step: 0.7]
[tweedie_variance_power: 1.5]
[lambdarank_truncation_level: 30]
[lambdarank_norm: 1]
[label_gain: ]
[eval_at: ]
[multi_error_top_k: 1]
[auc_mu_weights: ]
[num_machines: 1]
[local_listen_port: 12400]
[time_out: 120]
[machine_list_filename: ]
[machines: ]
[gpu_platform_id: -1]
[gpu_device_id: -1]
[gpu_use_dp: 0]
[num_gpu: 1]

end of parameters

pandas_categorical:[]
