tree
version=v3
num_class=1
num_tree_per_iteration=1
label_index=0
max_feature_idx=319
objective=regression
feature_names=fLaggingRtn_1 spreadRatio_1 volumeImbalanceRatio_1 slope_b_1 slope_a_1 slope_ab_1 sLaggingRtn_1 stockSpreadRatio_1 stockVolumeImbalanceRatio_1 stockSlope_b_1 stockSlope_a_1 stockSlope_ab_1 fAskSize1_1 fBidSize1_1 sAskSize1_1 sBidSize1_1 fAskSize2_1 fBidSize2_1 sAskSize2_1 sBidSize2_1 fAskSize3_1 fBidSize3_1 sAskSize3_1 sBidSize3_1 fAskSize4_1 fBidSize4_1 sAskSize4_1 sBidSize4_1 fAskSize5_1 fBidSize5_1 sAskSize5_1 sBidSize5_1 fLaggingRtn_2 spreadRatio_2 volumeImbalanceRatio_2 slope_b_2 slope_a_2 slope_ab_2 sLaggingRtn_2 stockSpreadRatio_2 stockVolumeImbalanceRatio_2 stockSlope_b_2 stockSlope_a_2 stockSlope_ab_2 fAskSize1_2 fBidSize1_2 sAskSize1_2 sBidSize1_2 fAskSize2_2 fBidSize2_2 sAskSize2_2 sBidSize2_2 fAskSize3_2 fBidSize3_2 sAskSize3_2 sBidSize3_2 fAskSize4_2 fBidSize4_2 sAskSize4_2 sBidSize4_2 fAskSize5_2 fBidSize5_2 sAskSize5_2 sBidSize5_2 fLaggingRtn_3 spreadRatio_3 volumeImbalanceRatio_3 slope_b_3 slope_a_3 slope_ab_3 sLaggingRtn_3 stockSpreadRatio_3 stockVolumeImbalanceRatio_3 stockSlope_b_3 stockSlope_a_3 stockSlope_ab_3 fAskSize1_3 fBidSize1_3 sAskSize1_3 sBidSize1_3 fAskSize2_3 fBidSize2_3 sAskSize2_3 sBidSize2_3 fAskSize3_3 fBidSize3_3 sAskSize3_3 sBidSize3_3 fAskSize4_3 fBidSize4_3 sAskSize4_3 sBidSize4_3 fAskSize5_3 fBidSize5_3 sAskSize5_3 sBidSize5_3 fLaggingRtn_4 spreadRatio_4 volumeImbalanceRatio_4 slope_b_4 slope_a_4 slope_ab_4 sLaggingRtn_4 stockSpreadRatio_4 stockVolumeImbalanceRatio_4 stockSlope_b_4 stockSlope_a_4 stockSlope_ab_4 fAskSize1_4 fBidSize1_4 sAskSize1_4 sBidSize1_4 fAskSize2_4 fBidSize2_4 sAskSize2_4 sBidSize2_4 fAskSize3_4 fBidSize3_4 sAskSize3_4 sBidSize3_4 fAskSize4_4 fBidSize4_4 sAskSize4_4 sBidSize4_4 fAskSize5_4 fBidSize5_4 sAskSize5_4 sBidSize5_4 fLaggingRtn_5 spreadRatio_5 volumeImbalanceRatio_5 slope_b_5 slope_a_5 slope_ab_5 sLaggingRtn_5 stockSpreadRatio_5 stockVolumeImbalanceRatio_5 stockSlope_b_5 stockSlope_a_5 stockSlope_ab_5 fAskSize1_5 fBidSize1_5 sAskSize1_5 sBidSize1_5 fAskSize2_5 fBidSize2_5 sAskSize2_5 sBidSize2_5 fAskSize3_5 fBidSize3_5 sAskSize3_5 sBidSize3_5 fAskSize4_5 fBidSize4_5 sAskSize4_5 sBidSize4_5 fAskSize5_5 fBidSize5_5 sAskSize5_5 sBidSize5_5 fLaggingRtn_6 spreadRatio_6 volumeImbalanceRatio_6 slope_b_6 slope_a_6 slope_ab_6 sLaggingRtn_6 stockSpreadRatio_6 stockVolumeImbalanceRatio_6 stockSlope_b_6 stockSlope_a_6 stockSlope_ab_6 fAskSize1_6 fBidSize1_6 sAskSize1_6 sBidSize1_6 fAskSize2_6 fBidSize2_6 sAskSize2_6 sBidSize2_6 fAskSize3_6 fBidSize3_6 sAskSize3_6 sBidSize3_6 fAskSize4_6 fBidSize4_6 sAskSize4_6 sBidSize4_6 fAskSize5_6 fBidSize5_6 sAskSize5_6 sBidSize5_6 fLaggingRtn_7 spreadRatio_7 volumeImbalanceRatio_7 slope_b_7 slope_a_7 slope_ab_7 sLaggingRtn_7 stockSpreadRatio_7 stockVolumeImbalanceRatio_7 stockSlope_b_7 stockSlope_a_7 stockSlope_ab_7 fAskSize1_7 fBidSize1_7 sAskSize1_7 sBidSize1_7 fAskSize2_7 fBidSize2_7 sAskSize2_7 sBidSize2_7 fAskSize3_7 fBidSize3_7 sAskSize3_7 sBidSize3_7 fAskSize4_7 fBidSize4_7 sAskSize4_7 sBidSize4_7 fAskSize5_7 fBidSize5_7 sAskSize5_7 sBidSize5_7 fLaggingRtn_8 spreadRatio_8 volumeImbalanceRatio_8 slope_b_8 slope_a_8 slope_ab_8 sLaggingRtn_8 stockSpreadRatio_8 stockVolumeImbalanceRatio_8 stockSlope_b_8 stockSlope_a_8 stockSlope_ab_8 fAskSize1_8 fBidSize1_8 sAskSize1_8 sBidSize1_8 fAskSize2_8 fBidSize2_8 sAskSize2_8 sBidSize2_8 fAskSize3_8 fBidSize3_8 sAskSize3_8 sBidSize3_8 fAskSize4_8 fBidSize4_8 sAskSize4_8 sBidSize4_8 fAskSize5_8 fBidSize5_8 sAskSize5_8 sBidSize5_8 fLaggingRtn_9 spreadRatio_9 volumeImbalanceRatio_9 slope_b_9 slope_a_9 slope_ab_9 sLaggingRtn_9 stockSpreadRatio_9 stockVolumeImbalanceRatio_9 stockSlope_b_9 stockSlope_a_9 stockSlope_ab_9 fAskSize1_9 fBidSize1_9 sAskSize1_9 sBidSize1_9 fAskSize2_9 fBidSize2_9 sAskSize2_9 sBidSize2_9 fAskSize3_9 fBidSize3_9 sAskSize3_9 sBidSize3_9 fAskSize4_9 fBidSize4_9 sAskSize4_9 sBidSize4_9 fAskSize5_9 fBidSize5_9 sAskSize5_9 sBidSize5_9 fLaggingRtn_10 spreadRatio_10 volumeImbalanceRatio_10 slope_b_10 slope_a_10 slope_ab_10 sLaggingRtn_10 stockSpreadRatio_10 stockVolumeImbalanceRatio_10 stockSlope_b_10 stockSlope_a_10 stockSlope_ab_10 fAskSize1_10 fBidSize1_10 sAskSize1_10 sBidSize1_10 fAskSize2_10 fBidSize2_10 sAskSize2_10 sBidSize2_10 fAskSize3_10 fBidSize3_10 sAskSize3_10 sBidSize3_10 fAskSize4_10 fBidSize4_10 sAskSize4_10 sBidSize4_10 fAskSize5_10 fBidSize5_10 sAskSize5_10 sBidSize5_10
feature_infos=[-0.043392600722688357:0.044338037898143057] [-0.754196754538631:0.70523730934376927] [0:1] [0:8.2593061356532882] [-0.98120921180292164:0.05408103833783813] [-8.228574885463523:0.047751397427087769] [-0.0075853713892577446:0.0067170697559433279] [-0.75630588035370272:0.77843500250449671] [-400319966877379:1896252474682313] [0:0.02604172629210761] [0:0.027143800480507463] [-0.01915158126656193:0.018985481381972685] [0:1] [0:1] [0:1] [0:1] [0:1] [0:1] [0:1] [0:1] [0:1] [0:1] [0:1] [0:1] [0:1] [0:1] [0:1] [0:1] [0:1] [0:1] [0:1] [0:1] [-0.043392600722688357:0.044338037898143057] [-0.754196754538631:0.70523730934376927] [0:1] [0:8.2593061356532882] [-0.98120921180292164:0.05408103833783813] [-8.228574885463523:0.047751397427087769] [-0.009295186987124282:0.0068201457882075545] [-0.75630588035370272:0.77843500250449671] [-400319966877379:1896252474682313] [0:0.02604172629210761] [0:0.027143800480507463] [-0.01915158126656193:0.018985481381972685] [0:1] [0:1] [0:1] [0:1] [0:1] [0:1] [0:1] [0:1] [0:1] [0:1] [0:1] [0:1] [0:1] [0:1] [0:1] [0:1] [0:1] [0:1] [0:1] [0:1] [-0.043392600722688357:0.045171718646720649] [-0.754196754538631:0.70523730934376927] [0:1] [0:8.2593061356532882] [-0.98120921180292164:0.05408103833783813] [-8.228574885463523:0.047751397427087769] [-0.010126668817930451:0.0082645098498925762] [-0.75630588035370272:0.77843500250449671] [-400319966877379:1896252474682313] [0:0.02604172629210761] [0:0.027143800480507463] [-0.01915158126656193:0.018985481381972685] [0:1] [0:1] [0:1] [0:1] [0:1] [0:1] [0:1] [0:1] [0:1] [0:1] [0:1] [0:1] [0:1] [0:1] [0:1] [0:1] [0:1] [0:1] [0:1] [0:1] [-0.043392600722688357:0.045171718646720649] [-0.754196754538631:0.70523730934376927] [0:1] [0:8.2593061356532882] [-0.98120921180292164:0.05408103833783813] [-8.228574885463523:0.047751397427087769] [-0.011824462095024302:0.0086655654909968405] [-0.75630588035370272:0.77843500250449671] [-400319966877379:1896252474682313] [0:0.02604172629210761] [0:0.027143800480507463] [-0.01915158126656193:0.018985481381972685] [0:1] [0:1] [0:1] [0:1] [0:1] [0:1] [0:1] [0:1] [0:1] [0:1] [0:1] [0:1] [0:1] [0:1] [0:1] [0:1] [0:1] [0:1] [0:1] [0:1] [-0.043392600722688357:0.045171718646720649] [-0.754196754538631:0.70523730934376927] [0:1] [0:8.2593061356532882] [-0.98120921180292164:0.05408103833783813] [-8.228574885463523:0.047751397427087769] [-0.011824462095024302:0.0086655654909968405] [-0.75630588035370272:0.77843500250449671] [-400319966877379:1896252474682313] [0:0.02604172629210761] [0:0.027143800480507463] [-0.01915158126656193:0.018985481381972685] [0:1] [0:1] [0:1] [0:1] [0:1] [0:1] [0:1] [0:1] [0:1] [0:1] [0:1] [0:1] [0:1] [0:1] [0:1] [0:1] [0:1] [0:1] [0:1] [0:1] [-0.043392600722688357:0.045171718646720649] [-0.754196754538631:0.70523730934376927] [0:1] [0:8.2593061356532882] [-0.98120921180292164:0.05408103833783813] [-8.228574885463523:0.047751397427087769] [-0.011254138074422215:0.01007565198874083] [-0.75630588035370272:0.77843500250449671] [-400319966877379:1896252474682313] [0:0.02604172629210761] [0:0.027143800480507463] [-0.01915158126656193:0.018985481381972685] [0:1] [0:1] [0:1] [0:1] [0:1] [0:1] [0:1] [0:1] [0:1] [0:1] [0:1] [0:1] [0:1] [0:1] [0:1] [0:1] [0:1] [0:1] [0:1] [0:1] [-0.043392600722688357:0.045171718646720649] [-0.754196754538631:0.70523730934376927] [0:1] [0:8.2593061356532882] [-0.98120921180292164:0.05408103833783813] [-8.228574885463523:0.047751397427087769] [-0.011254138074422215:0.01007565198874083] [-0.75630588035370272:0.77843500250449671] [-400319966877379:1896252474682313] [0:0.02604172629210761] [0:0.027143800480507463] [-0.01915158126656193:0.018985481381972685] [0:1] [0:1] [0:1] [0:1] [0:1] [0:1] [0:1] [0:1] [0:1] [0:1] [0:1] [0:1] [0:1] [0:1] [0:1] [0:1] [0:1] [0:1] [0:1] [0:1] [-0.043392600722688357:0.046004704950613373] [-0.754196754538631:0.70523730934376927] [0:1] [0:8.2593061356532882] [-0.98120921180292164:0.05408103833783813] [-8.228574885463523:0.047751397427087769] [-0.012377296708555363:0.011475535766861] [-0.75630588035370272:0.77843500250449671] [-400319966877379:1896252474682313] [0:0.02604172629210761] [0:0.027143800480507463] [-0.01915158126656193:0.018985481381972685] [0:1] [0:1] [0:1] [0:1] [0:1] [0:1] [0:1] [0:1] [0:1] [0:1] [0:1] [0:1] [0:1] [0:1] [0:1] [0:1] [0:1] [0:1] [0:1] [0:1] [-0.043392600722688357:0.04683699796578189] [-0.754196754538631:0.70523730934376927] [0:1] [0:8.2593061356532882] [-0.98120921180292164:0.05408103833783813] [-8.228574885463523:0.047751397427087769] [-0.012377296708555363:0.011475535766861] [-0.75630588035370272:0.77843500250449671] [-400319966877379:1896252474682313] [0:0.02604172629210761] [0:0.027143800480507463] [-0.01915158126656193:0.018985481381972685] [0:1] [0:1] [0:1] [0:1] [0:1] [0:1] [0:1] [0:1] [0:1] [0:1] [0:1] [0:1] [0:1] [0:1] [0:1] [0:1] [0:1] [0:1] [0:1] [0:1] [-0.042559614418795633:0.04683699796578189] [-0.754196754538631:0.70523730934376927] [0:1] [0:8.2593061356532882] [-0.98120921180292164:0.05408103833783813] [-8.228574885463523:0.047751397427087769] [-0.011653445790232198:0.011475535766861] [-0.75630588035370272:0.77843500250449671] [-400319966877379:1896252474682313] [0:0.02604172629210761] [0:0.027143800480507463] [-0.01915158126656193:0.018985481381972685] [0:1] [0:1] [0:1] [0:1] [0:1] [0:1] [0:1] [0:1] [0:1] [0:1] [0:1] [0:1] [0:1] [0:1] [0:1] [0:1] [0:1] [0:1] [0:1] [0:1]
tree_sizes=852 843 840 854 838 840 839 851 831 847 836 841 846 825 840 835 835 833 840 847 811 817 830 845 833 830 841 822 832 830 834 826 805 836 818 842 835 834 823 836 815 833 801 827 815 825 841 831 831 815 799 824 823 830 817 828 800 814 799 818 789 804 836 816 829 827 815 824 830 788 794 813 794 810 822 832 790 815 809 810 821 821 820 827 827 811 800 840 804 809 816 810 817 809 826 809 834 798 814 824

Tree=0
num_leaves=7
num_cat=0
split_feature=15 14 6 6 160 15
split_gain=0.000282351 0.000219624 0.000191012 0.000176083 0.000147967 8.52947e-05
threshold=0.066904057374993747 0.13530382450009709 -0.00070621480667121251 1.0000000180025095e-35 0.0016618203618454788 0.02503918495297806
decision_type=2 2 2 2 2 2
left_child=2 3 -1 -2 -3 -4
right_child=1 4 5 -5 -6 -7
leaf_value=3.8178549329719905e-06 2.4431259300534963e-06 -1.43818972373259e-05 -4.5675352567954716e-05 -3.027462125078299e-05 1.2390367360257631e-05 -2.5918859167290757e-05
leaf_weight=1748 16457 56025 3140 1823 2143 7370
leaf_count=1748 16457 56025 3140 1823 2143 7370
internal_value=-1.26498e-05 -1.03907e-05 -2.67392e-05 -8.28959e-07 -1.33927e-05 -3.18375e-05
internal_weight=0 76448 12258 18280 58168 10510
internal_count=88706 76448 12258 18280 58168 10510
is_linear=0
shrinkage=1


Tree=1
num_leaves=7
num_cat=0
split_feature=14 224 6 230 47 105
split_gain=0.000207082 0.000129689 0.000127394 0.000117774 0.000117854 9.40618e-05
threshold=0.16163514847725377 0.0016687532851182854 1.0000000180025095e-35 -0.00072254347834022059 0.065238254193440717 1.0000000180025095e-35
decision_type=2 2 2 2 2 2
left_child=2 3 5 -2 -5 -1
right_child=1 -3 -4 4 -6 -7
leaf_value=-9.5201711273751105e-05 6.6108062032941568e-06 1.7752091731075093e-05 -1.5678798415473666e-05 -1.874724662714266e-05 -4.1355372819565785e-06 9.9966693187877485e-06
leaf_weight=85 8742 2841 2168 6308 44800 23762
leaf_count=85 8742 2841 2168 6308 44800 23762
internal_value=0 -3.11265e-06 7.50022e-06 -4.1059e-06 -5.9423e-06 9.61459e-06
internal_weight=0 62691 26015 59850 51108 23847
internal_count=88706 62691 26015 59850 51108 23847
is_linear=0
shrinkage=0.1


Tree=2
num_leaves=7
num_cat=0
split_feature=15 14 38 64 211 105
split_gain=0.000211114 0.000156252 0.000129355 0.00012687 0.000113761 0.000100768
threshold=0.066904057374993747 0.1092959715338671 -0.00070621480667121251 0.0008230454533340038 0.046470099667774094 1.0000000180025095e-35
decision_type=2 2 2 2 2 2
left_child=2 5 -1 4 -3 -2
right_child=1 3 -4 -5 -6 -7
leaf_value=1.4369035238891975e-05 -0.0002070952690761126 -6.612035332178292e-05 -1.6156742595106628e-05 1.4703073788904033e-05 -1.2788754882916423e-06 1.1678501804421674e-05
leaf_weight=1590 21 272 10668 5216 56583 14356
leaf_count=1590 21 272 10668 5216 56583 14356
internal_value=0 1.95312e-06 -1.21834e-05 -2.20012e-07 -1.59206e-06 1.13471e-05
internal_weight=0 76448 12258 62071 56855 14377
internal_count=88706 76448 12258 62071 56855 14377
is_linear=0
shrinkage=0.1


Tree=3
num_leaves=7
num_cat=0
split_feature=230 224 11 148 160 128
split_gain=0.000159936 0.000144743 0.000118665 0.000105775 9.34909e-05 8.50846e-05
threshold=-0.00071581973571888103 -1.0000000180025095e-35 -9.0476617092983391e-06 0.039230769230769243 0.0016618203618454788 -0.00070472175161651041
decision_type=2 2 2 2 2 2
left_child=5 -2 3 -3 -4 -1
right_child=1 2 4 -5 -6 -7
leaf_value=1.6758273293690608e-06 -1.2095739309172166e-05 -8.3667134727435192e-05 -5.1096669461505149e-06 5.3237313843969576e-06 1.8734359849799454e-05 1.6835744015643712e-05
leaf_weight=7248 11727 134 32664 27578 1729 7626
leaf_count=7248 11727 134 32664 27578 1729 7626
internal_value=0 -1.90637e-06 1.4919e-08 4.8873e-06 -3.90606e-06 9.4598e-06
internal_weight=0 73832 62105 27712 34393 14874
internal_count=88706 73832 62105 27712 34393 14874
is_linear=0
shrinkage=0.1


Tree=4
num_leaves=7
num_cat=0
split_feature=15 6 14 6 0 64
split_gain=0.000165241 0.000132437 0.000121593 0.000118531 0.000103491 9.79311e-05
threshold=0.066904057374993747 -0.0014550750218473849 0.074774481917919564 1.0000000180025095e-35 0.0016122537349030355 -1.0000000180025095e-35
decision_type=2 2 2 2 2 2
left_child=1 -1 3 -2 5 -4
right_child=2 -3 4 -5 -6 -7
leaf_value=3.4881674374382353e-05 1.7222206032880171e-05 -1.3151478891954466e-05 -9.2391693790534473e-06 -1.5273577350119804e-05 4.2952011737025622e-05 1.5024057313023676e-06
leaf_weight=602 7824 11656 9979 1305 563 56777
leaf_count=602 7824 11656 9979 1305 563 56777
internal_value=0 -1.07787e-05 1.72799e-06 1.25584e-05 2.56786e-07 -1.00761e-07
internal_weight=0 12258 76448 9129 67319 66756
internal_count=88706 12258 76448 9129 67319 66756
is_linear=0
shrinkage=0.1


Tree=5
num_leaves=7
num_cat=0
split_feature=15 14 211 166 38 128
split_gain=0.00014154 0.000101503 9.90977e-05 9.77904e-05 7.08922e-05 6.8722e-05
threshold=0.12452096028191764 0.21435533277638544 0.046470099667774094 -0.00078740173753288889 1.0000000180025095e-35 0.002581757505873306
decision_type=2 2 2 2 2 2
left_child=3 4 -3 -1 -2 -6
right_child=1 2 -4 -5 5 -7
leaf_value=1.1045030018811521e-05 9.1191099840846113e-06 -7.2912239173538622e-05 -3.2206217710763456e-07 -8.8246916090266713e-06 -1.4490830179385751e-05 6.6872563271162358e-05
leaf_weight=2794 22585 189 39660 21399 1970 109
leaf_count=2794 22585 189 39660 21399 1970 109
internal_value=0 2.4461e-06 -6.70604e-07 -6.52298e-06 7.48855e-06 -1.01435e-05
internal_weight=0 64513 39849 24193 24664 2079
internal_count=88706 64513 39849 24193 24664 2079
is_linear=0
shrinkage=0.1


Tree=6
num_leaves=7
num_cat=0
split_feature=1 96 15 38 134 14
split_gain=0.000132708 0.000118056 9.65033e-05 7.73047e-05 7.26451e-05 6.61184e-05
threshold=-0.083854382513207301 0.0015993608525155525 0.0445978263443279 -1.0000000180025095e-35 0.00076804930616969369 0.19949817997540345
decision_type=2 2 2 2 2 2
left_child=4 2 3 -2 -1 -4
right_child=1 -3 5 -5 -6 -7
leaf_value=-3.6351522742013133e-06 1.804486306781051e-05 2.5932286258087169e-05 7.7364202552843757e-06 -1.7566019635801863e-05 -1.9465548608358405e-05 3.429835228620513e-07
leaf_weight=27455 719 2129 19628 3872 3250 31653
leaf_count=27455 719 2129 19628 3872 3250 31653
internal_value=0 2.81398e-06 1.93003e-06 -1.19521e-05 -5.31625e-06 3.17615e-06
internal_weight=0 58001 55872 4591 30705 51281
internal_count=88706 58001 55872 4591 30705 51281
is_linear=0
shrinkage=0.1


Tree=7
num_leaves=7
num_cat=0
split_feature=198 15 160 64 128 1
split_gain=0.000116563 0.000132661 9.50175e-05 8.19308e-05 7.82189e-05 6.43464e-05
threshold=-0.00071633250074754063 0.0445978263443279 -0.00070422546852899604 0.0024570041050697715 -0.00087032223889149652 -0.083854382513207301
decision_type=2 2 2 2 2 2
left_child=4 -2 -3 5 -1 -4
right_child=1 2 3 -5 -6 -7
leaf_value=-4.8005900669583733e-06 -1.5125868602031745e-05 -9.3284412752576871e-06 -3.8379719255721073e-06 4.0804042792679398e-05 1.2679555445994922e-05 3.2582106211059036e-06
leaf_weight=3369 6576 9869 19029 520 10499 38844
leaf_count=3369 6576 9869 19029 520 10499 38844
internal_value=0 -1.56047e-06 -2.51176e-07 1.28008e-06 8.42084e-06 9.22018e-07
internal_weight=0 74838 68262 58393 13868 57873
internal_count=88706 74838 68262 58393 13868 57873
is_linear=0
shrinkage=0.1


Tree=8
num_leaves=7
num_cat=0
split_feature=15 6 6 14 96 179
split_gain=9.51466e-05 8.4877e-05 6.77347e-05 0.000114098 8.2446e-05 5.98961e-05
threshold=0.17063740702791561 -0.0014609214191825257 1.0000000180025095e-35 0.056978421984652729 0.00084104309149246614 0.046470099667774094
decision_type=2 2 2 2 2 2
left_child=1 -1 3 -2 -4 -5
right_child=2 -3 4 5 -6 -7
leaf_value=2.5990923497788695e-05 1.9758644474432957e-05 -5.064980565692465e-06 -2.1657697726712045e-05 -6.2072495485875173e-05 1.4886017689967095e-05 2.256778622108169e-06
leaf_weight=903 3944 32452 2280 145 841 48141
leaf_count=903 3944 32452 2280 145 841 48141
internal_value=0 -4.21915e-06 2.54215e-06 3.39979e-06 -1.17562e-05 2.06009e-06
internal_weight=0 33355 55351 52230 3121 48286
internal_count=88706 33355 55351 52230 3121 48286
is_linear=0
shrinkage=0.1


Tree=9
num_leaves=7
num_cat=0
split_feature=1 128 262 6 14 102
split_gain=9.13032e-05 8.81408e-05 7.32799e-05 6.16715e-05 5.7816e-05 5.76011e-05
threshold=-0.083854382513207301 0.0015980828964270446 -1.0000000180025095e-35 0.00071530770425987111 0.1092959715338671 0.0007674598590421412
decision_type=2 2 2 2 2 2
left_child=5 2 -2 4 -4 -1
right_child=1 -3 3 -5 -6 -7
leaf_value=-3.0123937702843496e-06 9.1597849512810372e-06 2.0319551964914699e-05 8.6249735696325157e-06 -1.7275702522940005e-05 -1.0939982867051314e-06 -1.7920278253294786e-05
leaf_weight=27839 10162 2604 7379 2029 35827 2866
leaf_count=27839 10162 2604 7379 2029 35827 2866
internal_value=0 2.33428e-06 1.4858e-06 -2.34408e-07 5.61955e-07 -4.40941e-06
internal_weight=0 58001 55397 45235 43206 30705
internal_count=88706 58001 55397 45235 43206 30705
is_linear=0
shrinkage=0.1


Tree=10
num_leaves=7
num_cat=0
split_feature=32 38 14 15 6 64
split_gain=8.55844e-05 0.000106956 9.10786e-05 6.01434e-05 6.54728e-05 5.83167e-05
threshold=0.00071942458454898894 1.0000000180025095e-35 0.1313499963135 0.10657022457474692 -0.0014550750218473849 0.0024570041050697715
decision_type=2 2 2 2 2 2
left_child=1 2 -1 4 -4 -2
right_child=5 -3 3 -5 -6 -7
leaf_value=6.0997930100318318e-06 7.0043144962253447e-06 -1.887608467560039e-05 2.2785752019473409e-05 -4.9999443042353182e-07 -9.911710852313948e-06 4.1127992602867651e-05
leaf_weight=17103 9066 3240 642 45973 12149 533
leaf_count=17103 9066 3240 642 45973 12149 533
internal_value=0 -1.08219e-06 -3.20049e-07 -2.19139e-06 -8.25734e-06 8.91673e-06
internal_weight=0 79107 75867 58764 12791 9599
internal_count=88706 79107 75867 58764 12791 9599
is_linear=0
shrinkage=0.1


Tree=11
num_leaves=7
num_cat=0
split_feature=32 134 15 32 121 33
split_gain=7.56182e-05 0.000106494 9.42345e-05 5.88178e-05 5.71233e-05 5.09354e-05
threshold=-1.0000000180025095e-35 -0.00070671389857324119 0.0445978263443279 0.0024570041050697715 0.30860805860805868 -0.070161537620011857
decision_type=2 2 2 2 2 2
left_child=-1 -2 -3 5 -5 -4
right_child=1 2 3 4 -6 -7
leaf_value=-7.8912643226448107e-06 1.2113192018848207e-05 -1.2168319148395141e-05 -2.9148348012122101e-06 -8.9751298253235784e-06 7.6792541674664805e-05 2.9238751245705856e-06
leaf_weight=10681 7867 5975 23814 122 199 40048
leaf_count=10681 7867 5975 23814 122 199 40048
internal_value=0 1.08027e-06 -1.54469e-07 9.61303e-07 4.36687e-05 7.43984e-07
internal_weight=0 78025 70158 64183 321 63862
internal_count=88706 78025 70158 64183 321 63862
is_linear=0
shrinkage=0.1


Tree=12
num_leaves=7
num_cat=0
split_feature=160 166 14 105 166 89
split_gain=7.07905e-05 8.1229e-05 6.87913e-05 6.01611e-05 5.23775e-05 5.18289e-05
threshold=0.00078926614652541371 0.00072098065845072068 0.19550972403074726 1.0000000180025095e-35 0.0014781976768016849 0.81980519480519487
decision_type=2 2 2 2 2 2
left_child=1 2 3 -1 -2 -6
right_child=4 -3 -4 -5 5 -7
leaf_value=-7.0153705559103212e-05 1.0513973856211045e-05 -1.3422497956720249e-05 -2.6856144023227946e-06 4.2197881840052797e-06 -1.0507380838241515e-05 1.2389603772871707e-05
leaf_weight=109 9846 5095 44617 24662 2874 1503
leaf_count=109 9846 5095 44617 24662 2874 1503
internal_value=0 -1.23464e-06 -3.37273e-07 3.88568e-06 6.46446e-06 -2.60622e-06
internal_weight=0 74483 69388 24771 14223 4377
internal_count=88706 74483 69388 24771 14223 4377
is_linear=0
shrinkage=0.1


Tree=13
num_leaves=7
num_cat=0
split_feature=0 6 14 1 169 318
split_gain=6.59605e-05 6.91877e-05 9.07229e-05 5.66544e-05 7.217e-05 5.48775e-05
threshold=0.0016122537349030355 1.0000000180025095e-35 0.056978421984652729 0.12531740135443611 1.0000000180025095e-35 0.16839419978517725
decision_type=2 2 2 2 2 2
left_child=1 2 -1 4 -4 -2
right_child=5 -3 3 -5 -6 -7
leaf_value=1.2029454649357509e-05 0.00011722624382682187 -1.3465874299993647e-05 -7.9036198878440849e-05 3.9876883246778859e-06 -2.0044663761041e-06 2.085611503053223e-05
leaf_weight=6157 66 3792 122 20134 57755 680
leaf_count=6157 66 3792 122 20134 57755 680
internal_value=0 -2.51476e-07 3.41859e-07 -5.78413e-07 -2.16977e-06 2.96096e-05
internal_weight=0 87960 84168 78011 57877 746
internal_count=88706 87960 84168 78011 57877 746
is_linear=0
shrinkage=0.1


Tree=14
num_leaves=7
num_cat=0
split_feature=16 160 70 132 70 187
split_gain=6.40419e-05 7.09822e-05 5.82441e-05 4.92245e-05 4.88126e-05 5.03925e-05
threshold=0.21103238866396765 0.0016576881902024001 -1.0000000180025095e-35 0.0055381583023895722 0.0007980847664113001 0.13015113777878415
decision_type=2 2 2 2 2 2
left_child=4 2 -2 -3 5 -1
right_child=1 3 -4 -5 -6 -7
leaf_value=-4.1080855648056389e-05 1.0138238695633222e-05 7.0022011459852234e-05 -9.028193746109604e-08 1.4026107705725013e-05 -2.0718868394789729e-05 -2.6056299408013921e-06
leaf_weight=347 6159 170 57612 2433 1743 20242
leaf_count=347 6159 170 57612 2433 1743 20242
internal_value=0 1.55843e-06 8.94936e-07 1.77483e-05 -4.63236e-06 -3.2623e-06
internal_weight=0 66374 63771 2603 22332 20589
internal_count=88706 66374 63771 2603 22332 20589
is_linear=0
shrinkage=0.1


Tree=15
num_leaves=7
num_cat=0
split_feature=64 166 15 128 158 15
split_gain=6.57305e-05 8.85821e-05 7.28983e-05 4.44008e-05 8.928e-05 4.04862e-05
threshold=-0.00070521873468099006 -0.00070671389857324119 0.17654375182908988 0.0024449893990698972 0.32951261166579088 0.02503918495297806
decision_type=2 2 2 2 2 2
left_child=-1 -2 5 -4 -5 -3
right_child=1 2 3 4 -6 -7
leaf_value=-6.4285683216632356e-06 1.1276318414422496e-05 -1.5195250787808146e-05 2.218624838596849e-06 0.00015020123019320793 1.6920824100698883e-05 -2.7163036229148912e-06
leaf_weight=13488 7752 2935 40454 56 549 23472
leaf_count=13488 7752 2935 40454 56 549 23472
internal_value=0 1.15241e-06 -8.34571e-09 2.6253e-06 2.95382e-05 -4.10968e-06
internal_weight=0 75218 67466 41059 605 26407
internal_count=88706 75218 67466 41059 605 26407
is_linear=0
shrinkage=0.1


Tree=16
num_leaves=7
num_cat=0
split_feature=32 38 14 179 230 27
split_gain=5.7308e-05 6.82922e-05 6.24362e-05 5.4205e-05 4.79186e-05 4.64036e-05
threshold=0.00071942458454898894 1.0000000180025095e-35 0.26987638713302436 0.046470099667774094 -0.00083263965953062058 0.51028284430346293
decision_type=2 2 2 2 2 2
left_child=1 2 -1 5 -2 -4
right_child=4 -3 3 -5 -6 -7
leaf_value=2.6187465137948431e-06 2.7743838285309849e-05 -1.5104223687250671e-05 -9.9138853875708731e-05 -2.8386673208834775e-06 4.8270982639053301e-06 -1.6571541545235635e-06
leaf_weight=37559 1027 3240 109 38104 8572 95
leaf_count=37559 1027 3240 109 38104 8572 95
internal_value=0 -8.85474e-07 -2.76013e-07 -3.11859e-06 7.2966e-06 -5.45733e-05
internal_weight=0 79107 75867 38308 9599 204
internal_count=88706 79107 75867 38308 9599 204
is_linear=0
shrinkage=0.1


Tree=17
num_leaves=7
num_cat=0
split_feature=128 134 15 147 18 6
split_gain=5.59522e-05 8.29343e-05 5.77484e-05 4.9081e-05 7.6503e-05 4.45067e-05
threshold=-0.0014199507192591552 -0.00076628367488851257 0.1119142051977873 0.046470099667774094 0.63444568038561377 -0.0014398858043049854
decision_type=2 2 2 2 2 2
left_child=-1 -2 5 4 -4 -3
right_child=1 2 3 -5 -6 -7
leaf_value=-1.0200838359586521e-05 1.0728375840879097e-05 3.9378594978387137e-05 -8.4403135625117092e-05 1.3670983613235633e-06 5.6878733033151323e-05 -5.7794104152578244e-06
leaf_weight=5070 7397 220 150 57582 50 18237
leaf_count=5070 7397 220 150 57582 50 18237
internal_value=0 6.18095e-07 -3.60625e-07 1.19248e-06 -4.82363e-05 -5.23197e-06
internal_weight=0 83636 76239 57782 200 18457
internal_count=88706 83636 76239 57782 200 18457
is_linear=0
shrinkage=0.1


Tree=18
num_leaves=7
num_cat=0
split_feature=16 128 6 262 14 222
split_gain=5.33646e-05 6.23385e-05 6.299e-05 5.94348e-05 5.8704e-05 4.62302e-05
threshold=0.080322580645161304 0.00070621480667121272 1.0000000180025095e-35 -0.0028109701583964859 0.026863679007000076 0.16011049723756909
decision_type=2 2 2 2 2 2
left_child=-1 2 4 -3 -2 -5
right_child=1 3 -4 5 -6 -7
leaf_value=-1.0975939584906351e-05 1.9258266871416829e-05 7.6225763227232699e-05 -1.7918071160122018e-05 5.4718635762950728e-05 -6.5152310714723094e-07 5.1070439242095967e-06
leaf_weight=4219 1515 121 2069 191 65507 15084
leaf_count=4219 1515 121 2069 191 65507 15084
internal_value=0 5.48054e-07 -7.32013e-07 6.30347e-06 -1.98946e-07 5.73848e-06
internal_weight=0 84487 69091 15396 67022 15275
internal_count=88706 84487 69091 15396 67022 15275
is_linear=0
shrinkage=0.1


Tree=19
num_leaves=7
num_cat=0
split_feature=32 198 15 57 256 154
split_gain=4.82357e-05 5.7652e-05 5.90682e-05 4.0443e-05 4.86568e-05 3.42947e-05
threshold=-1.0000000180025095e-35 -1.0000000180025095e-35 0.05993529886007614 0.47434210526315795 0.00084246018245970344 0.1045036143325186
decision_type=2 2 2 2 2 2
left_child=5 -2 -3 -4 -5 -1
right_child=1 2 3 4 -6 -7
leaf_value=-4.6037920735841926e-05 7.9440110071541747e-06 -8.1042892576707882e-06 -1.4732041065785599e-06 2.0196681274312749e-06 1.4097458300042738e-05 -5.473852887961363e-06
leaf_weight=214 10022 8264 32371 23468 3900 10467
leaf_count=214 10022 8264 32371 23468 3900 10467
internal_value=0 8.62924e-07 -1.78169e-07 9.15459e-07 3.74696e-06 -6.30244e-06
internal_weight=0 78025 68003 59739 27368 10681
internal_count=88706 78025 68003 59739 27368 10681
is_linear=0
shrinkage=0.1


Tree=20
num_leaves=7
num_cat=0
split_feature=25 0 211 5 81 158
split_gain=4.69658e-05 6.60922e-05 5.90162e-05 8.13115e-05 7.74637e-05 5.82893e-05
threshold=0.2958754208754209 0.0016306569715078825 0.046470099667774094 -0.0028529994437750108 0.21778656126482215 0.33977470749315414
decision_type=2 2 2 2 2 2
left_child=2 -2 3 4 -1 -3
right_child=1 5 -4 -5 -6 -7
leaf_value=-6.3034101155904108e-05 1.4731942670283347e-06 0.00015448905190817679 -2.5856651862123725e-06 -2.1191102480775758e-05 -0.00031666578924609642 2.8557000832796822e-05
leaf_weight=36 55296 42 32715 234 20 363
leaf_count=36 55296 42 32715 234 20 363
internal_value=0 1.77116e-06 -2.98926e-06 -4.79351e-05 -0.000156655 4.20359e-05
internal_weight=0 55701 33005 290 56 405
internal_count=88706 55701 33005 290 56 405
is_linear=0
shrinkage=0.1


Tree=21
num_leaves=7
num_cat=0
split_feature=33 32 190 18 90 274
split_gain=4.66195e-05 5.18257e-05 4.17467e-05 4.61753e-05 5.45113e-05 3.704e-05
threshold=-0.070161537620011857 0.00071942458454898894 0.13645491055129613 0.62087114337568072 0.672694571615435 0.045393939393939403
decision_type=2 2 2 2 2 2
left_child=-1 2 3 4 -2 -3
right_child=1 5 -4 -5 -6 -7
leaf_value=-2.9950750893907576e-06 -7.7780253393786508e-05 6.5789463289142323e-05 1.0275296628661318e-06 3.5391026617745667e-05 1.8305384485775933e-06 9.7752969004095112e-06
leaf_weight=32774 214 122 50102 84 137 5273
leaf_count=32774 214 122 50102 84 137 5273
internal_value=0 1.75461e-06 7.56455e-07 -3.00759e-05 -4.62254e-05 1.10734e-05
internal_weight=0 55932 50537 435 351 5395
internal_count=88706 55932 50537 435 351 5395
is_linear=0
shrinkage=0.1


Tree=22
num_leaves=7
num_cat=0
split_feature=6 15 14 198 0 1
split_gain=4.57445e-05 8.31726e-05 4.70913e-05 5.02633e-05 4.61841e-05 4.06427e-05
threshold=-0.00070621480667121251 0.019298811903313517 0.24034971536276922 -0.0047356076958644513 -1.0000000180025095e-35 0.12306901744017452
decision_type=2 2 2 2 2 2
left_child=4 -2 -3 -4 -1 -5
right_child=1 2 3 5 -6 -7
leaf_value=-1.6163093162871166e-06 -1.9490088879592577e-05 2.6329979034779343e-06 7.7958325209412176e-05 -4.1144183129986513e-06 1.8828373938427647e-05 2.7424112260726691e-06
leaf_weight=1946 2250 37125 78 33127 2514 11666
leaf_count=1946 2250 37125 78 33127 2514 11666
internal_value=0 -5.22145e-07 0 -2.1815e-06 9.86996e-06 -2.32483e-06
internal_weight=0 84246 81996 44871 4460 44793
internal_count=88706 84246 81996 44871 4460 44793
is_linear=0
shrinkage=0.1


Tree=23
num_leaves=7
num_cat=0
split_feature=20 230 224 6 15 16
split_gain=4.1528e-05 4.53116e-05 6.1076e-05 3.8477e-05 4.45355e-05 3.70034e-05
threshold=0.3603278688524591 -0.00070671389857324119 -0.00070671389857324119 -1.0000000180025095e-35 0.034657755203596624 0.071946169772256749
decision_type=2 2 2 2 2 2
left_child=5 -2 -3 -4 -5 -1
right_child=1 2 3 4 -6 -7
leaf_value=-1.9729030991493687e-05 6.9816441500151573e-06 -7.6571337572628168e-06 2.1856004201912827e-05 -1.1357612601781939e-05 1.8302539021967604e-06 -2.7512825495697706e-06
leaf_weight=1378 11328 8694 908 2717 43894 19787
leaf_count=1378 11328 8694 908 2717 43894 19787
internal_value=0 1.21172e-06 4.59589e-08 1.45887e-06 1.05789e-06 -3.86466e-06
internal_weight=0 67541 56213 47519 46611 21165
internal_count=88706 67541 56213 47519 46611 21165
is_linear=0
shrinkage=0.1


Tree=24
num_leaves=7
num_cat=0
split_feature=128 134 15 102 218 100
split_gain=4.21008e-05 5.03884e-05 4.23911e-05 4.02277e-05 5.53388e-05 5.2197e-05
threshold=-0.0014199507192591552 -0.00076628367488851257 0.18344259503639695 -0.0031897973965762101 0.11946244871261226 0.0090386356742435548
decision_type=2 2 2 2 2 2
left_child=3 -2 -3 5 -5 -1
right_child=1 2 -4 4 -6 -7
leaf_value=9.4824459677704845e-06 8.417312445861009e-06 -3.1070647004559317e-06 1.7029476642037942e-06 -7.5047547689652516e-05 -9.3921064072442177e-06 0.00013328198547959502
leaf_weight=305 7397 30605 45634 133 4593 39
leaf_count=305 7397 30605 45634 133 4593 39
internal_value=0 5.36653e-07 -2.2574e-07 -8.84806e-06 -1.12757e-05 2.40112e-05
internal_weight=0 83636 76239 5070 4726 344
internal_count=88706 83636 76239 5070 4726 344
is_linear=0
shrinkage=0.1


Tree=25
num_leaves=7
num_cat=0
split_feature=0 6 15 32 38 14
split_gain=3.96709e-05 6.12477e-05 5.78217e-05 4.21191e-05 4.99885e-05 3.51234e-05
threshold=-1.0000000180025095e-35 -0.00070621480667121251 0.02503918495297806 0.0024570041050697715 0.003300335275406852 0.35110414489724839
decision_type=2 2 2 2 2 2
left_child=-1 -2 -3 5 -5 -4
right_child=1 2 3 4 -6 -7
leaf_value=-7.3436809246650508e-06 1.5977032085273084e-05 -1.3571033616203641e-05 2.1736275840624822e-06 5.469747578119574e-05 -4.0416144491111181e-05 -2.2548286465590929e-06
leaf_weight=6792 2514 2968 47280 276 67 28809
leaf_count=6792 2514 2968 47280 276 67 28809
internal_value=0 6.09379e-07 1.2067e-07 6.54559e-07 3.56249e-05 4.94691e-07
internal_weight=0 81914 79400 76432 343 76089
internal_count=88706 81914 79400 76432 343 76089
is_linear=0
shrinkage=0.1


Tree=26
num_leaves=7
num_cat=0
split_feature=25 166 256 120 14 137
split_gain=3.76424e-05 5.4285e-05 5.40802e-05 3.81959e-05 3.65658e-05 3.38672e-05
threshold=0.47140522875816998 0.0014781976768016849 0.00084388205686014583 0.057307060755336627 0.34833763123963907 1.0000000180025095e-35
decision_type=2 2 2 2 2 2
left_child=1 4 -2 -3 5 -1
right_child=2 3 -4 -5 -6 -7
leaf_value=-4.7921303812822316e-05 8.1870265872847269e-07 7.2707471812801766e-05 1.1711659028074974e-05 -1.6625750248094679e-05 -4.3888173158607511e-06 1.7186138940903618e-06
leaf_weight=138 36654 48 5213 2891 18868 24894
leaf_count=138 36654 48 5213 2891 18868 24894
internal_value=0 -1.94738e-06 2.17906e-06 -1.51091e-05 -1.06238e-06 1.43818e-06
internal_weight=0 46839 41867 2939 43900 25032
internal_count=88706 46839 41867 2939 43900 25032
is_linear=0
shrinkage=0.1


Tree=27
num_leaves=7
num_cat=0
split_feature=16 134 96 142 18 41
split_gain=3.47681e-05 4.5633e-05 4.31188e-05 5.51354e-05 3.98755e-05 3.79638e-05
threshold=0.21103238866396765 0.0023437600136393404 0.0017101332646394243 0.026863679007000076 0.89004083364267916 0.012093189447394443
decision_type=2 2 2 2 2 2
left_child=1 5 -2 -4 -3 -1
right_child=2 4 3 -5 -6 -7
leaf_value=-2.733079454726146e-06 8.2149072660578845e-07 -2.8414277379494325e-05 0.00014905282207298162 1.6893218774775218e-05 -0.00014373762054948017 -9.0078580249607965e-05
leaf_weight=22047 65315 198 33 1026 37 50
leaf_count=22047 65315 198 33 1026 37 50
internal_value=0 -3.41273e-06 1.14873e-06 2.11719e-05 -4.72938e-05 -2.93839e-06
internal_weight=0 22332 66374 1059 235 22097
internal_count=88706 22332 66374 1059 235 22097
is_linear=0
shrinkage=0.1


Tree=28
num_leaves=7
num_cat=0
split_feature=294 288 256 222 262 318
split_gain=3.57298e-05 5.43431e-05 4.53346e-05 4.27105e-05 4.80259e-05 4.72206e-05
threshold=0.00076804930616969369 1.0000000180025095e-35 0.001678557131167935 0.31511000415110008 0.0029368612564910639 0.16011049723756909
decision_type=2 2 2 2 2 2
left_child=1 -1 -2 5 -5 -4
right_child=2 -3 3 4 -6 -7
leaf_value=-3.1840499700170885e-07 -7.7897464151249472e-06 7.0261199519739638e-06 0.00016860208896515985 1.26829404172327e-05 -1.5587070091718367e-05 2.9565532677966463e-05
leaf_weight=63318 10552 11973 29 1716 922 196
leaf_count=63318 10552 11973 29 1716 922 196
internal_value=0 8.47296e-07 -4.75447e-06 6.37337e-06 2.73822e-06 4.82406e-05
internal_weight=0 75291 13415 2863 2638 225
internal_count=88706 75291 13415 2863 2638 225
is_linear=0
shrinkage=0.1


Tree=29
num_leaves=7
num_cat=0
split_feature=294 288 287 137 126 102
split_gain=3.45498e-05 6.21625e-05 3.4267e-05 4.26954e-05 3.42937e-05 3.37578e-05
threshold=-0.0016652804735830527 -0.00080385869404864241 0.096477125289107027 0.0054109099459290488 0.11359447004608296 0.0016992369795554298
decision_type=2 2 2 2 2 2
left_child=2 -2 -1 -4 -5 -3
right_child=1 5 3 4 -6 -7
leaf_value=-9.0251009535009216e-05 -6.6059771676229053e-06 1.0145307523905459e-06 0.00010816400142641281 -0.00010213618697377496 8.403840582049991e-06 -1.6095404757951139e-05
leaf_weight=35 13868 68497 43 28 5063 1172
leaf_count=35 13868 68497 43 28 5063 1172
internal_value=0 -4.906e-07 7.93414e-06 8.63652e-06 7.76256e-06 7.24271e-07
internal_weight=0 83537 5169 5134 5091 69669
internal_count=88706 83537 5169 5134 5091 69669
is_linear=0
shrinkage=0.1


Tree=30
num_leaves=7
num_cat=0
split_feature=17 262 92 96 198 192
split_gain=3.26125e-05 4.29766e-05 4.67716e-05 4.03458e-05 3.86395e-05 4.8546e-05
threshold=0.47413024085637828 0.0023166036979809239 0.20662287903667217 0.0015993608525155525 -0.0047356076958644513 -0.0014540171694878976
decision_type=2 2 2 2 2 2
left_child=3 4 -3 -1 -2 -6
right_child=1 2 -4 -5 5 -7
leaf_value=1.2545408578628281e-06 6.0784116397373361e-05 1.1160964714852729e-05 -4.626443734552962e-05 1.6283213279686274e-05 -1.4044301041025936e-05 -7.9021228556456955e-07
leaf_weight=43422 99 204 436 1866 2974 39705
leaf_count=43422 99 204 436 1866 2974 39705
internal_value=0 -1.95817e-06 -2.76958e-05 1.8775e-06 -1.56915e-06 -1.71776e-06
internal_weight=0 43418 640 45288 42778 42679
internal_count=88706 43418 640 45288 42778 42679
is_linear=0
shrinkage=0.1


Tree=31
num_leaves=7
num_cat=0
split_feature=48 11 287 44 160 202
split_gain=3.13667e-05 3.17578e-05 4.93385e-05 5.68813e-05 3.3007e-05 4.60603e-05
threshold=0.080322580645161304 -0.00095949981245019289 0.096477125289107027 0.3120941558441559 0.0015904578431715779 0.0054723073299609033
decision_type=2 2 2 2 2 2
left_child=-1 2 3 -2 -3 -6
right_child=1 4 -4 -5 5 -7
leaf_value=-8.3575547668812622e-06 -2.0762670245246357e-05 -8.2935699429816228e-07 5.8327912921887533e-06 -0.00020870776415398654 0.00010578285530911868 7.7965938497104642e-06
leaf_weight=4274 70 69266 11672 22 49 3353
leaf_count=4274 70 69266 11672 22 49 3353
internal_value=0 4.23356e-07 5.24448e-06 -6.75527e-05 -3.54792e-07 9.25778e-06
internal_weight=0 84432 11764 92 72668 3402
internal_count=88706 84432 11764 92 72668 3402
is_linear=0
shrinkage=0.1


Tree=32
num_leaves=7
num_cat=0
split_feature=102 318 32 59 30 146
split_gain=3.15026e-05 6.49581e-05 4.99006e-05 4.80828e-05 3.49096e-05 3.28262e-05
threshold=0.0017137977361336711 0.16011049723756909 0.002497920133113674 0.55716921454928847 0.51679262308950447 0.37806548613431346
decision_type=2 2 2 2 2 2
left_child=2 3 -1 -2 -4 -3
right_child=1 5 4 -5 -6 -7
leaf_value=1.0673185518872148e-07 0.00015245443841985774 -4.3173181119807278e-05 0.00015414723672353857 -1.0694149346308764e-05 3.1868314986071677e-05 -7.046272861156089e-06
leaf_weight=87425 38 458 30 31 136 588
leaf_count=87425 38 458 30 31 136 588
internal_value=0 -1.67027e-05 2.12679e-07 7.67078e-05 5.49895e-05 -2.30266e-05
internal_weight=0 1115 87591 69 166 1046
internal_count=88706 1115 87591 69 166 1046
is_linear=0
shrinkage=0.1


Tree=33
num_leaves=7
num_cat=0
split_feature=6 14 64 296 294 256
split_gain=3.1567e-05 4.72967e-05 3.51178e-05 3.21699e-05 3.0455e-05 5.30379e-05
threshold=1.0000000180025095e-35 0.049196463147024659 0.00079051399865903715 -4.3825059503570811 -0.0028612337450306664 -0.0025445310926315297
decision_type=2 2 2 2 2 2
left_child=1 -1 -2 -4 -3 -6
right_child=2 4 3 -5 5 -7
leaf_value=9.8960585447692029e-06 -1.5919861247593646e-05 1.4643726912216469e-05 9.3571782681960966e-05 4.0094952380027362e-07 -2.8830820943371856e-05 -1.8598327143042644e-07
leaf_weight=4961 2527 1364 38 1667 652 77497
leaf_count=4961 2527 1364 38 1667 652 77497
internal_value=0 4.22477e-07 -8.42784e-06 2.57695e-06 -1.66474e-07 -4.27135e-07
internal_weight=0 84474 4232 1705 79513 78149
internal_count=88706 84474 4232 1705 79513 78149
is_linear=0
shrinkage=0.1


Tree=34
num_leaves=7
num_cat=0
split_feature=92 160 16 294 39 222
split_gain=3.05963e-05 3.76693e-05 4.0905e-05 3.5163e-05 4.38446e-05 3.28876e-05
threshold=0.58411949685534603 0.00078926614652541371 0.036038961038961044 0.0030864240407746384 0.43879953940097544 0.16011049723756909
decision_type=2 2 2 2 2 2
left_child=1 -1 -3 -2 -5 -4
right_child=3 2 5 4 -6 -7
leaf_value=1.8338272281936461e-07 -2.2879020309044102e-06 -0.00010730588350581245 6.6470183717855862e-05 -4.1660289894085304e-05 9.3477508222393097e-05 6.8032708111949521e-06
leaf_weight=50777 27943 31 94 365 25 9471
leaf_count=50777 27943 31 94 365 25 9471
internal_value=0 1.27269e-06 7.0191e-06 -2.71061e-06 -3.25629e-05 7.40737e-06
internal_weight=0 60373 9596 28333 390 9565
internal_count=88706 60373 9596 28333 390 9565
is_linear=0
shrinkage=0.1


Tree=35
num_leaves=7
num_cat=0
split_feature=64 6 15 230 6 77
split_gain=2.84205e-05 5.11344e-05 3.83979e-05 3.33968e-05 3.30604e-05 2.58365e-05
threshold=-0.00070521873468099006 -1.0000000180025095e-35 0.017582502511786075 -0.0048193641671270262 1.0000000180025095e-35 0.19399641577060936
decision_type=2 2 2 2 2 2
left_child=4 -2 -3 -4 -1 -5
right_child=1 2 3 5 -6 -7
leaf_value=-3.2867877868396468e-06 1.5234228071854131e-05 -1.4394712550502626e-05 8.319728246273984e-05 2.735903323451108e-06 -3.0767874065189082e-05 -1.1026970656080243e-06
leaf_weight=13033 2364 1738 49 31352 455 39715
leaf_count=13033 2364 1738 49 31352 455 39715
internal_value=0 7.58531e-07 2.86493e-07 6.47667e-07 -4.22638e-06 5.88364e-07
internal_weight=0 75218 72854 71116 13488 71067
internal_count=88706 75218 72854 71116 13488 71067
is_linear=0
shrinkage=0.1


Tree=36
num_leaves=7
num_cat=0
split_feature=20 230 224 58 38 123
split_gain=2.90824e-05 3.12332e-05 3.87879e-05 3.44986e-05 3.042e-05 5.05689e-05
threshold=0.3603278688524591 -0.00070671389857324119 -0.0014159296175222378 0.10489638730973777 -1.0000000180025095e-35 0.14066425879396988
decision_type=2 2 2 2 2 2
left_child=-1 -2 3 -3 5 -4
right_child=1 2 4 -5 -6 -7
leaf_value=-3.2342327160945183e-06 5.8043696667878462e-06 -0.00012214355650006284 -9.6738060440611643e-05 -1.3100851739775873e-05 1.0944243296513009e-07 1.8130304084940639e-05
leaf_weight=21165 11328 30 39 1583 53168 1393
leaf_count=21165 11328 30 39 1583 53168 1393
internal_value=0 1.01391e-06 4.55287e-08 -1.52341e-05 5.00022e-07 1.48835e-05
internal_weight=0 67541 56213 1613 54600 1432
internal_count=88706 67541 56213 1613 54600 1432
is_linear=0
shrinkage=0.1


Tree=37
num_leaves=7
num_cat=0
split_feature=294 24 5 288 50 175
split_gain=2.72055e-05 3.84877e-05 3.73464e-05 3.52786e-05 2.87612e-05 2.93159e-05
threshold=0.00079491272705034543 0.76967285587975254 0.0095317741808136278 1.0000000180025095e-35 0.27961545471113541 0.77530564767608789
decision_type=2 2 2 2 2 2
left_child=3 2 -2 -1 5 -3
right_child=1 4 -4 -5 -6 -7
leaf_value=-2.394069227130775e-07 7.4755798267807877e-07 -3.7956315835894405e-06 -5.6657049302074172e-05 5.5791983881121484e-06 -1.7364061473404145e-05 5.9056253634481451e-05
leaf_weight=63803 7759 1503 115 12444 3004 78
leaf_count=63803 7759 1503 115 12444 3004 78
internal_value=0 -4.33224e-06 -6.93812e-08 7.08008e-07 -1.16161e-05 -5.87611e-07
internal_weight=0 12459 7874 76247 4585 1581
internal_count=88706 12459 7874 76247 4585 1581
is_linear=0
shrinkage=0.1


Tree=38
num_leaves=7
num_cat=0
split_feature=15 209 10 134 132 170
split_gain=2.76385e-05 2.66283e-05 3.33205e-05 2.98128e-05 3.54433e-05 2.8858e-05
threshold=0.20889649923896503 0.19538706256627789 0.007356339584818997 -0.0025231340338125459 0.0069999580380661784 0.0057909355320811236
decision_type=2 2 2 2 2 2
left_child=1 3 -3 4 -1 -4
right_child=-2 2 5 -5 -6 -7
leaf_value=5.2870685460679488e-06 1.5938122166383928e-06 -1.2654513294863934e-06 9.8166988691051767e-05 2.3865892866903158e-06 0.00018344083017060304 -8.8745842662675964e-06
leaf_weight=30 48863 22086 25 8897 20 8785
leaf_count=30 48863 22086 25 8897 20 8785
internal_value=0 -1.95488e-06 -3.34857e-06 2.83895e-06 7.99418e-05 -8.55158e-06
internal_weight=0 39843 30896 8947 50 8810
internal_count=88706 39843 30896 8947 50 8810
is_linear=0
shrinkage=0.1


Tree=39
num_leaves=7
num_cat=0
split_feature=0 70 15 134 209 75
split_gain=2.64759e-05 3.51762e-05 2.91006e-05 2.40297e-05 2.37664e-05 2.91164e-05
threshold=-1.0000000180025095e-35 -0.00076745985904214098 0.11829471452370137 0.0030816683665113591 0.11566332218506133 0.0010986884564336732
decision_type=2 2 2 2 2 2
left_child=3 -2 4 -1 5 -3
right_child=1 2 -4 -5 -6 -7
leaf_value=-5.3346715141444011e-06 7.9961290060109699e-06 1.0020186270139477e-06 1.0644662834055913e-06 -6.1752368972643157e-05 -4.5317009894524319e-06 3.3388633221022451e-05
leaf_weight=6715 5813 1356 56815 77 17577 353
leaf_count=6715 5813 1356 56815 77 17577 353
internal_value=0 4.97948e-07 -7.25802e-08 -5.99922e-06 -3.431e-06 7.79066e-06
internal_weight=0 81914 76101 6792 19286 1709
internal_count=88706 81914 76101 6792 19286 1709
is_linear=0
shrinkage=0.1


Tree=40
num_leaves=7
num_cat=0
split_feature=69 155 0 158 40 38
split_gain=2.6084e-05 3.79389e-05 3.3238e-05 5.67956e-05 3.30637e-05 3.20493e-05
threshold=-0.0018146596194232245 0.13015113777878415 0.0016122537349030355 0.23629205440229065 0.334831530268422 -0.00078926614652541349
decision_type=2 2 2 2 2 2
left_child=1 -1 5 4 -4 -2
right_child=2 -3 3 -5 -6 -7
leaf_value=-4.3047522130968157e-05 8.8521086678344025e-06 -3.1434551408953367e-06 3.5609237740981765e-05 1.4943116258926801e-05 0.00021409204005789722 4.8657543098358671e-08
leaf_weight=243 4403 14751 23 542 24 68720
leaf_count=243 4403 14751 23 542 24 68720
internal_value=0 -3.80146e-06 7.74011e-07 2.44411e-05 0.00013036 5.81059e-07
internal_weight=0 14994 73712 589 47 73123
internal_count=88706 14994 73712 589 47 73123
is_linear=0
shrinkage=0.1


Tree=41
num_leaves=7
num_cat=0
split_feature=240 288 166 269 224 43
split_gain=2.57271e-05 4.87579e-05 4.47696e-05 4.54772e-05 3.4722e-05 3.39971e-05
threshold=0.39339826839826847 0.0066750363758361084 -0.0028653329435854853 0.081799933087989302 -1.0000000180025095e-35 -0.00045460240268127295
decision_type=2 2 2 2 2 2
left_child=1 4 3 -2 -1 -5
right_child=2 -3 -4 5 -6 -7
leaf_value=-6.8501812747827928e-06 0.00014373244082149759 -0.00011083266474944355 1.3644839672729132e-06 -1.9047804940124096e-05 -8.2105763439641554e-08 5.0615965635328679e-05
leaf_weight=9907 37 41 45930 108 32497 186
leaf_count=9907 37 41 45930 108 32497 186
internal_value=0 -1.77679e-06 1.63239e-06 3.82964e-05 -1.66735e-06 2.44498e-05
internal_weight=0 42445 46261 331 42404 294
internal_count=88706 42445 46261 331 42404 294
is_linear=0
shrinkage=0.1


Tree=42
num_leaves=7
num_cat=0
split_feature=92 64 190 70 164 18
split_gain=2.42686e-05 3.71232e-05 7.54625e-05 3.35546e-05 4.04362e-05 3.34553e-05
threshold=0.54631217838765023 0.0024570041050697715 0.33369486623282724 0.003489610673829802 0.0054837704525272099 0.47327380952380954
decision_type=2 2 2 2 2 2
left_child=1 -1 5 4 -4 -3
right_child=-2 2 3 -5 -6 -7
leaf_value=9.8063825188918526e-07 -2.2880245469808695e-06 7.0238600856145994e-05 0.00014838658195598506 -5.2934428329484272e-05 1.6334447964284339e-05 0.0002450986064605367
leaf_weight=57864 30432 31 26 60 272 21
leaf_count=57864 30432 31 26 60 272 21
internal_value=0 1.19612e-06 3.11939e-05 1.43167e-05 2.84255e-05 0.000144123
internal_weight=0 58274 410 358 298 52
internal_count=88706 58274 410 358 298 52
is_linear=0
shrinkage=0.1


Tree=43
num_leaves=7
num_cat=0
split_feature=102 310 186 169 128 70
split_gain=2.52917e-05 5.04954e-05 4.16567e-05 4.50253e-05 3.60721e-05 3.08518e-05
threshold=0.0017137977361336711 0.058111720838609833 0.48983723043873423 0.0094548651418177917 0.00085106403526502572 0.00071633250074754084
decision_type=2 2 2 2 2 2
left_child=4 -2 -3 -4 5 -1
right_child=1 2 3 -5 -6 -7
leaf_value=1.8355657555139831e-07 7.873316911024605e-05 -4.3554488690778264e-05 -8.515618232349121e-06 0.00013387561685205705 8.2965574447555336e-06 -7.8000647304772292e-06
leaf_weight=77260 54 438 600 23 5169 5162
leaf_count=77260 54 438 600 23 5169 5162
internal_value=0 -1.49646e-05 -1.98932e-05 -2.98633e-06 1.9183e-07 -3.14397e-07
internal_weight=0 1115 1061 623 87591 82422
internal_count=88706 1115 1061 623 87591 82422
is_linear=0
shrinkage=0.1


Tree=44
num_leaves=7
num_cat=0
split_feature=128 157 186 166 192 93
split_gain=2.43249e-05 3.12695e-05 4.81759e-05 3.70717e-05 4.08844e-05 3.42728e-05
threshold=-0.0014199507192591552 0.20169491525423733 0.12518221574344027 -0.0016413629756018009 -0.0049730805139729375 0.48331479421579543
decision_type=2 2 2 2 2 2
left_child=1 -1 5 4 -4 -3
right_child=-2 2 3 -5 -6 -7
leaf_value=-1.5317474346159146e-05 4.0909264193363785e-07 -1.80148628523482e-05 -7.8887971120997235e-05 -4.7172509406673434e-06 2.6522193465914029e-05 -0.00015709025911442819
leaf_weight=2308 83636 47 38 1905 740 32
leaf_count=2308 83636 47 38 1905 740 32
internal_value=0 -6.72438e-06 3.94989e-07 2.7222e-06 2.11557e-05 -7.64963e-05
internal_weight=0 5070 2762 2683 778 79
internal_count=88706 5070 2762 2683 778 79
is_linear=0
shrinkage=0.1


Tree=45
num_leaves=7
num_cat=0
split_feature=262 182 224 266 69 259
split_gain=2.38166e-05 4.7625e-05 3.7812e-05 3.68692e-05 3.14612e-05 2.70838e-05
threshold=-0.0016406905615884424 0.99865951742627357 -0.0014159296175222378 0.0058983050065610507 0.0071561627475784538 0.0097727353724041763
decision_type=2 2 2 2 2 2
left_child=1 -1 4 -3 -2 -5
right_child=2 3 -4 5 -6 -7
leaf_value=9.1103263163309553e-06 -1.0024712986877484e-05 -0.0001302828603189205 7.0313960648273123e-08 -3.5302072791422841e-06 8.8973318814963067e-05 -5.6985666623391515e-05
leaf_weight=5452 4531 29 78035 508 32 119
leaf_count=5452 4531 29 78035 508 32 119
internal_value=0 6.02624e-06 -4.44916e-07 -1.93475e-05 -9.29328e-06 -1.39458e-05
internal_weight=0 6108 82598 656 4563 627
internal_count=88706 6108 82598 656 4563 627
is_linear=0
shrinkage=0.1


Tree=46
num_leaves=7
num_cat=0
split_feature=112 14 6 61 102 160
split_gain=2.35517e-05 2.55318e-05 3.95941e-05 2.75211e-05 2.64111e-05 4.04772e-05
threshold=0.080322580645161304 0.1092959715338671 0.00086430445030938341 0.15075757575757578 0.0038838374160725668 0.0017323524255559166
decision_type=2 2 2 2 2 2
left_child=-1 2 -2 -3 5 -5
right_child=1 3 -4 4 -6 -7
leaf_value=-7.1474179916404993e-06 5.0965778458449006e-06 -3.0849599376898032e-06 -1.9125424676046655e-05 6.9871643837053953e-07 -4.7177111616108004e-05 2.0157285461381808e-05
leaf_weight=4382 15049 25260 704 42100 113 1098
leaf_count=4382 15049 25260 704 42100 113 1098
internal_value=0 3.71855e-07 4.00335e-06 -4.59952e-07 1.06711e-06 1.19723e-06
internal_weight=0 84324 15753 68571 43311 43198
internal_count=88706 84324 15753 68571 43311 43198
is_linear=0
shrinkage=0.1


Tree=47
num_leaves=7
num_cat=0
split_feature=0 134 22 299 6 14
split_gain=2.25931e-05 4.11994e-05 3.65749e-05 3.05514e-05 3.03404e-05 3.48699e-05
threshold=1.0000000180025095e-35 0.0030816683665113591 0.20663911845730029 0.00062319317607626237 1.0000000180025095e-35 0.026863679007000076
decision_type=2 2 2 2 2 2
left_child=1 4 -3 -4 5 -1
right_child=-2 2 3 -5 -6 -7
leaf_value=1.3438529760555587e-05 5.6775927617109749e-06 5.4089897945541202e-05 -2.0727894053610184e-05 -8.6076617986818925e-05 -1.1646154325277011e-05 -2.9786646530719211e-07
leaf_weight=1893 6496 40 201 120 2290 77666
leaf_count=1893 6496 40 201 120 2290 77666
internal_value=0 -4.48437e-07 -3.41606e-05 -4.56852e-05 -2.97678e-07 2.68468e-08
internal_weight=0 82210 361 321 81849 79559
internal_count=88706 82210 361 321 81849 79559
is_linear=0
shrinkage=0.1


Tree=48
num_leaves=7
num_cat=0
split_feature=97 128 38 246 96 262
split_gain=2.26312e-05 3.18786e-05 3.11702e-05 2.58769e-05 3.29176e-05 3.2641e-05
threshold=0.034106286123360995 -0.0014383319693624939 0.0033333387345884096 0.94507980394621105 -0.0023219828151717077 -0.0016319875779853275
decision_type=2 2 2 2 2 2
left_child=1 3 -2 5 -5 -1
right_child=2 -3 -4 4 -6 -7
leaf_value=6.1102249444083489e-06 1.9419329791142159e-06 -7.7582335279521111e-07 -8.7409335651077614e-05 -9.3849302801166481e-05 -1.9028982800871946e-05 -1.7467212360187087e-05
leaf_weight=953 37945 47951 39 82 240 1496
leaf_count=953 37945 47951 39 82 240 1496
internal_value=0 -1.38226e-06 1.84573e-06 -1.18153e-05 -3.8609e-05 -8.22324e-06
internal_weight=0 50722 37984 2771 322 2449
internal_count=88706 50722 37984 2771 322 2449
is_linear=0
shrinkage=0.1


Tree=49
num_leaves=7
num_cat=0
split_feature=11 19 220 160 27 102
split_gain=2.27134e-05 3.7602e-05 9.31103e-05 3.24808e-05 5.12587e-05 2.81717e-05
threshold=-0.0015411662808315293 0.10586596755693922 0.39827586206896559 -0.002276185196521396 0.65548048048048058 -0.0033057903924103012
decision_type=2 2 2 2 2 2
left_child=1 2 -1 4 -3 -2
right_child=5 3 -4 -5 -6 -7
leaf_value=-0.00017554996691279343 3.1943243602978639e-05 -1.0269948773382383e-05 2.0280144792442402e-05 8.7468317317259122e-06 -0.00015889216356134892 -5.2271267674005038e-07
leaf_weight=39 268 155 61 5317 28 82838
leaf_count=39 268 155 61 5317 28 82838
internal_value=0 6.16374e-06 -5.4406e-05 7.29581e-06 -3.39377e-05 -4.15979e-07
internal_weight=0 5600 100 5500 183 83106
internal_count=88706 5600 100 5500 183 83106
is_linear=0
shrinkage=0.1


Tree=50
num_leaves=7
num_cat=0
split_feature=89 37 285 145 192 10
split_gain=2.20195e-05 2.94906e-05 6.41044e-05 2.79708e-05 3.52971e-05 8.70599e-05
threshold=0.10582306830907055 0.0095317741808136278 0.22128060263653485 0.15655637254901963 -0.0049730805139729375 0.0065503573459092758
decision_type=2 2 2 2 2 2
left_child=-1 3 -3 -2 5 -5
right_child=1 2 -4 4 -6 -7
leaf_value=-3.7358847620799367e-06 5.6934788702392991e-06 -0.00017841759271360337 -6.4558054526449808e-06 -0.00023059102310096134 7.6370556633961022e-08 0
leaf_weight=13399 9921 29 95 23 65181 58
leaf_count=13399 9921 29 95 23 65181 58
internal_value=0 6.63843e-07 -4.80419e-05 7.46427e-07 -3.02152e-09 -6.59754e-05
internal_weight=0 75307 124 75183 65262 81
internal_count=88706 75307 124 75183 65262 81
is_linear=0
shrinkage=0.1


Tree=51
num_leaves=7
num_cat=0
split_feature=9 18 25 262 256 305
split_gain=2.15559e-05 2.95529e-05 2.37069e-05 3.58109e-05 3.39036e-05 4.98972e-05
threshold=0.006804969003739599 0.032774936061381078 0.50510204081632659 0.0063797083909333816 0.0047281529403848674 0.77888888888888907
decision_type=2 2 2 2 2 2
left_child=-1 -2 3 -3 -4 -6
right_child=1 2 4 -5 5 -7
leaf_value=-1.6587776511471771e-06 6.4657787105653673e-05 -2.8373201562822482e-07 3.8466152167376055e-06 -0.00010452822721049682 9.0403620629388466e-05 -7.6624529096223177e-05
leaf_weight=41630 74 28890 17964 33 94 21
leaf_count=41630 74 28890 17964 33 94 21
internal_value=0 1.46483e-06 1.36173e-06 -4.08536e-07 4.20319e-06 5.84299e-05
internal_weight=0 47076 47002 28923 18079 115
internal_count=88706 47076 47002 28923 18079 115
is_linear=0
shrinkage=0.1


Tree=52
num_leaves=7
num_cat=0
split_feature=6 15 37 192 31 163
split_gain=2.05869e-05 3.39439e-05 2.22549e-05 2.22906e-05 2.19281e-05 2.88892e-05
threshold=-0.00070621480667121251 0.019298811903313517 -0.0014054919873002726 -0.0049730805139729375 0.37453141453141459 0.006170179308126634
decision_type=2 2 2 2 2 2
left_child=2 -2 4 -4 5 -1
right_child=1 -3 3 -5 -6 -7
leaf_value=-0.00014431910473568522 -1.2469231271282512e-05 -1.7116154166083741e-08 -6.5147160358472545e-05 1.1248799268836532e-05 -2.6347824248247791e-07 -2.0921412544670936e-05
leaf_weight=24 2250 81996 38 3450 831 117
leaf_count=24 2250 81996 38 3450 831 117
internal_value=0 -3.5169e-07 6.61987e-06 1.03679e-05 -6.65585e-06 -4.3129e-05
internal_weight=0 84246 4460 3488 972 141
internal_count=88706 84246 4460 3488 972 141
is_linear=0
shrinkage=0.1


Tree=53
num_leaves=7
num_cat=0
split_feature=294 288 6 59 137 23
split_gain=1.91492e-05 3.17139e-05 2.93775e-05 2.88326e-05 3.06609e-05 2.98959e-05
threshold=-0.0016652804735830527 -0.00080385869404864241 -0.00076745985904214098 0.23887201162329946 0.0054109099459290488 0.087892775063249592
decision_type=2 2 2 2 2 2
left_child=3 -2 -3 5 -5 -1
right_child=1 2 -4 4 -6 -7
leaf_value=-0.00012710438557593854 -4.7358056735199115e-06 1.2206149564599693e-05 1.3685922180758255e-07 0.00010507559926668965 7.883300195318965e-06 -9.8815478413891485e-06
leaf_weight=23 13868 2080 67589 33 4541 572
leaf_count=23 13868 2080 67589 33 4541 572
internal_value=0 -3.67487e-07 4.99623e-07 5.90455e-06 8.6216e-06 -1.46981e-05
internal_weight=0 83537 69669 5169 4574 595
internal_count=88706 83537 69669 5169 4574 595
is_linear=0
shrinkage=0.1


Tree=54
num_leaves=7
num_cat=0
split_feature=6 24 43 128 212 14
split_gain=1.8754e-05 2.87865e-05 3.1219e-05 2.79289e-05 2.96892e-05 2.74766e-05
threshold=1.0000000180025095e-35 0.56594202898550738 0.0040058503247745762 0.0017520813800748771 0.090667311411992288 0.026863679007000076
decision_type=2 2 2 2 2 2
left_child=5 2 3 -2 -5 -1
right_child=1 -3 -4 4 -6 -7
leaf_value=1.1923410128814969e-05 -4.0337825866414754e-06 -1.4411277485322592e-05 0.00012639215943956818 0.00013725449202167157 1.9170938815077532e-05 4.1352680914080784e-08
leaf_weight=1994 1718 2206 20 24 264 82480
leaf_count=1994 1718 2206 20 24 264 82480
internal_value=0 -6.4978e-06 2.03525e-06 7.10793e-07 2.96006e-05 3.23831e-07
internal_weight=0 4232 2026 2006 288 84474
internal_count=88706 4232 2026 2006 288 84474
is_linear=0
shrinkage=0.1


Tree=55
num_leaves=7
num_cat=0
split_feature=48 77 176 96 212 293
split_gain=1.87823e-05 2.12079e-05 3.11382e-05 2.56174e-05 4.41112e-05 3.12697e-05
threshold=0.080322580645161304 0.17712418300653598 0.15331196581196585 0.0024019230769241067 0.083835341365461849 1.0000000180025095e-35
decision_type=2 2 2 2 2 2
left_child=-1 3 -3 -2 -5 -6
right_child=1 2 -4 4 5 -7
leaf_value=-6.4683439979963088e-06 1.8668365630042269e-06 -8.0315378859889518e-06 -1.1541835510684287e-07 0.00016556455397471017 -1.0252012398699563e-05 4.5317255481887192e-05
leaf_weight=4274 35705 5631 42676 22 188 210
leaf_count=4274 35705 5631 42676 22 188 210
internal_value=0 3.26506e-07 -1.04168e-06 2.16075e-06 2.67438e-05 1.86435e-05
internal_weight=0 84432 48307 36125 420 398
internal_count=88706 84432 48307 36125 420 398
is_linear=0
shrinkage=0.1


Tree=56
num_leaves=7
num_cat=0
split_feature=0 6 11 319 44 222
split_gain=1.92906e-05 2.74245e-05 2.08959e-05 3.71885e-05 5.1868e-05 2.41034e-05
threshold=-1.0000000180025095e-35 -0.00070621480667121251 -0.0015411662808315293 0.096477125289107027 0.20611577964519143 0.35377552970043141
decision_type=2 2 2 2 2 2
left_child=-1 -2 3 4 -3 -5
right_child=1 2 -4 5 -6 -7
leaf_value=-5.1222313335571545e-06 1.0707213189129671e-05 0 -3.226948905052129e-07 -1.4582292548655558e-05 -0.00019876903072473049 9.5178747563129569e-06
leaf_weight=6792 2514 33 74395 452 21 4499
leaf_count=6792 2514 33 74395 452 21 4499
internal_value=0 4.23652e-07 9.59172e-08 6.35202e-06 -7.5909e-05 7.28347e-06
internal_weight=0 81914 79400 5005 54 4951
internal_count=88706 81914 79400 5005 54 4951
is_linear=0
shrinkage=0.1


Tree=57
num_leaves=7
num_cat=0
split_feature=102 210 96 172 146 158
split_gain=1.95949e-05 3.99268e-05 3.57141e-05 4.89928e-05 3.46791e-05 3.13855e-05
threshold=0.0017137977361336711 0.032774936061381078 0.0017536176211541135 0.030536130536130541 0.37806548613431346 0.16011049723756909
decision_type=2 2 2 2 2 2
left_child=2 -2 -1 -4 -3 -6
right_child=1 4 3 -5 5 -7
leaf_value=-1.0159156190853653e-08 9.4412491397671567e-05 -3.7087643563205947e-05 0.00014651882927611208 1.6832973642275969e-05 0.00011359552005683996 -5.4125736172236904e-06
leaf_weight=86911 33 469 31 649 23 590
leaf_count=86911 33 469 31 649 23 590
internal_value=0 -1.31742e-05 1.66506e-07 2.29948e-05 -1.66122e-05 -6.70571e-07
internal_weight=0 1115 87591 680 1082 613
internal_count=88706 1115 87591 680 1082 613
is_linear=0
shrinkage=0.1


Tree=58
num_leaves=7
num_cat=0
split_feature=92 64 190 143 289 68
split_gain=1.8126e-05 2.63812e-05 5.57692e-05 2.79567e-05 2.80453e-05 2.63569e-05
threshold=0.54631217838765023 0.0024570041050697715 0.33369486623282724 0.55591641225392163 0.14783827789379034 0.0065276282078893773
decision_type=2 2 2 2 2 2
left_child=1 -1 5 4 -4 -3
right_child=-2 2 3 -5 -6 -7
leaf_value=8.5000940947400392e-07 -1.9789641006957396e-06 0.00019673754244719404 4.6301781705035462e-06 -6.0030054044359075e-05 7.4509431573932259e-05 4.3615950833723329e-05
leaf_weight=57864 30432 26 233 46 79 26
leaf_count=57864 30432 26 233 46 79 26
internal_value=0 1.03213e-06 2.63226e-05 1.17423e-05 2.2867e-05 0.00012344
internal_weight=0 58274 410 358 312 52
internal_count=88706 58274 410 358 312 52
is_linear=0
shrinkage=0.1


Tree=59
num_leaves=7
num_cat=0
split_feature=294 37 16 148 61 128
split_gain=1.82074e-05 2.79068e-05 3.00228e-05 4.00907e-05 5.11374e-05 3.13114e-05
threshold=0.00079491272705034543 0.0095317741808136278 0.5887605042016808 0.050316455696202543 0.19478319783197837 0.00172488216280442
decision_type=2 2 2 2 2 2
left_child=-1 2 -2 4 -4 -5
right_child=1 -3 3 5 -6 -7
leaf_value=5.7892135453732259e-07 -6.7644651553440861e-06 -5.0453658348647488e-05 0.00019748643340043205 -6.1513208816496653e-07 -1.1688755429101024e-05 2.4996118386232908e-05
leaf_weight=76247 7885 126 24 3861 20 543
leaf_count=76247 7885 126 24 3861 20 543
internal_value=0 -3.5444e-06 -3.05142e-06 3.49269e-06 9.85701e-05 2.50426e-06
internal_weight=0 12459 12333 4448 44 4404
internal_count=88706 12459 12333 4448 44 4404
is_linear=0
shrinkage=0.1


Tree=60
num_leaves=7
num_cat=0
split_feature=115 7 59 78 19 28
split_gain=1.82117e-05 2.40345e-05 3.46147e-05 2.52567e-05 2.05326e-05 3.08069e-05
threshold=0.046470099667774094 -0.11643305374186565 0.3244138177913013 0.89309523809523828 0.32561964504283974 0.1731634182908546
decision_type=2 2 2 2 2 2
left_child=1 2 -1 4 -3 -6
right_child=-2 3 -4 -5 5 -7
leaf_value=-0.00018292219445272545 1.1290013909613664e-07 -1.6850674571197403e-05 -4.8183477776228488e-06 -0.00012187093046554056 0.00011867726672171987 -1.4046969058034543e-06
leaf_weight=21 88155 388 27 20 30 65
leaf_count=21 88155 388 27 20 30 65
internal_value=0 -1.8124e-05 -8.62727e-05 -1.12837e-05 -6.35318e-06 3.47387e-05
internal_weight=0 551 48 503 483 95
internal_count=88706 551 48 503 483 95
is_linear=0
shrinkage=0.1


Tree=61
num_leaves=7
num_cat=0
split_feature=102 310 186 297 28 318
split_gain=1.79789e-05 3.33762e-05 3.09815e-05 3.20452e-05 3.08293e-05 2.86059e-05
threshold=0.0017137977361336711 0.058111720838609833 0.5150039494470775 0.0091583548406375514 0.66384180790960456 0.16839419978517725
decision_type=2 2 2 2 2 2
left_child=-1 4 -3 5 -2 -4
right_child=1 2 3 -5 -6 -7
leaf_value=1.5970998858351658e-07 -3.6134765136480527e-06 -3.5972200648725805e-05 0.00011034235959324736 0.00010920778323200477 0.00014210792432924329 -1.092453109094739e-05
leaf_weight=87591 28 466 20 25 26 550
leaf_count=87591 28 466 20 25 26 550
internal_value=0 -1.26191e-05 -1.66489e-05 -1.23052e-06 6.34215e-05 -6.37192e-06
internal_weight=0 1115 1061 595 54 570
internal_count=88706 1115 1061 595 54 570
is_linear=0
shrinkage=0.1


Tree=62
num_leaves=7
num_cat=0
split_feature=64 6 262 103 294 101
split_gain=1.68708e-05 2.45244e-05 2.59855e-05 2.32454e-05 2.28653e-05 2.73335e-05
threshold=-0.00070521873468099006 -1.0000000180025095e-35 -0.0048900145268193631 -0.040491027314883431 0.0024600274950215 0.00093155092424324559
decision_type=2 2 2 2 2 2
left_child=4 -2 3 -3 5 -1
right_child=1 2 -4 -5 -6 -7
leaf_value=-4.9052969047235509e-06 1.0609119784759507e-05 -4.0701944103851428e-06 1.9781948264032396e-07 0.00011398916145011738 -3.2454874346855447e-05 6.5602604201958312e-06
leaf_weight=10651 2364 25 72791 38 264 2573
leaf_count=10651 2364 25 72791 38 264 2573
internal_value=0 5.83357e-07 2.55714e-07 6.44577e-05 -3.25734e-06 -2.66164e-06
internal_weight=0 75218 72854 63 13488 13224
internal_count=88706 75218 72854 63 13488 13224
is_linear=0
shrinkage=0.1


Tree=63
num_leaves=7
num_cat=0
split_feature=0 134 22 65 115 7
split_gain=1.75017e-05 3.19759e-05 2.63539e-05 2.71853e-05 2.46483e-05 3.43308e-05
threshold=1.0000000180025095e-35 0.0030816683665113591 0.20663911845730029 0.12091264741491035 0.046470099667774094 -0.11643305374186565
decision_type=2 2 2 2 2 2
left_child=1 4 -3 -4 5 -1
right_child=-2 2 3 -5 -6 -7
leaf_value=-0.0001190008406017141 4.9965498904616904e-06 4.4467692419809884e-05 -6.3980901253002994e-05 -3.2526398365410695e-06 -1.2748150795459963e-07 -1.4953647510273087e-05
leaf_weight=35 6496 40 191 130 81374 440
leaf_count=35 6496 40 191 130 81374 440
internal_value=0 -3.9522e-07 -3.00954e-05 -3.99143e-05 -2.62157e-07 -2.29775e-05
internal_weight=0 82210 361 321 81849 475
internal_count=88706 82210 361 321 81849 475
is_linear=0
shrinkage=0.1


Tree=64
num_leaves=7
num_cat=0
split_feature=14 302 288 259 294 183
split_gain=1.80151e-05 2.95501e-05 3.29266e-05 3.04371e-05 2.70408e-05 2.97716e-05
threshold=0.40446941323345825 0.42040308660777748 -0.0043914415905090811 0.0062886533607555964 -0.0030418344768072809 0.63656746840603351
decision_type=2 2 2 2 2 2
left_child=1 -1 -3 -4 5 -2
right_child=4 2 3 -5 -6 -7
leaf_value=1.8566273365946859e-07 3.3887347653813265e-05 -6.2814772306685833e-05 1.6092280616426971e-05 2.3301896425146204e-06 -2.5206959254266723e-06 -1.529973118059786e-05
leaf_weight=53377 412 66 2714 4026 27941 170
leaf_count=53377 412 66 2714 4026 27941 170
internal_value=0 9.80163e-07 7.18628e-06 7.89689e-06 -2.07096e-06 1.92293e-05
internal_weight=0 60183 6806 6740 28523 582
internal_count=88706 60183 6806 6740 28523 582
is_linear=0
shrinkage=0.1


Tree=65
num_leaves=7
num_cat=0
split_feature=15 6 179 266 25 7
split_gain=1.69354e-05 2.46999e-05 2.54603e-05 2.40622e-05 5.10385e-05 6.3649e-05
threshold=0.20889649923896503 -0.0015754239652654432 0.50042735042735054 0.0054723398892222086 0.074537037037037054 0.19642156529560872
decision_type=2 2 2 2 2 2
left_child=1 -1 -3 4 -2 -6
right_child=3 2 -4 -5 5 -7
leaf_value=1.5785426639349888e-05 -0.00012457713601318816 -4.6478579354179913e-07 -6.4823476617673015e-06 1.5868388780022027e-06 -1.2558445371888675e-05 0.00016709009342857193
leaf_weight=805 40 29806 9232 47764 1039 20
leaf_count=805 40 29806 9232 47764 1039 20
internal_value=0 -1.53079e-06 -1.8922e-06 1.24706e-06 -1.33661e-05 -9.00522e-06
internal_weight=0 39843 39038 48863 1099 1059
internal_count=88706 39843 39038 48863 1099 1059
is_linear=0
shrinkage=0.1


Tree=66
num_leaves=7
num_cat=0
split_feature=20 134 222 18 256 75
split_gain=1.67231e-05 2.61773e-05 3.66674e-05 3.49816e-05 3.27913e-05 3.21694e-05
threshold=0.38975694444444448 0.0014587902397611432 0.3940285204991088 0.12136309768544272 0.002469137475072714 0.00088417997004645442
decision_type=2 2 2 2 2 2
left_child=1 -1 4 -4 -3 -6
right_child=-2 2 3 -5 5 -7
leaf_value=-1.4103642138523167e-06 8.1206916807380547e-07 -3.5974507093896618e-07 3.8599646742368543e-05 -2.5643487953478985e-05 0.00013810320958094468 -9.9123409610809355e-06
leaf_weight=21486 65686 151 89 1234 40 20
leaf_count=21486 65686 151 89 1234 40 20
internal_value=0 -2.3201e-06 -1.49521e-05 -2.11938e-05 2.33821e-05 8.59479e-05
internal_weight=0 23020 1534 1323 211 60
internal_count=88706 23020 1534 1323 211 60
is_linear=0
shrinkage=0.1


Tree=67
num_leaves=7
num_cat=0
split_feature=228 17 153 6 60 237
split_gain=1.66033e-05 2.53615e-05 2.51595e-05 2.80415e-05 2.65212e-05 2.42396e-05
threshold=0.0066512020807553956 0.10856469355683605 0.037855266300453792 -0.0016736417300284854 0.24283374283374287 0.21352583586626142
decision_type=2 2 2 2 2 2
left_child=1 5 3 -3 -5 -1
right_child=-2 2 -4 4 -6 -7
leaf_value=1.341194204219142e-05 1.6754386204522995e-06 -0.00013089702938620041 -1.3656578862376504e-06 1.3888500320705406e-05 -2.5753307616275553e-05 -5.3593511869450224e-06
leaf_weight=2193 35464 22 49176 223 641 987
leaf_count=2193 35464 22 49176 223 641 987
internal_value=0 -1.11745e-06 -1.67029e-06 -1.83871e-05 -1.53258e-05 7.53255e-06
internal_weight=0 53242 50062 886 864 3180
internal_count=88706 53242 50062 886 864 3180
is_linear=0
shrinkage=0.1


Tree=68
num_leaves=7
num_cat=0
split_feature=89 5 189 15 102 256
split_gain=1.60891e-05 2.48174e-05 5.50502e-05 2.22325e-05 2.3451e-05 2.1305e-05
threshold=0.10582306830907055 0.0095317741808136278 0.20761494252873566 0.065151193584999698 0.00073099428224931995 -0.0043103523019514247
decision_type=2 2 2 2 2 2
left_child=3 5 -3 -1 -5 -2
right_child=1 2 -4 4 -6 -7
leaf_value=-1.5772591037099678e-05 -2.9861182839617921e-05 -0.0001677757054855452 -6.1129038268641681e-06 -7.6534218372945061e-07 -1.9839345107658767e-05 7.3779194706716173e-07
leaf_weight=1275 228 28 95 11439 685 74956
leaf_count=1275 228 28 95 11439 685 74956
internal_value=0 5.67101e-07 -4.42943e-05 -3.19377e-06 -1.85698e-06 6.42747e-07
internal_weight=0 75307 123 13399 12124 75184
internal_count=88706 75307 123 13399 12124 75184
is_linear=0
shrinkage=0.1


Tree=69
num_leaves=7
num_cat=0
split_feature=49 96 180 61 119 176
split_gain=1.56086e-05 2.85855e-05 4.564e-05 6.08138e-05 4.41388e-05 2.85552e-05
threshold=0.54631217838765023 -0.0014540171694878976 0.049822695035461002 0.23145604395604399 0.55342858887464141 0.29217479674796754
decision_type=2 2 2 2 2 2
left_child=-1 5 3 4 -3 -2
right_child=1 2 -4 -5 -6 -7
leaf_value=1.1711130780159923e-06 -2.903671201172349e-05 5.892227837590176e-05 -1.1377121944057331e-06 0 0.00025653432015900585 -2.3216008134649328e-06
leaf_weight=49782 738 31 37151 76 21 907
leaf_count=49782 738 31 37151 76 21 907
internal_value=0 -1.50198e-06 -9.2786e-07 5.86563e-05 0.000141995 -1.44098e-05
internal_weight=0 38924 37279 128 52 1645
internal_count=88706 38924 37279 128 52 1645
is_linear=0
shrinkage=0.1


Tree=70
num_leaves=7
num_cat=0
split_feature=102 133 252 183 249 31
split_gain=1.68008e-05 3.82832e-05 3.66704e-05 3.23698e-05 3.56762e-05 2.9728e-05
threshold=-0.0031897973965762101 0.00091085712035759829 0.42740046838407497 0.89296945193171628 0.22335600907029482 0.4365280799290952
decision_type=2 2 2 2 2 2
left_child=1 3 -3 5 -5 -1
right_child=-2 2 -4 4 -6 -7
leaf_value=-2.5192740865132513e-05 -9.2491045277586417e-08 0.00016292132570990719 3.1181680163237414e-07 4.9809702689910908e-06 -0.00015461702019280068 4.4406422633908693e-05
leaf_weight=89 88320 34 27 29 24 183
leaf_count=89 88320 34 27 29 24 183
internal_value=0 2.08157e-05 9.37252e-05 6.60947e-06 -6.41045e-05 2.10111e-05
internal_weight=0 386 61 325 53 272
internal_count=88706 386 61 325 53 272
is_linear=0
shrinkage=0.1


Tree=71
num_leaves=7
num_cat=0
split_feature=6 121 75 212 16 62
split_gain=1.53223e-05 2.32631e-05 3.63522e-05 3.29216e-05 2.38587e-05 2.25113e-05
threshold=1.0000000180025095e-35 0.74133811230585434 0.0030545765195686102 0.071946169772256749 0.7231800766283526 0.096134182790624523
decision_type=2 2 2 2 2 2
left_child=-1 5 3 -3 -5 -2
right_child=1 2 -4 4 -6 -7
leaf_value=2.9300120735588849e-07 7.4065783122251268e-05 0.00011133098754099423 0.00011929026836681112 -8.8919266232446655e-06 1.9176923447758115e-05 -1.2282042551182676e-05
leaf_weight=84474 30 27 27 971 440 2737
leaf_count=84474 30 27 27 971 440 2737
internal_value=0 -5.87299e-06 4.23261e-06 1.95427e-06 -1.91198e-08 -1.12846e-05
internal_weight=0 4232 1465 1438 1411 2767
internal_count=88706 4232 1465 1438 1411 2767
is_linear=0
shrinkage=0.1


Tree=72
num_leaves=7
num_cat=0
split_feature=24 90 148 107 265 151
split_gain=1.52517e-05 2.24002e-05 6.66548e-05 3.87913e-05 2.07463e-05 1.64969e-05
threshold=0.044949494949494954 0.55008090614886751 0.1114066193853428 -0.00094382252478138748 0.0079773603417854933 0.99900793650793662
decision_type=2 2 2 2 2 2
left_child=1 4 -3 -4 5 -1
right_child=-2 2 3 -5 -6 -7
leaf_value=1.27995657933715e-06 -1.3218221327574463e-07 0.00017919416549085971 0.00015420661115629904 8.902151269786677e-06 -8.0037575987796514e-05 8.8342726891648315e-05
leaf_weight=503 87820 29 20 281 30 23
leaf_count=503 87820 29 20 281 30 23
internal_value=0 1.3054e-05 3.3703e-05 1.91211e-05 4.93908e-07 5.40923e-06
internal_weight=0 886 330 301 556 526
internal_count=88706 886 330 301 556 526
is_linear=0
shrinkage=0.1


Tree=73
num_leaves=7
num_cat=0
split_feature=31 49 214 304 256 306
split_gain=1.58197e-05 2.06057e-05 3.03012e-05 2.42061e-05 1.86808e-05 5.60562e-05
threshold=0.16163514847725377 0.37602459016393447 0.039653096823329979 0.32709790209790218 -0.0043103523019514247 0.10853988168094657
decision_type=2 2 2 2 2 2
left_child=1 3 -3 -1 5 -2
right_child=4 2 -4 -5 -6 -7
leaf_value=6.6338528751510704e-06 -0.00016024790917362072 0.00011618666392053659 -2.6018350048396601e-06 4.6545755811837266e-05 -8.9890524892204395e-08 -1.0552968018763004e-05
leaf_weight=373 28 22 883 271 86857 272
leaf_count=373 28 22 883 271 86857 272
internal_value=0 1.00174e-05 9.94299e-08 2.3692e-05 -1.77887e-07 -2.50906e-05
internal_weight=0 1549 905 644 87157 300
internal_count=88706 1549 905 644 87157 300
is_linear=0
shrinkage=0.1


Tree=74
num_leaves=7
num_cat=0
split_feature=96 188 158 180 70 102
split_gain=1.52653e-05 3.24724e-05 3.66685e-05 2.80693e-05 2.41997e-05 2.40011e-05
threshold=0.00082644646915053255 0.059262510974539072 0.22735477518871025 0.083835341365461849 0.00079051399865903715 0.0016813794237515724
decision_type=2 2 2 2 2 2
left_child=4 2 -2 -4 -1 -3
right_child=1 5 3 -5 -6 -7
leaf_value=-5.1869142559621988e-08 0.00012710993439116791 4.5228906990650282e-06 0.00010619359382279804 1.369540481840781e-05 -8.4529139435653744e-06 -1.1340345309622679e-05
leaf_weight=76479 35 6960 36 503 3592 1101
leaf_count=76479 35 6960 36 503 3592 1101
internal_value=0 3.99463e-06 2.70034e-05 2.01881e-05 -4.30855e-07 2.33524e-06
internal_weight=0 8635 574 539 80071 8061
internal_count=88706 8635 574 539 80071 8061
is_linear=0
shrinkage=0.1


Tree=75
num_leaves=7
num_cat=0
split_feature=14 6 199 297 256 25
split_gain=1.49665e-05 3.3404e-05 2.18018e-05 2.83112e-05 2.10506e-05 2.95772e-05
threshold=0.16163514847725377 0.00084961787648030207 -0.27324262360440671 0.010106084851509406 0.00084246018245970344 0.41254901960784318
decision_type=2 2 2 2 2 2
left_child=1 2 3 -1 -2 -6
right_child=4 -3 -4 -5 5 -7
leaf_value=-2.1976008532264233e-06 -1.497318856307444e-06 -1.642462974063345e-05 4.278548847513194e-06 -8.6774861971033307e-05 -3.2837962122685247e-06 9.7080287855644193e-06
leaf_weight=5428 55522 944 19603 40 2995 4174
leaf_count=5428 55522 944 19603 40 2995 4174
internal_value=0 2.01653e-06 2.71764e-06 -2.84732e-06 -8.36608e-07 4.25682e-06
internal_weight=0 26015 25071 5468 62691 7169
internal_count=88706 26015 25071 5468 62691 7169
is_linear=0
shrinkage=0.1


Tree=76
num_leaves=7
num_cat=0
split_feature=9 17 22 23 319 254
split_gain=1.52438e-05 2.0837e-05 3.33061e-05 3.50662e-05 5.30603e-05 3.29332e-05
threshold=0.006804969003739599 0.17752100840336138 0.3432147948522663 0.13691420331651047 0.30176476694695326 0.34739903261224375
decision_type=2 2 2 2 2 2
left_child=-1 2 3 4 -2 -4
right_child=1 -3 5 -5 -6 -7
leaf_value=-1.3944616865245456e-06 -0.00021092491930019996 2.6728890790805782e-07 4.7487335014089334e-05 -3.0316872711870894e-07 0 9.3157799424919247e-06
leaf_weight=41630 20 38957 241 3366 33 4459
leaf_count=41630 20 38957 241 3366 33 4459
internal_value=0 1.2323e-06 5.84181e-06 -1.62448e-06 -8.23414e-05 1.13091e-05
internal_weight=0 47076 8119 3419 53 4700
internal_count=88706 47076 8119 3419 53 4700
is_linear=0
shrinkage=0.1


Tree=77
num_leaves=7
num_cat=0
split_feature=294 307 256 297 99 152
split_gain=1.47391e-05 3.50659e-05 3.21838e-05 4.5861e-05 3.04431e-05 2.98611e-05
threshold=-0.0028612337450306664 0.096652661064425785 -0.0025445310926315297 0.0091583548406375514 0.006300114539328691 0.27100988700564976
decision_type=2 2 2 2 2 2
left_child=1 -1 3 5 -3 -2
right_child=2 4 -4 -5 -6 -7
leaf_value=0.00010013399021459962 2.16440619177711e-05 2.506227193802375e-05 4.3916605061866847e-09 -0.00012046262621395001 -4.1433571218778664e-06 -2.625237489713959e-05
leaf_weight=42 169 578 86431 44 914 528
leaf_count=42 169 578 86431 44 914 528
internal_value=0 9.71648e-06 -1.71564e-07 -2.09234e-05 7.05753e-06 -1.43962e-05
internal_weight=0 1534 87172 741 1492 697
internal_count=88706 1534 87172 741 1492 697
is_linear=0
shrinkage=0.1


Tree=78
num_leaves=7
num_cat=0
split_feature=11 51 99 37 102 101
split_gain=1.44764e-05 2.48898e-05 5.58105e-05 3.35693e-05 2.06922e-05 4.53888e-05
threshold=-0.0015924247095214252 0.10586596755693922 0.0064980046734680122 -0.00021741653375934942 -0.0033057903924103012 0.0010258940884182949
decision_type=2 2 2 2 2 2
left_child=1 2 -1 -4 5 -2
right_child=4 -3 3 -5 -6 -7
leaf_value=1.6764951918640651e-05 8.6573330458478313e-06 6.0715907482401283e-06 -0.00022864337282967 -3.5950755373283264e-05 -4.1244222521213874e-07 0.00012182393426134522
leaf_weight=57 227 5152 20 21 83186 43
leaf_count=57 227 5152 20 21 83186 43
internal_value=0 5.09302e-06 -4.46235e-05 -0.000134088 -3.2073e-07 2.73084e-05
internal_weight=0 5250 98 41 83456 270
internal_count=88706 5250 98 41 83456 270
is_linear=0
shrinkage=0.1


Tree=79
num_leaves=7
num_cat=0
split_feature=112 64 186 18 26 88
split_gain=1.44524e-05 2.25356e-05 1.97045e-05 2.47251e-05 7.94753e-05 3.06906e-05
threshold=0.071946169772256749 0.0017559280557701842 0.29218613719152436 0.20669871794871797 0.37625440510152713 0.19399641577060936
decision_type=2 2 2 2 2 2
left_child=1 2 3 4 -1 -5
right_child=-2 -3 -4 5 -6 -7
leaf_value=-2.0595904805704886e-05 2.5925210575043367e-07 5.9343700035980739e-05 -4.0063964790751631e-06 2.1542179043770198e-05 -0.00019156448243428097 -3.6465729646233587e-05
leaf_weight=136 85189 51 2931 165 35 199
leaf_count=136 85189 51 2931 165 35 199
internal_value=0 -6.2821e-06 -7.29663e-06 -2.50058e-05 -5.65828e-05 -9.70618e-06
internal_weight=0 3517 3466 535 171 364
internal_count=88706 3517 3466 535 171 364
is_linear=0
shrinkage=0.1


Tree=80
num_leaves=7
num_cat=0
split_feature=0 134 202 3 84 299
split_gain=1.40691e-05 2.51193e-05 2.44851e-05 2.35268e-05 2.48707e-05 2.16462e-05
threshold=1.0000000180025095e-35 0.0030816683665113591 0.0061607781781797205 0.0075259160260189835 0.050316455696202543 0.0011782867104326927
decision_type=2 2 2 2 2 2
left_child=1 -1 -3 -2 -5 -4
right_child=3 2 5 4 -6 -7
leaf_value=-2.3611728268449237e-07 8.1000922827722682e-06 5.9310816315876874e-05 -1.9299283920219986e-05 8.4298819410048127e-05 -7.2042029983576771e-06 -8.0332258649769669e-05
leaf_weight=81849 4780 29 251 30 1686 81
leaf_count=81849 4780 29 251 30 1686 81
internal_value=0 -3.54292e-07 -2.66789e-05 4.47991e-06 -5.5057e-06 -3.47003e-05
internal_weight=0 82210 361 6496 1716 332
internal_count=88706 82210 361 6496 1716 332
is_linear=0
shrinkage=0.1


Tree=81
num_leaves=7
num_cat=0
split_feature=228 68 224 124 116 170
split_gain=1.36961e-05 2.29618e-05 3.37379e-05 3.24927e-05 2.21773e-05 2.16841e-05
threshold=0.0066512020807553956 0.0060659994538682432 0.0016070717181850826 0.045715778474399171 0.039230769230769243 0.010256798997035457
decision_type=2 2 2 2 2 2
left_child=-1 2 5 -4 -3 -2
right_child=1 4 3 -5 -6 -7
leaf_value=-1.0145593150050973e-06 5.5849926990163755e-06 8.1623300618499563e-05 0.0001630322809925822 3.4396078921850562e-05 7.7087685611167315e-07 8.0368455916856175e-05
leaf_weight=53242 1960 34 23 199 33208 40
leaf_count=53242 1960 34 23 199 33208 40
internal_value=0 1.52205e-06 1.13702e-05 4.84883e-05 8.58673e-07 7.16543e-06
internal_weight=0 35464 2222 222 33242 2000
internal_count=88706 35464 2222 222 33242 2000
is_linear=0
shrinkage=0.1


Tree=82
num_leaves=7
num_cat=0
split_feature=14 270 230 51 105 17
split_gain=1.3768e-05 2.35581e-05 2.23288e-05 3.44591e-05 2.19196e-05 3.1684e-05
threshold=0.40446941323345825 0.41676706827309246 -0.0048193641671270262 0.66709956709956719 1.0000000180025095e-35 0.24807692307692311
decision_type=2 2 2 2 2 2
left_child=1 4 3 -2 5 -1
right_child=2 -3 -4 -5 -6 -7
leaf_value=-2.2923018705181159e-06 7.0267120740451149e-05 6.4928694180645684e-06 -1.9904711789871611e-06 -6.8770349878650948e-05 2.7370145201328793e-07 -9.7543677354623248e-05
leaf_weight=103 91 6607 28411 21 53417 56
leaf_count=103 91 6607 28411 21 53417 56
internal_value=0 8.58225e-07 -1.80911e-06 4.26854e-05 1.60201e-07 -3.69058e-05
internal_weight=0 60183 28523 112 53576 159
internal_count=88706 60183 28523 112 53576 159
is_linear=0
shrinkage=0.1


Tree=83
num_leaves=7
num_cat=0
split_feature=288 187 294 300 146 6
split_gain=1.40199e-05 2.25481e-05 2.0585e-05 2.66626e-05 3.7059e-05 2.54379e-05
threshold=-1.0000000180025095e-35 0.23065407646245975 -0.0028612337450306664 0.49698795180722893 0.27789303826648232 1.0000000180025095e-35
decision_type=2 2 2 2 2 2
left_child=1 -1 3 5 -5 -3
right_child=-2 2 -4 4 -6 -7
leaf_value=-1.3020490358170803e-05 7.4985546265350172e-07 1.9029644845033704e-05 -1.9981000565888173e-06 -0.00014175393893739894 -3.2205905684680325e-06 -5.3103317821744484e-05
leaf_weight=1754 65443 1115 20222 25 97 50
leaf_count=1754 65443 1115 20222 25 97 50
internal_value=0 -2.1083e-06 -1.21057e-06 1.1032e-05 -3.29994e-05 1.57884e-05
internal_weight=0 23263 21509 1287 122 1165
internal_count=88706 23263 21509 1287 122 1165
is_linear=0
shrinkage=0.1


Tree=84
num_leaves=7
num_cat=0
split_feature=69 32 240 21 310 180
split_gain=1.33572e-05 2.98746e-05 3.82169e-05 3.38545e-05 2.53235e-05 2.61609e-05
threshold=-0.0018146596194232245 -0.00087796335113221591 0.21380952380952384 0.1180340557275542 0.77365376669880204 0.071946169772256749
decision_type=2 2 2 2 2 2
left_child=1 2 3 -1 -3 -6
right_child=-2 4 -4 -5 5 -7
leaf_value=-0.00018935692249084837 5.5314702218543473e-07 -3.9924742656088867e-06 -6.2162431172454357e-06 -4.9057009148698808e-05 5.7018945806276439e-05 4.6888928450159093e-06
leaf_weight=22 73712 11871 249 114 100 2638
leaf_count=22 73712 11871 249 114 100 2638
internal_value=0 -2.72107e-06 -3.02481e-05 -7.30019e-05 -1.98404e-06 6.66202e-06
internal_weight=0 14994 385 136 14609 2738
internal_count=88706 14994 385 136 14609 2738
is_linear=0
shrinkage=0.1


Tree=85
num_leaves=7
num_cat=0
split_feature=31 49 182 68 224 217
split_gain=1.32417e-05 1.72506e-05 2.29048e-05 2.05514e-05 1.63142e-05 3.50038e-05
threshold=0.16163514847725377 0.37602459016393447 0.039653096823329979 0.006163659782894868 -0.0042265497349154293 0.25227272727272732
decision_type=2 2 2 2 2 2
left_child=1 3 -3 -1 5 -2
right_child=4 2 -4 -5 -6 -7
leaf_value=1.5796150763413167e-06 8.6376214352139961e-06 0.00010606263554156339 -2.1308331842648601e-06 3.8073868230834707e-05 -8.2469081456947856e-08 -6.0197923856622259e-05
leaf_weight=294 150 20 885 350 86868 139
leaf_count=294 150 20 885 350 86868 139
internal_value=0 9.1643e-06 7.37255e-08 2.16763e-05 -1.63338e-07 -2.38851e-05
internal_weight=0 1549 905 644 87157 289
internal_count=88706 1549 905 644 87157 289
is_linear=0
shrinkage=0.1


Tree=86
num_leaves=7
num_cat=0
split_feature=92 180 52 84 85 18
split_gain=1.31485e-05 2.48741e-05 5.21347e-05 2.60063e-05 3.6099e-05 2.43025e-05
threshold=0.59807692307692317 0.037980769230769242 0.29494614747307379 0.071946169772256749 0.17684288905435594 0.43167433266501559
decision_type=2 2 2 2 2 2
left_child=-1 2 -2 4 -3 -4
right_child=1 3 5 -5 -6 -7
leaf_value=8.1830882783567689e-07 -0.00016723533944761583 0.00013424908218376413 8.86349996046742e-05 -2.0267482049539666e-06 1.5016032532074582e-05 -6.6252860418139489e-05
leaf_weight=61092 28 28 20 27162 356 20
leaf_count=61092 28 28 20 27162 356 20
internal_value=0 -1.8111e-06 -6.22839e-05 -1.65566e-06 2.41521e-05 6.96293e-06
internal_weight=0 27614 68 27546 384 40
internal_count=88706 27614 68 27546 384 40
is_linear=0
shrinkage=0.1


Tree=87
num_leaves=7
num_cat=0
split_feature=151 291 64 67 177 134
split_gain=1.29429e-05 3.44029e-05 3.24651e-05 2.6661e-05 2.25684e-05 2.02664e-05
threshold=0.72190931240705003 1.0000000180025095e-35 0.0039544933581359141 0.0081908825990902774 0.15655637254901963 -0.001671542678589155
decision_type=2 2 2 2 2 2
left_child=5 -2 3 4 -3 -1
right_child=1 2 -4 -5 -6 -7
leaf_value=1.0711364580380986e-05 -4.7977187458448753e-05 9.4708170286248998e-06 0.00010367762006641144 -1.0161377365255517e-05 -1.8314702870265406e-06 3.3520538257123862e-07
leaf_weight=1938 164 2040 29 3358 13143 68034
leaf_count=1938 164 2040 29 3358 13143 68034
internal_value=0 -2.33446e-06 -1.92225e-06 -2.09657e-06 -3.0174e-07 6.2501e-07
internal_weight=0 18734 18570 18541 15183 69972
internal_count=88706 18734 18570 18541 15183 69972
is_linear=0
shrinkage=0.1


Tree=88
num_leaves=7
num_cat=0
split_feature=198 76 80 25 214 319
split_gain=1.32001e-05 3.3656e-05 3.22459e-05 3.90612e-05 3.01809e-05 3.01217e-05
threshold=0.0023328163405995643 0.052911534154535277 0.11043360433604336 0.18065268065268067 0.11896436896436897 0.99900199600798412
decision_type=2 2 2 2 2 2
left_child=-1 -2 3 -3 5 -4
right_child=1 2 4 -5 -6 -7
leaf_value=1.571070406565919e-07 3.1049244247354466e-05 -0.00019291279159823203 -3.9629139440542512e-06 -3.5391538043785673e-05 -1.4227919506905422e-05 0.00013419880345573492
leaf_weight=87262 177 21 31 81 1106 28
leaf_count=87262 177 21 31 81 1106 28
internal_value=0 -9.48271e-06 -1.52786e-05 -6.94878e-05 -1.0387e-05 5.87429e-05
internal_weight=0 1444 1267 102 1165 59
internal_count=88706 1444 1267 102 1165 59
is_linear=0
shrinkage=0.1


Tree=89
num_leaves=7
num_cat=0
split_feature=43 19 35 221 124 15
split_gain=1.27055e-05 2.52561e-05 6.80253e-05 1.66393e-05 2.57975e-05 4.19797e-05
threshold=-0.0019334598837004618 0.10586596755693922 0.0076727212482796082 0.23582887700534763 0.020305091733663166 0.4232584689016225
decision_type=2 2 2 2 2 2
left_child=1 2 -1 -2 5 -5
right_child=3 -3 -4 4 -6 -7
leaf_value=9.5891195503882937e-07 -1.6501789863189906e-06 7.2881890738806784e-06 -0.0002039163141644334 6.6059624664758817e-06 1.0262335972803698e-06 0.00015651678834907424
leaf_weight=64 42344 3415 21 64 42770 28
leaf_count=64 42344 3415 21 64 42770 28
internal_value=0 5.90498e-06 -4.76747e-05 -2.42584e-07 1.14405e-06 5.40752e-05
internal_weight=0 3500 85 85206 42862 92
internal_count=88706 3500 85 85206 42862 92
is_linear=0
shrinkage=0.1


Tree=90
num_leaves=7
num_cat=0
split_feature=6 36 38 255 14 208
split_gain=1.24638e-05 1.78791e-05 1.71272e-05 1.80721e-05 1.66524e-05 1.71122e-05
threshold=0.001471671408298292 0.0053848270380931233 0.0015791557262847535 0.17316455696202535 0.053178023161863729 0.087228260869565227
decision_type=2 2 2 2 2 2
left_child=4 -2 3 -3 5 -1
right_child=1 2 -4 -5 -6 -7
leaf_value=-1.5131752105035635e-05 4.256108179975172e-05 -0.0001157501829478924 -5.9354014273448434e-06 -2.5375570249662906e-05 -2.3812089190664434e-07 6.4340284981062014e-06
leaf_weight=388 61 26 974 249 81064 5944
leaf_count=388 61 26 974 249 81064 5944
internal_value=0 -9.68128e-06 -1.23683e-05 -3.4537e-05 1.45674e-07 5.08583e-06
internal_weight=0 1310 1249 275 87396 6332
internal_count=88706 1310 1249 275 87396 6332
is_linear=0
shrinkage=0.1


Tree=91
num_leaves=7
num_cat=0
split_feature=263 9 240 9 152 201
split_gain=1.26109e-05 2.26823e-05 1.66933e-05 1.99268e-05 2.17323e-05 1.99025e-05
threshold=-0.33576196808724279 0.010106746514222088 0.062895569620253181 0.0073985728932158381 0.94665718349928885 0.0096642537818833318
decision_type=2 2 2 2 2 2
left_child=1 2 3 -1 -5 -4
right_child=-2 -3 5 4 -6 -7
leaf_value=-9.4801577792180808e-07 3.2909079959456708e-07 -8.3689922554243493e-05 -3.4950894530734576e-06 -0.00013663158124342333 -9.6369319094557118e-06 7.3023460863423699e-05
leaf_weight=72 82424 36 6079 33 28 34
leaf_count=72 82424 36 6079 33 28 34
internal_value=0 -4.31899e-06 -3.83437e-06 -3.89909e-05 -8.11172e-05 -3.04177e-06
internal_weight=0 6282 6246 133 61 6113
internal_count=88706 6282 6246 133 61 6113
is_linear=0
shrinkage=0.1


Tree=92
num_leaves=7
num_cat=0
split_feature=12 48 25 192 10 7
split_gain=1.24112e-05 1.58774e-05 2.01123e-05 3.65064e-05 2.12396e-05 1.45288e-05
threshold=0.029631255487269536 0.05917366946778712 0.17445652173913045 0.00086655134341739892 0.0067408740171279883 -0.38519026643573046
decision_type=2 2 2 2 2 2
left_child=-1 2 3 4 -2 -4
right_child=1 -3 5 -5 -6 -7
leaf_value=5.9525225422842719e-06 1.5738686285364452e-05 -4.6959657331353067e-08 -8.4260746506971686e-05 -0.00016744214206552421 -4.6949016537606524e-05 -3.615095934236549e-06
leaf_weight=3369 80 83768 23 20 148 1298
leaf_count=3369 80 83768 23 20 148 1298
internal_value=0 -2.35667e-07 -1.02028e-05 -3.64472e-05 -2.42114e-05 -5.14757e-06
internal_weight=0 85337 1569 248 228 1321
internal_count=88706 85337 1569 248 228 1321
is_linear=0
shrinkage=0.1


Tree=93
num_leaves=7
num_cat=0
split_feature=15 28 26 242 102 272
split_gain=1.29148e-05 2.92733e-05 2.8584e-05 2.49788e-05 2.11011e-05 2.50315e-05
threshold=0.22381811930548395 0.022474747474747477 0.43594871794871798 0.63271997323519591 0.0029304113184913665 0.094044811320754734
decision_type=2 2 2 2 2 2
left_child=-1 2 3 -2 -3 -6
right_child=1 4 -4 -5 5 -7
leaf_value=-1.2682269827619492e-06 0.00011109601512814165 1.1084140044848269e-06 1.0300011536592958e-05 -8.9192554395581559e-06 -0.00013457093364868924 -1.7836555846289034e-05
leaf_weight=42186 67 46024 179 20 21 209
leaf_count=42186 67 46024 179 20 21 209
internal_value=0 1.14788e-06 3.42447e-05 8.15626e-05 9.5388e-07 -2.92328e-05
internal_weight=0 46520 266 87 46254 230
internal_count=88706 46520 266 87 46254 230
is_linear=0
shrinkage=0.1


Tree=94
num_leaves=7
num_cat=0
split_feature=228 146 148 242 256 126
split_gain=1.19967e-05 2.04433e-05 6.68473e-05 6.35504e-05 2.32908e-05 2.19488e-05
threshold=0.0066512020807553956 0.3751288659793815 0.050316455696202543 0.69501860272840033 -0.0051391985491671113 0.25024461839530338
decision_type=2 2 2 2 2 2
left_child=-1 4 3 -3 -2 -4
right_child=1 2 5 -5 -6 -7
leaf_value=-9.5034871035178476e-07 -8.2396128468788167e-05 0.00024654553836818974 2.4786620174785414e-05 2.0657992302654832e-05 -6.9805524210044486e-07 2.9437392611269244e-06
leaf_weight=53242 35 22 476 33 18516 16382
leaf_count=53242 35 22 476 33 18516 16382
internal_value=0 1.42368e-06 3.94001e-06 0.000114101 -8.61334e-07 3.57053e-06
internal_weight=0 35464 16913 55 18551 16858
internal_count=88706 35464 16913 55 18551 16858
is_linear=0
shrinkage=0.1


Tree=95
num_leaves=7
num_cat=0
split_feature=301 192 310 174 171 174
split_gain=1.21338e-05 2.65748e-05 3.76692e-05 3.67327e-05 3.78061e-05 2.38744e-05
threshold=0.13597842835130972 0.0016701468171786973 0.99865951742627357 0.24803100775193801 -0.00024015926911590465 0.22453303355240403
decision_type=2 2 2 2 2 2
left_child=1 -1 5 4 -4 -3
right_child=-2 2 3 -5 -6 -7
leaf_value=1.0662979141108407e-06 -8.2176489135622238e-07 -1.0119530994125254e-05 4.6389666276309365e-05 2.541013037428071e-05 0.00023686030231282484 2.2222813930115328e-05
leaf_weight=28184 59431 360 25 84 22 600
leaf_count=28184 59431 360 25 84 22 600
internal_value=0 1.66549e-06 1.69894e-05 6.75156e-05 0.000139159 9.9182e-06
internal_weight=0 29275 1091 131 47 960
internal_count=88706 29275 1091 131 47 960
is_linear=0
shrinkage=0.1


Tree=96
num_leaves=7
num_cat=0
split_feature=64 6 230 15 253 294
split_gain=1.20386e-05 2.11282e-05 1.98709e-05 1.96884e-05 1.79772e-05 1.78137e-05
threshold=-0.00070521873468099006 -1.0000000180025095e-35 -0.0048193641671270262 0.015768752590136763 0.81649831649831661 0.0024600274950215
decision_type=2 2 2 2 2 2
left_child=5 -2 -3 4 -4 -1
right_child=1 2 3 -5 -6 -7
leaf_value=-2.2239288533355266e-06 9.7985476082889468e-06 6.3213244943161422e-05 -1.615515731889323e-05 3.839118245172458e-07 1.2909147274844163e-05 -2.8526199257380141e-05
leaf_weight=13224 2364 50 1249 71305 250 264
leaf_count=13224 2364 50 1249 71305 250 264
internal_value=0 4.93066e-07 1.88795e-07 1.43183e-07 -1.1195e-05 -2.75129e-06
internal_weight=0 75218 72854 72804 1499 13488
internal_count=88706 75218 72854 72804 1499 13488
is_linear=0
shrinkage=0.1


Tree=97
num_leaves=7
num_cat=0
split_feature=70 126 3 96 211 133
split_gain=1.1619e-05 2.96667e-05 2.41858e-05 2.34515e-05 4.20656e-05 4.58278e-05
threshold=0.0017021293034007459 0.30962916139907298 0.0064880262984050308 0.0017536176211541135 0.11499128919860628 -0.00021741653375934942
decision_type=2 2 2 2 2 2
left_child=3 2 -2 -1 5 -5
right_child=1 -3 -4 4 -6 -7
leaf_value=-4.3305699835712164e-08 0.00010713669358825038 -1.7287061670768934e-05 -7.46359055150056e-07 9.8978841304899505e-06 9.6524047136403897e-06 0.00017486831761128933
leaf_weight=86991 36 804 42 38 761 34
leaf_count=86991 36 804 42 38 761 34
internal_value=0 -1.14204e-05 4.688e-05 1.14661e-07 1.68143e-05 9.01561e-05
internal_weight=0 882 78 87824 833 72
internal_count=88706 882 78 87824 833 72
is_linear=0
shrinkage=0.1


Tree=98
num_leaves=7
num_cat=0
split_feature=14 107 191 155 13 308
split_gain=1.18302e-05 2.18714e-05 2.89724e-05 2.14221e-05 3.4853e-05 2.13539e-05
threshold=0.40446941323345825 0.0010297912272280885 0.080133779264214069 0.13015113777878415 0.73798627002288331 0.49657534246575347
decision_type=2 2 2 2 2 2
left_child=1 3 -3 4 -1 -6
right_child=-2 2 -4 -5 5 -7
leaf_value=-8.7102112582638728e-06 -1.6773210203523433e-06 9.2653563216174676e-05 6.7819714710942908e-06 4.6001409327204382e-07 -0.0001208300630863514 -6.3458110905690923e-06
leaf_weight=489 28523 40 4334 55241 50 29
leaf_count=489 28523 40 4334 55241 50 29
internal_value=0 7.95186e-07 7.60603e-06 2.58357e-07 -1.90558e-05 -8.09484e-05
internal_weight=0 60183 4374 55809 568 79
internal_count=88706 60183 4374 55809 568 79
is_linear=0
shrinkage=0.1


Tree=99
num_leaves=7
num_cat=0
split_feature=294 311 128 157 105 266
split_gain=1.13956e-05 2.09052e-05 2.21794e-05 2.15917e-05 2.71978e-05 2.11883e-05
threshold=0.00076804930616969369 0.2904796124156796 -0.0016743414128628229 0.18808962264150947 0.0077570073533743599 0.0052233691312096779
decision_type=2 2 2 2 2 2
left_child=-1 5 3 -3 -5 -2
right_child=1 2 -4 4 -6 -7
leaf_value=4.7838274398953419e-07 8.4665934139906395e-05 5.0879147494104112e-06 -6.5044762234323626e-08 -2.5774350133687584e-05 -0.00016216986158127639 -1.0898135531198074e-05
leaf_weight=75291 23 46 10336 42 26 2942
leaf_count=75291 23 46 10336 42 26 2942
internal_value=0 -2.68519e-06 -5.6528e-07 -4.44341e-05 -8.04205e-05 -1.00996e-05
internal_weight=0 13415 10450 114 68 2965
internal_count=88706 13415 10450 114 68 2965
is_linear=0
shrinkage=0.1


end of trees

feature_importances:
sLaggingRtn_1=32
sBidSize1_1=27
sAskSize1_1=25
sLaggingRtn_4=14
fLaggingRtn_5=14
fLaggingRtn_3=13
sLaggingRtn_10=13
sLaggingRtn_5=12
fLaggingRtn_1=11
fLaggingRtn_9=11
sLaggingRtn_2=10
fLaggingRtn_4=10
fLaggingRtn_2=9
fLaggingRtn_6=9
sAskSize2_1=8
fLaggingRtn_8=8
sLaggingRtn_8=8
sLaggingRtn_9=8
fAskSize2_1=7
fBidSize4_1=7
sLaggingRtn_3=7
sLaggingRtn_6=7
fLaggingRtn_10=7
fLaggingRtn_7=6
spreadRatio_1=5
stockSlope_ab_1=5
fAskSize5_3=5
stockSlope_b_4=5
sAskSize5_5=5
sLaggingRtn_7=5
sAskSize5_7=5
stockSpreadRatio_1=4
stockSlope_b_1=4
fBidSize2_1=4
sBidSize5_1=4
slope_ab_2=4
sAskSize2_5=4
fAskSize3_5=4
fAskSize3_6=4
sAskSize4_6=4
sBidSize2_7=4
sAskSize3_10=4
sAskSize5_10=4
slope_ab_1=3
stockSlope_a_1=3
sBidSize2_1=3
fAskSize3_1=3
sAskSize3_1=3
fAskSize4_1=3
fAskSize5_1=3
stockSlope_ab_2=3
fAskSize2_2=3
fBidSize2_2=3
sBidSize4_2=3
fBidSize5_2=3
slope_a_3=3
slope_ab_3=3
stockSlope_ab_3=3
fBidSize4_3=3
sAskSize5_4=3
stockSlope_b_5=3
sBidSize2_6=3
sAskSize5_6=3
fAskSize3_7=3
slope_a_8=3
fAskSize2_8=3
stockSlope_a_9=3
stockSlope_b_10=3
sBidSize5_10=3
slope_b_1=2
sBidSize3_1=2
sAskSize4_1=2
sBidSize4_1=2
spreadRatio_2=2
fAskSize1_2=2
sBidSize2_2=2
fBidSize1_3=2
fAskSize3_3=2
sAskSize4_3=2
slope_b_4=2
slope_ab_4=2
stockSlope_ab_4=2
fAskSize2_4=2
sBidSize2_4=2
fBidSize4_4=2
fAskSize5_4=2
slope_a_5=2
slope_ab_5=2
sBidSize3_5=2
fAskSize4_5=2
sBidSize4_5=2
fBidSize5_5=2
stockSlope_b_6=2
stockSlope_a_6=2
sAskSize1_6=2
fAskSize2_6=2
sAskSize3_6=2
sBidSize3_6=2
sBidSize4_6=2
stockSlope_a_7=2
fBidSize2_7=2
sAskSize3_7=2
sAskSize2_8=2
slope_b_9=2
sBidSize5_9=2
stockSlope_ab_10=2
fAskSize1_1=1
fBidSize1_1=1
fBidSize3_1=1
sAskSize5_1=1
slope_b_2=1
slope_a_2=1
stockSpreadRatio_2=1
stockVolumeImbalanceRatio_2=1
stockSlope_b_2=1
sBidSize1_2=1
sAskSize2_2=1
fAskSize3_2=1
fBidSize4_2=1
sAskSize4_2=1
fAskSize5_2=1
sAskSize5_2=1
spreadRatio_3=1
slope_b_3=1
fAskSize1_3=1
sAskSize1_3=1
fAskSize2_3=1
fBidSize2_3=1
fBidSize3_3=1
fAskSize4_3=1
fBidSize5_3=1
spreadRatio_4=1
slope_a_4=1
stockSpreadRatio_4=1
fAskSize3_4=1
sBidSize3_4=1
fAskSize4_4=1
sBidSize4_4=1
sAskSize1_5=1
sBidSize1_5=1
fBidSize2_5=1
sBidSize2_5=1
fBidSize4_5=1
sAskSize4_5=1
slope_b_6=1
slope_a_6=1
stockSlope_ab_6=1
fAskSize1_6=1
sBidSize1_6=1
fBidSize2_6=1
fAskSize5_6=1
fBidSize5_6=1
sBidSize5_6=1
stockSpreadRatio_7=1
stockSlope_b_7=1
fAskSize2_7=1
sAskSize2_7=1
fBidSize4_7=1
sAskSize4_7=1
fAskSize5_7=1
fBidSize5_7=1
fBidSize1_8=1
sAskSize3_8=1
fBidSize4_8=1
fAskSize5_8=1
fBidSize5_8=1
sAskSize5_8=1
sBidSize5_8=1
stockSpreadRatio_9=1
stockSlope_b_9=1
fBidSize1_9=1
sAskSize1_9=1
fAskSize2_9=1
sAskSize2_9=1
fBidSize5_9=1
spreadRatio_10=1
slope_b_10=1
slope_ab_10=1
stockVolumeImbalanceRatio_10=1
fAskSize1_10=1
fBidSize1_10=1
sAskSize1_10=1
fAskSize2_10=1
fBidSize2_10=1
sAskSize2_10=1
sBidSize2_10=1
fAskSize3_10=1
sBidSize3_10=1

parameters:
[boosting: gbdt]
[objective: regression]
[metric: l2]
[tree_learner: serial]
[device_type: cpu]
[data: ]
[valid: ]
[num_iterations: 100]
[learning_rate: 0.1]
[num_leaves: 7]
[num_threads: -1]
[deterministic: 0]
[force_col_wise: 0]
[force_row_wise: 0]
[histogram_pool_size: -1]
[max_depth: 5]
[min_data_in_leaf: 20]
[min_sum_hessian_in_leaf: 0.001]
[bagging_fraction: 0.8]
[pos_bagging_fraction: 1]
[neg_bagging_fraction: 1]
[bagging_freq: 0]
[bagging_seed: 3]
[feature_fraction: 0.8]
[feature_fraction_bynode: 1]
[feature_fraction_seed: 2]
[extra_trees: 0]
[extra_seed: 6]
[early_stopping_round: 0]
[first_metric_only: 0]
[max_delta_step: 0]
[lambda_l1: 0.00169192]
[lambda_l2: 0.00431486]
[linear_lambda: 0]
[min_gain_to_split: 0]
[drop_rate: 0.1]
[max_drop: 50]
[skip_drop: 0.5]
[xgboost_dart_mode: 0]
[uniform_drop: 0]
[drop_seed: 4]
[top_rate: 0.2]
[other_rate: 0.1]
[min_data_per_group: 100]
[max_cat_threshold: 32]
[cat_l2: 10]
[cat_smooth: 10]
[max_cat_to_onehot: 4]
[top_k: 20]
[monotone_constraints: ]
[monotone_constraints_method: basic]
[monotone_penalty: 0]
[feature_contri: ]
[forcedsplits_filename: ]
[refit_decay_rate: 0.9]
[cegb_tradeoff: 1]
[cegb_penalty_split: 0]
[cegb_penalty_feature_lazy: ]
[cegb_penalty_feature_coupled: ]
[path_smooth: 0]
[interaction_constraints: ]
[verbosity: -1]
[saved_feature_importance_type: 0]
[linear_tree: 0]
[max_bin: 255]
[max_bin_by_feature: ]
[min_data_in_bin: 3]
[bin_construct_sample_cnt: 200000]
[data_random_seed: 1]
[is_enable_sparse: 1]
[enable_bundle: 1]
[use_missing: 1]
[zero_as_missing: 0]
[feature_pre_filter: 1]
[pre_partition: 0]
[two_round: 0]
[header: 0]
[label_column: ]
[weight_column: ]
[group_column: ]
[ignore_column: ]
[categorical_feature: ]
[forcedbins_filename: ]
[precise_float_parser: 0]
[objective_seed: 5]
[num_class: 1]
[is_unbalance: 0]
[scale_pos_weight: 1]
[sigmoid: 1]
[boost_from_average: 1]
[reg_sqrt: 0]
[alpha: 0.9]
[fair_c: 1]
[poisson_max_delta_step: 0.7]
[tweedie_variance_power: 1.5]
[lambdarank_truncation_level: 30]
[lambdarank_norm: 1]
[label_gain: ]
[eval_at: ]
[multi_error_top_k: 1]
[auc_mu_weights: ]
[num_machines: 1]
[local_listen_port: 12400]
[time_out: 120]
[machine_list_filename: ]
[machines: ]
[gpu_platform_id: -1]
[gpu_device_id: -1]
[gpu_use_dp: 0]
[num_gpu: 1]

end of parameters

pandas_categorical:[]
