tree
version=v3
num_class=1
num_tree_per_iteration=1
label_index=0
max_feature_idx=319
objective=regression
feature_names=fLaggingRtn_1 spreadRatio_1 volumeImbalanceRatio_1 slope_b_1 slope_a_1 slope_ab_1 sLaggingRtn_1 stockSpreadRatio_1 stockVolumeImbalanceRatio_1 stockSlope_b_1 stockSlope_a_1 stockSlope_ab_1 fAskSize1_1 fBidSize1_1 sAskSize1_1 sBidSize1_1 fAskSize2_1 fBidSize2_1 sAskSize2_1 sBidSize2_1 fAskSize3_1 fBidSize3_1 sAskSize3_1 sBidSize3_1 fAskSize4_1 fBidSize4_1 sAskSize4_1 sBidSize4_1 fAskSize5_1 fBidSize5_1 sAskSize5_1 sBidSize5_1 fLaggingRtn_2 spreadRatio_2 volumeImbalanceRatio_2 slope_b_2 slope_a_2 slope_ab_2 sLaggingRtn_2 stockSpreadRatio_2 stockVolumeImbalanceRatio_2 stockSlope_b_2 stockSlope_a_2 stockSlope_ab_2 fAskSize1_2 fBidSize1_2 sAskSize1_2 sBidSize1_2 fAskSize2_2 fBidSize2_2 sAskSize2_2 sBidSize2_2 fAskSize3_2 fBidSize3_2 sAskSize3_2 sBidSize3_2 fAskSize4_2 fBidSize4_2 sAskSize4_2 sBidSize4_2 fAskSize5_2 fBidSize5_2 sAskSize5_2 sBidSize5_2 fLaggingRtn_3 spreadRatio_3 volumeImbalanceRatio_3 slope_b_3 slope_a_3 slope_ab_3 sLaggingRtn_3 stockSpreadRatio_3 stockVolumeImbalanceRatio_3 stockSlope_b_3 stockSlope_a_3 stockSlope_ab_3 fAskSize1_3 fBidSize1_3 sAskSize1_3 sBidSize1_3 fAskSize2_3 fBidSize2_3 sAskSize2_3 sBidSize2_3 fAskSize3_3 fBidSize3_3 sAskSize3_3 sBidSize3_3 fAskSize4_3 fBidSize4_3 sAskSize4_3 sBidSize4_3 fAskSize5_3 fBidSize5_3 sAskSize5_3 sBidSize5_3 fLaggingRtn_4 spreadRatio_4 volumeImbalanceRatio_4 slope_b_4 slope_a_4 slope_ab_4 sLaggingRtn_4 stockSpreadRatio_4 stockVolumeImbalanceRatio_4 stockSlope_b_4 stockSlope_a_4 stockSlope_ab_4 fAskSize1_4 fBidSize1_4 sAskSize1_4 sBidSize1_4 fAskSize2_4 fBidSize2_4 sAskSize2_4 sBidSize2_4 fAskSize3_4 fBidSize3_4 sAskSize3_4 sBidSize3_4 fAskSize4_4 fBidSize4_4 sAskSize4_4 sBidSize4_4 fAskSize5_4 fBidSize5_4 sAskSize5_4 sBidSize5_4 fLaggingRtn_5 spreadRatio_5 volumeImbalanceRatio_5 slope_b_5 slope_a_5 slope_ab_5 sLaggingRtn_5 stockSpreadRatio_5 stockVolumeImbalanceRatio_5 stockSlope_b_5 stockSlope_a_5 stockSlope_ab_5 fAskSize1_5 fBidSize1_5 sAskSize1_5 sBidSize1_5 fAskSize2_5 fBidSize2_5 sAskSize2_5 sBidSize2_5 fAskSize3_5 fBidSize3_5 sAskSize3_5 sBidSize3_5 fAskSize4_5 fBidSize4_5 sAskSize4_5 sBidSize4_5 fAskSize5_5 fBidSize5_5 sAskSize5_5 sBidSize5_5 fLaggingRtn_6 spreadRatio_6 volumeImbalanceRatio_6 slope_b_6 slope_a_6 slope_ab_6 sLaggingRtn_6 stockSpreadRatio_6 stockVolumeImbalanceRatio_6 stockSlope_b_6 stockSlope_a_6 stockSlope_ab_6 fAskSize1_6 fBidSize1_6 sAskSize1_6 sBidSize1_6 fAskSize2_6 fBidSize2_6 sAskSize2_6 sBidSize2_6 fAskSize3_6 fBidSize3_6 sAskSize3_6 sBidSize3_6 fAskSize4_6 fBidSize4_6 sAskSize4_6 sBidSize4_6 fAskSize5_6 fBidSize5_6 sAskSize5_6 sBidSize5_6 fLaggingRtn_7 spreadRatio_7 volumeImbalanceRatio_7 slope_b_7 slope_a_7 slope_ab_7 sLaggingRtn_7 stockSpreadRatio_7 stockVolumeImbalanceRatio_7 stockSlope_b_7 stockSlope_a_7 stockSlope_ab_7 fAskSize1_7 fBidSize1_7 sAskSize1_7 sBidSize1_7 fAskSize2_7 fBidSize2_7 sAskSize2_7 sBidSize2_7 fAskSize3_7 fBidSize3_7 sAskSize3_7 sBidSize3_7 fAskSize4_7 fBidSize4_7 sAskSize4_7 sBidSize4_7 fAskSize5_7 fBidSize5_7 sAskSize5_7 sBidSize5_7 fLaggingRtn_8 spreadRatio_8 volumeImbalanceRatio_8 slope_b_8 slope_a_8 slope_ab_8 sLaggingRtn_8 stockSpreadRatio_8 stockVolumeImbalanceRatio_8 stockSlope_b_8 stockSlope_a_8 stockSlope_ab_8 fAskSize1_8 fBidSize1_8 sAskSize1_8 sBidSize1_8 fAskSize2_8 fBidSize2_8 sAskSize2_8 sBidSize2_8 fAskSize3_8 fBidSize3_8 sAskSize3_8 sBidSize3_8 fAskSize4_8 fBidSize4_8 sAskSize4_8 sBidSize4_8 fAskSize5_8 fBidSize5_8 sAskSize5_8 sBidSize5_8 fLaggingRtn_9 spreadRatio_9 volumeImbalanceRatio_9 slope_b_9 slope_a_9 slope_ab_9 sLaggingRtn_9 stockSpreadRatio_9 stockVolumeImbalanceRatio_9 stockSlope_b_9 stockSlope_a_9 stockSlope_ab_9 fAskSize1_9 fBidSize1_9 sAskSize1_9 sBidSize1_9 fAskSize2_9 fBidSize2_9 sAskSize2_9 sBidSize2_9 fAskSize3_9 fBidSize3_9 sAskSize3_9 sBidSize3_9 fAskSize4_9 fBidSize4_9 sAskSize4_9 sBidSize4_9 fAskSize5_9 fBidSize5_9 sAskSize5_9 sBidSize5_9 fLaggingRtn_10 spreadRatio_10 volumeImbalanceRatio_10 slope_b_10 slope_a_10 slope_ab_10 sLaggingRtn_10 stockSpreadRatio_10 stockVolumeImbalanceRatio_10 stockSlope_b_10 stockSlope_a_10 stockSlope_ab_10 fAskSize1_10 fBidSize1_10 sAskSize1_10 sBidSize1_10 fAskSize2_10 fBidSize2_10 sAskSize2_10 sBidSize2_10 fAskSize3_10 fBidSize3_10 sAskSize3_10 sBidSize3_10 fAskSize4_10 fBidSize4_10 sAskSize4_10 sBidSize4_10 fAskSize5_10 fBidSize5_10 sAskSize5_10 sBidSize5_10
feature_infos=[-0.016739594092040733:0.0069908133452898369] [-0.77460034052735716:0.77186066449273605] [0:1] [0:3.0013755098156816] [-8.1963587837023741:0.20787888439638655] [-8.1963587837023741:0.19974907157765051] [-0.00757840347649541:0.008209708251239789] [-0.74637630602889915:0.77797533590935153] [-17468507645558288:9398816613642776] [0:0.045469255484758837] [-0.96396043547540122:0.031368578471411217] [-0.96829136020613271:0.026965071251754468] [0:1] [0:1] [0:1] [0:1] [0:1] [0:1] [0:1] [0:1] [0:1] [0:1] [0:1] [0:1] [0:1] [0:1] [0:1] [0:1] [0:1] [0:1] [0:1] [0:1] [-0.016739594092040733:0.0099318010680811142] [-0.77460034052735716:0.77186066449273605] [0:1] [0:3.0013755098156816] [-8.1963587837023741:0.20787888439638655] [-8.1963587837023741:0.19974907157765051] [-0.01052641298698731:0.0095939335172836593] [-0.74637630602889915:0.77797533590935153] [-17468507645558288:9398816613642776] [0:0.045469255484758837] [-0.96396043547540122:0.031368578471411217] [-0.96829136020613271:0.026965071251754468] [0:1] [0:1] [0:1] [0:1] [0:1] [0:1] [0:1] [0:1] [0:1] [0:1] [0:1] [0:1] [0:1] [0:1] [0:1] [0:1] [0:1] [0:1] [0:1] [0:1] [-0.016064602503806924:0.013630942154284398] [-0.77460034052735716:0.77186066449273605] [0:1] [0:3.0013755098156816] [-8.1963587837023741:0.20787888439638655] [-8.1963587837023741:0.19974907157765051] [-0.013337396896176301:0.011264199200796909] [-0.74637630602889915:0.77797533590935153] [-17468507645558288:9398816613642776] [0:0.045469255484758837] [-0.96396043547540122:0.031368578471411217] [-0.96829136020613271:0.026965071251754468] [0:1] [0:1] [0:1] [0:1] [0:1] [0:1] [0:1] [0:1] [0:1] [0:1] [0:1] [0:1] [0:1] [0:1] [0:1] [0:1] [0:1] [0:1] [0:1] [0:1] [-0.016064602503806924:0.013630942154284398] [-0.77460034052735716:0.77186066449273605] [0:1] [0:3.0013755098156816] [-8.1963587837023741:0.20787888439638655] [-8.1963587837023741:0.19974907157765051] [-0.016213441444069332:0.013784679426132485] [-0.74637630602889915:0.77797533590935153] [-17468507645558288:9398816613642776] [0:0.045469255484758837] [-0.96396043547540122:0.031368578471411217] [-0.96829136020613271:0.026965071251754468] [0:1] [0:1] [0:1] [0:1] [0:1] [0:1] [0:1] [0:1] [0:1] [0:1] [0:1] [0:1] [0:1] [0:1] [0:1] [0:1] [0:1] [0:1] [0:1] [0:1] [-0.015748356968138921:0.013431215340562019] [-0.77460034052735716:0.77186066449273605] [0:1] [0:3.0013755098156816] [-8.1963587837023741:0.20787888439638655] [-8.1963587837023741:0.19974907157765051] [-0.0167876590883278:0.014406763427530223] [-0.74637630602889915:0.77797533590935153] [-17468507645558288:9398816613642776] [0:0.045469255484758837] [-0.96396043547540122:0.031368578471411217] [-0.96829136020613271:0.026965071251754468] [0:1] [0:1] [0:1] [0:1] [0:1] [0:1] [0:1] [0:1] [0:1] [0:1] [0:1] [0:1] [0:1] [0:1] [0:1] [0:1] [0:1] [0:1] [0:1] [0:1] [-0.017581538049800116:0.014037459675588337] [-0.77460034052735716:0.77186066449273605] [0:1] [0:3.0013755098156816] [-8.1963587837023741:0.20787888439638655] [-8.1963587837023741:0.19974907157765051] [-0.016878037787352085:0.01457105285825655] [-0.74637630602889915:0.77797533590935153] [-17468507645558288:9398816613642776] [0:0.045469255484758837] [-0.96396043547540122:0.031368578471411217] [-0.96829136020613271:0.026965071251754468] [0:1] [0:1] [0:1] [0:1] [0:1] [0:1] [0:1] [0:1] [0:1] [0:1] [0:1] [0:1] [0:1] [0:1] [0:1] [0:1] [0:1] [0:1] [0:1] [0:1] [-0.021258012779108881:0.017063180592126415] [-0.77460034052735716:0.77186066449273605] [0:1] [0:3.0013755098156816] [-8.1963587837023741:0.20787888439638655] [-8.1963587837023741:0.19974907157765051] [-0.022364183824130635:0.018226506992281344] [-0.74637630602889915:0.77797533590935153] [-17468507645558288:9398816613642776] [0:0.045469255484758837] [-0.96396043547540122:0.031368578471411217] [-0.96829136020613271:0.026965071251754468] [0:1] [0:1] [0:1] [0:1] [0:1] [0:1] [0:1] [0:1] [0:1] [0:1] [0:1] [0:1] [0:1] [0:1] [0:1] [0:1] [0:1] [0:1] [0:1] [0:1] [-0.021872074818666931:0.017203355142674681] [-0.77460034052735716:0.77186066449273605] [0:1] [0:3.0013755098156816] [-8.1963587837023741:0.20787888439638655] [-8.1963587837023741:0.19974907157765051] [-0.022364183824130635:0.017624278729575948] [-0.74637630602889915:0.77797533590935153] [-17468507645558288:9398816613642776] [0:0.045469255484758837] [-0.96396043547540122:0.031368578471411217] [-0.96829136020613271:0.026965071251754468] [0:1] [0:1] [0:1] [0:1] [0:1] [0:1] [0:1] [0:1] [0:1] [0:1] [0:1] [0:1] [0:1] [0:1] [0:1] [0:1] [0:1] [0:1] [0:1] [0:1] [-0.027415667703518665:0.017812175764099436] [-0.77460034052735716:0.77186066449273605] [0:1] [0:3.0013755098156816] [-8.1963587837023741:0.20787888439638655] [-8.1963587837023741:0.19974907157765051] [-0.025425098365809973:0.021832280129780557] [-0.74637630602889915:0.77797533590935153] [-17468507645558288:9398816613642776] [0:0.045469255484758837] [-0.96396043547540122:0.031368578471411217] [-0.96829136020613271:0.026965071251754468] [0:1] [0:1] [0:1] [0:1] [0:1] [0:1] [0:1] [0:1] [0:1] [0:1] [0:1] [0:1] [0:1] [0:1] [0:1] [0:1] [0:1] [0:1] [0:1] [0:1] [-0.027415667703518665:0.019096697456456369] [-0.77460034052735716:0.77186066449273605] [0:1] [0:3.0013755098156816] [-8.1963587837023741:0.20787888439638655] [-8.1963587837023741:0.19974907157765051] [-0.025425098365809973:0.020606789780329038] [-0.74637630602889915:0.77797533590935153] [-17468507645558288:9398816613642776] [0:0.045469255484758837] [-0.96396043547540122:0.031368578471411217] [-0.96829136020613271:0.026965071251754468] [0:1] [0:1] [0:1] [0:1] [0:1] [0:1] [0:1] [0:1] [0:1] [0:1] [0:1] [0:1] [0:1] [0:1] [0:1] [0:1] [0:1] [0:1] [0:1] [0:1]
tree_sizes=2956 2514 3184 2968 2933 3063 2946 3072 2902 2809 3017 3096 2598 3223 2973 3093 3110 2773 3171 2964 3212 2846 2924 3110 2153 2854 2754 3169 3246 3122 3123 3046 2963 3133 2869 2914 3183 2677 3206 2500 2988 3100 3042 3064 3080 3177 2667 3162 3147 3021 2816 2969 3037 3083 3126 2621 1954 3215 3174 3186 2790 2955 3068 3105 2778 2659 3000 3084 3055 3192 3234 3084 2544 2485 2928 3174 3174 3187 3213 2858 3095 2615 2699 2739 3079 2971 3076 3217 2624 3051 3132 2905 3087 3089 2451 3108 2926 2480 2916 3091

Tree=0
num_leaves=28
num_cat=0
split_feature=128 268 288 166 128 166 198 228 256 294 23 64 153 291 230 192 166 186 171 31 305 249 176 100 86 196 25
split_gain=0.00101267 0.000445098 0.000370537 0.000337838 0.000229699 0.00029785 0.000263525 0.000217183 0.00021836 0.000162782 0.000132051 0.000128354 0.00012617 0.000120931 9.02312e-05 8.54328e-05 7.18343e-05 7.4017e-05 6.91163e-05 6.97383e-05 5.69378e-05 5.4748e-05 4.97787e-05 4.90541e-05 3.84664e-05 3.83575e-05 7.20421e-07
threshold=0.00065061817898648411 0.019049346879535561 0.0006863419059861543 1.0000000180025095e-35 -0.0011264434638622587 -0.00064766848434238955 -0.0011706177346706423 0.0053818086214729999 0.0028288562004776811 0.0039139009865731831 0.12408446939321038 -0.00056625147614930416 0.045983086680761107 0.0040981958945767076 0.0042669998305164833 0.0012001202640767874 0.0013236275102537223 0.37323383084577122 -0.001025093010106405 0.63386569416499006 0.173494983277592 0.41421568627450983 0.11583184257602865 0.016925384470423351 0.93011627906976757 0.005406146998721508 0.39009661835748799
decision_type=2 2 2 2 2 2 2 2 2 2 2 2 2 2 2 2 2 2 2 2 2 2 2 2 2 2 2
left_child=1 10 13 4 6 -6 -3 8 20 -10 26 22 23 21 -14 -13 17 -15 -12 -20 -4 24 -5 -9 -2 -18 -1
right_child=2 3 7 11 5 -7 -8 12 9 -11 18 15 14 16 -16 -17 25 -19 19 -21 -22 -23 -24 -25 -26 -27 -28
leaf_value=-4.8215573232744921e-05 -0.0001783939545401218 -4.0149435210054082e-05 -3.9219446234594555e-05 -3.9219446234594555e-05 -2.263568905755282e-05 -4.1612390492205636e-05 -7.2703701186472734e-05 -0.00010671733855972431 9.2866134216040613e-05 3.7311882479780869e-06 -3.9219446234594555e-05 -5.7481182783094975e-05 -9.7810104012534026e-06 -8.2386296227036492e-06 -5.863920191132912e-05 -3.1213855000065106e-05 -3.5800486668228262e-05 -3.5388389935300961e-05 -0.00023567491531962682 -8.6288490634103072e-05 2.9504849295471103e-06 -3.9219446234594555e-05 -8.6702285925726507e-05 -3.9219446234594555e-05 -3.9219446234594555e-05 -7.1252054569574392e-05 -3.9219446234594555e-05
leaf_weight=89 100 6308 359 196 10389 39829 4392 196 610 557 24 8053 4708 1519 316 1247 267 4255 190 134 2422 48 2000 105 32 640 23
leaf_count=89 100 6308 359 196 10389 39829 4392 196 610 557 24 8053 4708 1519 316 1247 267 4255 190 134 2422 48 2000 105 32 640 23
internal_value=-3.92194e-05 -4.42383e-05 -1.65503e-05 -4.35612e-05 -4.05279e-05 -3.77614e-05 -5.38632e-05 -3.45287e-06 1.49776e-05 5.3545e-05 -0.000142653 -5.93079e-05 -1.78234e-05 -3.48001e-05 -1.36024e-05 -5.35549e-05 -3.21049e-05 -2.75948e-05 -0.000173145 -0.000185499 -2.55876e-06 -0.000113943 -8.19595e-05 -7.57866e-05 -0.000147667 -5.66717e-05 -3.92194e-05
internal_weight=0 72874 16134 72414 60918 50218 10700 9273 3948 1167 460 11496 5325 6861 5024 9300 6681 5774 348 324 2781 180 2196 301 132 907 112
internal_count=89008 72874 16134 72414 60918 50218 10700 9273 3948 1167 460 11496 5325 6861 5024 9300 6681 5774 348 324 2781 180 2196 301 132 907 112
is_linear=0
shrinkage=1


Tree=1
num_leaves=26
num_cat=0
split_feature=224 268 96 166 93 166 288 128 292 94 105 251 124 230 38 55 166 73 314 114 230 42 282 99 14
split_gain=0.000869284 0.000490706 0.000258116 0.000352387 0.000213689 0.000193917 0.000190193 0.00014249 0.00017866 0.000182317 0.000136801 0.000114053 0.000104098 8.26311e-05 7.575e-05 7.0803e-05 7.50385e-05 6.2995e-05 6.01684e-05 4.72467e-05 3.26586e-05 3.2584e-05 2.87477e-05 2.7867e-05 1.78196e-05
threshold=0.0013675217404784947 0.019049346879535561 -0.0012882450782889519 -0.00064432998607433223 0.043797953964194385 -0.0011968886624940109 0.00065104175864938451 0.00062266508669850406 0.0053497501423036995 0.25793850806451618 0.0045468943964307841 0.33253205128205132 0.22048611111111113 0.0026990581980674837 -0.0011901222333312587 0.12408446939321038 -0.0012915728037112826 0.0071474885921499831 0.569035604149145 0.14914703886788797 0.0013110458874647792 0.0053604797720423142 0.50893141945773535 0.0053644880660151748 0.3963890696161354
decision_type=2 2 2 2 2 2 2 2 2 2 2 2 2 2 2 2 2 2 2 2 2 2 2 2 2
left_child=1 15 5 14 19 10 -5 13 9 -9 -3 -10 -7 23 -4 21 -17 -18 -15 -2 -21 24 -22 -6 -1
right_child=4 2 3 6 7 12 -8 8 11 -11 -12 -13 -14 18 -16 16 17 -19 -20 20 22 -23 -24 -25 -26
leaf_value=-7.0203655674696536e-05 0 -8.7002009761102955e-05 3.0958085749010727e-05 -6.9144561197538655e-06 0 0 7.0014834046605258e-06 0.00014696865367213712 -6.171807775213691e-06 5.2131355471636623e-05 -8.383779498381564e-07 3.5789636109202786e-05 -5.0946900158750913e-05 -7.5983226566287223e-05 9.8075743180736818e-06 0 -0.00015919892981562859 0 0 0 0 1.2577074221964875e-05 -0.00010656422481060545 3.4056577655464715e-05 0
leaf_weight=111 80 200 2286 47753 620 438 12115 289 674 2239 3783 2582 2250 173 11901 41 286 32 133 70 80 35 141 671 25
leaf_count=111 80 200 2286 47753 620 438 12115 289 674 2239 3783 2582 2250 173 11901 41 286 32 133 70 80 35 141 671 25
internal_value=0 -3.05612e-06 -2.37872e-06 -6.29197e-07 3.19916e-05 -2.12367e-05 -4.03561e-06 3.59815e-05 4.34314e-05 6.4461e-05 -6.10907e-06 2.5949e-05 -4.22538e-05 6.64528e-06 1.34806e-05 -9.91381e-05 -0.000127852 -0.000144268 -3.60284e-05 -3.72517e-05 -5.82465e-05 -1.68679e-05 -7.71026e-05 1.9672e-05 -5.20825e-05
internal_weight=0 81256 80726 74055 7752 6671 59868 7381 5784 2528 3983 3256 2688 1597 14187 530 359 318 306 371 291 171 221 1291 136
internal_count=89008 81256 80726 74055 7752 6671 59868 7381 5784 2528 3983 3256 2688 1597 14187 530 359 318 306 371 291 171 221 1291 136
is_linear=0
shrinkage=0.1


Tree=2
num_leaves=32
num_cat=0
split_feature=224 297 230 64 224 224 260 256 15 230 283 23 4 144 198 99 267 318 198 224 262 281 25 192 297 23 203 4 27 214 139
split_gain=0.0007226 0.000400708 0.000251016 0.000234341 0.000215145 0.000202622 0.000193407 0.000237302 0.000185317 0.000157721 0.000147195 0.000140738 0.000117409 0.000103425 9.10642e-05 7.96904e-05 7.87923e-05 7.87438e-05 7.18438e-05 7.00805e-05 6.70953e-05 4.88721e-05 4.82676e-05 6.0763e-05 4.39201e-05 3.21098e-05 1.58634e-05 1.56709e-05 1.3502e-05 9.94457e-06 3.62351e-07
threshold=0.00068493161395721824 0.0039759373445814724 -0.00060679619097925286 0.00058719912797045037 -0.00059206638060782513 -0.0012932431217622662 0.0050473846436066491 0.0023515598034897782 0.15071011281224819 -0.0018137854272097795 0.33253205128205132 0.12864214992927867 0.0041004530848459389 0.69397993311036799 0.0006112470198909038 0.0050460236355569423 -0.00011599948916303112 0.80735492577597856 -0.0020422065283876019 -0.0013481634850807109 0.00067159177323361529 0.097167584579071611 0.35424836601307197 0.0026675577303745261 0.0059028664547355865 0.41946762914504859 -0.00054721449646494833 0.0058323052546173934 0.12829175329175332 0.49285568483363956 -0.00013536724759816152
decision_type=2 2 2 2 2 2 2 2 2 2 2 2 2 2 2 2 2 2 2 2 2 2 2 2 2 2 2 2 2 2 2
left_child=1 11 5 14 19 9 7 24 -6 -3 20 27 -9 17 15 26 -12 -13 -7 -4 -8 -17 25 -24 -5 -16 -2 29 -29 -1 -15
right_child=3 2 4 6 8 18 10 12 -10 -11 16 13 -14 30 22 21 -18 -19 -20 -21 -22 -23 23 -25 -26 -27 -28 28 -30 -31 -32
leaf_value=-4.0249185710953912e-05 -3.7237111365348417e-05 6.8304985671744368e-06 -4.1522409395939377e-05 3.370738878999619e-05 -1.1440653959723951e-05 4.5244024942247651e-05 2.0152617110070546e-05 0 2.2762193317404989e-06 -1.9290080501402853e-05 8.9870318867949933e-06 -0.00013347684754231492 0.0001067343408169182 0 -4.2563200519189407e-05 -1.2426937884885355e-05 3.9882553746769056e-05 0 1.0728110530113448e-05 -1.5860690195307734e-05 -2.5855849278620492e-05 3.680403100354715e-05 -2.4362151575288237e-06 3.9631807888830304e-05 -5.2824559682501841e-06 -3.7599203931206335e-07 0 0 7.3914930728794759e-05 0 -6.3096024571737642e-06
leaf_weight=93 121 4340 1494 1256 17260 718 436 101 22157 4632 1671 431 899 31 466 106 2846 58 13748 9326 835 1689 2337 386 173 619 592 23 44 29 91
leaf_count=93 121 4340 1494 1256 17260 718 436 101 22157 4632 1671 431 899 31 466 106 2846 58 13748 9326 835 1689 2337 386 173 619 592 23 44 29 91
internal_value=0 -3.97961e-06 -3.16194e-06 2.03974e-05 -7.18082e-06 5.29173e-06 3.16279e-05 5.62567e-05 -3.63479e-06 -6.23589e-06 2.06426e-05 -7.45811e-05 9.52237e-05 -9.79092e-05 5.19147e-06 2.02432e-05 2.92855e-05 -0.000118713 1.27012e-05 -1.97515e-05 -7.1157e-06 3.18026e-05 -3.73471e-06 2.14691e-06 2.63566e-05 -2.196e-05 -3.58602e-06 0 3.967e-05 -2.04929e-05 0
internal_weight=0 74475 73675 14533 50237 23438 8217 2429 39417 8972 5788 800 1000 611 6316 2508 4517 489 14466 10820 1271 1795 3808 2723 1429 1085 713 189 67 122 122
internal_count=89008 74475 73675 14533 50237 23438 8217 2429 39417 8972 5788 800 1000 611 6316 2508 4517 489 14466 10820 1271 1795 3808 2723 1429 1085 713 189 67 122 122
is_linear=0
shrinkage=0.1


Tree=3
num_leaves=30
num_cat=0
split_feature=160 265 198 288 61 192 198 262 166 64 292 23 160 83 286 129 166 311 300 262 122 128 11 307 300 166 219 76 30
split_gain=0.000611055 0.000293931 0.000259524 0.000211833 0.000162481 0.000129218 0.00019412 0.000155768 0.000113853 0.000111075 0.000120414 9.59907e-05 9.58025e-05 9.42265e-05 7.56248e-05 7.02397e-05 6.60925e-05 5.91915e-05 5.7815e-05 5.4846e-05 4.63862e-05 4.30676e-05 4.15797e-05 3.91854e-05 3.26701e-05 2.14215e-05 1.59465e-06 1.58895e-06 3.24234e-08
threshold=0.00065274160706518824 0.0039756923633474904 1.0000000180025095e-35 0.0006863419059861543 0.046785225718194261 -1.0000000180025095e-35 -0.001191540312243333 -0.00058173363164915049 0.0013236275102537223 0.0011226496590515114 0.0053497501423036995 0.1026415678983655 0.00058892821885248036 0.99659863945578242 0.78973684210526329 -0.12526008295225757 1.0000000180025095e-35 0.18200220831799782 0.16441441441441443 0.0013008133291281256 0.38784306826178755 0.00067249505766664452 0.0005881098972806304 0.3940285204991088 0.26393188854489169 0.0013409322993274133 0.32397183098591559 0.19821428571428576 0.71964912280701765
decision_type=2 2 2 2 2 2 2 2 2 2 2 2 2 2 2 2 2 2 2 2 2 2 2 2 2 2 2 2 2
left_child=1 11 5 8 18 6 -3 -7 20 16 -11 28 15 14 -13 -4 -6 25 26 -20 21 -2 -22 -19 -14 -10 -5 -15 -1
right_child=3 2 12 4 9 7 -8 -9 17 10 -12 13 24 27 -16 -17 -18 23 19 -21 22 -23 -24 -25 -26 -27 -28 -29 -30
leaf_value=-1.6717352845576074e-06 1.4534478597878948e-06 3.9261066135380232e-06 -7.6621804309071101e-06 0 3.5370265018296298e-05 1.5160537117761731e-05 -1.3482720809138625e-05 -3.7274060643032849e-07 0 5.9051808218289001e-05 2.2714301644747683e-05 -0.00011968386582774914 1.2055307768260539e-05 2.6273943270410495e-05 0 -2.8167694314759623e-05 9.0461392752868273e-06 8.2802513520695362e-07 0 -8.3360777799534294e-05 9.4482462122048278e-06 4.2381054103772433e-05 -1.2628105957276451e-05 -3.4251715920456139e-05 -1.1191658446734096e-05 -0.00011199843429965378 1.1339642696456067e-05 0 0
leaf_weight=116 723 10794 3097 30 1648 8439 14870 25641 51 2196 2383 417 1237 23 78 6102 3732 504 77 216 2841 722 1137 442 1173 114 124 30 51
leaf_count=116 723 10794 3097 30 1648 8439 14870 25641 51 2196 2383 417 1237 23 78 6102 3732 504 77 216 2841 722 1137 442 1173 114 124 30 51
internal_value=0 -4.02059e-06 -3.32588e-06 1.70864e-05 2.59886e-05 -6.02039e-07 -6.01429e-06 3.36337e-06 2.33349e-06 2.88317e-05 4.09621e-05 -6.80904e-05 -1.70199e-05 -8.83218e-05 -0.000102662 -2.16728e-05 1.78085e-05 -2.60013e-05 -2.89444e-05 -5.7019e-05 8.83161e-06 2.45047e-05 2.19337e-06 -1.15891e-05 0 -8.58417e-05 6.44575e-08 0 0
internal_weight=0 72068 71353 16940 10406 59744 25664 34080 6534 9959 4579 715 11609 548 495 9199 5380 1111 447 293 5423 1445 3978 946 2410 165 154 53 167
internal_count=89008 72068 71353 16940 10406 59744 25664 34080 6534 9959 4579 715 11609 548 495 9199 5380 1111 447 293 5423 1445 3978 946 2410 165 154 53 167
is_linear=0
shrinkage=0.1


Tree=4
num_leaves=30
num_cat=0
split_feature=288 300 96 292 262 288 252 9 311 96 166 288 262 151 59 219 230 23 166 115 26 122 286 228 286 254 158 10 29
split_gain=0.000519703 0.000258139 0.000195014 0.000203129 0.000192209 0.000218709 0.000181302 0.000139742 0.000137998 0.000130094 0.000105708 0.000115457 0.000112609 0.000102017 0.000101418 9.9209e-05 0.000102797 8.1884e-05 7.94943e-05 7.63911e-05 7.34269e-05 5.9542e-05 4.97244e-05 4.42377e-05 3.47623e-05 1.31088e-05 1.10382e-05 4.14559e-06 1.43909e-05
threshold=0.00067476393506726861 0.019049346879535561 0.0016844474709643011 0.0052791723574987211 -0.00062735265444757704 -0.0013196968049919986 0.40238095238095245 0.0047839749768409908 0.20047846889952156 -0.00057012548936619101 0.0029761929366696198 0.0028332644539377232 0.00067980975801962284 0.28159948383925287 0.31153480636730818 0.35316231755860245 0.0021001068062735944 0.12408446939321038 -0.0013508953274348199 0.43427698032961198 0.94469928644240586 0.54580419580419581 0.74934554973821998 0.00622070149059411 0.73453443877551028 0.8755952380952382 0.82985960341583453 0.0053604974724962466 0.31909090909090915
decision_type=2 2 2 2 2 2 2 2 2 2 2 2 2 2 2 2 2 2 2 2 2 2 2 2 2 2 2 2 2
left_child=1 17 10 8 5 6 -3 24 25 -9 11 12 -2 -13 -10 16 -5 27 -19 -17 -20 -7 23 -12 -6 -4 -24 -1 -29
right_child=2 4 3 15 7 21 -8 9 14 -11 22 13 -14 -15 -16 19 -18 18 20 -21 -22 -23 26 -25 -26 -27 -28 28 -30
leaf_value=-1.2300290896254751e-05 1.8423058601755697e-05 1.2934252803788107e-05 -4.8401700400829321e-05 7.8053382715165165e-06 -8.4475966250746593e-06 1.9993329006838825e-05 -1.6919052118203343e-05 -1.5534135987899487e-05 0.00016016797781800917 -8.8199696268995701e-07 -0.00010230724610229311 0 -3.4456960884994322e-07 5.6975978689571431e-05 5.9857816267966393e-05 5.0007338375710587e-05 -7.7417617059385204e-05 0 -0.00012728074325752268 0 0 5.7140743576313158e-06 2.4698896554272852e-05 0 -2.2834915212541581e-05 0 -2.5533166083132806e-05 0 8.3001335590963737e-05
leaf_weight=86 5766 2853 68 252 3805 6209 6377 7741 181 31014 147 316 6327 981 1164 748 208 59 323 686 87 7400 89 64 5883 43 86 20 25
leaf_count=86 5766 2853 68 252 3805 6209 6377 7741 181 31014 147 316 6327 981 1164 748 208 59 323 686 87 7400 89 64 5883 43 86 20 25
internal_value=0 -3.72524e-06 1.56592e-05 3.77182e-05 -3.12018e-06 4.34304e-06 -7.28411e-06 -6.7164e-06 6.65497e-05 -3.90564e-06 1.00221e-05 1.17275e-05 8.2931e-06 4.0851e-05 7.61535e-05 1.35691e-05 -2.25603e-05 -6.93406e-05 -8.88647e-05 2.77801e-05 -0.000104748 1.25051e-05 -3.9398e-05 -7.20825e-05 -1.75723e-05 -1.59542e-05 0 0 2.51355e-05
internal_weight=0 71882 17126 3350 71282 22839 9230 48443 1456 38755 13776 13390 12093 1297 1345 1894 460 600 469 1434 410 13609 386 211 9688 111 175 131 45
internal_count=89008 71882 17126 3350 71282 22839 9230 48443 1456 38755 13776 13390 12093 1297 1345 1894 460 600 469 1434 410 13609 386 211 9688 111 175 131 45
is_linear=0
shrinkage=0.1


Tree=5
num_leaves=32
num_cat=0
split_feature=128 166 285 224 265 32 38 294 256 94 64 252 289 112 80 192 23 274 73 180 96 220 172 293 172 198 300 24 150 113 291
split_gain=0.000444266 0.000220318 0.000176774 0.000170175 0.000159082 0.000143185 0.00021342 0.000110853 0.000159524 0.000102976 9.62351e-05 8.30627e-05 7.68869e-05 7.37662e-05 7.25924e-05 7.60439e-05 7.10095e-05 5.7187e-05 5.55965e-05 5.12488e-05 5.14489e-05 5.12444e-05 4.76309e-05 3.71094e-05 2.8941e-05 9.44058e-06 1.64137e-05 1.1899e-05 5.97483e-06 4.10032e-06 2.82718e-08
threshold=0.00065061817898648411 1.0000000180025095e-35 0.056079664570230614 0.0013675217404784947 0.0039756923633474904 -0.0012710520948253643 -0.00065963070253083334 0.0043250056228680842 0.0028288562004776811 0.19034679089026918 -0.00056497181152348464 0.15470085470085473 -0.049926925928534545 0.69397993311036799 0.28759398496240607 0.0012001202640767874 0.1026415678983655 0.85037313432835837 0.0044443542326820197 0.98529411764705899 0.0011611032761758013 0.3585714285714286 0.40824915824915831 0.0017984181501791306 0.053342816500711245 0.0013481634850807114 0.18019480519480521 0.27842377260981915 0.51176633444075315 0.27888888888888896 0.032154462516246061
decision_type=2 2 2 2 2 2 2 2 2 2 2 2 2 2 2 2 2 2 2 2 2 2 2 2 2 2 2 2 2 2 2
left_child=1 4 12 17 13 11 -7 8 -5 -9 23 -6 25 16 21 -16 -1 18 -4 20 -14 -12 -19 24 -3 27 -27 -2 -25 -15 -21
right_child=2 10 3 7 5 6 -8 9 -10 -11 14 -13 19 29 15 -17 -18 22 -20 30 -22 -23 -24 28 -26 26 -28 -29 -30 -31 -32
leaf_value=0 0 0 -3.3812308846923514e-05 2.4528497202200008e-05 2.302743300481319e-05 1.9362108860123663e-05 -1.1243333681885213e-06 8.6557591345794209e-05 6.8555989944365505e-05 -1.3261069590276852e-05 1.6645095566804535e-05 -2.5881123425005163e-05 -5.2436641485709987e-06 2.7809893205183838e-05 -2.2430895493420638e-05 7.3062657936407141e-06 -9.087048329483368e-05 3.7743404540576379e-05 7.1466460161453013e-06 2.4521509242171321e-06 -0.00011151186580815658 -8.7299613520443666e-06 0 0 -4.1425123658451768e-05 0 -5.1387365545825591e-05 2.616136620320993e-05 2.9211873902480151e-05 0 0
leaf_weight=118 210 53 321 3337 310 5621 51707 119 1366 785 1262 3083 170 53 5093 821 373 1158 7551 47 191 2136 500 81 2019 46 88 212 70 74 33
leaf_count=118 210 53 321 3337 310 5621 51707 119 1366 785 1262 3083 170 53 5093 821 373 1158 7551 47 191 2136 500 81 2019 46 88 212 70 74 33
internal_value=0 -3.3251e-06 1.5014e-05 1.78455e-05 -8.75736e-07 -2.99653e-07 8.18794e-07 3.19513e-05 3.81159e-05 0 -1.60241e-05 -2.03047e-05 -2.42045e-05 -5.13943e-05 -1.09669e-05 -1.76671e-05 -6.94757e-05 9.15186e-06 4.99886e-06 -5.53883e-05 -7.18836e-05 0 2.66024e-05 -3.55168e-05 -3.91468e-05 0 -2.25729e-05 7.86704e-06 0 0 0
internal_weight=0 72874 16134 15137 61339 60721 57328 5607 4703 904 11535 3393 997 618 9312 5914 491 9530 7872 441 361 3398 1658 2223 2072 556 134 422 151 127 80
internal_count=89008 72874 16134 15137 61339 60721 57328 5607 4703 904 11535 3393 997 618 9312 5914 491 9530 7872 441 361 3398 1658 2223 2072 556 134 422 151 127 80
is_linear=0
shrinkage=0.1


Tree=6
num_leaves=31
num_cat=0
split_feature=288 297 294 224 0 288 156 4 262 260 192 28 74 279 252 137 288 97 176 29 294 39 21 262 292 85 150 151 26 150
split_gain=0.00036927 0.000198785 0.000197849 0.000222407 0.000139777 0.000132281 0.000146568 0.000126062 0.000118632 0.000112773 0.000140856 0.000112287 0.000110206 9.5088e-05 8.86577e-05 8.65494e-05 0.000126918 8.10123e-05 7.79235e-05 8.46485e-05 7.16793e-05 9.53529e-05 6.36063e-05 5.91694e-05 5.72512e-05 5.07022e-05 3.70567e-05 1.12741e-05 2.73374e-05 2.64424e-05
threshold=0.00067476393506726861 0.0039759373445814724 -0.0013008133291281252 -0.0012932431217622662 0.00056433414568779494 -0.0013196968049919986 0.41319942611190824 0.0062468435770294218 1.0000000180025095e-35 0.0050066315904956317 0.0018761733416781114 0.40238095238095245 0.0072440206275793751 0.23088613514145431 0.23166368515205729 0.0047897583707133809 0.0028332644539377232 -0.15932698963579212 0.7958333333333335 0.07362240289069559 0.0039139009865731831 -0.0094632476251020666 0.81016731016731025 0.0036429926214935908 0.0073593081493206125 0.77525252525252542 0.41752907286887875 0.13938366960907947 0.27650963040083293 0.50887698287635275
decision_type=2 2 2 2 2 2 2 2 2 2 2 2 2 2 2 2 2 2 2 2 2 2 2 2 2 2 2 2 2 2
left_child=1 7 5 14 11 6 -3 18 -5 10 26 15 17 -12 -4 23 -17 -13 19 -1 22 -22 -11 -2 -7 -14 -6 28 -9 -29
right_child=4 2 3 8 9 24 -8 27 -10 20 13 12 25 -15 -16 16 -18 -19 -20 -21 21 -23 -24 -25 -26 -27 -28 29 -30 -31
leaf_value=0 0 2.3110434442802704e-05 0 -5.2461726824976914e-07 4.6481112599303854e-05 2.8687305965654571e-05 -8.009541575523423e-06 0 -1.2168253197710441e-05 3.326710998588673e-05 0 -2.1509018940130148e-05 6.9523726385049947e-05 0.00010701392948605339 -3.1872391056568877e-05 1.6586803626129164e-05 6.9759020232427828e-05 2.2587919597872947e-06 0 -0.00011779289830373828 -7.6873613684643298e-05 1.0335311970178879e-05 0 -9.1397391182057374e-05 0 0 0 -7.688404174594995e-05 5.4617891981523944e-05 0
leaf_weight=91 893 2143 868 43638 336 3535 5064 48 11201 1914 55 1880 315 522 3975 3197 617 5249 93 370 178 251 980 73 624 171 495 53 113 66
leaf_count=91 893 2143 868 43638 336 3535 5064 48 11201 1914 55 1880 315 522 3975 3197 617 5249 93 370 178 251 980 73 624 171 495 53 113 66
internal_value=0 -3.14404e-06 -2.51863e-06 -4.86327e-06 1.31958e-05 9.46214e-06 7.22435e-07 -5.19138e-05 -2.97141e-06 2.81052e-05 5.3127e-05 7.20183e-06 0 9.33407e-05 -2.55092e-05 1.92199e-05 2.61745e-05 -3.48181e-06 -7.95772e-05 -9.64377e-05 1.63717e-05 -1.7089e-05 2.26308e-05 -4.34726e-06 2.3703e-05 4.57132e-05 2.06801e-05 0 1.99008e-05 -2.02845e-05
internal_weight=0 71882 71048 59682 17126 11366 7207 834 54839 4731 1408 12395 7615 577 4843 4780 3814 7129 554 461 3323 429 2894 966 4159 486 831 280 161 119
internal_count=89008 71882 71048 59682 17126 11366 7207 834 54839 4731 1408 12395 7615 577 4843 4780 3814 7129 554 461 3323 429 2894 966 4159 486 831 280 161 119
is_linear=0
shrinkage=0.1


Tree=7
num_leaves=31
num_cat=0
split_feature=128 134 96 124 262 319 134 315 32 15 134 311 77 54 46 64 311 102 108 301 80 4 156 92 242 53 64 106 319 5
split_gain=0.000324457 0.000220005 0.000136137 0.000168079 0.000162502 0.000142927 0.000134948 0.000132486 0.000170092 0.000111585 0.000107912 0.00010732 0.000107419 6.98027e-05 9.40381e-05 6.8616e-05 6.74107e-05 6.15802e-05 6.06264e-05 5.97824e-05 5.52432e-05 5.21495e-05 4.47174e-05 4.23715e-05 3.86934e-05 3.69609e-05 3.29697e-05 2.36187e-05 1.77184e-05 1.99915e-06
threshold=0.00062150411979899911 1.0000000180025095e-35 -0.00070472175161651041 0.43095238095238103 -0.0033819997395996278 0.21554305182737973 -0.00062893090053517387 0.21222498962224992 0.0012718603954269272 0.1539778714436249 0.0030229771853580449 0.2286201852754754 0.15894736842105264 0.093854865771812096 0.23827838827838829 -1.0000000180025095e-35 0.63172353961827654 0.0027201652015556026 0.267948717948718 0.59807692307692317 0.12701612903225809 0.0097945146280790235 0.39009661835748799 0.16869918699186995 0.41368667518092811 0.35781671159029654 -0.0013591576886158305 0.0048524059784561379 0.99757281553398069 -0.0022791367052024487
decision_type=2 2 2 2 2 2 2 2 2 2 2 2 2 2 2 2 2 2 2 2 2 2 2 2 2 2 2 2 2 2
left_child=1 2 3 4 -1 -5 16 10 13 -8 21 27 -13 14 -9 23 -4 -15 24 20 -12 25 -20 29 -17 -2 -25 -10 -23 -3
right_child=7 15 6 5 -6 -7 9 8 11 -11 19 12 -14 17 -16 18 -18 -19 22 -21 -22 28 -24 26 -26 -27 -28 -29 -30 -31
leaf_value=6.7015275433258376e-05 2.7664137558492684e-05 -1.4483508321467936e-05 1.6775149964781879e-05 -8.4393669501396721e-05 -1.632344860417119e-06 -1.7305481403231214e-05 -7.7680378714636682e-06 0 -6.7959523240632345e-05 2.7697724423614687e-06 0 9.3916552769040379e-05 3.2431686733933088e-05 9.4837893129599432e-06 0.00011562906584618072 -1.3695924789393064e-05 0 -3.2801276862314101e-05 -1.9188153817157906e-06 0 -0.0001828023079776793 -0.0001023251088566561 -2.9232328725052571e-05 -9.631419014426184e-05 6.0810131733342647e-06 -8.1299081746127539e-06 -3.2715276270482288e-05 0 0 4.5335689899209393e-06
leaf_weight=378 385 75 7126 378 3039 5593 16748 234 52 24511 21 456 2035 12875 153 1777 3726 317 1189 28 75 69 2558 180 1977 1134 1337 336 39 207
leaf_count=378 385 75 7126 378 3039 5593 16748 234 52 24511 21 456 2035 12875 153 1777 3726 317 1189 28 75 69 2558 180 1977 1134 1337 336 39 207
internal_value=0 -3.05053e-06 -8.18502e-07 -1.19385e-05 4.86191e-06 -2.21823e-05 1.11268e-06 1.19165e-05 1.48086e-05 -1.41667e-06 -1.31203e-05 3.73642e-05 4.51967e-05 9.74957e-06 5.34453e-05 -1.74062e-05 1.10756e-05 8.1827e-06 -1.2416e-05 -0.000104588 -0.00014267 -3.8378e-06 -2.15684e-05 -3.61231e-05 -2.27932e-06 0 -4.27405e-05 -3.23294e-06 -7.10614e-05 0
internal_weight=0 70799 61499 9388 3417 5971 52111 18209 16458 41259 1751 2879 2491 13579 387 9300 10852 13192 7501 124 96 1627 3747 1799 3754 1519 1517 388 108 282
internal_count=89008 70799 61499 9388 3417 5971 52111 18209 16458 41259 1751 2879 2491 13579 387 9300 10852 13192 7501 124 96 1627 3747 1799 3754 1519 1517 388 108 282
is_linear=0
shrinkage=0.1


Tree=8
num_leaves=30
num_cat=0
split_feature=256 302 93 230 224 96 260 305 1 262 30 220 309 262 256 4 31 22 117 303 41 31 143 30 156 15 18 61 122
split_gain=0.000285171 0.000156476 0.000139233 0.000134883 0.000172453 0.000123426 0.000144098 0.000118337 0.000111822 0.000105651 8.59235e-05 8.03263e-05 7.96023e-05 7.64715e-05 7.97035e-05 7.46289e-05 9.55104e-05 6.65572e-05 6.53606e-05 5.82592e-05 5.30762e-05 5.51087e-05 2.22603e-05 1.14886e-05 1.80148e-05 1.07936e-05 1.99216e-06 9.70872e-07 8.02562e-07
threshold=0.00065104175864938451 0.008902155536770923 0.043797953964194385 -0.001191540312243333 -0.001200120264076787 0.0016844474709643011 0.0053207899798694757 0.59041394335511999 -0.30844925861830658 0.00065104175864938451 0.23827838827838829 0.41763565891472876 0.55777777777777793 0.0026350487815323125 0.0024577587656287041 0.01258876489897562 0.89309523809523828 0.087276785714285723 0.81534090909090928 0.14323708206686933 0.0071474885921499831 0.69294792098356139 0.90501253132832093 0.55395010395010413 0.49444444444444452 0.33150573814817047 0.071599453178400566 0.38278388278388281 0.46947648624667265
decision_type=2 2 2 2 2 2 2 2 2 2 2 2 2 2 2 2 2 2 2 2 2 2 2 2 2 2 2 2 2
left_child=1 17 15 7 19 13 10 11 -8 -6 -7 -3 -9 14 -4 16 22 26 -15 -5 21 -19 -2 25 -25 -17 -1 -22 -18
right_child=2 3 5 4 9 6 8 12 -10 -11 -12 -13 -14 18 -16 23 28 20 -20 -21 27 -23 -24 24 -26 -27 -28 -29 -30
leaf_value=0 -0.00011244606609141049 2.8885493208663592e-05 8.360490479327627e-06 -5.8986981154418505e-06 -1.0989831090435756e-06 0.00012423963255531303 -5.8393336424283635e-05 8.4444446508066692e-06 1.9023762557857415e-05 -1.505242240045807e-05 3.9754002239649478e-05 6.1535574817586841e-06 -1.32056525845966e-05 0 3.8582707732970933e-05 -3.2612102449198104e-05 -9.9529018181268335e-06 -0.00010728322143447673 -4.2807420956446247e-05 -3.1952208903884644e-05 0 -2.1987807237710136e-05 0 3.6238813555786548e-05 0 0 1.9204149425447125e-05 1.7413548948314445e-05 0
leaf_weight=78 202 2660 13594 1758 42224 201 198 2858 1524 6378 1354 5197 3843 977 1033 164 81 295 476 3013 29 290 20 174 130 36 54 32 135
leaf_count=78 202 2660 13594 1758 42224 201 198 2858 1524 6378 1354 5197 3843 977 1033 164 81 295 476 3013 29 290 20 174 130 36 54 32 135
internal_value=0 -3.08066e-06 1.04097e-05 -2.5115e-06 -4.87752e-06 1.23693e-05 3.05127e-05 5.90464e-06 7.93873e-06 -3.00743e-06 5.30933e-05 1.4328e-05 -3.41085e-06 8.43803e-06 1.07519e-05 -2.58677e-05 -5.60612e-05 -4.79437e-05 -1.2268e-05 -2.31401e-05 -6.16323e-05 -7.14274e-05 -0.000102482 0 1.2615e-05 -1.82344e-05 0 0 0
internal_weight=0 68709 20299 67931 53373 19357 3277 14558 1722 48602 1555 7857 6701 16080 14627 942 438 778 1453 4771 646 585 222 504 304 200 132 61 216
internal_count=89008 68709 20299 67931 53373 19357 3277 14558 1722 48602 1555 7857 6701 16080 14627 942 438 778 1453 4771 646 585 222 504 304 200 132 61 216
is_linear=0
shrinkage=0.1


Tree=9
num_leaves=29
num_cat=0
split_feature=288 298 134 64 255 188 128 61 9 30 10 169 294 256 141 230 223 54 36 263 302 118 310 54 294 10 292 20
split_gain=0.000241672 0.000153976 0.000121068 0.000184412 0.000118508 0.000110861 0.000133845 0.000101608 9.90795e-05 9.44468e-05 0.000164368 0.000131533 0.000109945 8.99355e-05 7.21481e-05 6.63575e-05 5.80997e-05 5.24023e-05 8.33927e-05 5.01141e-05 4.66721e-05 4.20643e-05 3.66976e-05 3.28548e-05 2.83357e-05 2.56981e-05 5.42881e-07 1.45223e-07
threshold=0.0013665873212884707 0.0044530986359439259 -0.00061652288945701617 -0.00068166336393282723 0.33379758588672243 0.43095238095238103 -0.0011264434638622587 0.043797953964194385 0.0047839749768409908 0.17425810904071776 0.0042310762336185926 0.0057366107625454804 0.0026246745528446529 0.0028288562004776811 0.15058139534883722 -0.0023980835459456169 0.99757281553398069 0.087005046583850942 0.0062092999161836989 0.035846207955898206 0.82891986062717782 0.33262411347517734 0.29038187855787484 0.17665973141668248 0.0013042063880739365 0.0063740314644952804 0.011107995677969816 0.56949806949806958
decision_type=2 2 2 2 2 2 2 2 2 2 2 2 2 2 2 2 2 2 2 2 2 2 2 2 2 2 2 2
left_child=1 4 5 20 17 15 -7 22 -5 10 19 -12 13 -11 -14 -3 21 27 -19 -9 -4 -6 26 -18 -24 -26 -2 -1
right_child=7 2 3 8 16 6 -8 9 -10 12 11 -13 14 -15 -16 -17 23 18 -20 -21 -22 -23 24 -25 25 -27 -28 -29
leaf_value=-3.3550114659611787e-06 0 4.362504168848312e-05 -3.1140532742970293e-05 -1.0290894874067146e-05 1.4950543887842393e-05 -1.2147418416869233e-05 1.0063623676898332e-05 0 5.1430984045289211e-07 1.639962648133301e-05 0.0001413269702363446 0 2.9255344880477031e-05 5.5669601863735362e-05 -1.085315606996065e-05 1.2069336731881395e-05 0 -9.9061988792861831e-05 -7.0163778782108492e-06 -0.00011766214392499645 0 -1.4661867069791428e-05 0 -3.2757441667675169e-05 -8.7947811479636176e-05 0 8.2887813503098832e-06 0
leaf_weight=129 26 946 2750 10327 1049 4650 6461 97 44764 4749 246 123 563 811 2047 5073 636 392 260 37 321 866 83 1260 165 51 79 47
leaf_count=129 26 946 2750 10327 1049 4650 6461 97 44764 4749 246 123 563 811 2047 5073 636 392 260 37 321 866 83 1260 165 51 79 47
internal_value=0 -1.76397e-06 -6.22876e-07 -2.84463e-06 -1.94739e-05 6.70125e-06 4.29892e-07 1.54546e-05 -1.44293e-06 1.80159e-05 6.25192e-05 9.87494e-05 1.48157e-05 2.28039e-05 -7.61037e-07 1.76535e-05 -1.07757e-05 -5.49679e-05 -6.81231e-05 -9.20019e-06 -2.67656e-05 0 -3.0224e-05 -2.32341e-05 -4.96139e-05 -6.86954e-05 0 0
internal_weight=0 79931 75292 58162 4639 17130 11111 9077 55091 8673 503 369 8170 5560 2610 6019 3811 828 652 134 3071 1915 404 1896 299 216 105 176
internal_count=89008 79931 75292 58162 4639 17130 11111 9077 55091 8673 503 369 8170 5560 2610 6019 3811 828 652 134 3071 1915 404 1896 299 216 105 176
is_linear=0
shrinkage=0.1


Tree=10
num_leaves=31
num_cat=0
split_feature=160 38 283 32 262 14 158 272 261 245 255 255 46 281 295 166 271 164 287 74 112 181 278 288 65 5 74 227 215 310
split_gain=0.000214158 0.000147774 0.000132954 0.000116305 0.000152615 0.0001295 0.00010063 0.000143812 9.77792e-05 9.60523e-05 8.66883e-05 8.31775e-05 8.27259e-05 8.29546e-05 8.05125e-05 9.14367e-05 8.79618e-05 7.39582e-05 8.44019e-05 6.96751e-05 6.44384e-05 5.9847e-05 5.35521e-05 5.27725e-05 5.0639e-05 4.44911e-05 3.71268e-05 2.70327e-05 1.38013e-05 1.48412e-07
threshold=0.0012742914772942984 0.00056625147614930438 0.35624311132105185 -0.0012710520948253643 -0.0018115948635024635 0.16074929971988799 0.34798711755233497 0.75595238095238104 -0.0016732203316355899 0.54006410256410264 0.13616427432216907 0.71975609756097569 0.32885724585436199 0.40312500000000007 0.29675297989391808 0.0023781232455553085 0.30449179383818031 0.0053991166793914301 0.18212530712530714 0.0050848226466566502 0.267948717948718 0.55777777777777793 0.34489441325848708 0.002027027952441252 -0.19723003228472238 -0.00026231156456781073 0.0056826035740630632 0.0064155548901968064 0.37003937007874022 0.58411460615088073
decision_type=2 2 2 2 2 2 2 2 2 2 2 2 2 2 2 2 2 2 2 2 2 2 2 2 2 2 2 2 2 2
left_child=1 3 14 11 9 -6 7 8 -4 -5 12 19 13 -3 15 22 -17 18 -8 -1 27 -13 -2 29 -25 -22 -19 -12 -9 -16
right_child=2 10 6 4 5 -7 17 28 -10 -11 20 21 -14 -15 23 16 -18 26 -20 -21 25 -23 -24 24 -26 -27 -28 -29 -30 -31
leaf_value=-7.0094205907323835e-05 2.7016965821059586e-05 -0.00014522920907018619 0 3.4817103049148664e-05 6.4537722050780632e-06 -3.3725933703740777e-06 0.00014685613797279506 -4.3020756693039341e-05 8.479443362568423e-05 2.3860323633104362e-06 6.9815690665165736e-06 1.3760237153480382e-05 0 0 3.9111949114576805e-06 0 -0.00010050927710147417 -4.4158481762460355e-06 2.3708003636829713e-05 -1.6995233147002425e-05 -5.0766328590310121e-06 -1.9586443834656075e-05 -1.6056696806118441e-05 0 0.00010687027879390892 -2.4245149689747958e-05 1.6182553680531747e-05 -1.3843720461035318e-05 0 0
leaf_weight=464 426 148 170 2085 19434 43048 72 75 745 2110 2196 993 119 106 97 268 222 1714 2209 1203 2708 1089 871 38 127 3595 1481 852 196 147
leaf_count=464 426 148 170 2085 19434 43048 72 75 745 2110 2196 993 119 106 97 268 222 1714 2209 1203 2708 1089 871 38 127 3595 1481 852 196 147
internal_value=0 -1.63489e-06 1.47507e-05 0 9.24263e-07 -2.56101e-07 2.19048e-05 4.98025e-05 6.91784e-05 1.94011e-05 -1.31909e-05 -1.71766e-05 -6.26716e-05 -9.49971e-05 -5.24103e-06 -1.58486e-05 -5.27447e-05 1.51761e-05 2.92442e-05 -3.40305e-05 -1.08151e-05 -1.87646e-06 0 3.1914e-05 7.56471e-05 -1.66061e-05 3.95578e-06 0 -1.74831e-06 0
internal_weight=0 80150 8858 70426 66677 62482 6662 1186 915 4195 9724 3749 373 254 2196 1787 490 5476 2281 1667 9351 2082 1297 409 165 6303 3195 3048 271 244
internal_count=89008 80150 8858 70426 66677 62482 6662 1186 915 4195 9724 3749 373 254 2196 1787 490 5476 2281 1667 9351 2082 1297 409 165 6303 3195 3048 271 244
is_linear=0
shrinkage=0.1


Tree=11
num_leaves=31
num_cat=0
split_feature=96 102 266 315 124 96 26 240 59 134 230 52 64 254 99 96 70 53 90 294 32 35 9 12 280 144 141 141 306 169
split_gain=0.000197667 0.000124319 0.000116356 0.000112032 0.000104122 0.000112197 0.000102201 0.000119199 0.000134469 8.54758e-05 7.99272e-05 7.77022e-05 6.93681e-05 6.22902e-05 5.5026e-05 7.99293e-05 5.02294e-05 4.89121e-05 4.6958e-05 4.54433e-05 4.46582e-05 7.83088e-05 4.3246e-05 4.27334e-05 4.15402e-05 4.13835e-05 3.95516e-05 2.2518e-05 6.13601e-05 2.23998e-05
threshold=0.00066577905975595552 1.0000000180025095e-35 0.0044536161046627208 0.20843206951026857 0.36899313501144165 -0.00070472175161651041 0.38274558449997048 0.63818181818181829 0.18648458768771409 0.0025348566211720329 -0.0023980835459456169 0.25290697674418611 0.00058207224268702628 0.90397787144362496 0.0063856663254517471 0.0018645128395293755 0.0019531258278435719 0.35092592592592597 0.72249724972497253 0.0043250056228680842 -0.0013573128858759274 0.007652087221748257 0.0045935389897881242 0.73030303030303034 0.23669467787114848 0.28759398496240607 0.22048611111111113 0.27888888888888896 0.53939976345357787 0.0058359878218076774
decision_type=2 2 2 2 2 2 2 2 2 2 2 2 2 2 2 2 2 2 2 2 2 2 2 2 2 2 2 2 2 2
left_child=1 2 11 9 10 -6 7 8 -5 17 -4 23 20 18 15 -8 -16 24 -11 -9 21 -3 -13 -1 -2 -22 -19 28 -14 -29
right_child=3 12 4 6 5 -7 14 19 -10 13 -12 22 27 -15 16 -17 -18 26 -20 -21 25 -23 -24 -25 -26 -27 -28 29 -30 -31
leaf_value=-4.7037502753693457e-05 -1.7858888139478975e-06 -0.00011166250515107534 3.975324263105801e-05 0.00015281843945195647 -1.4300812630985047e-05 9.9575665320561055e-08 6.2353867877388398e-06 7.0074711096612959e-06 3.4899563912435552e-05 -0.00016651511911631978 5.4461654040821155e-06 -3.5735218269850567e-05 -1.0308803354069907e-06 0 5.2847763250878121e-07 3.6041905382536638e-05 -4.6346215858135687e-05 -5.5144434449722711e-05 0 -7.7782529285674867e-05 -3.5254303343874069e-06 0 6.5597082929467769e-07 -1.1261781005652654e-06 5.4448748279831934e-05 -2.066991252100675e-05 0 0 4.1489914289359549e-05 -2.8753011287773844e-05
leaf_weight=1044 56 137 754 127 6234 37277 4183 874 2080 81 17826 360 752 42 2419 1343 240 211 38 68 2791 38 1856 470 223 4950 565 1176 455 338
leaf_count=1044 56 137 754 127 6234 37277 4183 874 2080 81 17826 360 752 42 2419 1343 240 211 38 68 2791 38 1856 470 223 4950 565 1176 455 338
internal_value=0 -1.92112e-06 -2.4168e-07 1.16198e-05 7.30822e-07 -1.87724e-06 1.48893e-05 3.06748e-05 4.33895e-05 -1.57632e-05 7.04074e-06 -1.7438e-05 -1.196e-05 -8.46545e-05 8.35687e-06 1.41597e-05 -2.289e-06 -1.68569e-06 -0.000122184 0 -1.67256e-05 -7.27117e-05 -3.5599e-06 -3.5268e-05 2.96898e-05 -1.49741e-05 -1.78107e-05 5.22812e-07 1.18842e-05 -6.05198e-06
internal_weight=0 76458 65821 12550 62091 43511 11334 3149 2207 1216 18580 3730 10637 161 8185 5526 2659 1055 119 942 7916 175 2216 1514 279 7741 776 2721 1207 1514
internal_count=89008 76458 65821 12550 62091 43511 11334 3149 2207 1216 18580 3730 10637 161 8185 5526 2659 1055 119 942 7916 175 2216 1514 279 7741 776 2721 1207 1514
is_linear=0
shrinkage=0.1


Tree=12
num_leaves=27
num_cat=0
split_feature=224 134 75 28 9 61 32 256 294 294 89 230 156 47 269 23 6 157 310 140 77 9 252 50 280 99
split_gain=0.000172084 0.0001598 0.000106031 0.000106942 9.01868e-05 8.72321e-05 8.67434e-05 8.36351e-05 0.000119764 7.95957e-05 7.31721e-05 6.5743e-05 6.55382e-05 6.18017e-05 6.13975e-05 7.10328e-05 6.77919e-05 5.82419e-05 5.38531e-05 6.19917e-05 5.236e-05 3.85695e-05 3.68682e-05 3.59556e-05 3.58132e-05 1.44746e-07
threshold=0.00062150411979899911 0.00058927525972229955 0.0057110261308559495 0.3585714285714286 0.00473284445352794 0.046785225718194261 -0.00056561092004514524 0.0028288562004776811 0.0050156923824804531 -0.0020352790914435199 0.61721611721611735 0.0026143816909014466 0.24722222222222226 0.43489130434782614 0.027402402402402406 0.17522010685529388 -0.0011289869442636655 0.64852941176470602 0.14323708206686933 0.23205128205128209 0.70820433436532515 0.0059300557470656897 0.27842377260981915 0.071599453178400566 0.83666666666666678 0.0071264518305481561
decision_type=2 2 2 2 2 2 2 2 2 2 2 2 2 2 2 2 2 2 2 2 2 2 2 2 2 2
left_child=1 4 3 7 14 21 13 10 -9 -8 -2 -7 -4 -6 15 -1 -16 -14 20 24 23 -5 -21 -3 -20 -22
right_child=2 18 12 5 6 11 9 8 -10 -11 -12 -13 17 -15 16 -17 -18 -19 19 22 25 -23 -24 -25 -26 -27
leaf_value=0 0 0 0 -4.82257858010824e-05 -1.5530727528522977e-06 6.4264684032568433e-06 2.1645738170988101e-05 6.3507301130294271e-05 0 2.078048601091501e-06 2.3117464483600876e-05 -1.4416699486423135e-05 0.00024200983586992325 -1.8873923873996871e-05 1.851428102500749e-05 -0.00015378220929287409 -1.1204747528693051e-05 0 -9.838275112736406e-06 0 0 0 -2.4749805884585497e-05 -6.4665416726746784e-05 1.0998255463191391e-05 4.1755998834975573e-06
leaf_weight=80 3006 91 41 480 8125 12376 2278 826 292 36235 2854 1638 43 3058 760 67 8187 21 2102 889 65 107 3460 548 1296 83
leaf_count=80 3006 91 41 480 8125 12376 2278 826 292 36235 2854 1638 43 3058 760 67 8187 21 2102 889 65 107 3460 548 1296 83
internal_value=0 -2.51361e-06 7.72936e-06 7.05513e-06 -5.90738e-07 1.89649e-06 1.01644e-06 1.73105e-05 4.36874e-05 3.33307e-06 1.16367e-05 3.72201e-06 0.000110474 -6.62563e-06 -9.78681e-06 -7.7128e-05 -8.2601e-06 0.000173949 -1.53196e-05 -1.2093e-05 -4.23036e-05 -3.52811e-05 -2.0064e-05 -5.4986e-05 -7.84954e-07 0
internal_weight=0 67324 21684 21579 58790 14601 49696 6978 1118 38513 5860 14014 105 11183 9094 147 8947 64 8534 7747 787 587 4349 639 3398 148
internal_count=89008 67324 21684 21579 58790 14601 49696 6978 1118 38513 5860 14014 105 11183 9094 147 8947 64 8534 7747 787 587 4349 639 3398 148
is_linear=0
shrinkage=0.1


Tree=13
num_leaves=32
num_cat=0
split_feature=128 38 251 192 302 319 294 288 128 137 9 294 196 271 319 41 254 203 201 310 38 253 316 32 294 70 4 1 19 9 139
split_gain=0.000157351 0.000123528 9.78323e-05 0.000135458 0.000122348 0.000123312 9.48816e-05 0.000116998 8.95543e-05 0.000199543 7.52975e-05 7.0288e-05 6.45731e-05 7.92082e-05 6.21159e-05 6.74268e-05 6.45104e-05 6.14389e-05 5.89223e-05 7.87495e-05 5.49561e-05 6.27666e-05 4.57468e-05 5.04449e-05 4.95566e-05 3.97573e-05 3.51464e-05 3.34674e-05 3.01483e-05 2.12594e-05 1.02142e-05
threshold=1.0000000180025095e-35 0.00057971020986702382 0.94756480754124117 0.0023675656814399208 0.5157072368421054 0.99757281553398069 -0.0013008133291281252 -0.0018939401487818584 -0.002591514517911619 0.0045060114377239524 0.00473284445352794 -0.0029463783448449017 0.0057179113387291532 0.087752778893799385 0.13123033614836896 0.0047681873581572765 0.49444375848870237 -0.00032456261142203364 0.0047006293478314377 0.42884510125889441 0.0006863419059861543 0.90161290322580656 0.27842377260981915 0.0011775098053599111 0.0011510793591096304 0.00058411221596355045 0.0064866386889390381 0.090591091173143887 0.77811044577511657 0.0057870418289387507 0.00092888249415965885
decision_type=2 2 2 2 2 2 2 2 2 2 2 2 2 2 2 2 2 2 2 2 2 2 2 2 2 2 2 2 2 2 2
left_child=1 6 17 12 5 -5 8 26 9 -1 -9 -10 13 -4 15 16 -3 20 25 -20 28 -22 23 -16 -24 -19 -8 -17 -2 -14 -6
right_child=2 14 3 4 30 -7 7 10 11 -11 -12 -13 29 -15 22 27 -18 18 19 -21 21 -23 24 -25 -26 -27 -28 -29 -30 -31 -32
leaf_value=-0.00017275556466984565 -5.0310297351058136e-06 -0.00025101890268534942 -3.4973064412021448e-06 0.00010527561859855047 -2.9864482493594084e-05 0 -3.5083901629008843e-05 -1.097008983863064e-05 3.4950051668726347e-05 -2.2123235108163563e-06 -7.0800509186977923e-08 7.5729553059396511e-06 -8.0642789781363831e-06 2.942374822076164e-05 -3.0053015402368507e-06 0 0 9.7633649481217871e-07 2.1787152306442357e-05 2.4849899218443746e-06 -3.8255372364809755e-05 6.9481829711081737e-06 -1.0021843718208229e-05 7.0152231472154231e-05 -3.6915277637544372e-05 -2.5717061103292197e-05 0 -7.9123212956240107e-05 1.3154190408078102e-05 1.7356353481214674e-05 9.0798411743680862e-06
leaf_weight=76 3393 39 776 463 106 152 1436 7671 1253 1330 40711 6826 1580 2403 1354 121 20 1265 3921 5719 896 277 3037 100 1228 755 327 60 1246 375 92
leaf_count=76 3393 39 776 463 106 152 1436 7671 1253 1330 40711 6826 1580 2403 1354 121 20 1265 3921 5719 896 277 3037 100 1228 755 327 60 1246 375 92
internal_value=0 -2.53147e-06 7.01725e-06 1.82266e-05 5.73604e-05 7.96167e-05 -1.09185e-06 -2.88201e-06 7.97598e-06 -1.41064e-05 -1.87659e-06 1.22843e-05 1.12972e-05 2.02052e-05 -1.63065e-05 -7.01225e-05 -0.00017529 2.98672e-06 7.30846e-06 1.0726e-05 -5.03676e-06 -2.43762e-05 -1.33906e-05 0 -1.86466e-05 -7.13991e-06 -2.83412e-05 -1.50617e-05 0 -1.26534e-06 0
internal_weight=0 65589 23419 5947 813 615 59630 50145 9485 1406 48382 8079 5134 3179 5959 240 59 17472 11660 9640 5812 1173 5719 1454 4265 2020 1763 181 4639 1955 198
internal_count=89008 65589 23419 5947 813 615 59630 50145 9485 1406 48382 8079 5134 3179 5959 240 59 17472 11660 9640 5812 1173 5719 1454 4265 2020 1763 181 4639 1955 198
is_linear=0
shrinkage=0.1


Tree=14
num_leaves=30
num_cat=0
split_feature=64 317 84 70 15 64 64 306 132 279 224 21 304 227 85 166 309 48 68 192 166 43 143 157 68 12 44 135 82
split_gain=0.000143991 0.000140486 0.000102464 0.000108531 0.000134063 0.000114598 0.000103949 9.01708e-05 8.45789e-05 9.02491e-05 8.74282e-05 7.99021e-05 0.000105116 7.3468e-05 7.31187e-05 5.69636e-05 6.44843e-05 5.58849e-05 5.2611e-05 5.7046e-05 5.16391e-05 5.15373e-05 4.80656e-05 4.21431e-05 3.92822e-05 3.34423e-05 1.15636e-05 1.38726e-05 1.76068e-06
threshold=0.0011775098053599111 0.04819976771196284 0.12632978723404256 -0.00057405287591549825 0.09438011174993928 -0.0012832855183333434 -0.00057339455825378128 0.24399846360668334 0.0054801224631836646 0.2286201852754754 0.0023344045270343732 0.57417582417582425 0.19722222222222227 0.0053644880660151748 0.67333333333333345 0.003502631744866314 0.5064102564102565 0.41277890466531447 0.005841082942340068 0.0024205762900226806 0.002652522615558262 0.00070727697736942569 0.073727351164797242 0.28801843317972359 0.020307849742883233 0.065591397849462371 0.23861283643892342 -0.15785080111863056 0.23720076882753802
decision_type=2 2 2 2 2 2 2 2 2 2 2 2 2 2 2 2 2 2 2 2 2 2 2 2 2 2 2 2 2
left_child=2 18 7 5 23 13 -6 11 9 20 -11 25 -13 -4 -7 16 -10 24 19 -2 -3 -19 -17 -5 -9 -1 28 -28 -20
right_child=1 8 3 4 6 14 -8 17 15 10 -12 12 -14 -15 -16 22 -18 21 26 -21 -22 -23 -24 -25 -26 -27 27 -29 -30
leaf_value=-5.672042323985992e-05 -0.00014907388870108229 0 -2.5892688783984396e-05 -1.7875471150527349e-05 -1.0722500908837802e-05 1.8667816066184673e-05 2.8052285149592442e-06 0 2.6622423896224576e-05 2.0102209715592719e-05 6.2297282130249776e-05 -1.3960994668130225e-05 -9.8554820057111781e-05 1.7156298111609326e-06 1.8181430377241252e-06 5.0656792579700646e-06 -9.1923091227930735e-07 -3.9860258416349701e-05 0 0 -9.2653141482724877e-05 0 -5.7571384222571187e-05 -5.9732349185193596e-06 5.553189253702511e-05 -3.8161315285185457e-06 0 -4.6327255289851391e-05 1.3832651670831907e-05
leaf_weight=168 78 328 1386 5053 6664 7090 37185 2503 1364 1812 994 459 365 2469 4884 58 1621 674 81 35 63 407 246 11314 139 1325 29 122 92
leaf_count=168 78 328 1386 5053 6664 7090 37185 2503 1364 1812 994 459 365 2469 4884 58 1621 674 81 35 63 407 246 11314 139 1325 29 122 92
internal_value=0 1.38174e-05 -1.19975e-06 -1.53943e-07 -2.1391e-06 7.16041e-06 6.63607e-07 -1.37443e-05 1.79159e-05 2.97932e-05 3.63894e-05 -2.94543e-05 -5.59959e-05 -7.23545e-06 1.21091e-05 5.22791e-06 1.04068e-05 -2.95747e-06 -3.84095e-05 -0.000101456 -7.92998e-06 -2.26693e-05 -3.32568e-05 -9.87751e-06 3.68514e-06 -1.22875e-05 -4.81556e-06 -2.85564e-05 0
internal_weight=0 6923 82085 76045 60216 15829 43849 6040 6486 3197 2806 2317 824 3855 11974 3289 2985 3723 437 113 391 1081 304 16367 2642 1493 324 151 173
internal_count=89008 6923 82085 76045 60216 15829 43849 6040 6486 3197 2806 2317 824 3855 11974 3289 2985 3723 437 113 391 1081 304 16367 2642 1493 324 151 173
is_linear=0
shrinkage=0.1


Tree=15
num_leaves=31
num_cat=0
split_feature=96 319 230 15 70 91 1 192 292 198 233 157 20 256 4 311 28 55 291 191 39 209 114 256 283 166 209 209 302 195
split_gain=0.000124454 0.000126081 0.000140977 0.000112063 0.000106225 9.85076e-05 0.000146574 8.41609e-05 0.000108462 0.000112428 0.000109565 8.09167e-05 8.0819e-05 7.73127e-05 6.81433e-05 6.70208e-05 6.40167e-05 6.31191e-05 6.17202e-05 5.50074e-05 5.35463e-05 5.17884e-05 5.07606e-05 4.50729e-05 6.47268e-05 4.4976e-05 2.90061e-05 2.81465e-05 1.82059e-05 1.34068e-05
threshold=-0.00056561092004514524 0.14314988290398128 -0.0013033564649491678 0.1525698877393793 -0.00059559268507669561 0.40917865917865925 0.2126539423020545 0.0012426222120947019 0.0048597281878288842 0.0032808431910549278 0.004761547767602483 0.17752100840336138 0.15849282296650721 -0.0020646947150630974 0.004642983938816134 0.61685277339482958 0.85092592592592597 0.84866102889358708 0.0049505739118757986 0.34818121693121701 0.27242157212469714 0.31414473684210531 0.40483494011101379 0.0028288562004776811 0.94756480754124117 0.0025706965648764073 0.61721611721611735 0.21114551083591335 0.55586766541822741 0.0053714679681611368
decision_type=2 2 2 2 2 2 2 2 2 2 2 2 2 2 2 2 2 2 2 2 2 2 2 2 2 2 2 2 2 2
left_child=1 5 15 4 26 17 22 12 10 -10 -9 18 19 -13 -14 16 -3 28 -4 -5 -19 -17 -7 25 -25 -6 27 -2 -1 -28
right_child=3 2 11 7 23 6 -8 8 9 -11 -12 13 14 -15 -16 21 -18 20 -20 -21 -22 -23 -24 24 -26 -27 29 -29 -30 -31
leaf_value=2.7215907877930396e-05 0 2.9120062364185233e-05 -1.2298645488981626e-06 -4.9012844102646922e-05 -4.8642722913628703e-06 0 -0.00029699151038109609 0 1.6237392464802001e-05 -2.9111097217538961e-05 6.3625880071244804e-05 -3.6144718637038445e-05 1.8659453767592778e-05 -3.7010675527670811e-06 3.39969462117131e-06 1.8437872648573536e-05 0 -0.00010722665907741609 -3.6156244727033198e-05 -4.890476729911741e-06 0 -1.472583796974926e-05 -8.7059077688354821e-05 0 5.6695461783596034e-05 -4.2637748536046967e-05 -1.5674307440442183e-05 3.5237502096116591e-05 -1.1881548259604e-05 9.2939735694494378e-06
leaf_weight=253 396 1992 1012 369 24269 124 39 258 3730 593 857 827 3513 12626 26122 610 1402 103 1876 2684 52 1572 155 710 274 349 229 1025 73 914
leaf_count=253 396 1992 1012 369 24269 124 39 258 3730 593 857 827 3513 12626 26122 610 1402 103 1876 2684 52 1572 155 710 274 349 229 1025 73 914
internal_value=0 -6.42582e-06 -4.81121e-06 2.15045e-06 -2.54127e-06 -4.601e-05 -9.11652e-05 5.71512e-06 1.74235e-05 9.14717e-06 4.61401e-05 -9.6061e-06 3.65229e-06 -5.97495e-06 5.33547e-06 8.56654e-06 1.75807e-05 -8.33989e-06 -2.52192e-05 -1.14548e-05 -6.47035e-05 -3.73179e-06 -4.89046e-05 -4.60016e-06 1.54052e-05 -5.5525e-06 1.65509e-05 2.64118e-05 6.93071e-06 1.00275e-06
internal_weight=0 22716 21917 66292 28166 799 318 38126 5438 4323 1115 16341 32688 13453 29635 5576 3394 481 2888 3053 155 2182 279 25602 984 24618 2564 1421 326 1143
internal_count=89008 22716 21917 66292 28166 799 318 38126 5438 4323 1115 16341 32688 13453 29635 5576 3394 481 2888 3053 155 2182 279 25602 984 24618 2564 1421 326 1143
is_linear=0
shrinkage=0.1


Tree=16
num_leaves=32
num_cat=0
split_feature=32 319 64 91 305 267 60 278 134 58 279 260 94 192 9 74 87 134 282 1 198 270 229 67 293 223 27 110 306 55 223
split_gain=0.000117848 8.65083e-05 9.99875e-05 0.000144264 0.000108586 8.45408e-05 8.38866e-05 9.09152e-05 7.95091e-05 7.10781e-05 6.92534e-05 9.34268e-05 0.000125689 0.000157915 7.01134e-05 6.63413e-05 5.7285e-05 5.638e-05 5.06658e-05 4.91597e-05 7.18711e-05 4.67869e-05 4.07301e-05 3.66599e-05 2.9547e-05 2.68851e-05 2.83036e-05 2.58517e-05 1.52468e-05 7.1555e-06 3.03144e-06
threshold=0.00066489371500111371 0.13123033614836896 -0.0012472718763589794 0.40917865917865925 0.19782608695652179 -0.00031299240773825999 0.29520697167755999 0.38035823637477045 0.0026385251062395203 0.17813684057126203 0.19631265930331351 0.0050836412209220166 0.32614508253894453 0.0034758480710967992 0.0050395339903264455 0.005274140985088111 0.58705624252094146 -0.00064766848434238955 0.27033921676778827 -0.3000896466831286 0.0024653327616777081 0.14311974789915968 0.001732049549198759 0.0058057653108938723 -5.1853192556426234e-05 0.71975609756097569 0.14306599832915626 0.2152872444011685 0.37341365461847392 0.63172353961827654 0.98130677847658998
decision_type=2 2 2 2 2 2 2 2 2 2 2 2 2 2 2 2 2 2 2 2 2 2 2 2 2 2 2 2 2 2 2
left_child=1 2 3 29 -5 8 7 -7 9 -3 14 12 13 -12 25 -14 24 -8 -18 20 -13 -21 -10 28 -4 26 -2 -25 -16 -1 -27
right_child=10 5 16 4 -6 6 17 -9 22 -11 11 19 15 -15 23 -17 18 -19 -20 21 -22 -23 -24 27 -26 30 -28 -29 -30 -31 -32
leaf_value=3.694247707914597e-06 0 1.2185016006021547e-05 1.8745433976607584e-05 -2.4803347005264495e-06 -0.00026613230163809648 1.9872902141612301e-05 6.4985838275525821e-06 1.8786392745467821e-06 -9.6138959833983324e-05 -6.9346397831281549e-06 3.027746063422668e-05 0 0 0.00022151355798681366 -4.0616438298445435e-05 4.067042784465165e-05 -8.7921109043217151e-05 -2.5862875556904898e-06 -9.7768059579256855e-06 -2.7378983079394548e-06 -9.2562019090451034e-05 1.7310287458428621e-05 0 0 -1.0997373837728357e-05 0 -0.00010619587329231704 5.1198961697538499e-05 0 -3.8663679078151667e-05 -1.272420541264171e-05
leaf_weight=93 46 2017 550 65 60 4592 8476 8650 149 20745 219 527 882 86 138 828 164 33548 488 1310 105 3464 21 185 845 22 121 213 160 47 192
leaf_count=93 46 2017 550 65 60 4592 8476 8650 149 20745 219 527 882 86 138 828 164 33548 488 1310 105 3464 21 185 845 22 121 213 160 47 192
internal_value=0 -1.23712e-06 -2.03544e-05 -8.06253e-05 -0.000159121 -6.23823e-07 1.44e-06 8.40249e-06 -5.76155e-06 -5.07525e-06 1.11436e-05 1.48058e-05 3.37238e-05 9.65333e-05 -1.06007e-05 2.03218e-05 -1.07149e-05 -6.6447e-07 -3.51998e-05 7.05905e-06 -1.69253e-05 1.10216e-05 -7.55343e-05 3.49323e-06 0 -4.62117e-05 -8.04788e-05 2.74484e-05 -1.5887e-05 0 -1.90203e-06
internal_weight=0 80510 2312 265 125 78198 55266 13242 22932 22762 8498 7421 2015 305 1077 1710 2047 42024 652 5406 632 4774 170 696 1395 381 167 398 298 140 214
internal_count=89008 80510 2312 265 125 78198 55266 13242 22932 22762 8498 7421 2015 305 1077 1710 2047 42024 652 5406 632 4774 170 696 1395 381 167 398 298 140 214
is_linear=0
shrinkage=0.1


Tree=17
num_leaves=28
num_cat=0
split_feature=32 6 15 287 262 224 6 223 38 305 295 267 150 23 309 32 121 125 32 224 52 48 8 28 243 266 50
split_gain=0.00010189 0.000133843 0.000134416 0.000120031 0.000131412 7.52017e-05 8.89655e-05 7.58245e-05 6.81874e-05 5.60138e-05 5.39529e-05 5.38563e-05 5.58196e-05 4.8528e-05 4.43967e-05 4.37602e-05 4.26847e-05 4.22476e-05 4.21653e-05 4.02474e-05 3.75937e-05 3.36694e-05 3.07811e-05 9.79853e-06 6.69724e-06 5.08981e-06 2.73378e-06
threshold=-1.0000000180025095e-35 -0.00068823135436080196 0.077064479638009067 0.14314988290398128 -0.0048558521738293328 0.0013427328135984242 0.00059206638060782535 0.95319801401869164 -0.0012084598027692903 0.59041394335511999 -0.072351089826164158 -0.00036634228047029924 0.23099155180080039 0.11835031126202604 0.5064102564102565 -0.0012710520948253643 0.097167584579071611 0.31909090909090915 -0.0006180470502634704 -0.0014089472201455064 0.46770833333333339 0.88303693570451447 -2.290959691175146 0.29864864864864871 0.58361297539149903 0.0054989291221906643 0.81881313131313138
decision_type=2 2 2 2 2 2 2 2 2 2 2 2 2 2 2 2 2 2 2 2 2 2 2 2 2 2 2
left_child=3 16 14 4 -1 6 -4 -7 9 10 -5 19 -13 26 20 -11 23 -16 -15 -10 -3 22 -18 -2 -25 -23 -6
right_child=1 2 5 8 13 7 -8 -9 11 15 -12 12 -14 18 17 -17 21 -19 -20 -21 -22 25 -24 24 -26 -27 -28
leaf_value=-0.00027488815116772936 0 5.5995991712965515e-06 3.3896223433905084e-06 0 2.2326139143619399e-05 2.5559169496501734e-05 -1.0638574161271526e-05 1.1583299313777416e-06 -3.9560168342712648e-05 -2.1870135788140219e-05 3.0517985442767819e-05 1.4250403460534478e-05 -7.6131909050854078e-06 -6.0331869725211611e-05 -2.3511623375475638e-05 8.6209975382915279e-06 0 -6.5351460682857933e-06 0 -1.1358421018314445e-05 -8.6720375271360204e-06 -8.4115812498393784e-06 5.0220066246164821e-05 -5.0806275439635897e-05 0 1.8749595218126367e-05 0
leaf_weight=30 34 3650 44565 724 64 2930 4939 2863 897 905 1278 1294 7441 429 2587 771 45 5710 89 2846 3559 128 1003 64 24 119 20
leaf_count=30 34 3650 44565 724 64 2930 4939 2863 897 905 1278 1294 7441 429 2587 771 45 5710 89 2846 3559 128 1003 64 24 119 20
internal_value=0 1.5732e-06 9.09488e-07 -7.07437e-06 -5.0524e-05 3.2638e-06 1.9141e-06 1.41488e-05 -5.14195e-06 6.23938e-06 1.80291e-05 -8.79796e-06 -3.94397e-06 -3.30914e-05 -7.24397e-06 -5.60072e-06 3.20834e-05 -1.22815e-05 -4.69104e-05 -1.91213e-05 -9.24716e-07 3.81537e-05 4.6044e-05 -1.53973e-06 -3.34146e-05 0 7.37694e-06
internal_weight=0 72220 70803 16788 632 55297 49504 5793 16156 3678 2002 12478 8735 602 15506 1676 1417 8297 518 3743 7209 1295 1048 122 88 247 84
internal_count=89008 72220 70803 16788 632 55297 49504 5793 16156 3678 2002 12478 8735 602 15506 1676 1417 8297 518 3743 7209 1295 1048 122 88 247 84
is_linear=0
shrinkage=0.1


Tree=18
num_leaves=32
num_cat=0
split_feature=288 19 294 288 220 62 319 171 30 294 113 255 62 15 119 6 14 69 199 124 189 9 139 310 120 6 129 170 146 119 251
split_gain=9.26143e-05 9.93285e-05 7.95858e-05 0.000109429 0.000108814 9.72513e-05 9.18263e-05 6.96131e-05 7.90827e-05 9.19072e-05 7.44415e-05 6.90902e-05 7.12961e-05 6.75776e-05 6.61574e-05 5.96572e-05 8.13928e-05 5.23587e-05 6.31349e-05 5.07881e-05 4.52458e-05 4.21919e-05 3.98639e-05 3.66884e-05 3.24807e-05 2.21883e-05 2.5075e-05 1.93959e-05 3.01027e-05 1.74558e-05 4.79569e-06
threshold=0.00067476393506726861 0.95020661157024799 -0.00060716461620113893 -0.0013196968049919986 0.40238095238095245 0.20603395997574289 0.19202649006622521 -0.00053512002747824617 0.17425810904071776 0.0025831466846986122 0.41833333333333339 0.97022314171715685 0.60535266738274263 0.040080321285140573 0.31045191689869356 1.0000000180025095e-35 0.088365434669443008 -0.0016740825972485901 -0.36295658927881458 0.44222222222222224 0.091966173361522213 0.0087780801227249194 -0.00053467254845789914 0.30651047798445968 0.38348416289592763 -0.00056818187932439191 -0.24125962881520321 0.005651975400237313 0.5187529301453353 0.6949753576150981 0.51358735784965304
decision_type=2 2 2 2 2 2 2 2 2 2 2 2 2 2 2 2 2 2 2 2 2 2 2 2 2 2 2 2 2 2 2
left_child=2 7 3 4 5 -1 -6 19 10 -10 -9 12 14 25 -3 16 -15 22 -19 24 -17 -21 -5 -14 -2 30 -27 28 -13 -29 -4
right_child=1 11 13 17 6 -7 -8 8 9 -11 -12 27 23 15 -16 20 -18 18 -20 21 -22 -23 -24 -25 -26 26 -28 29 -30 -31 -32
leaf_value=7.4241764082212916e-05 -1.2394586894714248e-05 0 -7.67917872479185e-06 -2.3115229754638154e-05 -6.4692777299184528e-05 3.3542368239875111e-06 -9.1512605432601904e-06 0 9.8214004459687782e-06 -1.2160132610216633e-05 8.3725691221797399e-05 -4.783113104786149e-05 5.0820024441095352e-05 1.0747499443037831e-05 9.669097784757247e-05 -4.5071476807500786e-05 -3.1225202406177982e-06 4.8932075604792492e-05 9.0881106965516108e-06 -2.4449896232845132e-05 -8.9538715783006738e-06 3.2993124205137488e-05 2.5248200614909845e-06 0 1.9878356931348778e-05 0 -2.0504068430632545e-05 3.7428465753594087e-05 0 0 8.246060585980113e-06
leaf_weight=224 419 156 307 788 345 2790 6455 136 9762 2230 261 172 188 4813 370 483 31894 465 12417 1800 3593 84 1905 462 725 998 3966 197 110 54 439
leaf_count=224 419 156 307 788 345 2790 6455 136 9762 2230 261 172 188 4813 370 483 31894 465 12417 1800 3593 84 1905 462 725 998 3966 197 110 54 439
internal_value=0 6.54562e-06 -1.63608e-06 2.77889e-06 -5.26215e-06 9.87016e-06 -1.25221e-05 3.72949e-06 7.22553e-06 5.4203e-06 5.22845e-05 2.97503e-05 4.32864e-05 -4.12787e-06 7.293e-05 -2.58839e-06 -1.20148e-06 8.087e-06 1.08182e-05 -9.33305e-06 -1.41562e-05 -1.98933e-05 -3.58199e-06 1.35136e-05 4.7723e-06 -1.4465e-05 -1.68932e-05 0 -1.81123e-05 2.01028e-05 0
internal_weight=0 17126 71882 25389 9814 3014 6800 15417 12389 11992 397 1709 1176 46493 526 40783 36707 15575 12882 3028 4076 1884 2693 650 1144 5710 4964 533 282 251 746
internal_count=89008 17126 71882 25389 9814 3014 6800 15417 12389 11992 397 1709 1176 46493 526 40783 36707 15575 12882 3028 4076 1884 2693 650 1144 5710 4964 533 282 251 746
is_linear=0
shrinkage=0.1


Tree=19
num_leaves=32
num_cat=0
split_feature=32 311 55 52 60 166 308 274 273 94 137 317 80 89 21 246 16 109 204 148 254 63 244 317 75 199 82 276 210 282 96
split_gain=9.03093e-05 0.000104762 8.97921e-05 7.90714e-05 0.000107515 0.000106404 8.82512e-05 8.06304e-05 7.92953e-05 7.38928e-05 0.000121658 7.18532e-05 6.94023e-05 8.13642e-05 6.50347e-05 6.42435e-05 5.3832e-05 5.0348e-05 4.61459e-05 5.68296e-05 4.43672e-05 4.34409e-05 3.85843e-05 3.66112e-05 3.34517e-05 2.37938e-05 9.60807e-06 1.42561e-05 6.92695e-06 4.24583e-06 2.87215e-06
threshold=0.0012718603954269272 0.19631265930331351 0.72099143206854355 0.12632978723404256 0.36899313501144165 -0.0020380444188461406 0.33630952380952389 0.24679434489561075 0.04819976771196284 0.32614508253894453 0.0061856602779219059 0.70185185185185195 0.087595907928388769 0.1012820512820513 0.73993558776167478 0.43597197376267149 0.41277890466531447 0.74642857142857155 0.32129032258064522 0.41240409207161127 0.62981481481481494 0.81411960132890371 0.27429467084639503 0.64852941176470602 0.00076502873196935856 0.22591155212444161 0.42260781181936985 0.7947368421052633 0.41692229038854811 0.29550055207949949 0.0026084138853468279
decision_type=2 2 2 2 2 2 2 2 2 2 2 2 2 2 2 2 2 2 2 2 2 2 2 2 2 2 2 2 2 2 2
left_child=3 20 9 7 5 6 -5 12 17 10 -3 -10 29 -14 -11 -7 22 -6 19 -4 21 25 -9 -20 -18 -2 27 -22 -28 -1 -23
right_child=1 2 18 4 8 15 -8 16 11 14 -12 -13 13 -15 -16 -17 24 -19 23 -21 26 30 -24 -25 -26 -27 28 -29 -30 -31 -32
leaf_value=-5.9324347360742847e-06 -0.00011220274787348461 0.00010911541935143133 -1.1555326977965236e-05 0 -6.0505121247670443e-05 1.091864936210956e-05 7.6847942382867371e-05 1.3832523958889787e-05 -4.4250291355146533e-06 3.7041213653844874e-05 0 3.1700523923554828e-06 0 -5.0123330736253876e-05 0 0 -3.3881115857292296e-05 0 -4.8426355857852632e-05 4.4257159526143299e-05 -4.1101645657784275e-05 0 -1.0012498749080555e-05 0 0 0 0 0 4.023207297196776e-05 9.996949068004228e-06 -3.1461057784010875e-05
leaf_weight=380 112 296 223 292 380 9199 387 1872 36920 1160 84 18246 445 1249 742 13482 715 62 291 349 96 85 898 154 395 20 28 36 90 291 29
leaf_count=380 112 296 223 292 380 9199 387 1872 36920 1160 84 18246 445 1249 742 13482 715 62 291 349 96 85 898 154 395 20 28 36 90 291 29
internal_value=0 1.50437e-05 2.21068e-05 -7.20498e-07 8.89991e-08 5.82736e-06 4.54567e-05 -1.15585e-05 -2.25399e-06 3.3166e-05 7.79296e-05 -1.84484e-06 -2.62553e-05 -3.70416e-05 2.22457e-05 4.47521e-06 -1.63135e-06 -4.48143e-05 0 1.59269e-05 -2.4355e-05 -5.47663e-05 4.74521e-06 -2.66624e-05 -2.09303e-05 -9.42332e-05 0 -1.21989e-05 2.54491e-05 0 0
internal_weight=0 3795 3299 85213 78968 23360 679 6245 55608 2282 380 55166 2365 1694 1902 22681 3880 442 1017 572 496 246 2770 445 1110 132 250 132 118 671 114
internal_count=89008 3795 3299 85213 78968 23360 679 6245 55608 2282 380 55166 2365 1694 1902 22681 3880 442 1017 572 496 246 2770 445 1110 132 250 132 118 671 114
is_linear=0
shrinkage=0.1


Tree=20
num_leaves=32
num_cat=0
split_feature=160 15 6 166 213 284 160 160 215 156 52 31 107 174 291 58 25 303 117 143 234 49 32 277 230 225 177 198 99 20 281
split_gain=8.18535e-05 9.12878e-05 9.75202e-05 8.11976e-05 8.5166e-05 0.00010001 9.16984e-05 7.02003e-05 6.8778e-05 6.8027e-05 6.49419e-05 6.63337e-05 0.000110229 6.30393e-05 5.70677e-05 5.67428e-05 8.63527e-05 6.3545e-05 5.34239e-05 5.26831e-05 5.01013e-05 4.34012e-05 6.38972e-05 4.3387e-05 4.19192e-05 4.04649e-05 3.68856e-05 3.31183e-05 3.1861e-05 9.13538e-06 2.37567e-06
threshold=-1.0000000180025095e-35 0.15071011281224819 -0.00068166336393282723 -0.001191540312243333 0.56949806949806958 0.40238095238095245 -0.0013275808257908748 -0.0019367341835465621 0.45772922197263638 0.25245098039215691 0.15470085470085473 0.35422619047619053 0.00081131933053768936 0.28310235431624647 0.0084971636967736009 0.43276406429391506 0.33771929824561409 0.16477052359405303 0.54006410256410264 0.21689934340536751 0.0049570655960082064 0.81101190476190488 0.0013436348851607607 0.37377450980392163 -0.00068027221377953129 -0.16753711171340216 0.68990384615384626 0.0025149339852896806 0.0050247889579671844 0.26201372997711675 0.19722222222222227
decision_type=2 2 2 2 2 2 2 2 2 2 2 2 2 2 2 2 2 2 2 2 2 2 2 2 2 2 2 2 2 2 2
left_child=3 2 23 4 5 13 9 14 -7 -6 11 12 -3 -1 25 16 -12 -17 -13 24 -21 22 -4 29 -9 -5 -8 -23 -25 -2 -16
right_child=1 10 21 7 6 8 26 19 -10 -11 15 18 -14 -15 30 17 -18 -19 -20 20 -22 27 -24 28 -26 -27 -28 -29 -30 -31 -32
leaf_value=5.5021566148148707e-05 -2.4937992803669897e-05 -8.4107578435483593e-05 -2.2578039741727448e-06 -9.1401223021260979e-05 1.1003123710113342e-05 1.7145645696332159e-05 1.7647164799873843e-05 1.3619765275549817e-05 -1.2122794428947931e-05 -2.6848369089753682e-05 0 9.2947134051614593e-06 0 8.4006018761526473e-06 0 1.1557553293261914e-05 1.9214186950122473e-05 0 -1.7448587251520669e-05 -2.833188753475028e-05 -7.5486897124012685e-06 -8.3794556986135746e-06 2.9495393921111365e-05 0 -4.7574598732002193e-06 -2.4312393496840235e-05 -5.3826036053626099e-06 -4.9537086126935767e-05 5.1266350799603179e-05 8.7813216197607523e-06 1.5185779774352845e-05
leaf_weight=749 116 275 17178 226 442 1509 1443 1474 1669 2269 3443 1763 176 852 76 6848 7082 15006 1258 1839 5610 7270 650 160 6845 607 997 248 576 249 103
leaf_count=749 116 275 17178 226 442 1509 1443 1474 1669 2269 3443 1763 176 852 76 6848 7082 15006 1258 1839 5610 7270 650 160 6845 607 997 248 576 249 103
internal_value=0 1.9454e-06 -2.41474e-06 -4.67098e-06 2.1965e-06 1.20879e-05 -6.25085e-06 -8.95901e-06 5.91852e-07 -1.92905e-05 5.2667e-06 -7.21921e-06 -4.32385e-05 3.25597e-05 -3.54481e-05 6.72166e-06 1.28984e-05 3.57487e-06 -5.9744e-07 -7.02049e-06 -1.31843e-05 -3.8103e-06 -8.89222e-07 2.62977e-05 -1.04942e-06 -4.70282e-05 6.69651e-06 -1.02373e-05 4.0299e-05 0 0
internal_weight=0 62298 26447 26710 9930 4779 5151 16780 3178 2711 35851 3472 451 1601 1012 32379 10525 21854 3021 15768 7449 25346 17828 1101 8319 833 2440 7518 736 365 179
internal_count=89008 62298 26447 26710 9930 4779 5151 16780 3178 2711 35851 3472 451 1601 1012 32379 10525 21854 3021 15768 7449 25346 17828 1101 8319 833 2440 7518 736 365 179
is_linear=0
shrinkage=0.1


Tree=21
num_leaves=28
num_cat=0
split_feature=138 73 256 218 28 89 292 80 223 128 38 67 188 288 141 116 111 128 6 196 119 154 59 191 190 152 88
split_gain=7.77295e-05 8.74558e-05 0.000100567 8.58083e-05 9.8661e-05 9.60222e-05 8.32154e-05 6.90391e-05 6.63282e-05 9.69271e-05 6.8541e-05 6.27987e-05 5.14757e-05 0.000105619 9.00822e-05 7.90523e-05 6.11755e-05 7.23076e-05 5.14254e-05 5.89548e-05 5.11698e-05 7.31848e-05 4.89773e-05 4.77507e-05 4.37047e-05 3.10965e-05 2.99641e-05
threshold=0.0052173576069612171 0.0045200680752615413 -0.0054777987451064538 0.43291275580858596 0.043961352657004842 0.30602006688963218 0.0071849364024738583 0.23606811145510839 0.14314988290398128 -0.0024089143613181814 -0.00058139541434520925 0.0053644880660151748 0.44590643274853808 0.0027331759186699505 0.22474747474747478 0.12632978723404256 0.42891986062717774 -0.0011972465837022381 0.0013610075129397716 0.0049038010737602082 0.30441750278706808 0.749233128834356 0.80972058244785527 0.21992907801418443 0.78287061288632798 0.22996794871794876 0.35805860805860812
decision_type=2 2 2 2 2 2 2 2 2 2 2 2 2 2 2 2 2 2 2 2 2 2 2 2 2 2 2
left_child=1 2 -1 5 20 7 11 25 9 -6 -10 -7 13 15 -15 -3 23 -18 24 -20 -5 -22 -9 -14 -4 -2 -8
right_child=3 12 18 4 8 6 26 22 10 -11 -12 -13 16 14 -16 -17 17 -19 19 -21 21 -23 -24 -25 -26 -27 -28
leaf_value=-0.00019773999627707256 -4.8264896228905665e-07 -2.0294833779676885e-05 0 0 -0.00020012805932655207 4.2658215347539392e-06 -2.1496055291878683e-05 -1.8334011798465956e-05 1.0051016989036416e-05 -1.5967369676824473e-05 -2.027064267302598e-06 2.1045280991690513e-05 2.8735839532956366e-05 9.8461734829032602e-05 9.8794550115372895e-07 4.4908652092835502e-06 -4.9831944688254074e-05 -9.3714824306306143e-06 -0.0001998318900075293 0 0 0.00017624304165014988 3.7313242368486055e-06 -3.2121054682946595e-06 -2.4645060206830283e-05 2.5961226161125571e-05 1.8697941444689511e-06
leaf_weight=35 362 1489 1712 60 35 4056 784 2678 5526 1025 31032 7565 469 213 326 8978 601 3540 35 20 73 71 1217 13387 1717 932 1070
leaf_count=35 362 1489 1712 60 35 4056 784 2678 5526 1025 31032 7565 469 213 326 8978 601 3540 35 20 73 71 1217 13387 1717 932 1070
internal_value=0 -3.93407e-06 -1.89518e-05 2.20226e-06 -4.42188e-07 7.76256e-06 1.22758e-05 -3.2332e-06 -9.16997e-07 -2.55975e-05 -9.85499e-08 1.55123e-05 -1.98231e-06 3.19415e-06 4.6483e-05 6.05779e-07 -5.35683e-06 -1.61516e-05 -1.60758e-05 -0.000121247 6.86812e-05 0.00010117 -1.04746e-05 -1.8594e-06 -1.3292e-05 1.56587e-05 -5.98353e-06
internal_weight=0 32522 3519 56486 37822 18664 13475 5189 37618 1060 36558 11621 29003 11006 539 10467 17997 4141 3484 55 204 144 3895 13856 3429 1294 1854
internal_count=89008 32522 3519 56486 37822 18664 13475 5189 37618 1060 36558 11621 29003 11006 539 10467 17997 4141 3484 55 204 144 3895 13856 3429 1294 1854
is_linear=0
shrinkage=0.1


Tree=22
num_leaves=31
num_cat=0
split_feature=0 274 6 14 6 15 220 174 32 52 196 200 202 50 300 38 14 76 238 204 54 50 131 142 222 14 233 223 13 218
split_gain=7.33769e-05 8.08829e-05 7.7166e-05 8.89509e-05 0.000107728 0.000106879 6.97198e-05 6.67632e-05 5.59469e-05 5.31698e-05 4.74241e-05 4.22818e-05 3.87748e-05 4.39431e-05 3.92602e-05 3.8636e-05 3.89983e-05 3.6392e-05 3.5932e-05 3.46231e-05 2.65489e-05 2.45534e-05 2.1123e-05 2.99095e-05 1.67829e-05 1.01308e-05 1.65717e-05 4.05123e-06 3.60795e-06 1.54457e-11
threshold=0.0012110205435975632 0.20705187946567258 0.0006402049530223054 0.088365434669443008 -0.00058139541434520925 0.077064479638009067 0.42206477732793529 0.091003199698851886 -0.00056689348476357526 0.15470085470085473 0.0074263627397800321 1.6224883566200938 0.0056213802267401419 0.18528922180607577 0.68857758620689669 0.0011644834908333126 0.47849213691026832 0.08248299319727892 0.14586096374889482 0.22792207792207794 0.73926218708827418 0.1468071938255425 0.0058471916192974083 0.045517711860124314 0.49137674695212613 0.1064701778862923 0.0052454354262392233 0.3265818890370219 0.23166368515205729 0.40668653380517794
decision_type=2 2 2 2 2 2 2 2 2 2 2 2 2 2 2 2 2 2 2 2 2 2 2 2 2 2 2 2 2 2
left_child=2 15 3 8 6 -6 -5 22 9 -1 19 12 14 -14 -4 25 17 -17 -10 -9 21 -13 23 -3 -24 28 -27 -12 -2 -22
right_child=1 7 11 4 5 -7 -8 10 18 -11 27 20 13 -15 -16 16 -18 -19 -20 -21 29 -23 24 -25 -26 26 -28 -29 -30 -31
leaf_value=-3.6477798370969246e-05 0 0 -2.8565383500943311e-05 2.1444480471587799e-05 -1.082930140811066e-05 -4.7619571890596391e-07 1.5874466188748274e-06 6.2421963818644636e-05 5.1463397605297983e-06 5.6851414227516595e-07 -3.181765757358747e-05 0 3.447620858322092e-05 -9.7118001914198788e-06 0 0 0 -8.3454330121180057e-05 1.8344899047715143e-05 1.9535639584140785e-05 0 6.2825628036590177e-05 6.1242782837690079e-05 -6.4419331551699284e-05 0 4.8358181310409686e-05 0 0 -2.3601997611137623e-05 -5.2984999412366778e-08
leaf_weight=426 22 33 2291 3052 12979 46871 5329 673 5839 2542 40 31 239 1806 393 22 52 176 4497 756 25 158 45 125 113 113 94 141 70 55
leaf_count=426 22 33 2291 3052 12979 46871 5329 673 5839 2542 40 31 239 1806 393 22 52 176 4497 756 25 158 45 125 113 113 94 141 70 55
internal_value=0 1.69291e-05 -5.31457e-07 1.62456e-07 -1.24879e-06 -2.78417e-06 9.26707e-06 2.72704e-05 7.68271e-06 -3.48246e-06 3.60335e-05 -1.26037e-05 -1.52797e-05 -2.70915e-06 -2.3457e-05 -1.2503e-05 -4.34493e-05 -6.59775e-05 1.12525e-05 4.23643e-05 2.04661e-05 4.47294e-05 -5.48154e-06 -3.72881e-05 2.53712e-06 8.01598e-07 2.18214e-05 0 -5.63711e-06 0
internal_weight=0 2475 86533 81535 68231 59850 8381 1926 13304 2968 1610 4998 4729 2045 2684 549 250 198 10336 1429 269 189 316 158 158 299 207 181 92 80
internal_count=89008 2475 86533 81535 68231 59850 8381 1926 13304 2968 1610 4998 4729 2045 2684 549 250 198 10336 1429 269 189 316 158 158 299 207 181 92 80
is_linear=0
shrinkage=0.1


Tree=23
num_leaves=32
num_cat=0
split_feature=96 6 15 198 319 262 199 198 11 235 32 6 260 0 178 67 20 289 17 23 172 55 67 16 317 103 6 70 286 20 5
split_gain=7.39079e-05 8.88594e-05 8.84806e-05 8.31185e-05 5.6359e-05 8.77997e-05 0.00016903 8.04309e-05 6.72153e-05 6.24574e-05 5.3223e-05 6.85155e-05 5.86936e-05 4.25327e-05 3.67061e-05 4.36083e-05 3.64691e-05 3.08296e-05 3.04372e-05 3.03159e-05 2.93372e-05 2.76247e-05 2.71911e-05 2.45222e-05 2.51999e-05 2.14618e-05 1.93041e-05 8.64973e-06 1.30439e-05 5.13703e-06 4.84999e-06
threshold=-0.00056561092004514524 -0.00056465279857587081 0.049400660350272761 0.00067385454943380562 0.13616427432216907 -0.001363791709840356 0.1076482433007004 -0.001363791709840356 0.0001047429745399918 -0.00035624836582890963 0.00066489371500111371 0.00056593101684132574 0.0059618455137855483 -0.00067294761167691053 0.83424908424908439 0.0076452287107473356 0.12632978723404256 -0.080416900132132235 0.65108695652173931 0.99758454106280203 0.40824915824915831 0.6586800573888093 0.0055003305577619212 0.133974358974359 0.51086956521739146 0.19381777934218514 -0.00121285687124395 -0.0006821283459075288 0.42118621426663111 0.29520697167755999 -0.0066129603901096427
decision_type=2 2 2 2 2 2 2 2 2 2 2 2 2 2 2 2 2 2 2 2 2 2 2 2 2 2 2 2 2 2 2
left_child=3 13 23 4 5 6 -1 8 -6 -9 11 -4 -12 18 15 19 17 -15 22 -5 -18 -7 -2 25 -25 -3 -20 28 -16 -29 -17
right_child=1 2 10 14 7 21 -8 9 -10 -11 12 -13 -14 16 27 30 20 -19 26 -21 -22 -23 -24 24 -26 -27 -28 29 -30 -31 -32
leaf_value=0 -6.4480732014690379e-05 -2.7870986665542827e-06 2.1789391655527996e-06 -4.5647302451403168e-05 0 6.641829097717683e-06 -0.0001965942339349565 -1.4912428162576979e-05 2.5036934977659401e-05 -7.9529927347066025e-07 1.7947473418681389e-05 -1.0651915310955454e-05 -2.6282240391837456e-07 8.7678939907562852e-06 0 0 2.819183384790383e-05 -4.2453986077935527e-05 5.5603664533573049e-05 0 4.3547105463510341e-06 -3.7314842573381517e-05 0 -1.7229287356104515e-05 -3.3743184344760314e-06 2.5796377904021103e-05 0 0 8.3335194308755962e-05 -1.6303113761605902e-05 2.1803853620869473e-05
leaf_weight=99 144 661 42603 1109 2305 325 84 4686 1782 11427 4113 4562 2417 220 22 68 2604 164 67 203 1153 190 125 3767 3256 327 109 84 31 199 102
leaf_count=99 144 661 42603 1109 2305 325 84 4686 1782 11427 4113 4562 2417 220 22 68 2604 164 67 203 1153 190 125 3767 3256 327 109 84 31 199 102
internal_value=0 1.65877e-06 5.97103e-07 -4.95034e-06 -2.96186e-06 -3.12486e-05 -9.22332e-05 -1.79832e-06 1.04335e-05 -5.13416e-06 2.11675e-06 8.58182e-07 1.06315e-05 1.51241e-05 -2.57401e-05 -3.25644e-05 1.86326e-05 -3.32042e-06 -9.07743e-06 -3.9118e-05 2.1877e-05 -2.27712e-06 -3.48581e-05 -9.11936e-06 -1.13411e-05 2.86892e-06 8.9697e-06 0 4.00336e-05 -2.32271e-06 0
internal_weight=0 66292 61706 22716 20898 698 183 20200 4087 16113 53695 47165 6530 4586 1818 1482 4141 384 445 1312 3757 515 269 8011 7023 988 176 336 53 283 170
internal_count=89008 66292 61706 22716 20898 698 183 20200 4087 16113 53695 47165 6530 4586 1818 1482 4141 384 445 1312 3757 515 269 8011 7023 988 176 336 53 283 170
is_linear=0
shrinkage=0.1


Tree=24
num_leaves=22
num_cat=0
split_feature=171 298 295 248 28 24 253 273 68 251 160 122 262 4 235 55 76 157 68 230 51
split_gain=7.02026e-05 6.74646e-05 0.000153066 0.000121859 7.77792e-05 7.18948e-05 0.000167021 6.9097e-05 6.73491e-05 6.44881e-05 6.15413e-05 0.000134477 7.80408e-05 4.90214e-05 5.41582e-05 3.66103e-05 3.36088e-05 2.50888e-05 2.0478e-05 1.29693e-05 5.66625e-07
threshold=0.0057140896261316651 0.0043996630817982911 -0.34613593819939242 0.81101190476190488 0.3246621621621622 0.096006144393241177 0.47913043478260875 0.59041394335511999 0.0049949729617314526 0.13956801166103494 0.0023289677711995087 0.58547571962206113 -0.0018115948635024635 0.0062344139634729042 -0.00013576736125061551 0.71068484464172488 0.12183055040197899 0.84807692307692317 0.0041770341449430546 0.0019480527694604179 0.60054644808743174
decision_type=2 2 2 2 2 2 2 2 2 2 2 2 2 2 2 2 2 2 2 2 2
left_child=1 2 3 18 10 6 -6 -7 -5 -2 12 -12 -3 14 -4 17 -15 19 -1 -11 -19
right_child=9 4 13 8 5 7 -8 -9 -10 15 11 -13 -14 16 -16 -17 -18 20 -20 -21 -22
leaf_value=-1.8081713749682403e-05 -4.606126313701127e-05 3.0403984630842551e-05 -1.8096670726354341e-05 9.6740931910575779e-05 -7.2582434360367312e-05 2.1650573679945034e-06 0 -4.5042763479791168e-06 0 0.00012925385820595058 0 6.7658351046183979e-05 2.5079153167613558e-06 4.063943560547861e-05 -5.6685104185310014e-05 0 -1.4364954958937595e-05 8.2615776582963996e-06 7.3273533751734328e-06 0 0
leaf_weight=536 24 1104 1607 225 467 33878 688 28212 158 122 524 498 18841 153 774 75 404 83 592 21 22
leaf_count=536 24 1104 1607 225 467 33878 688 28212 158 122 524 498 18841 153 774 75 404 83 592 21 22
internal_value=0 -2.16118e-07 -1.22439e-05 1.1958e-05 3.74685e-07 -1.32716e-06 -2.61551e-05 -8.04765e-07 6.11538e-05 4.48452e-05 5.68743e-06 3.02463e-05 4.24052e-06 -2.59703e-05 -3.22198e-05 6.32392e-05 0 8.17597e-05 -1.41415e-06 0.000115528 0
internal_weight=0 88661 4449 1511 84212 63245 1155 62090 383 347 20967 1022 19945 2938 2381 323 557 248 1128 143 105
internal_count=89008 88661 4449 1511 84212 63245 1155 62090 383 347 20967 1022 19945 2938 2381 323 557 248 1128 143 105
is_linear=0
shrinkage=0.1


Tree=25
num_leaves=30
num_cat=0
split_feature=32 6 313 6 154 260 252 190 176 15 21 218 173 201 102 99 200 3 102 134 45 116 135 14 217 267 33 30 210
split_gain=6.97985e-05 0.000104294 7.62628e-05 8.51879e-05 8.37079e-05 7.35054e-05 5.97575e-05 8.03374e-05 6.88053e-05 5.94353e-05 5.75304e-05 5.32867e-05 5.08907e-05 5.13778e-05 4.80457e-05 4.34552e-05 4.21846e-05 3.98922e-05 3.74693e-05 4.79083e-05 3.72835e-05 3.6018e-05 3.5242e-05 1.55097e-05 1.02911e-05 3.70905e-06 4.37678e-06 5.83428e-07 2.47153e-07
threshold=-0.0012710520948253643 -0.00065919587662932589 0.1012820512820513 0.0011823827418027124 0.45961478720099419 0.006952762300597915 0.15075757575757578 0.25793850806451618 0.90692640692640702 0.045540960940200492 0.096006144393241177 0.1085144927536232 0.31322674418604657 0.0046834554698929358 -0.0024118192960580482 0.00592112987467989 -1.1154902646613032 0.006792743699624907 -0.002275314573350506 -0.0025292459893639925 0.17712418300653598 0.12632978723404256 0.067849388406372987 0.45027472527472534 0.67204301075268824 1.0000000180025095e-35 -0.40901467030359323 0.72591692443658873 0.21452540747842763
decision_type=2 2 2 2 2 2 2 2 2 2 2 2 2 2 2 2 2 2 2 2 2 2 2 2 2 2 2 2 2
left_child=6 16 3 10 5 -4 17 8 11 -6 -3 -8 13 -9 -14 -5 23 20 19 -18 -1 -20 -22 24 -2 26 -19 -25 -10
right_child=1 2 4 15 9 -7 7 12 28 -11 -12 -13 14 -15 -16 -17 18 25 21 -21 22 -23 -24 27 -26 -27 -28 -29 -30
leaf_value=0 -4.8748737374815505e-05 1.2140220711331968e-05 7.4214698673583162e-06 -0.00010417965800940345 -1.1288918420768347e-05 -7.6029179755759411e-06 0 -7.8978073567602966e-05 0 -3.6590029598501951e-07 -1.2715901118990612e-05 -9.7652445948343106e-05 3.4644837611688975e-05 -1.3791223271754648e-05 -7.2949922202324908e-06 0 2.2572826212757905e-06 0 -1.0191024237159037e-05 0.00010484116341231182 0.00011276984607454691 1.8814850378126595e-05 0 8.2839891299299232e-06 0 0 -3.3512363007354265e-05 0 6.0279893536531695e-06
leaf_weight=96 125 1023 22724 157 5774 3562 29 184 22 42872 4569 290 339 1325 1382 161 196 32 319 140 100 3090 56 85 71 68 72 77 68
leaf_count=96 125 1023 22724 157 5774 3562 29 184 22 42872 4569 290 339 1325 1382 161 196 32 319 140 100 3090 56 85 71 68 72 77 68
internal_value=0 5.87586e-07 -1.5582e-07 -1.11291e-05 6.59499e-07 5.24252e-06 -1.28285e-05 -1.75315e-05 -6.14539e-05 -1.73968e-06 -7.49649e-06 -8.36588e-05 -1.08057e-05 -2.42316e-05 0 -6.31847e-05 1.61511e-05 1.86683e-05 1.96977e-05 5.61907e-05 4.65744e-05 1.49979e-05 7.67698e-05 -1.0449e-05 -3.14746e-05 -3.65572e-07 -1.88892e-05 0 0
internal_weight=0 84945 80842 5910 74932 26286 4063 3639 409 48646 5592 319 3230 1509 1721 318 4103 424 3745 336 252 3409 156 358 196 172 104 162 90
internal_count=89008 84945 80842 5910 74932 26286 4063 3639 409 48646 5592 319 3230 1509 1721 318 4103 424 3745 336 252 3409 156 358 196 172 104 162 90
is_linear=0
shrinkage=0.1


Tree=26
num_leaves=28
num_cat=0
split_feature=156 241 288 85 284 93 278 96 70 317 278 294 101 148 262 254 57 133 63 176 156 166 243 112 216 73 230
split_gain=6.16645e-05 8.41326e-05 8.23589e-05 0.000106665 0.000110145 9.83915e-05 7.91162e-05 7.63202e-05 8.128e-05 8.23215e-05 7.39092e-05 6.84729e-05 7.02353e-05 6.67629e-05 7.81649e-05 7.74599e-05 7.47019e-05 7.21725e-05 6.64057e-05 6.6075e-05 6.25341e-05 5.98362e-05 4.37025e-05 4.36091e-05 3.46064e-05 2.76992e-05 2.3263e-05
threshold=0.36899313501144165 0.04819976771196284 0.0028332644539377232 0.49444444444444452 0.42206477732793529 0.78759398496240618 0.30028901734104052 -0.00070472175161651041 -0.0012102877018040912 0.35147058823529415 0.23099155180080039 0.0053908510827822562 0.00084467484257325488 0.11237373737373739 -0.0013788352668138157 0.54575358851674649 0.13680926916221037 0.0033427778640471332 0.428932178932179 0.46770833333333339 0.50454545454545463 0.0070842469778886761 0.36990260511521106 0.66091954022988519 0.77386363636363653 0.0062306108793793594 0.0036429926214935908
decision_type=2 2 2 2 2 2 2 2 2 2 2 2 2 2 2 2 2 2 2 2 2 2 2 2 2 2 2
left_child=2 23 13 4 5 -4 19 8 9 -3 -10 20 -13 16 15 -15 22 -16 -18 -5 -9 -8 -1 24 25 -2 -6
right_child=1 7 3 6 26 -7 21 11 10 -11 -12 12 -14 14 17 -17 18 -19 -20 -21 -22 -23 -24 -25 -26 -27 -28
leaf_value=0 -0.00010969222384328304 -1.5499164182372733e-05 0.00017116338322241517 0.00010220268118730532 3.7450197581903518e-05 0 -2.9112905404658272e-05 -6.3400574284772936e-06 4.1819406559391227e-06 1.8901803418939844e-05 -2.641802645405988e-05 -3.6470618381816798e-07 -0.0001201791753605455 6.0801930482660529e-05 1.5791633649281793e-06 6.8016158737158882e-06 -5.862408489250935e-05 3.6998876101731757e-05 -9.8020435552688263e-06 0 1.9662473429031446e-06 0.00010256012627991362 6.2140591998240263e-05 0 0 0 -2.2076602987479118e-05
leaf_weight=380 164 1332 144 128 137 103 494 11509 762 1414 3475 250 96 489 21308 1027 414 608 1893 85 42287 28 161 126 80 31 83
leaf_count=380 164 1332 144 128 137 103 494 11509 762 1414 3475 250 96 489 21308 1027 414 608 1893 85 42287 28 161 126 80 31 83
internal_value=0 -1.79847e-06 3.89831e-06 2.98021e-05 6.7596e-05 0.000114445 6.73611e-07 -1.4355e-06 -1.12809e-05 8.46067e-07 -2.00276e-05 -9.62393e-08 -4.44761e-05 2.57047e-06 4.44436e-06 2.67e-05 -1.15272e-05 2.73333e-06 -2.01931e-05 5.63518e-05 1.19338e-07 -1.48459e-05 1.84787e-05 -4.77508e-05 -7.00747e-05 -9.32704e-05 0
internal_weight=0 61526 27482 1202 467 247 735 61125 6983 2746 4237 54142 346 26280 23432 1516 2848 21916 2307 213 53796 522 541 401 275 195 220
internal_count=89008 61526 27482 1202 467 247 735 61125 6983 2746 4237 54142 346 26280 23432 1516 2848 21916 2307 213 53796 522 541 401 275 195 220
is_linear=0
shrinkage=0.1


Tree=27
num_leaves=32
num_cat=0
split_feature=0 14 106 187 86 139 122 229 66 201 17 19 219 199 252 186 55 192 124 41 192 6 174 298 68 279 11 298 298 173 164
split_gain=5.89827e-05 6.40814e-05 7.43275e-05 5.5502e-05 8.91277e-05 8.39686e-05 5.25087e-05 5.94579e-05 6.33758e-05 5.00146e-05 4.67584e-05 4.7446e-05 4.22299e-05 4.15824e-05 3.84791e-05 5.0253e-05 4.88229e-05 5.66286e-05 4.36614e-05 3.6226e-05 4.03139e-05 3.30638e-05 3.12623e-05 2.97708e-05 3.50702e-05 2.72283e-05 3.36404e-05 2.70319e-05 2.4453e-05 2.18758e-05 2.11244e-05
threshold=0.00056433414568779494 0.069073953589243134 0.0052178289844588537 0.14306599832915626 0.17665973141668248 0.0057140896261316651 0.35310102301790286 0.00028717736775579159 1.0000000180025095e-35 0.0062552365394693112 0.11882352941176472 0.12517029972752045 0.29493589743589749 -0.16520031432253993 0.43875000000000003 0.24152298850574716 0.98319209039548039 -0.0020590263645825497 0.53033088235294124 0.0048353825449649664 0.0029325536734736706 0.0013610075129397716 0.17917488031540413 0.0043078802312630478 0.0062092999161836989 0.78389189189189201 0.00021370929325883247 0.0054989765640439808 0.0055331706974608161 0.41277890466531447 0.0046543824939371285
decision_type=2 2 2 2 2 2 2 2 2 2 2 2 2 2 2 2 2 2 2 2 2 2 2 2 2 2 2 2 2 2 2
left_child=1 14 10 4 -4 -5 7 8 22 -10 13 -12 23 -3 15 30 17 -16 -17 21 -21 -14 -2 24 -8 26 -9 -25 -27 -18 -1
right_child=6 2 3 5 -6 -7 12 25 9 -11 11 -13 19 -15 16 18 29 -19 -20 20 -22 -23 -24 27 -26 28 -28 -29 -30 -31 -32
leaf_value=-2.4299737510283979e-05 -2.7405685132769591e-06 -1.0936639460115444e-05 -9.1233590353528729e-05 4.5384418820082991e-07 -7.6516495095762616e-06 6.2751648629649282e-05 -0.00013095901941108758 -3.5817847456117826e-05 6.3955684340094609e-05 0 -2.5938334869734669e-05 -6.6108744526172225e-06 -3.5229995901769897e-07 2.2798861848251373e-05 -4.5684090697579735e-05 2.5812083091648311e-05 3.5391225790199953e-05 0 0 6.264543082678183e-06 3.8585078006522788e-05 -7.2973285679874797e-05 2.5110742303690563e-05 4.2518931314705154e-06 0 5.1385938226373271e-05 6.4860977922899729e-07 -2.0778204461538192e-05 0 0 3.5664826111421522e-06
leaf_weight=380 483 422 158 43597 1698 219 48 350 634 83 1552 18943 1388 951 285 2559 544 5079 678 4882 502 74 698 653 27 153 303 717 150 360 438
leaf_count=380 483 422 158 43597 1698 219 48 350 634 83 1552 18943 1388 951 285 2559 544 5079 678 4882 502 74 698 653 27 153 303 717 150 360 438
internal_value=0 -9.99459e-07 -2.16254e-06 5.17125e-08 -1.6793e-05 8.51035e-07 6.77821e-06 1.8681e-05 2.89486e-05 5.40306e-05 -6.95898e-06 -8.25789e-06 2.22751e-06 9.69227e-06 6.24607e-06 1.39096e-05 6.88496e-07 -2.3073e-06 1.97947e-05 5.88732e-06 9.97638e-06 -6.59999e-06 1.05375e-05 -1.25101e-05 -7.93894e-05 0 -1.3141e-05 -6.10413e-06 2.29439e-05 2.26222e-05 -4.78368e-06
internal_weight=0 77863 67540 45672 1856 43816 11145 2854 1898 717 21868 20495 8291 1373 10323 4055 6268 5364 3237 6846 5384 1462 1181 1445 75 956 653 1370 303 904 818
internal_count=89008 77863 67540 45672 1856 43816 11145 2854 1898 717 21868 20495 8291 1373 10323 4055 6268 5364 3237 6846 5384 1462 1181 1445 75 956 653 1370 303 904 818
is_linear=0
shrinkage=0.1


Tree=28
num_leaves=32
num_cat=0
split_feature=25 58 308 113 76 105 261 64 289 287 84 73 287 216 191 160 92 88 179 145 68 217 24 222 289 30 247 135 26 289 27
split_gain=5.61169e-05 8.98797e-05 9.40644e-05 7.82943e-05 7.69786e-05 7.1136e-05 7.16754e-05 5.86754e-05 5.20422e-05 5.523e-05 5.07961e-05 5.05139e-05 7.65203e-05 6.65479e-05 4.98095e-05 6.77972e-05 4.97981e-05 4.96499e-05 4.12838e-05 3.84005e-05 3.77192e-05 4.98635e-05 4.1197e-05 3.71594e-05 3.34658e-05 3.57462e-05 3.2015e-05 3.09748e-05 2.45585e-05 2.71741e-05 7.44481e-07
threshold=0.35424836601307197 0.44130895601483838 0.081356867071152791 0.58477011494252884 0.23205128205128209 0.0046177173202874375 0.00091190403925768299 -0.0006934813871737332 0.04887330864880849 0.78287061288632798 0.3133928571428572 0.0066576045808081569 0.1268926398609396 0.43050193050193059 0.18702111481546471 0.0013033564649491682 0.14459930313588851 0.13484848484848486 0.40920866698068775 0.40967365967365971 0.005735473309802664 0.27888888888888896 0.18834459459459463 0.46523140686161646 0.26443794573185059 0.37686733556298779 0.6831300813008131 -0.22166598157360592 0.93774224806201556 0.037958723265748881 0.45291082083534923
decision_type=2 2 2 2 2 2 2 2 2 2 2 2 2 2 2 2 2 2 2 2 2 2 2 2 2 2 2 2 2 2 2
left_child=4 2 28 11 7 19 -7 8 9 -1 20 12 -3 -13 15 -9 26 -16 -18 -4 21 -6 -22 -10 25 -12 -5 -26 29 -2 -30
right_child=1 3 5 16 10 6 -8 14 23 -11 24 13 -14 -15 17 -17 18 -19 -20 -21 22 -23 -24 -25 27 -27 -28 -29 30 -31 -32
leaf_value=-5.6724103377580999e-05 -3.7718785005652286e-05 -4.0370292842442862e-05 -2.2983628048178385e-05 2.0376097522490679e-05 -3.3663735533715504e-05 1.4211787921469824e-05 -1.6649595212213871e-06 1.5286712575641839e-05 5.7130849041232445e-05 -1.2665530204471071e-06 -2.8808185413998881e-05 -2.4647825230293106e-06 2.6353856760435277e-06 3.8751875038538043e-05 -1.4812148069124468e-05 0.00015569014256369796 -1.2409201471964223e-05 5.5226867627457241e-06 -1.858147659541472e-06 2.4303285045133285e-06 -1.508564243898297e-05 1.6439934053975841e-06 1.630843829382759e-05 -1.5413768835079274e-06 -2.8337437600758919e-05 -1.0493202218867859e-05 -5.4456086328650781e-06 6.1149559634387846e-06 1.6915855920754547e-05 0 0
leaf_weight=451 714 415 957 1121 589 13742 3070 552 118 552 1626 426 20634 874 1312 50 8690 9271 8162 1002 411 711 1988 316 310 8687 521 1626 26 50 34
leaf_count=451 714 415 957 1121 589 13742 3070 552 118 552 1626 426 20634 874 1312 50 8690 9271 8162 1002 411 711 1988 316 310 8687 521 1626 26 50 34
internal_value=0 1.70041e-06 7.28965e-06 -8.8908e-07 -3.67768e-06 8.88964e-06 1.1089e-05 1.9178e-06 -1.65526e-05 -2.99514e-05 -8.34191e-06 2.9838e-06 1.60887e-06 2.23541e-05 4.6269e-06 3.31963e-05 -5.7725e-06 2.64652e-06 -7.52203e-06 -8.06603e-06 1.02794e-06 -1.14619e-05 9.363e-06 5.75168e-06 -1.14783e-05 -1.37454e-05 9.89374e-06 0 -2.45963e-05 -3.12078e-05 0
internal_weight=0 60438 19595 40843 28570 18771 16812 12622 1437 1003 15948 22349 21049 1300 11185 602 18494 10583 16852 1959 3699 1300 2399 434 12249 10313 1642 1936 824 764 60
internal_count=89008 60438 19595 40843 28570 18771 16812 12622 1437 1003 15948 22349 21049 1300 11185 602 18494 10583 16852 1959 3699 1300 2399 434 12249 10313 1642 1936 824 764 60
is_linear=0
shrinkage=0.1


Tree=29
num_leaves=32
num_cat=0
split_feature=128 251 164 94 261 102 166 77 59 201 127 294 13 78 192 143 14 96 288 223 144 123 129 139 64 288 1 26 47 122 137
split_gain=5.11733e-05 7.10875e-05 8.91087e-05 0.000104549 8.995e-05 6.83638e-05 5.93613e-05 0.000109692 0.000122118 5.53023e-05 5.53004e-05 5.33276e-05 7.31427e-05 6.12508e-05 5.82697e-05 6.09226e-05 5.95166e-05 5.57635e-05 4.65051e-05 7.13235e-05 4.28452e-05 4.10624e-05 3.83844e-05 3.80125e-05 2.69694e-05 2.29616e-05 1.89865e-05 2.50252e-05 1.95052e-05 1.60322e-05 4.37722e-06
threshold=1.0000000180025095e-35 0.94756480754124117 0.0057008636068573296 0.38014084507042262 -0.0010922527471827878 0.00067750687872969461 0.00317965420325983 0.15504807692307696 0.26202034211742958 0.0063481442482196714 0.4119634340222576 -0.0013008133291281252 0.12973352033660593 0.035190918472652225 -0.0012991234116608295 0.21884245562130181 0.29708628005657717 -0.00206754060986114 0.0028332644539377232 0.85379556042751448 0.28759398496240607 0.46568094513299996 -0.14615960733301811 -0.00042161563899631563 -0.00059952045552069666 0.0023774158914067205 -0.29534427586281914 0.91864313292884736 0.095776532042298398 0.25933674260034095 0.0053764657758783949
decision_type=2 2 2 2 2 2 2 2 2 2 2 2 2 2 2 2 2 2 2 2 2 2 2 2 2 2 2 2 2 2 2
left_child=5 6 3 4 -3 11 18 10 -9 -5 -8 12 13 -1 15 -13 -16 -14 23 -20 21 24 30 -2 -7 -24 28 -28 -4 -23 -22
right_child=1 2 26 9 -6 20 7 8 -10 -11 -12 14 17 -15 16 -17 -18 -19 19 -21 22 29 25 -25 -26 -27 27 -29 -30 -31 -32
leaf_value=-3.3012285808840538e-05 -7.2217293313435773e-06 0 0 1.0677161502666207e-05 8.9240851445251252e-05 0 -2.7856371091198832e-05 2.287753802134854e-05 -6.6849148479261204e-05 9.6027182554403879e-05 5.8957623375320776e-05 0 -1.7664233907084988e-05 3.1587348747330833e-05 2.2465613070930518e-06 -2.4950519734824931e-05 -4.7786375430680758e-06 5.4062085944374617e-06 4.899299236449692e-05 0 0 0 -3.23569508071047e-05 3.7556671481290939e-06 3.619172381029676e-05 0 9.9526023554258725e-06 -1.4189087469805844e-05 -4.2500048398805271e-05 -2.2609115161623181e-05 1.653922793652727e-05
leaf_weight=106 4406 144 93 2996 410 73 51 131 585 93 193 2113 1194 1564 25939 2183 22041 7075 522 815 156 132 1758 10769 392 63 1450 550 211 640 160
leaf_count=106 4406 144 93 2996 410 73 51 131 585 93 193 2113 1194 1564 25939 2183 22041 7075 522 815 156 132 1758 10769 392 63 1450 550 211 640 160
internal_value=0 3.97483e-06 1.34504e-05 2.32343e-05 6.53479e-05 -1.47e-06 5.34457e-07 -2.33255e-05 -4.51826e-05 1.44642e-05 2.54067e-05 -6.54913e-07 5.96658e-06 2.52358e-05 -1.98573e-06 -1.32108e-05 -9.02322e-07 1.62034e-06 2.14934e-06 2.00926e-05 -1.53856e-05 0 -2.39631e-05 3.20709e-07 2.28966e-05 -2.97432e-05 -3.88279e-07 1.43408e-06 -2.47413e-05 -1.47005e-05 0
internal_weight=0 23419 5947 3643 554 65589 17472 960 716 3089 244 62215 9939 1670 52276 4296 47980 8269 16512 1337 3374 1237 2137 15175 465 1821 2304 2000 304 772 316
internal_count=89008 23419 5947 3643 554 65589 17472 960 716 3089 244 62215 9939 1670 52276 4296 47980 8269 16512 1337 3374 1237 2137 15175 465 1821 2304 2000 304 772 316
is_linear=0
shrinkage=0.1


Tree=30
num_leaves=32
num_cat=0
split_feature=138 154 97 11 190 277 21 78 179 68 14 49 304 215 192 146 137 311 48 182 80 193 70 237 109 262 268 311 292 26 190
split_gain=5.17125e-05 6.48831e-05 0.000124794 8.85459e-05 7.84557e-05 7.27835e-05 6.84249e-05 6.22002e-05 6.13823e-05 5.89526e-05 5.80913e-05 6.67581e-05 6.8815e-05 7.7627e-05 5.6136e-05 6.79745e-05 6.57491e-05 5.22586e-05 5.16813e-05 5.13806e-05 5.32232e-05 4.13215e-05 4.07429e-05 4.0712e-05 5.93473e-05 4.06568e-05 8.5689e-05 4.6097e-05 3.74592e-05 1.85902e-05 1.77958e-05
