tree
version=v3
num_class=1
num_tree_per_iteration=1
label_index=0
max_feature_idx=319
objective=regression
feature_names=fLaggingRtn_1 spreadRatio_1 volumeImbalanceRatio_1 slope_b_1 slope_a_1 slope_ab_1 sLaggingRtn_1 stockSpreadRatio_1 stockVolumeImbalanceRatio_1 stockSlope_b_1 stockSlope_a_1 stockSlope_ab_1 fAskSize1_1 fBidSize1_1 sAskSize1_1 sBidSize1_1 fAskSize2_1 fBidSize2_1 sAskSize2_1 sBidSize2_1 fAskSize3_1 fBidSize3_1 sAskSize3_1 sBidSize3_1 fAskSize4_1 fBidSize4_1 sAskSize4_1 sBidSize4_1 fAskSize5_1 fBidSize5_1 sAskSize5_1 sBidSize5_1 fLaggingRtn_2 spreadRatio_2 volumeImbalanceRatio_2 slope_b_2 slope_a_2 slope_ab_2 sLaggingRtn_2 stockSpreadRatio_2 stockVolumeImbalanceRatio_2 stockSlope_b_2 stockSlope_a_2 stockSlope_ab_2 fAskSize1_2 fBidSize1_2 sAskSize1_2 sBidSize1_2 fAskSize2_2 fBidSize2_2 sAskSize2_2 sBidSize2_2 fAskSize3_2 fBidSize3_2 sAskSize3_2 sBidSize3_2 fAskSize4_2 fBidSize4_2 sAskSize4_2 sBidSize4_2 fAskSize5_2 fBidSize5_2 sAskSize5_2 sBidSize5_2 fLaggingRtn_3 spreadRatio_3 volumeImbalanceRatio_3 slope_b_3 slope_a_3 slope_ab_3 sLaggingRtn_3 stockSpreadRatio_3 stockVolumeImbalanceRatio_3 stockSlope_b_3 stockSlope_a_3 stockSlope_ab_3 fAskSize1_3 fBidSize1_3 sAskSize1_3 sBidSize1_3 fAskSize2_3 fBidSize2_3 sAskSize2_3 sBidSize2_3 fAskSize3_3 fBidSize3_3 sAskSize3_3 sBidSize3_3 fAskSize4_3 fBidSize4_3 sAskSize4_3 sBidSize4_3 fAskSize5_3 fBidSize5_3 sAskSize5_3 sBidSize5_3 fLaggingRtn_4 spreadRatio_4 volumeImbalanceRatio_4 slope_b_4 slope_a_4 slope_ab_4 sLaggingRtn_4 stockSpreadRatio_4 stockVolumeImbalanceRatio_4 stockSlope_b_4 stockSlope_a_4 stockSlope_ab_4 fAskSize1_4 fBidSize1_4 sAskSize1_4 sBidSize1_4 fAskSize2_4 fBidSize2_4 sAskSize2_4 sBidSize2_4 fAskSize3_4 fBidSize3_4 sAskSize3_4 sBidSize3_4 fAskSize4_4 fBidSize4_4 sAskSize4_4 sBidSize4_4 fAskSize5_4 fBidSize5_4 sAskSize5_4 sBidSize5_4 fLaggingRtn_5 spreadRatio_5 volumeImbalanceRatio_5 slope_b_5 slope_a_5 slope_ab_5 sLaggingRtn_5 stockSpreadRatio_5 stockVolumeImbalanceRatio_5 stockSlope_b_5 stockSlope_a_5 stockSlope_ab_5 fAskSize1_5 fBidSize1_5 sAskSize1_5 sBidSize1_5 fAskSize2_5 fBidSize2_5 sAskSize2_5 sBidSize2_5 fAskSize3_5 fBidSize3_5 sAskSize3_5 sBidSize3_5 fAskSize4_5 fBidSize4_5 sAskSize4_5 sBidSize4_5 fAskSize5_5 fBidSize5_5 sAskSize5_5 sBidSize5_5 fLaggingRtn_6 spreadRatio_6 volumeImbalanceRatio_6 slope_b_6 slope_a_6 slope_ab_6 sLaggingRtn_6 stockSpreadRatio_6 stockVolumeImbalanceRatio_6 stockSlope_b_6 stockSlope_a_6 stockSlope_ab_6 fAskSize1_6 fBidSize1_6 sAskSize1_6 sBidSize1_6 fAskSize2_6 fBidSize2_6 sAskSize2_6 sBidSize2_6 fAskSize3_6 fBidSize3_6 sAskSize3_6 sBidSize3_6 fAskSize4_6 fBidSize4_6 sAskSize4_6 sBidSize4_6 fAskSize5_6 fBidSize5_6 sAskSize5_6 sBidSize5_6 fLaggingRtn_7 spreadRatio_7 volumeImbalanceRatio_7 slope_b_7 slope_a_7 slope_ab_7 sLaggingRtn_7 stockSpreadRatio_7 stockVolumeImbalanceRatio_7 stockSlope_b_7 stockSlope_a_7 stockSlope_ab_7 fAskSize1_7 fBidSize1_7 sAskSize1_7 sBidSize1_7 fAskSize2_7 fBidSize2_7 sAskSize2_7 sBidSize2_7 fAskSize3_7 fBidSize3_7 sAskSize3_7 sBidSize3_7 fAskSize4_7 fBidSize4_7 sAskSize4_7 sBidSize4_7 fAskSize5_7 fBidSize5_7 sAskSize5_7 sBidSize5_7 fLaggingRtn_8 spreadRatio_8 volumeImbalanceRatio_8 slope_b_8 slope_a_8 slope_ab_8 sLaggingRtn_8 stockSpreadRatio_8 stockVolumeImbalanceRatio_8 stockSlope_b_8 stockSlope_a_8 stockSlope_ab_8 fAskSize1_8 fBidSize1_8 sAskSize1_8 sBidSize1_8 fAskSize2_8 fBidSize2_8 sAskSize2_8 sBidSize2_8 fAskSize3_8 fBidSize3_8 sAskSize3_8 sBidSize3_8 fAskSize4_8 fBidSize4_8 sAskSize4_8 sBidSize4_8 fAskSize5_8 fBidSize5_8 sAskSize5_8 sBidSize5_8 fLaggingRtn_9 spreadRatio_9 volumeImbalanceRatio_9 slope_b_9 slope_a_9 slope_ab_9 sLaggingRtn_9 stockSpreadRatio_9 stockVolumeImbalanceRatio_9 stockSlope_b_9 stockSlope_a_9 stockSlope_ab_9 fAskSize1_9 fBidSize1_9 sAskSize1_9 sBidSize1_9 fAskSize2_9 fBidSize2_9 sAskSize2_9 sBidSize2_9 fAskSize3_9 fBidSize3_9 sAskSize3_9 sBidSize3_9 fAskSize4_9 fBidSize4_9 sAskSize4_9 sBidSize4_9 fAskSize5_9 fBidSize5_9 sAskSize5_9 sBidSize5_9 fLaggingRtn_10 spreadRatio_10 volumeImbalanceRatio_10 slope_b_10 slope_a_10 slope_ab_10 sLaggingRtn_10 stockSpreadRatio_10 stockVolumeImbalanceRatio_10 stockSlope_b_10 stockSlope_a_10 stockSlope_ab_10 fAskSize1_10 fBidSize1_10 sAskSize1_10 sBidSize1_10 fAskSize2_10 fBidSize2_10 sAskSize2_10 sBidSize2_10 fAskSize3_10 fBidSize3_10 sAskSize3_10 sBidSize3_10 fAskSize4_10 fBidSize4_10 sAskSize4_10 sBidSize4_10 fAskSize5_10 fBidSize5_10 sAskSize5_10 sBidSize5_10
feature_infos=[-0.047392362302600688:0.046883585898848779] [-0.69909462779739839:0.75225252570748202] [0:1] [0:5.2951612578897169] [-8.2255771402417857:0.16443594629827923] [-8.2697300178265554:0.1526501353745498] [-0.0086624745499932487:0.0080826663646771379] [-0.78442369915588195:0.77111680867466748] [-12009599006321324:4157168886803535] [0:0.072830099014548302] [0:0.091110786139934896] [-0.068474735696515118:0.082356448344365035] [0:1] [0:1] [0:1] [0:1] [0:1] [0:1] [0:1] [0:1] [0:1] [0:1] [0:1] [0:1] [0:1] [0:1] [0:1] [0:1] [0:1] [0:1] [0:1] [0:1] [-0.047392362302600688:0.046883585898848779] [-0.69909462779739839:0.75225252570748202] [0:1] [0:5.2951612578897169] [-8.2255771402417857:0.16443594629827923] [-8.2697300178265554:0.1526501353745498] [-0.0091743762760412295:0.0088020128180890111] [-0.78442369915588195:0.77111680867466748] [-12009599006321324:4157168886803535] [0:0.072830099014548302] [0:0.091110786139934896] [-0.068474735696515118:0.082356448344365035] [0:1] [0:1] [0:1] [0:1] [0:1] [0:1] [0:1] [0:1] [0:1] [0:1] [0:1] [0:1] [0:1] [0:1] [0:1] [0:1] [0:1] [0:1] [0:1] [0:1] [-0.047392362302600688:0.046883585898848779] [-0.69909462779739839:0.75225252570748202] [0:1] [0:5.2951612578897169] [-8.2255771402417857:0.16443594629827923] [-8.2697300178265554:0.1526501353745498] [-0.010768581790131293:0.0099144570571780832] [-0.78442369915588195:0.77111680867466748] [-12009599006321324:4157168886803535] [0:0.072830099014548302] [0:0.091110786139934896] [-0.068474735696515118:0.082356448344365035] [0:1] [0:1] [0:1] [0:1] [0:1] [0:1] [0:1] [0:1] [0:1] [0:1] [0:1] [0:1] [0:1] [0:1] [0:1] [0:1] [0:1] [0:1] [0:1] [0:1] [-0.047392362302600688:0.046883585898848779] [-0.69909462779739839:0.75225252570748202] [0:1] [0:5.2951612578897169] [-8.2255771402417857:0.16443594629827923] [-8.2697300178265554:0.1526501353745498] [-0.012739025777429802:0.012635547171539585] [-0.78442369915588195:0.77111680867466748] [-12009599006321324:4157168886803535] [0:0.072830099014548302] [0:0.091110786139934896] [-0.068474735696515118:0.082356448344365035] [0:1] [0:1] [0:1] [0:1] [0:1] [0:1] [0:1] [0:1] [0:1] [0:1] [0:1] [0:1] [0:1] [0:1] [0:1] [0:1] [0:1] [0:1] [0:1] [0:1] [-0.047392362302600688:0.046883585898848779] [-0.69909462779739839:0.75225252570748202] [0:1] [0:5.2951612578897169] [-8.2255771402417857:0.16443594629827923] [-8.2697300178265554:0.1526501353745498] [-0.013725705679874523:0.015322516992364754] [-0.78442369915588195:0.77111680867466748] [-12009599006321324:4157168886803535] [0:0.072830099014548302] [0:0.091110786139934896] [-0.068474735696515118:0.082356448344365035] [0:1] [0:1] [0:1] [0:1] [0:1] [0:1] [0:1] [0:1] [0:1] [0:1] [0:1] [0:1] [0:1] [0:1] [0:1] [0:1] [0:1] [0:1] [0:1] [0:1] [-0.047392362302600688:0.046883585898848779] [-0.69909462779739839:0.75225252570748202] [0:1] [0:5.2951612578897169] [-8.2255771402417857:0.16443594629827923] [-8.2697300178265554:0.1526501353745498] [-0.013725705679874523:0.01714069931142248] [-0.78442369915588195:0.77111680867466748] [-12009599006321324:4157168886803535] [0:0.072830099014548302] [0:0.091110786139934896] [-0.068474735696515118:0.082356448344365035] [0:1] [0:1] [0:1] [0:1] [0:1] [0:1] [0:1] [0:1] [0:1] [0:1] [0:1] [0:1] [0:1] [0:1] [0:1] [0:1] [0:1] [0:1] [0:1] [0:1] [-0.047392362302600688:0.046883585898848779] [-0.69909462779739839:0.75225252570748202] [0:1] [0:5.2951612578897169] [-8.2255771402417857:0.16443594629827923] [-8.2697300178265554:0.1526501353745498] [-0.015701990908086216:0.013556466083606722] [-0.78442369915588195:0.77111680867466748] [-12009599006321324:4157168886803535] [0:0.072830099014548302] [0:0.091110786139934896] [-0.068474735696515118:0.082356448344365035] [0:1] [0:1] [0:1] [0:1] [0:1] [0:1] [0:1] [0:1] [0:1] [0:1] [0:1] [0:1] [0:1] [0:1] [0:1] [0:1] [0:1] [0:1] [0:1] [0:1] [-0.047392362302600688:0.046883585898848779] [-0.69909462779739839:0.75225252570748202] [0:1] [0:5.2951612578897169] [-8.2255771402417857:0.16443594629827923] [-8.2697300178265554:0.1526501353745498] [-0.01867376129724363:0.013507634461541684] [-0.78442369915588195:0.77111680867466748] [-12009599006321324:4157168886803535] [0:0.072830099014548302] [0:0.091110786139934896] [-0.068474735696515118:0.082356448344365035] [0:1] [0:1] [0:1] [0:1] [0:1] [0:1] [0:1] [0:1] [0:1] [0:1] [0:1] [0:1] [0:1] [0:1] [0:1] [0:1] [0:1] [0:1] [0:1] [0:1] [-0.047392362302600688:0.046883585898848779] [-0.69909462779739839:0.75225252570748202] [0:1] [0:5.2951612578897169] [-8.2255771402417857:0.16443594629827923] [-8.2697300178265554:0.1526501353745498] [-0.01867376129724363:0.013435902696826929] [-0.78442369915588195:0.77111680867466748] [-12009599006321324:4157168886803535] [0:0.072830099014548302] [0:0.091110786139934896] [-0.068474735696515118:0.082356448344365035] [0:1] [0:1] [0:1] [0:1] [0:1] [0:1] [0:1] [0:1] [0:1] [0:1] [0:1] [0:1] [0:1] [0:1] [0:1] [0:1] [0:1] [0:1] [0:1] [0:1] [-0.047392362302600688:0.046883585898848779] [-0.69909462779739839:0.75225252570748202] [0:1] [0:5.2951612578897169] [-8.2255771402417857:0.16443594629827923] [-8.2697300178265554:0.1526501353745498] [-0.020659859268873149:0.015340665177481227] [-0.78442369915588195:0.77111680867466748] [-12009599006321324:4157168886803535] [0:0.072830099014548302] [0:0.091110786139934896] [-0.068474735696515118:0.082356448344365035] [0:1] [0:1] [0:1] [0:1] [0:1] [0:1] [0:1] [0:1] [0:1] [0:1] [0:1] [0:1] [0:1] [0:1] [0:1] [0:1] [0:1] [0:1] [0:1] [0:1]
tree_sizes=848 826 834 831 823 834 818 844 826 817 834 829 838 823 837 816 815 836 845 832 835 836 832 841 841 826 833 826 834 813 828 821 825 809 827 824 839 827 830 813 817 820 813 826 828 835 841 834 834 817 817 801 839 816 810 814 811 818 818 823 788 827 813 819 832 831 811 838 838 825 829 819 820 824 819 830 836 826 828 833 810 844 820 830 795 833 816 827 840 832 813 825 827 829 828 828 827 819 821 824

Tree=0
num_leaves=7
num_cat=0
split_feature=256 244 11 9 11 62
split_gain=0.000538953 0.000539627 0.000335526 0.000235339 0.000205445 0.000168726
threshold=-0.0010047728181143965 1.0000000180025095e-35 -0.00022033681426287217 0.0072498818215492606 0.0016256577445190083 0.071796759941089847
decision_type=2 2 2 2 2 2
left_child=4 3 -3 -2 -1 -6
right_child=1 2 -4 -5 5 -7
leaf_value=-2.4309289301446928e-05 -6.1454688026626515e-05 2.3759864491048636e-06 -1.1383660119050421e-05 -0.00019964478297300337 -0.00016223499454747457 -5.1243076413404362e-05
leaf_weight=7722 534 27037 51315 166 150 2087
leaf_count=7722 534 27037 51315 166 150 2087
internal_value=-1.01882e-05 -7.4263e-06 -6.64055e-06 -9.48074e-05 -3.21112e-05 -5.8867e-05
internal_weight=0 79052 78352 700 9959 2237
internal_count=89011 79052 78352 700 9959 2237
is_linear=0
shrinkage=1


Tree=1
num_leaves=7
num_cat=0
split_feature=288 244 14 292 222 10
split_gain=0.000451117 0.000410753 0.000328667 0.000302033 0.000233815 0.000210835
threshold=-0.001963673171006874 1.0000000180025095e-35 0.097761069340016729 0.022895291654416252 0.70615218564490034 0.0089332533340616745
decision_type=2 2 2 2 2 2
left_child=3 5 -3 -1 -5 -2
right_child=1 2 -4 4 -6 -7
leaf_value=-2.149512764652011e-05 -5.0494614982827292e-05 1.4900086741553772e-05 -7.5678596265942511e-07 -0.00020250487456228121 -4.9829874119481584e-05 -0.0002091748761347336
leaf_weight=4508 648 16779 66535 167 275 99
leaf_count=4508 648 16779 66535 167 275 99
internal_value=0 1.72532e-06 2.39178e-06 -2.9339e-05 -0.000108433 -7.2075e-05
internal_weight=0 84061 83314 4950 442 747
internal_count=89011 84061 83314 4950 442 747
is_linear=0
shrinkage=0.1


Tree=2
num_leaves=7
num_cat=0
split_feature=192 244 15 299 35 38
split_gain=0.000391337 0.000367419 0.000314874 0.000178006 0.000307008 0.000172177
threshold=-0.001003260744204759 1.0000000180025095e-35 0.24330303755082519 0.0021191045403161878 0.050298512880021948 0.0037142710503932368
decision_type=2 2 2 2 2 2
left_child=3 5 -3 -1 -5 -2
right_child=1 2 -4 4 -6 -7
leaf_value=-1.4129292016714813e-05 -6.1825345623353544e-05 -4.4156354558610497e-06 8.2615004302611992e-06 -3.2421101212233161e-05 -0.00016371726292804234 -0.00036360501802310506
leaf_weight=7230 652 34466 45330 1097 216 20
leaf_count=7230 652 34466 45330 1097 216 20
internal_value=0 2.15621e-06 2.78105e-06 -2.03539e-05 -5.43294e-05 -7.14489e-05
internal_weight=0 80468 79796 8543 1313 672
internal_count=89011 80468 79796 8543 1313 672
is_linear=0
shrinkage=0.1


Tree=3
num_leaves=7
num_cat=0
split_feature=256 212 11 10 99 9
split_gain=0.000324586 0.000303609 0.000234934 0.000195765 0.00033332 0.000163741
threshold=-0.0010047728181143965 1.0000000180025095e-35 -0.00024465461544713067 0.010276559368439736 0.043921965143885723 0.0063966645685663518
decision_type=2 2 2 2 2 2
left_child=3 5 -3 -1 -5 -2
right_child=1 2 -4 4 -6 -7
leaf_value=-1.3923124761774158e-05 -3.2526007488085801e-05 1.0379420760844239e-05 -1.1929717386992537e-06 -4.0312990949296784e-05 -0.00026747569509935978 -0.00014456891186160478
leaf_weight=9510 460 26451 51951 369 80 190
leaf_count=9510 460 26451 51951 369 80 190
internal_value=0 2.13725e-06 2.70634e-06 -1.70194e-05 -8.17136e-05 -6.58953e-05
internal_weight=0 79052 78402 9959 449 650
internal_count=89011 79052 78402 9959 449 650
is_linear=0
shrinkage=0.1


Tree=4
num_leaves=7
num_cat=0
split_feature=10 15 70 254 76 0
split_gain=0.000281989 0.000249973 0.000242211 0.00022278 0.00042087 0.000193393
threshold=0.010276559368439736 0.24330303755082519 -0.0047105708503911705 0.030075376884422113 0.85164835164835173 -0.00050479560067628871
decision_type=2 2 2 2 2 2
left_child=1 2 -1 4 -2 -3
right_child=3 5 -4 -5 -6 -7
leaf_value=0.00024656930657991795 -4.9108165319475894e-05 -2.1710313623523843e-05 -5.4151779193829575e-06 -2.5704242347561534e-05 -0.00051624036696209098 7.1618801309411533e-06
leaf_weight=38 75 2436 37353 2665 27 46417
leaf_count=38 75 2436 37353 2665 27 46417
internal_value=0 1.00044e-06 -5.1479e-06 -3.14305e-05 -0.000177031 5.7142e-06
internal_weight=0 86244 37391 2767 102 48853
internal_count=89011 86244 37391 2767 102 48853
is_linear=0
shrinkage=0.1


Tree=5
num_leaves=7
num_cat=0
split_feature=288 14 70 260 70 15
split_gain=0.000269658 0.000247658 0.000239708 0.000260426 0.00020644 0.000204219
threshold=-0.001963673171006874 0.097761069340016729 -0.0039584425555849725 0.020261364204042145 0.0038610122548226049 0.25494102023279436
decision_type=2 2 2 2 2 2
left_child=2 4 -1 -4 -2 -3
right_child=1 5 3 -5 -6 -7
leaf_value=0.00010861169158986833 1.2613846645204144e-05 -7.579994973380614e-06 -1.8604013588122842e-05 -9.6746942343042288e-05 -0.00024055938851508352 3.5234313920495154e-06
leaf_weight=134 16962 29772 4339 477 32 37295
leaf_count=134 16962 29772 4339 477 32 37295
internal_value=0 1.32732e-06 -2.26899e-05 -2.64266e-05 1.21125e-05 -1.39975e-06
internal_weight=0 84061 4950 4816 16994 67067
internal_count=89011 84061 4950 4816 16994 67067
is_linear=0
shrinkage=0.1


Tree=6
num_leaves=7
num_cat=0
split_feature=190 224 22 17 15 56
split_gain=0.000239556 0.000231309 0.000211969 0.000230474 0.000176685 0.000150773
threshold=0.030075376884422113 -0.0010047728181143965 0.13218176854540495 0.19782608695652179 0.083507670850767088 0.13714733542319751
decision_type=2 2 2 2 2 2
left_child=2 -2 3 -1 -3 -4
right_child=1 4 5 -5 -6 -7
leaf_value=-5.7410810202219091e-05 -1.4620027172529996e-05 -9.5093632403477126e-06 -0.00011995386412245253 -0.00029188555623158605 4.05255705564876e-06 2.3086083565443362e-05
leaf_weight=109 9191 11171 105 74 68123 238
leaf_count=109 9191 11171 105 74 68123 238
internal_value=0 3.92059e-07 -6.7286e-05 -0.000154477 2.13703e-06 -1.95968e-05
internal_weight=0 88485 526 183 79294 343
internal_count=89011 88485 526 183 79294 343
is_linear=0
shrinkage=0.1


Tree=7
num_leaves=7
num_cat=0
split_feature=11 192 224 134 230 111
split_gain=0.00022666 0.000209735 0.000165791 0.000161958 0.000146495 0.000124353
threshold=0.0012052322199625062 0.00050658565630357099 -0.0010170354953924485 -0.0045135485681946355 0.0028063635409036895 0.57200460829493094
decision_type=2 2 2 2 2 2
left_child=1 3 5 -1 -4 -2
right_child=2 -3 4 -5 -6 -7
leaf_value=9.9460870243977466e-05 -2.0872232673728655e-05 1.4657822937781652e-05 -4.2071621101125954e-06 -2.8192423814087e-08 -6.0717711630418067e-05 -7.6297572510401261e-05
leaf_weight=164 1937 12622 21494 51799 470 525
leaf_count=164 1937 12622 21494 51799 470 525
internal_value=0 3.09477e-06 -8.21402e-06 2.78563e-07 -5.43442e-06 -3.28521e-05
internal_weight=0 64585 24426 51963 21964 2462
internal_count=89011 64585 24426 51963 21964 2462
is_linear=0
shrinkage=0.1


Tree=8
num_leaves=7
num_cat=0
split_feature=10 17 67 192 15 36
split_gain=0.000203031 0.00018179 0.000232988 0.000172923 0.000171456 0.000121376
threshold=0.010276559368439736 0.13245614035087722 0.015172726608738451 1.0000000180025095e-35 0.28336047774158529 0.010089437222054331
decision_type=2 2 2 2 2 2
left_child=3 5 -3 4 -1 -2
right_child=1 2 -4 -5 -6 -7
leaf_value=-6.5600083495620915e-06 -8.6087668172806608e-06 -2.2588531683297098e-05 -0.00010451118508727159 9.7460973648330551e-06 3.425117846772905e-06 9.7231979774519103e-05
leaf_weight=33307 277 1886 432 17431 35506 172
leaf_count=33307 277 1886 432 17431 35506 172
internal_value=0 -2.6672e-05 -3.80285e-05 8.4647e-07 -1.40226e-06 3.10867e-05
internal_weight=0 2767 2318 86244 68813 449
internal_count=89011 2767 2318 86244 68813 449
is_linear=0
shrinkage=0.1


Tree=9
num_leaves=7
num_cat=0
split_feature=158 14 64 12 74 83
split_gain=0.000193478 0.000181775 0.000159837 0.00013683 0.000401679 0.000128177
threshold=0.030075376884422113 0.060635711320642834 0.00050994395037218265 0.85164835164835173 0.01027975934857593 0.083551483420593389
decision_type=2 2 2 2 2 2
left_child=3 -2 -3 5 -5 -1
right_child=1 2 -4 4 -6 -7
leaf_value=-0.00010507282119996218 1.2708014131977389e-05 -2.9034894966736489e-06 1.166193898864074e-05 -6.7245734505096607e-05 -0.00055581339584539937 1.6698408499983357e-05
leaf_weight=142 10469 69630 8442 97 21 210
leaf_count=142 10469 69630 8442 97 21 210
internal_value=0 3.31179e-07 -1.32353e-06 -6.39909e-05 -0.000157965 -3.13416e-05
internal_weight=0 88541 78072 470 118 352
internal_count=89011 88541 78072 470 118 352
is_linear=0
shrinkage=0.1


Tree=10
num_leaves=7
num_cat=0
split_feature=288 292 94 224 14 212
split_gain=0.000169865 0.000200004 0.000282182 0.000196383 0.000175641 0.000218179
threshold=-0.001963673171006874 0.015197564292185861 0.063348560404761042 -0.0061006861334709219 0.20374758644900828 1.0000000180025095e-35
decision_type=2 2 2 2 2 2
left_child=1 3 -3 -1 -2 -6
right_child=4 2 -4 -5 5 -7
leaf_value=8.5729277188080694e-05 6.6829581578847132e-06 -0.00036156467772604513 -5.1580801154452638e-05 -1.4206842823409643e-05 -8.1014053502190641e-05 -2.0974863984440564e-06
leaf_weight=206 33413 31 755 3958 353 50295
leaf_count=206 33413 31 755 3958 353 50295
internal_value=0 -1.80101e-05 -6.43547e-05 -9.16721e-06 1.05186e-06 -2.65537e-06
internal_weight=0 4950 786 4164 84061 50648
internal_count=89011 4950 786 4164 84061 50648
is_linear=0
shrinkage=0.1


Tree=11
num_leaves=7
num_cat=0
split_feature=11 9 254 70 100 192
split_gain=0.000152333 0.000148569 0.00034788 0.000128653 0.000210462 0.000128569
threshold=0.0012052322199625062 0.0061281709983455135 0.048980407836865261 -0.0047105708503911705 0.0092571681775535809 0.00050658565630357099
decision_type=2 2 2 2 2 2
left_child=3 -2 -3 4 -1 -5
right_child=1 2 -4 5 -6 -7
leaf_value=0.00030259935456018787 -2.3358575480528139e-06 -0.00021381172283301778 -1.7484166697416667e-05 1.7292054834766972e-07 -3.523671037470032e-05 1.1434594592667433e-05
leaf_weight=37 18577 92 5757 51894 33 12621
leaf_count=37 18577 92 5757 51894 33 12621
internal_value=0 -6.73563e-06 -2.0643e-05 2.53534e-06 0.000138011 2.38207e-06
internal_weight=0 24426 5849 64585 70 64515
internal_count=89011 24426 5849 64585 70 64515
is_linear=0
shrinkage=0.1


Tree=12
num_leaves=7
num_cat=0
split_feature=15 32 6 170 75 10
split_gain=0.000147455 0.000214752 0.000177686 0.000154863 0.000130125 0.000126659
threshold=0.083507670850767088 -0.00050556121597455917 -0.00053590573190387392 0.013508852889486065 -0.0020301082881826922 0.0062702416116790062
decision_type=2 2 2 2 2 2
left_child=2 3 4 -2 -1 -4
right_child=1 -3 5 -5 -6 -7
leaf_value=-0.00014321555388103655 -1.3706573845316667e-05 3.2936631690560537e-06 -3.1728893426996622e-06 -0.00014694177346944722 3.0120248533912783e-05 -2.4367770613026521e-05
leaf_weight=44 6520 69667 5552 89 1309 5830
leaf_count=44 6520 69667 5552 89 1309 5830
internal_value=0 1.65477e-06 -9.96924e-06 -1.55622e-05 2.41839e-05 -1.40634e-05
internal_weight=0 76276 12735 6609 1353 11382
internal_count=89011 76276 12735 6609 1353 11382
is_linear=0
shrinkage=0.1


Tree=13
num_leaves=7
num_cat=0
split_feature=192 180 38 22 256 269
split_gain=0.000135579 0.000151176 0.000136274 0.000135644 0.000133779 0.000222599
threshold=-0.001003260744204759 1.0000000180025095e-35 -0.001775411379812297 0.46318067897015275 -0.0062607353389916289 0.7974358974358976
decision_type=2 2 2 2 2 2
left_child=4 3 -3 -2 5 -1
right_child=1 2 -4 -5 -6 -7
leaf_value=9.5758817851886841e-05 -8.1208260791725318e-05 4.1670271921987137e-05 1.2105280815361454e-06 2.0276192398175693e-05 -1.4407190626160101e-05 -0.00012311601395746487
leaf_weight=243 410 842 79030 186 8244 56
leaf_count=243 410 842 79030 186 8244 56
internal_value=0 1.26282e-06 1.64197e-06 -4.88878e-05 -1.19866e-05 5.34338e-05
internal_weight=0 80468 79872 596 8543 299
internal_count=89011 80468 79872 596 8543 299
is_linear=0
shrinkage=0.1


Tree=14
num_leaves=7
num_cat=0
split_feature=288 116 312 134 10 132
split_gain=0.000131818 0.000332614 0.000214345 0.000126668 0.000131133 9.45288e-05
threshold=-0.0029910298924100682 1.0000000180025095e-35 0.41042780748663105 -0.0017785690730374169 0.0079956878197546249 0.0039211902354209923
decision_type=2 2 2 2 2 2
left_child=1 -1 -3 5 -5 -2
right_child=3 2 -4 4 -6 -7
leaf_value=0.00036024808181220824 -4.4303228024654821e-05 -5.2188601386821766e-05 1.2964005853107353e-05 2.1267803571890433e-06 -7.0579399057387669e-06 2.5011540110810767e-05
leaf_weight=22 207 1378 784 63058 20628 2934
leaf_count=22 207 1378 784 63058 20628 2934
internal_value=0 -2.4271e-05 -2.83835e-05 6.0282e-07 -1.32554e-07 2.03183e-05
internal_weight=0 2184 2162 86827 83686 3141
internal_count=89011 2184 2162 86827 83686 3141
is_linear=0
shrinkage=0.1


Tree=15
num_leaves=7
num_cat=0
split_feature=7 151 54 108 17 189
split_gain=0.000128464 0.000200406 0.000157061 0.000133452 0.000100128 0.00010452
threshold=0.11909259212291883 0.01901748040988548 0.66229465898340079 0.020842379504993489 0.22361111111111112 0.088932806324110686
decision_type=2 2 2 2 2 2
left_child=1 2 -1 -3 5 -2
right_child=4 3 -4 -5 -6 -7
leaf_value=-0.00011544709518435297 2.8727661142264008e-05 0.00020965355550781224 0.000142601095645802 2.3794433192635718e-06 -1.1876267546401627e-05 -2.7284926927735426e-06
leaf_weight=222 1254 31 25 67122 13731 6626
leaf_count=222 1254 31 25 67122 13731 6626
internal_value=0 2.14488e-06 -8.77e-05 2.48129e-06 -6.71533e-06 2.22843e-06
internal_weight=0 67400 247 67153 21611 7880
internal_count=89011 67400 247 67153 21611 7880
is_linear=0
shrinkage=0.1


Tree=16
num_leaves=7
num_cat=0
split_feature=10 251 137 12 70 100
split_gain=0.000122668 0.000141801 0.000177737 0.000131571 0.000109866 0.000196422
threshold=0.010276559368439736 0.18205492424242428 0.0069381997015033796 0.10620300751879701 -0.0047105708503911705 0.0090104453333797688
decision_type=2 2 2 2 2 2
left_child=4 2 -2 -3 5 -1
right_child=1 3 -4 -5 -6 -7
leaf_value=0.00025974127741669234 -4.0362618668021358e-05 3.9471466012370201e-05 -0.00021463206534361943 -2.2581165076789243e-05 5.3851845519966974e-07 -2.5762246226480331e-05
leaf_weight=45 270 408 78 2011 86152 47
leaf_count=45 270 408 78 2011 86152 47
internal_value=0 -2.07302e-05 -8.05999e-05 -1.19531e-05 6.59761e-07 0.000109829
internal_weight=0 2767 348 2419 86244 92
internal_count=89011 2767 348 2419 86244 92
is_linear=0
shrinkage=0.1


Tree=17
num_leaves=7
num_cat=0
split_feature=96 134 144 170 5 6
split_gain=0.000112802 0.000135876 0.000135543 0.000132342 0.000243141 0.000137827
threshold=-0.00050813012503247979 -0.0015527954470613279 0.042572463768115944 0.010285407649200476 -0.038955807333585647 -0.0018674158028266772
decision_type=2 2 2 2 2 2
left_child=3 -2 -3 5 -5 -1
right_child=1 2 -4 4 -6 -7
leaf_value=4.8085886534752332e-05 3.3054118134565876e-05 -5.1338140653770873e-05 1.1959836003206954e-06 -0.00023801393456560004 -3.1416672525266317e-05 -8.8573955137123541e-06
leaf_weight=440 1334 494 75018 66 473 11186
leaf_count=440 1334 494 75018 66 473 11186
internal_value=0 1.41128e-06 8.4708e-07 -8.95235e-06 -5.74826e-05 -6.66842e-06
internal_weight=0 76846 75512 12165 539 11626
internal_count=89011 76846 75512 12165 539 11626
is_linear=0
shrinkage=0.1


Tree=18
num_leaves=7
num_cat=0
split_feature=288 228 210 293 15 256
split_gain=0.000113583 0.000132551 0.000180302 0.000117511 0.000117073 0.000131902
threshold=1.0000000180025095e-35 0.0090461034689082991 0.16544057986693353 -0.68781359859001401 0.29745817245817252 -0.0062607353389916289
decision_type=2 2 2 2 2 2
left_child=4 3 -3 -2 5 -1
right_child=1 2 -4 -5 -6 -7
leaf_value=8.4223547887025323e-05 -2.4096145929435061e-05 -4.5182053233032825e-05 1.8396523958193264e-06 1.3005111860895912e-05 2.1393001739446197e-06 -6.5876730453555006e-06
leaf_weight=160 898 1024 3937 15052 34165 33775
leaf_count=160 898 1024 3937 15052 34165 33775
internal_value=0 6.44135e-06 -7.78869e-06 1.08918e-05 -1.98454e-06 -6.14776e-06
internal_weight=0 20911 4961 15950 68100 33935
internal_count=89011 20911 4961 15950 68100 33935
is_linear=0
shrinkage=0.1


Tree=19
num_leaves=7
num_cat=0
split_feature=17 7 12 73 120 32
split_gain=0.000110017 0.000203058 0.000124405 0.000116391 0.000100275 0.000139887
threshold=0.22361111111111112 -0.0098063643176561025 0.020842379504993489 0.0077581924973352959 0.031754032258064523 0.0026709419493426982
decision_type=2 2 2 2 2 2
left_child=4 2 -2 -3 5 -1
right_child=1 3 -4 -5 -6 -7
leaf_value=-3.1706445837647986e-05 0.00023463814943565681 -6.2825506398359182e-06 2.4068978596434716e-06 -2.419293289820354e-05 5.0667636033705698e-06 -0.00030127085362851008
leaf_weight=312 23 19785 31116 4478 33276 21
leaf_count=312 23 19785 31116 4478 33276 21
internal_value=0 -2.74237e-06 2.59182e-06 -9.60422e-06 4.50967e-06 -4.99756e-05
internal_weight=0 55402 31139 24263 33609 333
internal_count=89011 55402 31139 24263 33609 333
is_linear=0
shrinkage=0.1


Tree=20
num_leaves=7
num_cat=0
split_feature=14 38 32 15 116 206
split_gain=0.000104238 0.000133214 0.000107784 0.000117929 0.000102693 9.10365e-05
threshold=0.073420411548229939 0.0016008542445282716 0.00050968404005757872 0.42506038647342997 0.10620300751879701 0.1356537530266344
decision_type=2 2 2 2 2 2
left_child=1 5 3 -2 -4 -1
right_child=2 -3 4 -5 -6 -7
leaf_value=3.7451996362211981e-06 -5.5913647129148246e-06 -5.3247003735641394e-05 -3.9645926389959526e-05 3.0116962938939055e-06 1.4435192709364056e-05 2.1626070801912614e-05
leaf_weight=8351 45150 341 370 24559 5864 4376
leaf_count=8351 45150 341 370 24559 5864 4376
internal_value=0 8.24535e-06 -1.42372e-06 -2.55487e-06 1.11624e-05 9.92395e-06
internal_weight=0 13068 75943 69709 6234 12727
internal_count=89011 13068 75943 69709 6234 12727
is_linear=0
shrinkage=0.1


Tree=21
num_leaves=7
num_cat=0
split_feature=288 116 227 14 270 15
split_gain=0.00010633 0.000262722 0.000201163 9.51763e-05 0.000121995 9.42233e-05
threshold=-0.0029910298924100682 1.0000000180025095e-35 0.014690470324992081 0.4054424287301 0.16043559282552997 0.44482496194824966
decision_type=2 2 2 2 2 2
left_child=1 -1 -3 4 -2 -5
right_child=3 2 -4 5 -6 -7
leaf_value=0.00031979083514837962 -2.3580564514755252e-06 -5.4103210935604697e-06 -7.2552616317615669e-05 -8.1535711942488528e-06 6.9873240029697981e-06 3.5611871142956678e-06
leaf_weight=22 24502 1522 640 19404 32350 10571
leaf_count=22 24502 1522 640 19404 32350 10571
internal_value=0 -2.17952e-05 -2.54685e-05 5.44852e-07 2.95284e-06 -4.00928e-06
internal_weight=0 2184 2162 86827 56852 29975
internal_count=89011 2184 2162 86827 56852 29975
is_linear=0
shrinkage=0.1


Tree=22
num_leaves=7
num_cat=0
split_feature=32 15 294 315 6 288
split_gain=9.22486e-05 0.000129378 0.000107858 0.000111552 9.59346e-05 9.04973e-05
threshold=-0.00050556121597455917 0.083507670850767088 0.0013077230865077285 0.48617482161060149 -0.0018674158028266772 0.0067307961972007399
decision_type=2 2 2 2 2 2
left_child=2 -2 4 -4 -1 -3
right_child=1 5 3 -5 -6 -7
leaf_value=3.7106771885417291e-05 -8.9036669734439439e-06 2.8304842633153423e-06 -9.6654950661815924e-05 -1.052554326216212e-05 -9.7696026319282705e-06 -6.2359246723856532e-05
leaf_weight=463 11306 69454 284 344 6947 213
leaf_count=463 11306 69454 284 344 6947 213
internal_value=0 1.0109e-06 -1.0221e-05 -5.01052e-05 -6.78765e-06 2.62549e-06
internal_weight=0 80973 8038 628 7410 69667
internal_count=89011 80973 8038 628 7410 69667
is_linear=0
shrinkage=0.1


Tree=23
num_leaves=7
num_cat=0
split_feature=11 9 228 262 192 149
split_gain=8.92457e-05 0.000224064 0.000398215 0.000120727 9.63158e-05 0.000107433
threshold=0.0020288776303973299 0.0061281709983455135 0.0051965838489127633 0.0030816673503428764 0.00098619361360174928 0.22048611111111113
decision_type=2 2 2 2 2 2
left_child=4 3 -3 -2 -1 -6
right_child=1 2 -4 -5 5 -7
leaf_value=1.6342718926797194e-07 -7.8153714206130539e-07 -0.00022391700297274818 -2.6507907534206136e-05 -9.0456707737595189e-05 2.8594070699244339e-05 3.6706952099425496e-06
leaf_weight=66065 12601 108 2134 152 2584 5367
leaf_count=66065 12601 108 2134 152 2584 5367
internal_value=0 -7.0393e-06 -3.62022e-05 -1.88166e-06 1.42084e-06 1.18197e-05
internal_weight=0 14995 2242 12753 74016 7951
internal_count=89011 14995 2242 12753 74016 7951
is_linear=0
shrinkage=0.1


Tree=24
num_leaves=7
num_cat=0
split_feature=17 7 107 10 99 146
split_gain=8.66246e-05 0.000136237 0.000107785 9.70955e-05 8.69663e-05 0.000134283
threshold=0.22361111111111112 -0.0098063643176561025 0.010071723429398284 0.010122454496657567 0.0036391459118732092 0.08643754224926177
decision_type=2 2 2 2 2 2
left_child=4 2 -2 -3 5 -1
right_child=1 3 -4 -5 -6 -7
leaf_value=-6.6521264166553794e-05 2.3838271269538856e-06 -6.5623541492120611e-06 -7.6914064600863086e-05 -3.5314042916721644e-05 5.3828904096370755e-06 -3.1942735074279882e-06
leaf_weight=412 30967 23017 172 1246 31327 1870
leaf_count=412 30967 23017 172 1246 31327 1870
internal_value=0 -2.43418e-06 1.93305e-06 -8.05504e-06 4.00085e-06 -1.48007e-05
internal_weight=0 55402 31139 24263 33609 2282
internal_count=89011 55402 31139 24263 33609 2282
is_linear=0
shrinkage=0.1


Tree=25
num_leaves=7
num_cat=0
split_feature=192 198 259 62 198 38
split_gain=8.18013e-05 0.000113776 0.000298882 0.000138077 0.000100124 8.488e-05
threshold=-0.001003260744204759 -0.0037400706283010616 0.78249728188344492 0.063348560404761042 -0.0015948967825094582 0.0039057101602457682
decision_type=2 2 2 2 2 2
left_child=1 2 -1 -3 -2 -6
right_child=4 3 -4 -5 5 -7
leaf_value=4.3376915878228597e-05 2.2178741659938992e-05 -0.00010305167224623887 -0.00025455993274827192 -1.0836736282568749e-05 5.1185457456476323e-07 -9.2537749363206821e-05
leaf_weight=690 2169 167 35 7651 78201 98
leaf_count=690 2169 167 35 7651 78201 98
internal_value=0 -9.30912e-06 2.84179e-05 -1.28578e-05 9.82452e-07 3.90289e-07
internal_weight=0 8543 725 7818 80468 78299
internal_count=89011 8543 725 7818 80468 78299
is_linear=0
shrinkage=0.1


Tree=26
num_leaves=7
num_cat=0
split_feature=288 84 282 134 128 93
split_gain=8.1759e-05 0.0002126 0.000189773 0.000104405 9.67445e-05 7.03871e-05
threshold=-0.0027372285560893768 1.0000000180025095e-35 0.21102017468593934 -0.0010749800252849437 -0.0010037642629185937 0.045983086680761107
decision_type=2 2 2 2 2 2
left_child=1 -1 -3 5 -5 -2
right_child=3 2 -4 4 -6 -7
leaf_value=0.00029057714426511231 4.9530105526451098e-05 -7.2145696678639103e-05 -6.1116401119824671e-06 -1.7771560118180312e-05 4.1688729043223269e-07 1.0751482914471641e-05
leaf_weight=22 547 551 2151 3036 79027 3677
leaf_count=22 547 551 2151 3036 79027 3677
internal_value=0 -1.70623e-05 -1.97239e-05 5.33227e-07 -2.51305e-07 1.58665e-05
internal_weight=0 2724 2702 86287 82063 4224
internal_count=89011 2724 2702 86287 82063 4224
is_linear=0
shrinkage=0.1


Tree=27
num_leaves=7
num_cat=0
split_feature=115 32 196 256 237 256
split_gain=7.86969e-05 0.000207032 0.000168616 0.000103205 0.000165615 9.97221e-05
threshold=0.064554715233832397 0.0029097990517081844 0.0068267308041440921 -0.0062607353389916289 0.42206477732793529 -0.0027485152603725633
decision_type=2 2 2 2 2 2
left_child=1 2 -1 4 -2 -5
right_child=3 -3 -4 5 -6 -7
leaf_value=3.3046809371272981e-06 0.00010521338977884489 -0.00024882889172098106 -5.1141787900210594e-05 -2.1634375283627528e-05 -6.388013678680079e-05 8.464901687497316e-07
leaf_weight=1829 216 38 818 2020 76 84014
leaf_count=1829 216 38 818 2020 76 84014
internal_value=0 -1.68638e-05 -1.33757e-05 5.20131e-07 5.9865e-05 3.14116e-07
internal_weight=0 2685 2647 86326 292 86034
internal_count=89011 2685 2647 86326 292 86034
is_linear=0
shrinkage=0.1


Tree=28
num_leaves=7
num_cat=0
split_feature=14 6 298 96 276 6
split_gain=7.63195e-05 0.000113581 9.96176e-05 9.18798e-05 0.000172373 0.000100582
threshold=0.060635711320642834 0.00088809970062797572 0.0073751448514937923 0.0020371793444100565 0.16064516129032261 -0.0018674158028266772
decision_type=2 2 2 2 2 2
left_child=1 2 -1 5 -5 -2
right_child=3 -3 -4 4 -6 -7
leaf_value=5.2353166719625103e-06 3.7911998253777603e-05 -2.2203232698313791e-05 2.8443601994350607e-05 -5.170287622920306e-05 3.8537321961094064e-05 -1.9002112951106187e-06
leaf_weight=6913 639 1108 2556 251 1262 76282
leaf_count=6913 639 1108 2556 251 1262 76282
internal_value=0 7.96945e-06 1.15413e-05 -1.07961e-06 2.33073e-05 -1.56437e-06
internal_weight=0 10577 9469 78434 1513 76921
internal_count=89011 10577 9469 78434 1513 76921
is_linear=0
shrinkage=0.1


Tree=29
num_leaves=7
num_cat=0
split_feature=0 294 300 288 212 102
split_gain=7.56329e-05 0.000105019 0.000115779 7.71356e-05 0.000110537 9.22297e-05
threshold=-0.00099403611269277526 -0.0057019676346223838 0.47767857142857145 1.0000000180025095e-35 0.10620300751879701 -0.0018441687339292299
decision_type=2 2 2 2 2 2
left_child=1 2 -1 5 -5 -2
right_child=3 -3 -4 4 -6 -7
leaf_value=0 1.8430428669189471e-05 -2.4262343173892602e-05 0.00024582138719463916 -2.2669245165379347e-05 7.663678115401067e-06 -1.9314668341456111e-06
leaf_weight=57 2302 1915 30 1275 19404 64028
leaf_count=57 2302 1915 30 1275 19404 64028
internal_value=0 -1.92197e-05 8.71967e-05 4.38729e-07 5.77455e-06 -1.21891e-06
internal_weight=0 2002 87 87009 20679 66330
internal_count=89011 2002 87 87009 20679 66330
is_linear=0
shrinkage=0.1


Tree=30
num_leaves=7
num_cat=0
split_feature=288 243 306 64 6 142
split_gain=7.2417e-05 0.000164145 0.000124556 7.56959e-05 9.64293e-05 8.15436e-05
threshold=0.0067307961972007399 0.89676071055381412 0.96702898550724647 0.00050658565630357099 0.00054495918201258331 0.0090499590499590523
decision_type=2 2 2 2 2 2
left_child=3 2 -2 4 -1 -5
right_child=1 -3 -4 5 -6 -7
leaf_value=-3.5665168960831836e-07 1.1840777884296074e-05 -0.00021561418138204712 -0.00023267373611243902 -7.2622634614167596e-05 -2.3869362080384302e-05 9.2598134787320523e-06
leaf_weight=76721 194 50 23 122 1786 10115
leaf_count=76721 194 50 23 122 1786 10115
internal_value=0 -5.1992e-05 -1.24027e-05 1.53632e-07 -8.96538e-07 8.24519e-06
internal_weight=0 267 217 88744 78507 10237
internal_count=89011 267 217 88744 78507 10237
is_linear=0
shrinkage=0.1


Tree=31
num_leaves=7
num_cat=0
split_feature=17 10 27 3 5 257
split_gain=7.09447e-05 9.97465e-05 0.000165709 9.89052e-05 0.000146166 0.000103111
threshold=0.074537037037037054 0.010276559368439736 0.67354024943310675 0.018735030473866859 -0.0052037348170790457 0.30591545752596921
decision_type=2 2 2 2 2 2
left_child=3 -2 -3 4 -1 -5
right_child=1 2 -4 5 -6 -7
leaf_value=-7.5098663404481351e-05 -7.1265737878208746e-08 -4.5536878137187144e-05 5.4268402335722512e-06 1.1504253702423751e-05 1.0020110077057907e-05 8.7316374819583291e-05
leaf_weight=212 81630 1281 1247 425 3887 329
leaf_count=212 81630 1281 1247 425 3887 329
internal_value=0 -6.81904e-07 -2.02451e-05 1.17525e-05 5.52093e-06 4.51078e-05
internal_weight=0 84158 2528 4853 4099 754
internal_count=89011 84158 2528 4853 4099 754
is_linear=0
shrinkage=0.1


Tree=32
num_leaves=7
num_cat=0
split_feature=195 36 209 67 25 3
split_gain=6.93416e-05 0.000121009 0.00010467 0.000107487 9.77314e-05 9.10653e-05
threshold=0.0034825964442375345 -1.0000000180025095e-35 0.075961538461538483 0.025013957294358322 0.15959252971137525 0.0087961548234683513
decision_type=2 2 2 2 2 2
left_child=1 4 3 -2 -1 -4
right_child=2 -3 5 -5 -6 -7
leaf_value=-6.2197199989520307e-05 8.9832572933727614e-06 -1.404543383458163e-05 1.6119023846115916e-06 5.4256233924967603e-05 -0.00032559705305277594 -5.8374255285121708e-06
leaf_weight=54 3697 1589 60526 619 22 22504
leaf_count=54 3697 1589 60526 619 22 22504
internal_value=0 -2.02181e-05 3.82247e-07 1.55676e-05 -0.000143945 -4.02451e-07
internal_weight=0 1665 87346 4316 76 83030
internal_count=89011 1665 87346 4316 76 83030
is_linear=0
shrinkage=0.1


Tree=33
num_leaves=7
num_cat=0
split_feature=51 4 18 70 68 277
split_gain=6.46233e-05 0.000133527 0.000117249 8.95808e-05 0.000177497 7.37427e-05
threshold=0.064554715233832397 0.0064863615692440776 0.063682339750471162 -0.0047105708503911705 0.014819682074387443 0.027402402402402406
decision_type=2 2 2 2 2 2
left_child=1 5 -3 4 -2 -1
right_child=3 2 -4 -5 -6 -7
leaf_value=-5.7450640557549122e-05 0.000198512663717065 -0.00017539322752190906 -3.4613615380012907e-05 3.51986485195636e-07 -8.4718533093633579e-05 1.026771302744564e-05
leaf_weight=181 62 65 938 86331 32 1402
leaf_count=181 62 65 938 86331 32 1402
internal_value=0 -1.55797e-05 -4.41442e-05 4.62806e-07 9.79826e-05 2.27568e-06
internal_weight=0 2586 1003 86425 94 1583
internal_count=89011 2586 1003 86425 94 1583
is_linear=0
shrinkage=0.1


Tree=34
num_leaves=7
num_cat=0
split_feature=14 70 256 96 76 16
split_gain=6.26344e-05 0.000132597 0.000105603 9.25134e-05 0.000137637 0.000125645
threshold=0.097761069340016729 0.0038610122548226049 -0.001954080228343535 0.0020371793444100565 0.04819976771196284 1.0000000180025095e-35
decision_type=2 2 2 2 2 2
left_child=1 2 -1 5 -5 -2
right_child=3 -3 -4 4 -6 -7
leaf_value=-2.8604849042750995e-05 0.00024785534476250224 -0.00019428128505563744 7.4144442010292424e-06 0.0001717594025377082 1.719048947819011e-05 -1.9227751536232892e-06
leaf_weight=851 20 33 17011 61 1311 69724
leaf_count=851 20 33 17011 61 1311 69724
internal_value=0 5.28469e-06 5.67645e-06 -1.33408e-06 2.43604e-05 -1.84515e-06
internal_weight=0 17895 17862 71116 1372 69744
internal_count=89011 17895 17862 71116 1372 69744
is_linear=0
shrinkage=0.1


Tree=35
num_leaves=7
num_cat=0
split_feature=256 308 149 15 6 283
split_gain=6.2437e-05 0.000148995 0.000100768 6.82813e-05 0.000128738 8.29887e-05
threshold=0.0066069199615341754 0.10620300751879701 0.17752100840336138 0.1884336677814939 -0.00093196671903150719 0.16832267584849978
decision_type=2 2 2 2 2 2
left_child=3 -2 -3 4 -1 -5
right_child=1 2 -4 5 -6 -7
leaf_value=2.2558874199909951e-05 -0.00027220700203952621 8.7370944332544614e-05 -6.2075853977665036e-05 -1.0007187250006187e-05 -5.3359351051590141e-06 3.312293177078086e-06
leaf_weight=1752 27 60 169 5116 28535 53352
leaf_count=1752 27 60 169 5116 28535 53352
internal_value=0 -4.93054e-05 -2.11989e-05 1.39664e-07 -3.70941e-06 2.14017e-06
internal_weight=0 256 229 88755 30287 58468
internal_count=89011 256 229 88755 30287 58468
is_linear=0
shrinkage=0.1


Tree=36
num_leaves=7
num_cat=0
split_feature=17 7 90 73 303 292
split_gain=6.15494e-05 9.54326e-05 0.000102508 9.45352e-05 8.08098e-05 7.5721e-05
threshold=0.22361111111111112 -0.0098063643176561025 0.045596295596295605 0.0077581924973352959 0.13959984409510201 -0.93634659768070039
decision_type=2 2 2 2 2 2
left_child=4 2 -2 -3 -1 -6
right_child=1 3 -4 -5 5 -7
leaf_value=1.1769292571992675e-05 -4.2251525348723656e-05 -3.7619221812698942e-06 2.3645596290382264e-06 -1.9896431804110867e-05 -7.6152416442716464e-05 9.021793679978906e-07
leaf_weight=8551 523 19785 30616 4478 128 24930
leaf_count=8551 523 19785 30616 4478 128 24930
internal_value=0 -2.05093e-06 1.60257e-06 -6.75581e-06 3.37335e-06 4.92707e-07
internal_weight=0 55402 31139 24263 33609 25058
internal_count=89011 55402 31139 24263 33609 25058
is_linear=0
shrinkage=0.1


Tree=37
num_leaves=7
num_cat=0
split_feature=0 6 298 294 259 288
split_gain=5.92013e-05 0.000103506 0.000111725 8.01806e-05 0.000106763 6.75323e-05
threshold=-0.00099403611269277526 -0.00091157728075685885 0.013508852889486065 -0.0057019676346223838 0.1103720667039724 1.0000000180025095e-35
decision_type=2 2 2 2 2 2
left_child=3 2 -2 4 -1 -3
right_child=1 5 -4 -5 -6 -7
leaf_value=0.00013903952482472243 2.254521333637917e-05 -1.7968074649771307e-06 -0.00016380554206018257 -2.1429894333345581e-05 -0.00011610389299967025 4.8428477072960626e-06
leaf_weight=67 2557 64319 32 1915 20 20101
leaf_count=67 2557 64319 32 1915 20 20101
internal_value=0 3.88217e-07 2.00843e-05 -1.70042e-05 7.5848e-05 -2.11254e-07
internal_weight=0 87009 2589 2002 87 84420
internal_count=89011 87009 2589 2002 87 84420
is_linear=0
shrinkage=0.1


Tree=38
num_leaves=7
num_cat=0
split_feature=15 134 284 32 294 192
split_gain=5.92693e-05 9.89353e-05 7.94608e-05 7.67006e-05 9.63968e-05 6.65347e-05
threshold=0.046911678403755874 -0.00093109896553311689 0.39009661835748799 -0.00049925116479432308 0.0015982956054951816 0.0047890272080044491
decision_type=2 2 2 2 2 2
left_child=1 2 -1 4 -2 -3
right_child=3 5 -4 -5 -6 -7
leaf_value=4.4551681419557825e-05 -5.7267252058411346e-06 -1.4998866050847798e-05 -2.1476036450790492e-05 1.7007381215244836e-06 -5.1130905536238204e-05 0.00015006146106730765
leaf_weight=556 7344 5478 262 74844 503 24
leaf_count=556 7344 5478 262 74844 503 24
internal_value=0 -9.33696e-06 2.29287e-05 7.10242e-07 -8.68741e-06 -1.4205e-05
internal_weight=0 6320 818 82691 7847 5502
internal_count=89011 6320 818 82691 7847 5502
is_linear=0
shrinkage=0.1


Tree=39
num_leaves=7
num_cat=0
split_feature=38 151 41 0 119 294
split_gain=5.85396e-05 0.000133002 0.000147756 7.30045e-05 7.78042e-05 6.98968e-05
threshold=0.0039057101602457682 0.4939015320541425 0.0065116076549322785 0.0010506962553131773 0.051332725245768727 0.0038886242147873067
decision_type=2 2 2 2 2 2
left_child=3 2 -2 5 -5 -1
right_child=1 -3 -4 4 -6 -7
leaf_value=6.9404476728473398e-09 4.7781371028964685e-06 5.2008556462350842e-05 -0.00030549971447981373 -9.0720927461678352e-05 2.9275657873757136e-05 -2.9754746496621611e-05
leaf_weight=86836 23 42 35 55 1224 796
leaf_count=86836 23 42 35 55 1224 796
internal_value=0 -7.64249e-05 -0.000176024 8.28041e-08 2.38038e-05 -2.59007e-07
internal_weight=0 100 58 88911 1279 87632
internal_count=89011 100 58 88911 1279 87632
is_linear=0
shrinkage=0.1


Tree=40
num_leaves=7
num_cat=0
split_feature=302 4 288 30 14 172
split_gain=5.76119e-05 0.00012782 0.000123831 0.000114679 0.000100927 6.97257e-05
threshold=0.06459637297384048 0.052441819063848476 0.0058823703236150502 0.24907930769334541 0.060635711320642834 0.93541666666666679
decision_type=2 2 2 2 2 2
left_child=1 2 -1 -3 5 -2
right_child=4 3 -4 -5 -6 -7
leaf_value=-6.8054124922025968e-06 9.7682663210647873e-06 0.00029668887821956356 -0.00015739950309183297 4.0637804334811778e-05 -8.7439175611872228e-08 4.7471860625391089e-05
leaf_weight=11605 5822 24 55 83 70878 544
leaf_count=11605 5822 24 55 83 70878 544
internal_value=0 -6.52079e-06 -7.5507e-06 0.000101967 9.90431e-07 1.3052e-05
internal_weight=0 11767 11660 107 77244 6366
internal_count=89011 11767 11660 107 77244 6366
is_linear=0
shrinkage=0.1


Tree=41
num_leaves=7
num_cat=0
split_feature=288 288 242 286 166 217
split_gain=5.75815e-05 0.000156331 0.000173611 0.000123353 6.67812e-05 0.000148553
threshold=-0.0029910298924100682 -0.0038220096139864874 0.76773138832998 0.071796759941089847 -0.0031160781595440663 0.051956815114709856
decision_type=2 2 2 2 2 2
left_child=1 2 -1 -3 5 -2
right_child=4 3 -4 -5 -6 -7
leaf_value=2.2954690832314704e-05 0.00021337039831487324 -0.00026660829266620816 -6.7543160849190914e-05 -4.2408381123213634e-05 2.1291750090817122e-07 1.8022087171716027e-05
leaf_weight=1078 45 26 263 817 86446 336
leaf_count=1078 45 26 263 817 86446 336
internal_value=0 -1.60383e-05 4.91195e-06 -4.98213e-05 4.01578e-07 4.21744e-05
internal_weight=0 2184 1341 843 86827 381
internal_count=89011 2184 1341 843 86827 381
is_linear=0
shrinkage=0.1


Tree=42
num_leaves=7
num_cat=0
split_feature=27 315 4 87 170 14
split_gain=5.56181e-05 8.20285e-05 0.000182408 0.00010505 8.15326e-05 6.29794e-05
threshold=0.043614130434782614 0.088316542086447861 -1.0000000180025095e-35 0.018576029445594666 0.00962043525963251 0.65727513227513235
decision_type=2 2 2 2 2 2
left_child=4 2 -2 -3 -1 -6
right_child=1 3 -4 -5 5 -7
leaf_value=1.4568088648187039e-05 -0.00011548985589838321 -0.00014440463264315962 -9.9336545766335102e-06 3.9435121714855312e-07 0.000280153650587265 3.3944098308104915e-05
leaf_weight=1417 173 50 3413 83908 21 29
leaf_count=1417 173 50 3413 83908 21 29
internal_value=0 -3.24813e-07 -1.51381e-05 3.03284e-07 1.93081e-05 0.000145529
internal_weight=0 87544 3586 83958 1467 50
internal_count=89011 87544 3586 83958 1467 50
is_linear=0
shrinkage=0.1


Tree=43
num_leaves=7
num_cat=0
split_feature=289 291 288 292 134 82
split_gain=5.5461e-05 0.000195447 9.65175e-05 0.000177963 8.61588e-05 8.37474e-05
threshold=0.382937456619934 0.029763687100348681 -0.001963673171006874 0.015197564292185861 -0.0010749800252849437 0.67747779336138392
decision_type=2 2 2 2 2 2
left_child=2 -2 3 -1 -4 -3
right_child=1 5 4 -5 -6 -7
leaf_value=-6.0942663716732619e-06 4.9238994198048127e-06 0.00011336733487056388 1.5752106441275882e-05 -6.0302630983291617e-05 -5.1908755156511284e-07 -1.1715032292030534e-06
leaf_weight=3851 5101 248 3400 724 75610 77
leaf_count=3851 5101 248 3400 724 75610 77
internal_value=0 9.79631e-06 -6.36641e-07 -1.47591e-05 1.76211e-07 8.50457e-05
internal_weight=0 5426 83585 4575 79010 325
internal_count=89011 5426 83585 4575 79010 325
is_linear=0
shrinkage=0.1


Tree=44
num_leaves=7
num_cat=0
split_feature=131 145 137 82 55 195
split_gain=5.41704e-05 7.7032e-05 0.000124363 7.32797e-05 0.000107773 7.05578e-05
threshold=0.0036391459118732092 0.074537037037037054 0.010278483888968676 0.08643754224926177 0.83956440717447023 0.012291049114396543
decision_type=2 2 2 2 2 2
left_child=3 2 -2 4 -1 -3
right_child=1 5 -4 -5 -6 -7
leaf_value=-2.6066421190957129e-05 1.7210514529314838e-05 1.1329611130505413e-06 -7.3091493854175675e-05 -6.1195714128050251e-06 -0.00015202843540664917 -6.5904490721825396e-06
leaf_weight=404 4013 67551 157 2466 85 14335
leaf_count=404 4013 67551 157 2466 85 14335
internal_value=0 4.56135e-07 1.37155e-05 -1.33136e-05 -4.8788e-05 -2.14368e-07
internal_weight=0 86056 4170 2955 489 81886
internal_count=89011 86056 4170 2955 489 81886
is_linear=0
shrinkage=0.1


Tree=45
num_leaves=7
num_cat=0
split_feature=19 12 260 70 23 297
split_gain=5.30216e-05 7.00742e-05 0.000726491 8.51617e-05 6.52701e-05 0.000100089
threshold=0.18941062608463491 0.04819976771196284 -1.0000000180025095e-35 0.0018099567275671193 0.16699867197875168 0.0089766775594760304
decision_type=2 2 2 2 2 2
left_child=4 2 -2 -3 -1 -6
right_child=1 3 -4 -5 5 -7
leaf_value=6.054088895130528e-06 0.00057946379984238341 1.1895903706863307e-06 1.3596588600132091e-05 -2.0679641756034175e-05 -7.6016555862900648e-06 -6.0918851581293067e-05
leaf_weight=3595 23 71354 1393 1825 10454 367
leaf_count=3595 23 71354 1393 1825 10454 367
internal_value=0 1.07068e-06 2.31112e-05 6.38857e-07 -5.55406e-06 -9.44649e-06
internal_weight=0 74595 1416 73179 14416 10821
internal_count=89011 74595 1416 73179 14416 10821
is_linear=0
shrinkage=0.1


Tree=46
num_leaves=7
num_cat=0
split_feature=11 9 228 262 302 74
split_gain=5.12089e-05 0.000152114 0.000295757 0.000100105 7.62718e-05 8.4504e-05
threshold=0.0020288776303973299 0.0061281709983455135 0.0051965838489127633 0.0030816673503428764 0.16650732950924158 0.012464734821546307
decision_type=2 2 2 2 2 2
left_child=4 3 -3 -2 5 -1
right_child=1 2 -4 -5 -6 -7
leaf_value=-3.1094925428896801e-06 -7.1374323339857499e-08 -0.00019115872765883697 -2.0976847734105001e-05 -8.1713750688483755e-05 3.4297304160178539e-06 -0.00018688317557886855
leaf_weight=25768 12601 108 2134 152 48223 25
leaf_count=25768 12601 108 2134 152 48223 25
internal_value=0 -5.33043e-06 -2.93579e-05 -1.07567e-06 1.07808e-06 -3.30355e-06
internal_weight=0 14995 2242 12753 74016 25793
internal_count=89011 14995 2242 12753 74016 25793
is_linear=0
shrinkage=0.1


Tree=47
num_leaves=7
num_cat=0
split_feature=32 6 14 48 43 230
split_gain=4.79582e-05 7.7589e-05 7.62075e-05 7.02156e-05 6.35871e-05 0.000104198
threshold=1.0000000180025095e-35 0.00054495918201258331 0.060635711320642834 0.25403225806451618 -0.00045946274878722997 0.0018357053537059189
decision_type=2 2 2 2 2 2
left_child=1 2 -1 -3 5 -2
right_child=4 3 -4 -5 -6 -7
leaf_value=8.5733493608298967e-06 5.412492394223629e-06 8.271412129851482e-06 -1.4097155895442076e-06 -3.5199550835538267e-05 1.2961525990421556e-05 -3.8526015076495035e-05
leaf_weight=8584 2265 520 69811 1197 5929 705
leaf_count=8584 2265 520 69811 1197 5929 705
internal_value=0 -7.77246e-07 -3.11637e-07 -2.18084e-05 6.96079e-06 -4.88775e-06
internal_weight=0 80112 78395 1717 8899 2970
internal_count=89011 80112 78395 1717 8899 2970
is_linear=0
shrinkage=0.1


Tree=48
num_leaves=7
num_cat=0
split_feature=15 38 75 0 170 76
split_gain=4.6865e-05 8.48316e-05 9.84778e-05 7.64405e-05 9.22099e-05 7.35009e-05
threshold=0.083507670850767088 -0.00050251260511213747 -0.0019492722438246243 -0.00050175618862002825 0.013508852889486065 0.04819976771196284
decision_type=2 2 2 2 2 2
left_child=1 2 -1 4 -2 -5
right_child=3 -3 -4 5 -6 -7
leaf_value=-0.00012182019504562665 -1.0263141559665025e-05 -9.0091960383708237e-06 1.8139008093577356e-05 2.4206545409457667e-05 -0.00013081758637236679 1.2401768911902406e-06
leaf_weight=51 4087 10881 1803 1424 65 70700
leaf_count=51 4087 10881 1803 1424 65 70700
internal_value=0 -5.6184e-06 1.40718e-05 9.34757e-07 -1.22477e-05 1.69904e-06
internal_weight=0 12735 1854 76276 4152 72124
internal_count=89011 12735 1854 76276 4152 72124
is_linear=0
shrinkage=0.1


Tree=49
num_leaves=7
num_cat=0
split_feature=198 291 137 244 288 292
split_gain=4.81078e-05 0.000225288 0.000216372 0.000211082 9.15097e-05 0.000179147
threshold=-0.0037400706283010616 0.72204916154759158 0.006795758777916939 0.3585714285714286 -0.0029910298924100682 0.013264830305651988
decision_type=2 2 2 2 2 2
left_child=1 3 -3 -1 5 -2
right_child=4 2 -4 -5 -6 -7
leaf_value=0.00010999277078745814 -5.4549907824659157e-06 2.5937851819945098e-06 -0.00038559743789408211 -1.3235352169384879e-06 2.2059835670073434e-07 -8.4682386612601213e-05
leaf_weight=270 1280 29 25 443 86592 372
leaf_count=270 1280 29 25 443 86592 372
internal_value=0 2.49312e-05 -0.000170412 4.02969e-05 -2.19767e-07 -2.35355e-05
internal_weight=0 767 54 713 88244 1652
internal_count=89011 767 54 713 88244 1652
is_linear=0
shrinkage=0.1


Tree=50
num_leaves=7
num_cat=0
split_feature=27 43 9 13 315 4
split_gain=4.79896e-05 7.29157e-05 9.07341e-05 7.09774e-05 6.28849e-05 0.000131137
threshold=0.043614130434782614 -0.00014766964103890684 0.0059738382753265666 0.087595907928388769 0.16832267584849978 -1.0000000180025095e-35
decision_type=2 2 2 2 2 2
left_child=1 3 -3 -1 5 -2
right_child=4 2 -4 -5 -6 -7
leaf_value=0.0002211626888790323 -7.8610558202487171e-05 1.0892403756604705e-05 -0.00014980188943438365 4.404784306700921e-05 5.5751498459302618e-07 -6.2814417624503244e-06
leaf_weight=26 260 1096 36 309 79270 8014
leaf_count=26 260 1096 36 309 79270 8014
internal_value=0 1.7933e-05 5.4234e-06 5.90282e-05 -3.03781e-07 -8.60235e-06
internal_weight=0 1467 1132 335 87544 8274
internal_count=89011 1467 1132 335 87544 8274
is_linear=0
shrinkage=0.1


Tree=51
num_leaves=7
num_cat=0
split_feature=288 123 301 288 299 38
split_gain=4.50363e-05 0.000111753 9.39136e-05 5.54859e-05 0.000166854 5.32781e-05
threshold=-0.0078087287030879074 0.17958733974358979 0.56696428571428581 -0.0029910298924100682 0.00169033739798752 -0.0018682867987491745
decision_type=2 2 2 2 2 2
left_child=1 -1 -3 4 -2 -5
right_child=3 2 -4 5 -6 -7
leaf_value=0.00025717650355953415 0 6.601681559446474e-05 -0.00011721401123546878 2.204337861702468e-05 -6.7129009205519024e-05 -8.5709227695038527e-10
leaf_weight=23 1525 107 37 1110 492 85717
leaf_count=23 1525 107 37 1110 492 85717
internal_value=0 5.18604e-05 1.61828e-05 -9.99903e-08 -1.64992e-05 2.76515e-07
internal_weight=0 167 144 88844 2017 86827
internal_count=89011 167 144 88844 2017 86827
is_linear=0
shrinkage=0.1


Tree=52
num_leaves=7
num_cat=0
split_feature=17 15 172 169 271 68
split_gain=4.56145e-05 8.21957e-05 0.00016443 9.16309e-05 6.95423e-05 7.89417e-05
threshold=0.22361111111111112 0.48363186364564198 0.15470085470085473 0.0078093240543940937 0.13959984409510201 -0.93634659768070039
decision_type=2 2 2 2 2 2
left_child=4 3 -3 -2 -1 -6
right_child=1 2 -4 -5 5 -7
leaf_value=1.0684492856601151e-05 -1.9260156329177113e-06 1.808194215375658e-05 -2.9890754503678685e-06 -1.4359986940572088e-05 -7.4328658560137478e-05 6.6645179163997535e-07
leaf_weight=8563 31591 5596 10887 7328 141 24905
leaf_count=8563 31591 5596 10887 7328 141 24905
internal_value=0 -1.76561e-06 4.14108e-06 -4.27721e-06 2.90401e-06 2.28392e-07
internal_weight=0 55402 16483 38919 33609 25046
internal_count=89011 55402 16483 38919 33609 25046
is_linear=0
shrinkage=0.1


Tree=53
num_leaves=7
num_cat=0
split_feature=195 4 25 4 209 201
split_gain=4.48165e-05 0.000104646 9.75855e-05 8.9277e-05 6.20489e-05 7.85833e-05
threshold=0.0034825964442375345 -1.0000000180025095e-35 0.17902930402930406 0.052441819063848476 0.075961538461538483 0.010278483888968676
decision_type=2 2 2 2 2 2
left_child=1 2 -1 -3 5 -2
right_child=4 3 -4 -5 -6 -7
leaf_value=-4.6986166941492755e-05 1.4695982553031994e-05 -1.4501893945951323e-05 -0.00029370902024804994 0.00012756977983512812 -2.9594778641508539e-07 -5.691895435541725e-05
leaf_weight=59 4159 1536 25 45 83030 157
leaf_count=59 4159 1536 25 45 83030 157
internal_value=0 -1.62542e-05 -0.000125351 -1.0203e-05 3.07168e-07 1.19994e-05
internal_weight=0 1665 84 1581 87346 4316
internal_count=89011 1665 84 1581 87346 4316
is_linear=0
shrinkage=0.1


Tree=54
num_leaves=7
num_cat=0
split_feature=288 205 172 203 256 3
split_gain=4.446e-05 0.000133385 0.00010885 6.46571e-05 5.87643e-05 0.000123724
threshold=0.0067307961972007399 0.19139194139194141 0.18350168350168353 0.0001813597915721081 0.0010506962553131773 0.0048450394871790469
decision_type=2 2 2 2 2 2
left_child=4 3 -3 -2 -1 -6
right_child=1 2 -4 -5 5 -7
leaf_value=-6.8854899195374406e-07 0.00017668572662728107 2.3801055796970798e-05 -0.00013589797822873104 -1.7883941539624801e-06 2.5046911135313268e-05 -8.3544460694085328e-07
leaf_weight=80710 32 57 134 44 2844 5190
leaf_count=80710 32 57 134 44 2844 5190
internal_value=0 -4.07396e-05 -8.62223e-05 6.84191e-05 1.1889e-07 8.2787e-06
internal_weight=0 267 191 76 88744 8034
internal_count=89011 267 191 76 88744 8034
is_linear=0
shrinkage=0.1


Tree=55
num_leaves=7
num_cat=0
split_feature=6 223 137 114 64 234
split_gain=4.36376e-05 0.000115083 0.000130172 9.1264e-05 5.8823e-05 9.66777e-05
threshold=-0.0015748035835523309 0.12515060240963857 0.0073410302408639201 0.32614508253894453 -0.00096993240891318766 0.013508852889486065
decision_type=2 2 2 2 2 2
left_child=1 2 -1 -3 5 -2
right_child=4 3 -4 -5 -6 -7
leaf_value=-1.5358184410519333e-05 -8.9030650881280273e-06 -2.6700682065197069e-06 -0.00029186337437520999 6.163033153868899e-05 4.0422788220391366e-07 -0.00012846751192510775
leaf_weight=90 5118 377 22 497 82838 69
leaf_count=90 5118 377 22 497 82838 69
internal_value=0 2.09154e-05 -7.33932e-05 3.34536e-05 -2.3813e-07 -1.05714e-05
internal_weight=0 986 112 874 88025 5187
internal_count=89011 986 112 874 88025 5187
is_linear=0
shrinkage=0.1


Tree=56
num_leaves=7
num_cat=0
split_feature=192 27 297 178 288 291
split_gain=4.30308e-05 0.00021486 0.00010105 8.37963e-05 5.62331e-05 0.000129685
threshold=-0.0058682500385369698 0.28598691384950931 0.0075743540660694565 0.74090608465608476 -0.0029910298924100682 0.016207705973944029
decision_type=2 2 2 2 2 2
left_child=1 2 -1 -3 5 -2
right_child=4 3 -4 -5 -6 -7
leaf_value=0.00010171307313549356 -2.8505656064034255e-06 1.2527391256367613e-05 0.00037090615864365692 -0.00014693963554595805 2.4469185634568962e-07 -6.500837594181854e-05
leaf_weight=72 1523 151 20 41 86768 436
leaf_count=72 1523 151 20 41 86768 436
internal_value=0 3.88498e-05 0.000164862 -1.95756e-05 -1.29181e-07 -1.6886e-05
internal_weight=0 284 92 192 88727 1959
internal_count=89011 284 92 192 88727 1959
is_linear=0
shrinkage=0.1


Tree=57
num_leaves=7
num_cat=0
split_feature=96 148 260 170 6 192
split_gain=4.25402e-05 0.000126178 0.000112083 8.66199e-05 6.14955e-05 8.49579e-05
threshold=0.0020371793444100565 0.10620300751879701 0.008101962172578801 0.0054444765008161058 0.0018948375624852078 0.0027332378758648805
decision_type=2 2 2 2 2 2
left_child=4 3 -3 -2 -1 -6
right_child=1 2 -4 -5 5 -7
leaf_value=-1.2655618009221804e-07 9.8863720406529291e-07 4.3746735253474828e-05 -1.036377946537561e-05 -0.00015525405951625812 -2.4755353093784282e-05 -0.00019970385150143988
leaf_weight=86861 63 1011 600 69 376 31
leaf_count=86861 63 1011 600 69 376 31
internal_value=0 1.54644e-05 2.33535e-05 -7.78121e-05 -3.12779e-07 -3.90903e-05
internal_weight=0 1743 1611 132 87268 407
internal_count=89011 1743 1611 132 87268 407
is_linear=0
shrinkage=0.1


Tree=58
num_leaves=7
num_cat=0
split_feature=270 291 9 6 65 11
split_gain=4.25471e-05 8.52622e-05 9.50906e-05 7.88984e-05 0.000151344 7.1956e-05
threshold=0.16043559282552997 1.9688855749942806 0.0055247801629966951 0.0018948375624852078 0.10358605052720256 0.00070417657105071305
decision_type=2 2 2 2 2 2
left_child=3 5 -3 -1 -5 -2
right_child=1 2 -4 4 -6 -7
leaf_value=-2.7099971866536753e-06 4.3072943900856524e-06 1.1845067322813329e-05 0.00017414978030577769 -0.00012342058751484478 5.1097361269324517e-05 -2.6664755396275795e-06
leaf_weight=28379 34291 105 60 144 72 25960
leaf_count=28379 34291 105 60 144 72 25960
internal_value=0 1.49933e-06 7.33017e-05 -3.1827e-06 -6.3455e-05 1.2961e-06
internal_weight=0 60416 165 28595 216 60251
internal_count=89011 60416 165 28595 216 60251
is_linear=0
shrinkage=0.1


Tree=59
num_leaves=7
num_cat=0
split_feature=0 107 308 119 6 6
split_gain=4.27885e-05 7.49459e-05 0.000109653 7.6915e-05 6.05165e-05 7.3018e-05
threshold=0.0010506962553131773 -0.00098650027998958291 0.10620300751879701 0.051332725245768727 0.00054495918201258331 0.00093457971135180184
decision_type=2 2 2 2 2 2
left_child=4 2 -2 -3 -1 -6
right_child=1 3 -4 -5 5 -7
leaf_value=2.1936745252594277e-07 -0.00022942872938453806 -8.3708572833766985e-05 -6.9275000501286306e-06 3.5720113466501281e-05 -4.844762623633003e-05 -6.9361802659490069e-06
leaf_weight=84623 25 55 227 1032 518 2531
leaf_count=84623 25 55 227 1032 518 2531
internal_value=0 1.77365e-05 -3.06414e-05 2.93113e-05 -2.74825e-07 -1.41177e-05
internal_weight=0 1339 252 1087 87672 3049
internal_count=89011 1339 252 1087 87672 3049
is_linear=0
shrinkage=0.1


Tree=60
num_leaves=7
num_cat=0
split_feature=4 28 119 213 227 4
split_gain=4.2208e-05 0.000149011 0.000108727 9.22559e-05 5.81465e-05 0.000103674
threshold=0.052441819063848476 0.13714733542319751 0.27205958683691484 0.66091954022988519 0.0034290755346729263 -1.0000000180025095e-35
decision_type=2 2 2 2 2 2
left_child=4 2 -2 -3 5 -1
right_child=1 3 -4 -5 -6 -7
leaf_value=-0.00012442705763064454 -0.00023843648349088634 0.00012873714362351079 0 -1.9978505100935996e-05 1.7647610805630238e-07 -1.2992448708830358e-05
leaf_weight=91 25 149 81 52 87391 1222
leaf_count=91 25 149 81 52 87391 1222
internal_value=0 3.70027e-05 -5.66815e-05 8.83437e-05 -1.32958e-07 -2.10222e-05
internal_weight=0 307 106 201 88704 1313
internal_count=89011 307 106 201 88704 1313
is_linear=0
shrinkage=0.1


Tree=61
num_leaves=7
num_cat=0
split_feature=14 70 238 96 16 76
split_gain=4.18638e-05 8.86645e-05 7.0222e-05 6.6542e-05 0.000103528 9.84154e-05
threshold=0.097761069340016729 0.0038610122548226049 0.13343224530168155 0.0020371793444100565 1.0000000180025095e-35 0.04819976771196284
decision_type=2 2 2 2 2 2
left_child=1 2 -1 4 -2 -5
right_child=3 -3 -4 5 -6 -7
leaf_value=-1.2539068785199345e-07 0.00022513197780904575 -0.00015881222927698535 1.2830221843294884e-05 0.00014544974262650383 -1.5983662314572824e-06 1.4581802922881638e-05
leaf_weight=11259 20 33 6603 61 69724 1311
leaf_count=11259 20 33 6603 61 69724 1311
internal_value=0 4.31799e-06 4.64219e-06 -1.09315e-06 -1.52739e-06 2.06957e-05
internal_weight=0 17895 17862 71116 69744 1372
internal_count=89011 17895 17862 71116 69744 1372
is_linear=0
shrinkage=0.1


Tree=62
num_leaves=7
num_cat=0
split_feature=27 284 50 179 251 10
split_gain=3.99131e-05 6.43369e-05 0.00011612 8.16975e-05 5.45675e-05 0.000129899
threshold=0.047905909351692491 0.44722222222222224 0.11139311900733222 0.31751394251394255 0.078023538961038974 0.0089332533340616745
decision_type=2 2 2 2 2 2
left_child=1 3 -3 -1 5 -2
right_child=4 2 -4 -5 -6 -7
leaf_value=1.006351983477071e-05 -7.9094146995948341e-06 -0.00015045138698488046 4.7011092147955659e-06 7.423825833557944e-05 1.3718246199587137e-07 -9.1820651728325548e-05
leaf_weight=559 2485 51 814 323 84578 201
leaf_count=559 2485 51 814 323 84578 201
internal_value=0 1.49612e-05 -4.01758e-06 3.40124e-05 -3.03909e-07 -1.43372e-05
internal_weight=0 1747 865 882 87264 2686
internal_count=89011 1747 865 882 87264 2686
is_linear=0
shrinkage=0.1


Tree=63
num_leaves=7
num_cat=0
split_feature=19 164 50 256 10 294
split_gain=4.11083e-05 0.000113908 0.000131238 6.28392e-05 0.000153767 0.000127674
threshold=0.064554715233832397 0.0063430399767616706 0.0636533878106912 -0.0055241823713334517 0.0088630694780159648 -0.0068763362760186899
decision_type=2 2 2 2 2 2
left_child=1 -1 -3 4 -2 -5
right_child=3 2 -4 5 -6 -7
leaf_value=3.8315958117351594e-06 8.8708511804094536e-06 -0.00018270863111832363 -2.9531376675698989e-05 -0.00022984993303025791 0.00016166545082347986 2.3415845443477741e-07
leaf_weight=1570 367 61 903 24 82 86004
leaf_count=1570 367 61 903 24 82 86004
internal_value=0 -1.25573e-05 -3.96488e-05 3.64437e-07 3.76764e-05 1.65131e-07
internal_weight=0 2534 964 86477 449 86028
internal_count=89011 2534 964 86477 449 86028
is_linear=0
shrinkage=0.1


Tree=64
num_leaves=7
num_cat=0
split_feature=10 148 310 294 315 256
split_gain=3.96932e-05 9.19483e-05 8.18591e-05 5.40425e-05 0.00017167 9.21219e-05
threshold=0.0039217787214758859 0.11834733893557424 0.068220601923673616 0.0019240029626628188 0.12912287060529179 0.0010506962553131773
decision_type=2 2 2 2 2 2
left_child=1 -1 -3 5 -5 -2
right_child=3 2 -4 4 -6 -7
leaf_value=-2.1101203511230085e-05 -7.2602727771839995e-07 5.4320311048761843e-05 9.3139793725336437e-06 -8.0134189777219061e-05 -5.5987052070161955e-06 1.4417843984716107e-05
leaf_weight=898 73990 452 4328 332 4764 4247
leaf_count=898 73990 452 4328 332 4764 4247
internal_value=0 8.08718e-06 1.36523e-05 -5.53922e-07 -1.05326e-05 9.10966e-08
internal_weight=0 5678 4780 83333 5096 78237
internal_count=89011 5678 4780 83333 5096 78237
is_linear=0
shrinkage=0.1


Tree=65
num_leaves=7
num_cat=0
split_feature=6 85 239 15 288 288
split_gain=3.96221e-05 8.27862e-05 0.000118749 7.89269e-05 7.63984e-05 4.71441e-05
threshold=-0.00053475940926350763 0.93933823529411775 0.23408476865923677 0.037065659167668442 -0.0078087287030879074 1.0000000180025095e-35
decision_type=2 2 2 2 2 2
left_child=1 4 -3 -2 -1 -5
right_child=3 2 -4 5 -6 -7
leaf_value=0.00017141353000756204 -1.427100043555736e-05 2.1658456414110866e-05 -3.798507196880379e-05 -1.1330301780581149e-06 1.7179866733799359e-05 4.5689154729728874e-06
leaf_weight=33 3953 602 737 61923 2837 18926
leaf_count=33 3953 602 737 61923 2837 18926
internal_value=0 9.46721e-06 -1.08804e-05 -4.72912e-07 1.90958e-05 1.96944e-07
internal_weight=0 4209 1339 84802 2870 80849
internal_count=89011 4209 1339 84802 2870 80849
is_linear=0
shrinkage=0.1


Tree=66
num_leaves=7
num_cat=0
split_feature=24 134 27 105 4 310
split_gain=3.91823e-05 0.000153724 0.000161376 0.000114593 7.88343e-05 0.000103215
threshold=0.11834733893557424 -0.0031015793283639677 0.1956984273820537 0.0095119636549857219 0.052441819063848476 0.035929432013769365
decision_type=2 2 2 2 2 2
left_child=1 2 -1 -3 -2 -6
right_child=4 3 -4 -5 5 -7
leaf_value=0.00038935052183558262 -1.031663860556827e-06 2.260590464834082e-06 5.6532279828931274e-05 5.2188128815058218e-05 0.00015318797679944951 1.2422762835345162e-05
leaf_weight=20 76579 11595 68 480 75 194
leaf_count=20 76579 11595 68 480 75 194
internal_value=0 5.27159e-06 0.000137013 4.27795e-06 -8.36819e-07 5.31641e-05
internal_weight=0 12163 88 12075 76848 269
internal_count=89011 12163 88 12075 76848 269
is_linear=0
shrinkage=0.1


Tree=67
num_leaves=7
num_cat=0
split_feature=308 192 102 10 259 19
split_gain=3.74205e-05 0.000105211 8.78456e-05 7.33702e-05 8.43305e-05 6.86576e-05
threshold=0.14550264550264552 0.0062572756653782599 -0.0031168864813793102 0.0037520789416127416 0.0091614818191372276 0.18941062608463491
decision_type=2 2 2 2 2 2
left_child=1 2 -1 4 -2 -5
right_child=3 -3 -4 5 -6 -7
leaf_value=7.7165931408854324e-05 8.1414652938536806e-06 -0.00017360187514999106 -5.5979348475088535e-06 -6.734503345396371e-06 5.5262863323887768e-05 1.5759447821845097e-06
leaf_weight=129 1795 37 11716 11798 492 63044
leaf_count=129 1795 37 11716 11798 492 63044
internal_value=0 -5.22354e-06 -4.66301e-06 8.05129e-07 1.84508e-05 2.60698e-07
internal_weight=0 11882 11845 77129 2287 74842
internal_count=89011 11882 11845 77129 2287 74842
is_linear=0
shrinkage=0.1


Tree=68
num_leaves=7
num_cat=0
split_feature=239 233 255 227 39 176
split_gain=3.80778e-05 0.000183507 0.000100244 0.000186726 6.23234e-05 5.70479e-05
threshold=0.11989583333333335 0.0089765059313310133 0.099287769444837512 0.012291049114396543 -0.12917415935801599 0.40370370370370373
decision_type=2 2 2 2 2 2
left_child=1 4 3 -2 -1 -4
right_child=2 -3 5 -5 -6 -7
leaf_value=1.4529875819674071e-05 -5.887760634570303e-06 -0.00029760611399572997 -3.2342235064174198e-06 -7.2931424341002329e-05 1.075794384198797e-06 2.5803125384609863e-06
leaf_weight=4539 1858 20 34206 541 14579 33268
leaf_count=4539 1858 20 34206 541 14579 33268
internal_value=0 3.95277e-06 -1.08169e-06 -2.11716e-05 4.29045e-06 -3.61616e-07
internal_weight=0 19138 69873 2399 19118 67474
internal_count=89011 19138 69873 2399 19118 67474
is_linear=0
shrinkage=0.1


Tree=69
num_leaves=7
num_cat=0
split_feature=260 262 292 53 294 50
split_gain=3.71766e-05 0.000140911 0.000195365 0.00011887 0.000118816 0.000100441
threshold=0.0090104453333797688 -0.0065933086023042256 0.0072258445502494792 0.075961538461538483 0.002059733509162776 0.20803279422964924
decision_type=2 2 2 2 2 2
left_child=1 2 -1 5 -5 -2
right_child=3 -3 -4 4 -6 -7
leaf_value=0.00028793463569616888 7.6671685263383078e-05 1.031697263601658e-06 -8.3530877478730961e-05 -3.7999665619831259e-06 -4.0721225494177637e-05 1.0229959056073784e-05
leaf_weight=39 297 66873 20 19810 915 1057
leaf_count=39 297 66873 20 19810 915 1057
internal_value=0 1.17397e-06 0.000155533 -3.55808e-06 -5.44899e-06 2.50963e-05
internal_weight=0 66932 59 22079 20725 1354
internal_count=89011 66932 59 22079 20725 1354
is_linear=0
shrinkage=0.1


Tree=70
num_leaves=7
num_cat=0
split_feature=235 233 108 288 106 109
split_gain=3.75451e-05 0.000124468 0.000522032 0.000106766 7.7027e-05 0.000147141
threshold=1.1758184869431998e-05 0.008479080785958262 0.039230769230769243 -0.0027372285560893768 0.010284274917639171 0.44222222222222224
decision_type=2 2 2 2 2 2
left_child=4 3 -3 -2 -1 -6
right_child=1 2 -4 -5 5 -7
leaf_value=-1.9884387438691358e-06 -2.6177275683732824e-05 0.00038426189208890963 1.895977625849505e-05 1.5997267067822e-06 -3.7834898526497449e-06 -0.00016269998784983089
leaf_weight=37551 1424 40 1863 47854 192 87
leaf_count=37551 1424 40 1863 47854 192 87
internal_value=0 1.76635e-06 2.68664e-05 7.89103e-07 -2.38821e-06 -5.47788e-05
internal_weight=0 51181 1903 49278 37830 279
internal_count=89011 51181 1903 49278 37830 279
is_linear=0
shrinkage=0.1


Tree=71
num_leaves=7
num_cat=0
split_feature=131 18 310 10 27 254
split_gain=3.55459e-05 5.65809e-05 7.24785e-05 6.15543e-05 5.45489e-05 9.8627e-05
threshold=0.0036391459118732092 0.08643754224926177 0.96981089086352257 0.0061593756783503159 0.047905909351692491 0.063348560404761042
decision_type=2 2 2 2 2 2
left_child=1 2 -1 -3 5 -2
right_child=4 3 -4 -5 -6 -7
leaf_value=-3.3761822310512445e-05 0.00022974789874340932 3.8538386072182137e-06 -0.00021066198344647181 -3.0947571592239029e-05 2.1770774470049308e-08 1.5541432966899122e-05
leaf_weight=353 22 1887 26 689 84478 1556
leaf_count=353 22 1887 26 689 84478 1556
internal_value=0 -1.07837e-05 -4.69855e-05 -5.30473e-06 3.70486e-07 1.87914e-05
internal_weight=0 2955 379 2576 86056 1578
internal_count=89011 2955 379 2576 86056 1578
is_linear=0
shrinkage=0.1


Tree=72
num_leaves=7
num_cat=0
split_feature=49 75 231 267 281 15
split_gain=3.52071e-05 8.93094e-05 0.000163271 7.48995e-05 0.000103152 7.07284e-05
threshold=0.22361111111111112 0.010067652223112438 -0.25079200843601018 0.010062466224054578 0.34428879310344834 0.44957684375222257
decision_type=2 2 2 2 2 2
left_child=3 5 -3 -1 -5 -2
right_child=1 2 -4 4 -6 -7
leaf_value=2.2407330167844951e-06 -3.7995616538697399e-06 -0.00030262562537124171 -3.0976751064772309e-05 -7.5888989276297634e-06 0.00016259971497254973 3.8279644145211949e-06
leaf_weight=33524 37103 26 181 65 69 18043
leaf_count=33524 37103 26 181 65 69 18043
internal_value=0 -1.55025e-06 -6.71296e-05 2.55105e-06 7.7218e-05 -1.2969e-06
internal_weight=0 55353 207 33658 134 55146
internal_count=89011 55353 207 33658 134 55146
is_linear=0
shrinkage=0.1


Tree=73
num_leaves=7
num_cat=0
split_feature=256 312 35 224 293 4
split_gain=3.4255e-05 0.000109342 7.24884e-05 3.94661e-05 9.27103e-05 5.30797e-05
threshold=0.0066069199615341754 0.10741758241758244 0.0095334713397501828 0.0010529088303998793 0.010531510332375694 0.033093871775333121
decision_type=2 2 2 2 2 2
left_child=3 -2 -3 5 -5 -1
right_child=1 2 -4 4 -6 -7
leaf_value=-8.2047476780104993e-07 -0.00019322224328387837 5.2079321517643984e-05 -6.2913609710498383e-05 1.0040607052218659e-05 -3.6709034093278917e-05 2.1767907266406893e-05
leaf_weight=80357 38 102 116 6896 449 1053
leaf_count=80357 38 102 116 6896 449 1053
internal_value=0 -3.65184e-05 -7.33009e-06 1.05451e-07 7.12937e-06 -5.23502e-07
internal_weight=0 256 218 88755 7345 81410
internal_count=89011 256 218 88755 7345 81410
is_linear=0
shrinkage=0.1


Tree=74
num_leaves=7
num_cat=0
split_feature=289 261 218 256 288 228
split_gain=3.40092e-05 0.00015002 0.000147903 8.12028e-05 5.11184e-05 0.000115458
threshold=0.382937456619934 -0.56454949223773643 0.7722548111557066 -0.0020613252676735523 -0.001022233736152067 0.022335626423469441
decision_type=2 2 2 2 2 2
left_child=4 2 -2 -3 5 -1
right_child=1 3 -4 -5 -6 -7
leaf_value=-4.6287547850783313e-06 3.2252360168502162e-05 5.7261391402187861e-05 0.00022360623338780691 1.3297220199575456e-06 3.5714690685883158e-07 -5.1355839304504957e-05
leaf_weight=8461 138 275 61 4952 74557 567
leaf_count=8461 138 275 61 4952 74557 567
internal_value=0 7.67137e-06 9.29597e-05 4.34793e-06 -4.98433e-07 -7.6071e-06
internal_weight=0 5426 199 5227 83585 9028
internal_count=89011 5426 199 5227 83585 9028
is_linear=0
shrinkage=0.1


Tree=75
num_leaves=7
num_cat=0
split_feature=166 84 291 128 158 302
split_gain=3.45997e-05 0.000115773 0.00012128 8.14761e-05 8.59703e-05 5.62662e-05
threshold=-0.0018407740343286958 1.0000000180025095e-35 0.015172726608738451 -0.0010037642629185937 0.12514775413711585 0.06459637297384048
decision_type=2 2 2 2 2 2
left_child=1 -1 -3 4 -2 -5
right_child=3 2 -4 5 -6 -7
leaf_value=0.0001847795099793578 -7.3061416427006875e-05 1.5373093990193538e-05 -2.5005159065674364e-05 -6.55498607514811e-06 -1.043465340515077e-05 1.2832508589636765e-06
leaf_weight=37 235 3588 933 10539 3968 69711
leaf_count=37 235 3588 933 10539 3968 69711
internal_value=0 8.48749e-06 6.95388e-06 -4.57053e-07 -1.40307e-05 2.4903e-07
internal_weight=0 4558 4521 84453 4203 80250
internal_count=89011 4558 4521 84453 4203 80250
is_linear=0
shrinkage=0.1


Tree=76
num_leaves=7
num_cat=0
split_feature=317 289 292 294 228 38
split_gain=3.35299e-05 0.000101046 9.57535e-05 7.69378e-05 7.34062e-05 5.00248e-05
threshold=0.86190476190476206 0.40985190938004945 0.036381430441988549 -0.0057019676346223838 0.0083737496530967726 -0.0018399284792005586
decision_type=2 2 2 2 2 2
left_child=1 4 -3 -2 -1 -5
right_child=3 2 -4 5 -6 -7
leaf_value=2.6060481606702516e-06 0.00015596374068417999 2.1806882990676715e-05 0.00017806482468213611 4.1453485616507121e-05 -4.7712332998882097e-06 -4.2222925801516689e-06
leaf_weight=47132 30 1533 41 241 18881 21153
leaf_count=47132 30 1533 41 241 18881 21153
internal_value=0 1.09319e-06 2.61373e-05 -3.4468e-06 4.90115e-07 -3.68938e-06
internal_weight=0 67587 1574 21424 66013 21394
internal_count=89011 67587 1574 21424 66013 21394
is_linear=0
shrinkage=0.1


Tree=77
num_leaves=7
num_cat=0
split_feature=14 256 61 0 211 294
split_gain=3.34073e-05 8.68725e-05 0.000109941 7.63385e-05 6.42616e-05 8.70687e-05
threshold=0.4054424287301 -0.0048296324581276187 0.56696428571428581 0.0010584812525946676 0.75088652482269513 0.0038886242147873067
decision_type=2 2 2 2 2 2
left_child=4 2 -2 -3 -1 -6
right_child=1 3 -4 -5 5 -7
leaf_value=-3.6345344637056526e-07 8.5228228365526824e-05 -3.7677825587908816e-06 -8.8006616800149635e-05 3.7881723506735038e-05 8.5699048601417867e-06 -6.3617846229522502e-05
leaf_weight=45085 214 30214 42 445 12843 168
leaf_count=45085 214 30214 42 445 12843 168
internal_value=0 -2.65397e-06 5.52623e-05 -3.15045e-06 1.415e-06 7.60737e-06
internal_weight=0 30915 256 30659 58096 13011
internal_count=89011 30915 256 30659 58096 13011
is_linear=0
shrinkage=0.1


Tree=78
num_leaves=7
num_cat=0
split_feature=171 169 228 262 273 288
split_gain=3.44432e-05 0.000102369 0.000475163 9.55854e-05 0.000106404 8.71705e-05
threshold=1.1758184869431998e-05 0.0084787812750558109 0.004021375608124573 -0.0065933086023042256 0.7974358974358976 -0.0027372285560893768
decision_type=2 2 2 2 2 2
left_child=3 5 -3 4 -1 -2
right_child=1 2 -4 -5 -6 -7
leaf_value=0.00017659763292647823 -2.350798963203653e-05 0.00046612485645394959 1.8567955648288599e-05 -2.5357069225750969e-06 -6.594096038424382e-05 1.5375979721063511e-06
leaf_weight=60 1430 24 1882 37698 23 47894
leaf_count=60 1430 24 1882 37698 23 47894
internal_value=0 1.69045e-06 2.44366e-05 -2.28947e-06 0.000104718 8.03547e-07
internal_weight=0 51230 1906 37781 83 49324
internal_count=89011 51230 1906 37781 83 49324
is_linear=0
shrinkage=0.1


Tree=79
num_leaves=7
num_cat=0
split_feature=14 6 64 55 96 117
split_gain=3.26283e-05 7.49098e-05 7.15577e-05 5.28073e-05 5.247e-05 9.16652e-05
threshold=0.097761069340016729 0.00050100204592595798 -0.00096993240891318766 0.34464648126816966 0.0020371793444100565 0.36939571150097467
decision_type=2 2 2 2 2 2
left_child=1 2 -1 -3 -2 -6
right_child=4 3 -4 -5 5 -7
leaf_value=-1.8822958646864094e-05 -1.3450338636424594e-06 -3.4529302329918222e-05 8.1883312324922183e-06 -2.1581526741546017e-06 4.741272907004335e-05 -4.2069450783215665e-06
leaf_weight=1044 69744 758 14503 1590 608 764
leaf_count=1044 69744 758 14503 1590 608 764
internal_value=0 3.81829e-06 6.34938e-06 -1.27751e-05 -9.58856e-07 1.83874e-05
internal_weight=0 17895 15547 2348 71116 1372
internal_count=89011 17895 15547 2348 71116 1372
is_linear=0
shrinkage=0.1


Tree=80
num_leaves=7
num_cat=0
split_feature=102 133 309 102 87 262
split_gain=3.40337e-05 0.000271493 0.000133536 6.84337e-05 9.89471e-05 4.53698e-05
threshold=0.003883503686996193 -0.63547957633337393 0.22048611111111113 0.0037313508598346705 0.54912120288529931 0.0039370167733574499
decision_type=2 2 2 2 2 2
left_child=3 -2 -3 5 -5 -1
right_child=1 2 -4 4 -6 -7
leaf_value=2.1653387283765175e-07 -0.00036316349598437841 9.3203235935694195e-05 -5.6246058110893813e-05 -2.6225973909656601e-06 0.00021835591532581779 -2.7533174056705883e-05
leaf_weight=88054 23 90 176 40 35 593
leaf_count=88054 23 90 176 40 35 593
internal_value=0 -3.42536e-05 -4.20171e-06 1.11715e-07 9.55177e-05 2.64851e-08
internal_weight=0 289 266 88722 75 88647
internal_count=89011 289 266 88722 75 88647
is_linear=0
shrinkage=0.1


Tree=81
num_leaves=7
num_cat=0
split_feature=271 287 227 32 294 105
split_gain=3.21318e-05 7.69815e-05 0.00016029 7.20455e-05 6.76197e-05 8.68361e-05
threshold=0.13959984409510201 0.099287769444837512 0.012291049114396543 0.00050968404005757872 -0.00093109896553311689 0.0084091063083311206
decision_type=2 2 2 2 2 2
left_child=4 2 -2 -3 -1 -6
right_child=1 3 -4 -5 5 -7
leaf_value=1.3516295135727942e-05 -4.5131044334771433e-06 -1.491945710536282e-06 -6.9011642277253891e-05 1.0615434540253788e-05 1.9049288151992933e-06 -3.1126744485686017e-05
leaf_weight=5002 1691 58794 505 5360 16824 835
leaf_count=5002 1691 58794 505 5360 16824 835
internal_value=0 -1.11074e-06 -1.95253e-05 -4.74315e-07 3.25069e-06 3.20842e-07
internal_weight=0 66350 2196 64154 22661 17659
internal_count=89011 66350 2196 64154 22661 17659
is_linear=0
shrinkage=0.1


Tree=82
num_leaves=7
num_cat=0
split_feature=15 102 250 75 294 3
split_gain=3.21668e-05 8.48169e-05 0.000106929 8.88698e-05 6.71648e-05 0.00015946
threshold=0.18648458768771409 -0.0041623380414526059 0.45188746438746447 -0.0015928551674859938 0.0045615895509758539 0.011869546621398724
decision_type=2 2 2 2 2 2
left_child=1 2 -1 -3 -2 -6
right_child=4 3 -4 -5 5 -7
leaf_value=0.00021167338726905537 1.6469416830187336e-06 -3.5587630576015872e-05 -3.3738875980177604e-05 -2.0072511307159362e-06 -8.3791136921850073e-06 -0.0001708162497706928
leaf_weight=41 58553 812 27 29162 341 75
leaf_count=41 58553 812 27 29162 341 75
internal_value=0 -2.66413e-06 0.000108643 -2.93005e-06 1.35608e-06 -3.86393e-05
internal_weight=0 30042 68 29974 58969 416
internal_count=89011 30042 68 29974 58969 416
is_linear=0
shrinkage=0.1


Tree=83
num_leaves=7
num_cat=0
split_feature=6 314 96 42 102 80
split_gain=3.17281e-05 6.87887e-05 9.09167e-05 6.85207e-05 5.05521e-05 4.45232e-05
threshold=-0.00053475940926350763 0.53886192017259982 -0.0020741517775046954 0.0074385008007202729 -0.0053073956673239655 0.042572463768115944
decision_type=2 2 2 2 2 2
left_child=1 2 -1 -3 -2 -6
right_child=4 3 -4 -5 5 -7
leaf_value=-5.2403500281680387e-05 0.00011318337041840644 1.9853495328224419e-06 4.7303386264588907e-06 3.9695911951172691e-05 -3.2468182223627201e-05 -3.1075527425098943e-07
leaf_weight=325 39 937 1903 1044 433 84330
leaf_count=325 39 937 1903 1044 433 84330
internal_value=0 8.47234e-06 -3.43193e-06 2.20563e-05 -4.2264e-07 -4.79655e-07
internal_weight=0 4209 2228 1981 84802 84763
internal_count=89011 4209 2228 1981 84802 84763
is_linear=0
shrinkage=0.1


Tree=84
num_leaves=7
num_cat=0
split_feature=24 134 233 105 4 214
split_gain=3.18102e-05 0.000111634 0.000118886 9.28001e-05 6.8217e-05 8.91226e-05
threshold=0.11834733893557424 -0.0031015793283639677 0.0078607242070731619 0.0095119636549857219 0.052441819063848476 0.043614130434782614
decision_type=2 2 2 2 2 2
left_child=1 2 -1 -3 -2 -6
right_child=4 3 -4 -5 5 -7
leaf_value=0 -9.3505436347657313e-07 2.0796924517289074e-06 0.00023044269084718249 4.7017690329548212e-05 0.00014514468111637979 1.2476025414343597e-05
leaf_weight=43 76579 11595 45 480 72 197
leaf_count=43 76579 11595 45 480 72 197
internal_value=0 4.75039e-06 0.000117047 3.89866e-06 -7.53455e-07 4.94785e-05
internal_weight=0 12163 88 12075 76848 269
internal_count=89011 12163 88 12075 76848 269
is_linear=0
shrinkage=0.1


Tree=85
num_leaves=7
num_cat=0
split_feature=10 22 9 260 138 218
split_gain=3.09661e-05 0.000217198 0.000157285 0.000126294 5.95251e-05 0.00016334
threshold=0.0080459576591013129 0.26930926216640511 0.0052334857390155783 -1.0000000180025095e-35 0.00748352309472387 0.053924525050618198
decision_type=2 2 2 2 2 2
left_child=4 2 -2 -3 -1 -6
right_child=1 3 -4 -5 5 -7
leaf_value=-1.8179668873466363e-07 2.1724327826908577e-06 0.00013235709845072464 -3.5401365310899297e-05 1.4533302840055189e-06 9.1739909492457187e-05 6.1637868496680449e-06
leaf_weight=57328 1706 74 3112 16726 229 9836
leaf_count=57328 1706 74 3112 16726 229 9836
internal_value=0 -3.29274e-06 -2.20166e-05 2.054e-06 1.05686e-06 8.15049e-06
internal_weight=0 21618 4818 16800 67393 10065
internal_count=89011 21618 4818 16800 67393 10065
is_linear=0
shrinkage=0.1


Tree=86
num_leaves=7
num_cat=0
split_feature=291 4 25 36 146 288
split_gain=3.09247e-05 0.000113303 0.000121392 7.97204e-05 5.24177e-05 6.86684e-05
threshold=0.0036654958154909369 -1.0000000180025095e-35 0.19139194139194141 0.052874019223388184 0.024169404892296461 -0.0024943895419751168
decision_type=2 2 2 2 2 2
left_child=1 2 -1 -3 5 -2
right_child=4 3 -4 -5 -6 -7
leaf_value=-3.2000697408146612e-05 0.00015224829007171143 -7.9439473078414519e-06 -0.00027193941607318205 0.00011186311964990653 1.2801497152499359e-07 1.8018920681486506e-05
leaf_weight=71 41 3428 33 56 84554 828
leaf_count=71 41 3428 33 56 84554 828
internal_value=0 -9.09285e-06 -0.000112094 -5.90293e-06 3.83777e-07 2.48192e-05
internal_weight=0 3588 104 3484 85423 869
internal_count=89011 3588 104 3484 85423 869
is_linear=0
shrinkage=0.1


Tree=87
num_leaves=7
num_cat=0
split_feature=0 29 3 198 15 4
split_gain=3.05241e-05 7.36873e-05 0.000119617 6.53366e-05 4.61215e-05 7.33976e-05
threshold=-0.00050479560067628871 0.11237373737373739 0.057035776839205694 -0.0062229344304736136 0.061263585894127774 0.0093978449982018517
decision_type=2 2 2 2 2 2
left_child=1 3 -3 -1 5 -2
right_child=4 2 -4 -5 -6 -7
leaf_value=-0.00011665864479024979 -2.2846158440699446e-06 -1.1979317522387843e-05 -0.00015365734900423214 1.8792960994822329e-05 1.2218539609987124e-06 -2.7521544429607621e-05
leaf_weight=36 6669 3769 61 1129 75942 1405
leaf_count=36 6669 3769 61 1129 75942 1405
internal_value=0 -7.59261e-06 -1.4342e-05 1.42623e-05 4.53556e-07 -6.72468e-06
internal_weight=0 4995 3830 1165 84016 8074
internal_count=89011 4995 3830 1165 84016 8074
is_linear=0
shrinkage=0.1


Tree=88
num_leaves=7
num_cat=0
split_feature=239 233 255 67 294 56
split_gain=3.01335e-05 0.000143423 6.69784e-05 0.000151798 5.73159e-05 5.3599e-05
threshold=0.11989583333333335 0.0089765059313310133 0.099287769444837512 0.0093659494748831989 -0.00093370708739737285 0.11834733893557424
decision_type=2 2 2 2 2 2
left_child=1 4 3 -2 -1 -4
right_child=2 -3 5 -5 -6 -7
leaf_value=1.4411579381097896e-05 -1.0539418383540648e-06 -0.00026304762857858293 6.6345157533976265e-06 -5.6700612299148899e-05 9.5777640120450955e-07 -1.5106034475576157e-06
leaf_weight=4034 1702 20 9378 697 15084 58096
leaf_count=4034 1702 20 9378 697 15084 58096
internal_value=0 3.51614e-06 -9.62465e-07 -1.73853e-05 3.81699e-06 -3.72773e-07
internal_weight=0 19138 69873 2399 19118 67474
internal_count=89011 19138 69873 2399 19118 67474
is_linear=0
shrinkage=0.1


Tree=89
num_leaves=7
num_cat=0
split_feature=12 260 176 10 86 235
split_gain=2.98399e-05 0.000481958 8.60416e-05 5.03101e-05 0.000180273 5.39496e-05
threshold=0.056079664570230614 -1.0000000180025095e-35 0.046536796536796543 0.0080459576591013129 0.27290209790209791 0.0062266319413763838
decision_type=2 2 2 2 2 2
left_child=1 -1 -3 5 -5 -2
right_child=3 2 -4 4 -6 -7
leaf_value=0.00045489196976751544 7.6516520309846883e-07 -4.7879132768783747e-05 1.087232299964963e-05 -2.203093810253507e-05 4.5191322304105444e-07 4.2601709671092658e-05
leaf_weight=24 65474 270 3017 4640 15276 310
leaf_count=24 65474 270 3017 4640 15276 310
internal_value=0 9.31487e-06 5.92664e-06 -3.59946e-07 -4.76671e-06 9.68297e-07
internal_weight=0 3311 3287 85700 19916 65784
internal_count=89011 3311 3287 85700 19916 65784
is_linear=0
shrinkage=0.1


Tree=90
num_leaves=7
num_cat=0
split_feature=59 202 283 60 87 45
split_gain=3.01994e-05 5.02048e-05 4.08108e-05 0.000105127 8.17595e-05 3.96673e-05
threshold=0.043614130434782614 0.0096198556749532028 0.088316542086447861 0.053342816500711245 0.018576029445594666 0.27951388888888895
decision_type=2 2 2 2 2 2
left_child=1 -1 3 -2 -4 -3
right_child=2 5 4 -5 -6 -7
leaf_value=1.032519572702883e-05 -7.502919762276535e-05 0.00022513366332685043 -0.00013147826299702748 -6.0099435391368665e-06 2.6879748921814399e-07 2.5051906513378276e-05
leaf_weight=1471 239 20 47 3193 84011 30
leaf_count=1471 239 20 47 3193 84011 30
internal_value=0 1.39706e-05 -2.41552e-07 -1.0932e-05 1.90322e-07 0.000113185
internal_weight=0 1521 87490 3432 84058 50
internal_count=89011 1521 87490 3432 84058 50
is_linear=0
shrinkage=0.1


Tree=91
num_leaves=7
num_cat=0
split_feature=206 262 125 32 291 10
split_gain=2.90919e-05 7.1517e-05 0.000101246 6.76741e-05 6.54037e-05 5.87913e-05
threshold=0.16043559282552997 -0.0065933086023042256 0.13961038961038963 0.0029097990517081844 1.9688855749942806 0.0039407346870059699
decision_type=2 2 2 2 2 2
left_child=1 2 -1 -3 5 -2
right_child=4 3 -4 -5 -6 -7
leaf_value=-4.3056030920821387e-05 1.7451154597586973e-05 -2.4940463133717339e-06 0.00021355394958739952 -6.8205131068742002e-05 6.4324692562872817e-05 4.6315232517091916e-07
leaf_weight=23 2114 28303 36 158 164 58213
leaf_count=23 2114 28303 36 158 164 58213
internal_value=0 -2.63126e-06 0.000107068 -2.87277e-06 1.24298e-06 1.06492e-06
internal_weight=0 28520 59 28461 60491 60327
internal_count=89011 28520 59 28461 60491 60327
is_linear=0
shrinkage=0.1


Tree=92
num_leaves=7
num_cat=0
split_feature=28 300 51 236 265 25
split_gain=2.82736e-05 0.000165016 0.000120063 0.000106421 7.51479e-05 9.25893e-05
threshold=0.09232954545454547 0.020842379504993489 0.26764120073979231 0.039230769230769243 0.0034955652313609594 0.067424242424242428
decision_type=2 2 2 2 2 2
left_child=1 2 -1 -3 5 -2
right_child=4 3 -4 -5 -6 -7
leaf_value=-3.1174879799724139e-05 0.00010057653664791542 6.1269239508827009e-05 -0.00020659214202999531 -3.9416342309572467e-06 2.3689552591020139e-07 1.3572960509341783e-05
leaf_weight=109 132 254 67 14501 71861 2087
leaf_count=109 132 254 67 14501 71861 2087
internal_value=0 -3.96791e-06 -0.000100255 -2.79225e-06 8.02065e-07 1.89287e-05
internal_weight=0 14931 176 14755 74080 2219
internal_count=89011 14931 176 14755 74080 2219
is_linear=0
shrinkage=0.1


Tree=93
num_leaves=7
num_cat=0
split_feature=6 282 224 170 15 259
split_gain=2.83963e-05 5.86338e-05 0.000106045 5.76594e-05 5.211e-05 4.14121e-05
threshold=-0.00053475940926350763 0.22735477518871025 -0.003188953323338239 0.0073985325377132248 0.061263585894127774 0.006899541963932246
decision_type=2 2 2 2 2 2
left_child=1 2 -1 -3 5 -2
right_child=4 3 -4 -5 -6 -7
leaf_value=-0.00010565779142187558 -5.6544738913846657e-07 1.1470509111640613e-06 -1.0139012721468153e-06 2.7920505884253176e-05 3.8325583641983515e-07 -1.5344740039394945e-05
leaf_weight=111 3733 1677 817 1604 77094 3975
leaf_count=111 3733 1677 817 1604 77094 3975
internal_value=0 8.01923e-06 -1.39612e-05 1.43548e-05 -3.9576e-07 -8.2376e-06
internal_weight=0 4209 928 3281 84802 7708
internal_count=89011 4209 928 3281 84802 7708
is_linear=0
shrinkage=0.1


Tree=94
num_leaves=7
num_cat=0
split_feature=96 138 227 21 116 70
split_gain=2.82488e-05 8.30792e-05 0.000168654 6.31837e-05 5.61361e-05 7.30666e-05
threshold=-0.00050813012503247979 0.010285407649200476 0.057035776839205694 0.55777777777777793 0.12771739130434787 0.0037123020464528982
decision_type=2 2 2 2 2 2
left_child=1 3 -3 -1 5 -2
right_child=4 2 -4 -5 -6 -7
leaf_value=3.8527604328518647e-06 -6.8957133513703242e-06 -2.088975253159681e-05 -0.00019366466720497497 -1.0939766514097266e-05 1.5939606547586092e-06 -0.00016358983999741617
leaf_weight=6461 7321 449 66 5189 69495 30
leaf_count=6461 7321 449 66 5189 69495 30
internal_value=0 -4.47595e-06 -4.38262e-05 -2.70266e-06 7.103e-07 -7.59072e-06
internal_weight=0 12165 515 11650 76846 7351
internal_count=89011 12165 515 11650 76846 7351
is_linear=0
shrinkage=0.1


Tree=95
num_leaves=7
num_cat=0
split_feature=214 254 164 172 19 53
split_gain=2.78964e-05 7.96939e-05 0.000112943 6.4699e-05 4.03178e-05 9.84644e-05
threshold=0.76750471401634213 0.54564393939393951 -1.3046675055780417 0.039230769230769243 0.36853256021409458 0.089572192513368995
decision_type=2 2 2 2 2 2
left_child=4 2 -2 -3 -1 -6
right_child=1 3 -4 -5 5 -7
leaf_value=-2.007633418358253e-06 -0.00022058844084645545 8.8045534986012035e-05 -1.1365076743354449e-05 9.3722315223940213e-07 2.0643398414025816e-05 1.522125709825084e-06
leaf_weight=28852 26 86 6578 10720 2895 39854
leaf_count=28852 26 86 6578 10720 2895 39854
internal_value=0 -3.59015e-06 -1.22516e-05 1.6674e-06 8.72942e-07 2.82617e-06
internal_weight=0 17410 6604 10806 71601 42749
internal_count=89011 17410 6604 10806 71601 42749
is_linear=0
shrinkage=0.1


Tree=96
num_leaves=7
num_cat=0
split_feature=317 289 305 134 18 131
split_gain=2.85511e-05 8.20646e-05 0.000108204 7.14444e-05 7.23552e-05 5.76415e-05
threshold=0.86190476190476206 0.40985190938004945 0.4919354838709678 -0.0017785690730374169 0.12010928961748635 0.0075609516892276791
decision_type=2 2 2 2 2 2
left_child=1 -1 -3 5 -5 -2
right_child=3 2 -4 4 -6 -7
leaf_value=4.6466273694440431e-07 -3.2628399606003367e-06 1.9701014419144369e-05 0.00021590430484156589 9.6911401998376767e-06 -6.7726627900301267e-06 5.3079226485070537e-05
leaf_weight=66013 310 1545 29 3130 17584 400
leaf_count=66013 310 1545 29 3130 17584 400
internal_value=0 1.00875e-06 2.35791e-05 -3.18063e-06 -4.2661e-06 2.79359e-05
internal_weight=0 67587 1574 21424 20714 710
internal_count=89011 67587 1574 21424 20714 710
is_linear=0
shrinkage=0.1


Tree=97
num_leaves=7
num_cat=0
split_feature=199 159 304 10 97 16
split_gain=2.84964e-05 0.000155807 7.27152e-05 3.70183e-05 6.44982e-05 4.74203e-05
threshold=-0.53645581931401387 0.12147640849067314 0.98529411764705899 0.0039217787214758859 0.32060812519382637 1.0000000180025095e-35
decision_type=2 2 2 2 2 2
left_child=1 -1 -3 4 -2 -5
right_child=3 2 -4 5 -6 -7
leaf_value=-0.00024499855835850972 4.7106603354191545e-06 -1.8553989133888701e-05 7.1116564303941006e-05 0.00011928702145526767 4.3091645653191208e-05 -3.6015713184929901e-07
leaf_weight=29 4619 922 99 33 489 82820
leaf_count=29 4619 922 99 33 489 82820
internal_value=0 -1.63739e-05 -9.47144e-06 1.97215e-07 8.46192e-06 -3.0764e-07
internal_weight=0 1050 1021 87961 5108 82853
internal_count=89011 1050 1021 87961 5108 82853
is_linear=0
shrinkage=0.1


Tree=98
num_leaves=7
num_cat=0
split_feature=171 169 108 294 292 234
split_gain=2.81477e-05 8.14137e-05 0.000331429 7.96503e-05 0.000117443 7.84084e-05
threshold=1.1758184869431998e-05 0.0084787812750558109 0.04083333333333334 -0.0068763362760186899 0.0086322777561656776 0.013508852889486065
decision_type=2 2 2 2 2 2
left_child=3 -2 -3 4 -1 -5
right_child=1 2 -4 5 -6 -7
leaf_value=0.00025337207463407651 7.372763213656638e-07 0.00026386246024140289 1.4396169122502678e-05 -2.1414122118283291e-06 3.4731682370034884e-07 -0.0001457920864255962
leaf_weight=30 49324 55 1851 37658 55 38
leaf_count=30 49324 55 1851 37658 55 38
internal_value=0 1.5291e-06 2.1815e-05 -2.06876e-06 9.4447e-05 -2.29699e-06
internal_weight=0 51230 1906 37781 85 37696
internal_count=89011 51230 1906 37781 85 37696
is_linear=0
shrinkage=0.1


Tree=99
num_leaves=7
num_cat=0
split_feature=131 18 23 32 49 75
split_gain=2.72935e-05 4.1172e-05 7.30627e-05 4.48792e-05 4.02433e-05 7.39729e-05
threshold=0.0036391459118732092 0.091186252771618639 0.87119815668202782 0.0029097990517081844 0.22361111111111112 0.010067652223112438
decision_type=2 2 2 2 2 2
left_child=1 2 -1 -3 -2 -6
right_child=4 3 -4 -5 5 -7
leaf_value=-1.8499800867284491e-05 3.1900126942017252e-06 -2.9025056538687778e-06 -0.00013386203549730017 -0.00011881284746501396 -1.0726355534679108e-06 -6.1872482366320044e-05
leaf_weight=331 31320 2521 69 34 54535 201
leaf_count=331 31320 2521 69 34 54535 201
internal_value=0 -9.44637e-06 -3.9405e-05 -4.60253e-06 3.27631e-07 -1.30314e-06
internal_weight=0 2955 400 2555 86056 54736
internal_count=89011 2955 400 2555 86056 54736
is_linear=0
shrinkage=0.1


end of trees

feature_importances:
fLaggingRtn_10=26
sBidSize1_1=19
sLaggingRtn_1=18
stockSlope_a_1=18
sAskSize1_1=14
fLaggingRtn_9=14
sLaggingRtn_10=14
slope_a_1=13
fLaggingRtn_7=11
fLaggingRtn_2=10
sLaggingRtn_3=10
sLaggingRtn_5=9
fLaggingRtn_1=8
stockSlope_b_1=8
stockSlope_ab_1=8
fBidSize2_1=8
sLaggingRtn_2=8
fLaggingRtn_4=8
slope_a_10=8
sBidSize4_1=7
slope_b_10=7
sLaggingRtn_4=6
stockSlope_a_6=6
slope_a_8=6
slope_a_9=6
sLaggingRtn_9=6
slope_b_1=5
fAskSize1_1=5
stockSlope_ab_3=5
fLaggingRtn_8=5
slope_b_8=5
stockSpreadRatio_1=4
sAskSize2_1=4
sBidSize2_1=4
fBidSize4_1=4
fLaggingRtn_3=4
fAskSize1_3=4
fAskSize3_4=4
slope_b_5=4
stockSlope_b_5=4
fAskSize1_6=4
sLaggingRtn_7=4
stockSlope_b_8=4
fAskSize3_8=4
sAskSize5_8=4
slope_b_9=4
spreadRatio_10=4
sBidSize4_10=4
fAskSize2_1=3
sAskSize3_1=3
slope_a_2=3
sAskSize2_2=3
slope_b_3=3
sBidSize3_3=3
stockSlope_b_4=3
fAskSize1_4=3
sBidSize3_4=3
stockSlope_b_6=3
slope_b_7=3
fAskSize3_7=3
sBidSize1_8=3
sAskSize1_10=3
fAskSize3_10=3
sAskSize3_10=3
slope_ab_1=2
sBidSize3_1=2
fAskSize4_1=2
fAskSize5_1=2
slope_b_2=2
stockSlope_ab_2=2
fBidSize2_2=2
sBidSize2_2=2
fBidSize3_2=2
sBidSize3_2=2
fAskSize4_2=2
sAskSize5_2=2
slope_a_3=2
stockSlope_b_3=2
stockSlope_a_3=2
sAskSize2_3=2
fAskSize3_3=2
slope_b_4=2
slope_a_4=2
stockSlope_ab_4=2
fLaggingRtn_5=2
stockSlope_a_5=2
sAskSize2_5=2
fAskSize3_5=2
fBidSize3_5=2
sBidSize3_5=2
sAskSize5_5=2
slope_a_6=2
sLaggingRtn_6=2
stockSlope_ab_6=2
fAskSize2_6=2
sAskSize1_7=2
fBidSize2_7=2
sAskSize3_7=2
sAskSize4_7=2
sLaggingRtn_8=2
stockSlope_a_8=2
stockSlope_ab_8=2
sBidSize4_8=2
sBidSize5_8=2
sAskSize1_9=2
sBidSize1_9=2
sAskSize4_9=2
sBidSize4_9=2
fAskSize5_9=2
slope_ab_10=2
stockSlope_b_10=2
stockSlope_a_10=2
stockSlope_ab_10=2
fAskSize1_10=2
fAskSize4_10=2
fBidSize5_10=2
fBidSize1_1=1
fBidSize3_1=1
fBidSize5_1=1
sAskSize5_1=1
stockSpreadRatio_2=1
stockSlope_b_2=1
stockSlope_a_2=1
fBidSize1_2=1
fAskSize2_2=1
sAskSize3_2=1
sBidSize4_2=1
fAskSize5_2=1
fBidSize5_2=1
spreadRatio_3=1
fAskSize2_3=1
sBidSize2_3=1
fBidSize3_3=1
sAskSize3_3=1
sAskSize4_3=1
fBidSize5_3=1
sAskSize5_3=1
spreadRatio_4=1
stockSlope_a_4=1
fBidSize1_4=1
sBidSize1_4=1
sAskSize2_4=1
sBidSize2_4=1
fBidSize3_4=1
fAskSize4_4=1
sBidSize4_4=1
fBidSize5_4=1
slope_a_5=1
slope_ab_5=1
sAskSize1_5=1
fAskSize2_5=1
fBidSize2_5=1
sBidSize5_5=1
sAskSize2_6=1
sBidSize2_6=1
fAskSize3_6=1
fBidSize5_6=1
sAskSize5_6=1
slope_a_7=1
stockSpreadRatio_7=1
stockSlope_b_7=1
stockSlope_a_7=1
stockSlope_ab_7=1
fBidSize1_7=1
sAskSize2_7=1
sBidSize2_7=1
fBidSize3_7=1
fBidSize4_7=1
sAskSize5_7=1
sBidSize5_7=1
stockSpreadRatio_8=1
fAskSize1_8=1
fBidSize1_8=1
sAskSize1_8=1
sAskSize2_8=1
sBidSize2_8=1
sAskSize4_8=1
spreadRatio_9=1
slope_ab_9=1
stockSlope_b_9=1
stockSlope_ab_9=1
fBidSize1_9=1
fBidSize2_9=1
fAskSize3_9=1
fBidSize3_9=1
fBidSize4_9=1
sAskSize5_9=1
sBidSize5_9=1
fBidSize1_10=1
sBidSize1_10=1
fAskSize2_10=1
fBidSize2_10=1
sAskSize2_10=1
fBidSize3_10=1
sAskSize4_10=1

parameters:
[boosting: gbdt]
[objective: regression]
[metric: l2]
[tree_learner: serial]
[device_type: cpu]
[data: ]
[valid: ]
[num_iterations: 100]
[learning_rate: 0.1]
[num_leaves: 7]
[num_threads: -1]
[deterministic: 0]
[force_col_wise: 0]
[force_row_wise: 0]
[histogram_pool_size: -1]
[max_depth: 3]
[min_data_in_leaf: 20]
[min_sum_hessian_in_leaf: 0.001]
[bagging_fraction: 0.8]
[pos_bagging_fraction: 1]
[neg_bagging_fraction: 1]
[bagging_freq: 0]
[bagging_seed: 3]
[feature_fraction: 0.8]
[feature_fraction_bynode: 1]
[feature_fraction_seed: 2]
[extra_trees: 0]
[extra_seed: 6]
[early_stopping_round: 0]
[first_metric_only: 0]
[max_delta_step: 0]
[lambda_l1: 0.00388354]
[lambda_l2: 0.121663]
[linear_lambda: 0]
[min_gain_to_split: 0]
[drop_rate: 0.1]
[max_drop: 50]
[skip_drop: 0.5]
[xgboost_dart_mode: 0]
[uniform_drop: 0]
[drop_seed: 4]
[top_rate: 0.2]
[other_rate: 0.1]
[min_data_per_group: 100]
[max_cat_threshold: 32]
[cat_l2: 10]
[cat_smooth: 10]
[max_cat_to_onehot: 4]
[top_k: 20]
[monotone_constraints: ]
[monotone_constraints_method: basic]
[monotone_penalty: 0]
[feature_contri: ]
[forcedsplits_filename: ]
[refit_decay_rate: 0.9]
[cegb_tradeoff: 1]
[cegb_penalty_split: 0]
[cegb_penalty_feature_lazy: ]
[cegb_penalty_feature_coupled: ]
[path_smooth: 0]
[interaction_constraints: ]
[verbosity: -1]
[saved_feature_importance_type: 0]
[linear_tree: 0]
[max_bin: 255]
[max_bin_by_feature: ]
[min_data_in_bin: 3]
[bin_construct_sample_cnt: 200000]
[data_random_seed: 1]
[is_enable_sparse: 1]
[enable_bundle: 1]
[use_missing: 1]
[zero_as_missing: 0]
[feature_pre_filter: 1]
[pre_partition: 0]
[two_round: 0]
[header: 0]
[label_column: ]
[weight_column: ]
[group_column: ]
[ignore_column: ]
[categorical_feature: ]
[forcedbins_filename: ]
[precise_float_parser: 0]
[objective_seed: 5]
[num_class: 1]
[is_unbalance: 0]
[scale_pos_weight: 1]
[sigmoid: 1]
[boost_from_average: 1]
[reg_sqrt: 0]
[alpha: 0.9]
[fair_c: 1]
[poisson_max_delta_step: 0.7]
[tweedie_variance_power: 1.5]
[lambdarank_truncation_level: 30]
[lambdarank_norm: 1]
[label_gain: ]
[eval_at: ]
[multi_error_top_k: 1]
[auc_mu_weights: ]
[num_machines: 1]
[local_listen_port: 12400]
[time_out: 120]
[machine_list_filename: ]
[machines: ]
[gpu_platform_id: -1]
[gpu_device_id: -1]
[gpu_use_dp: 0]
[num_gpu: 1]

end of parameters

pandas_categorical:[]
