tree
version=v3
num_class=1
num_tree_per_iteration=1
label_index=0
max_feature_idx=319
objective=regression
feature_names=fLaggingRtn_1 spreadRatio_1 volumeImbalanceRatio_1 slope_b_1 slope_a_1 slope_ab_1 sLaggingRtn_1 stockSpreadRatio_1 stockVolumeImbalanceRatio_1 stockSlope_b_1 stockSlope_a_1 stockSlope_ab_1 fAskSize1_1 fBidSize1_1 sAskSize1_1 sBidSize1_1 fAskSize2_1 fBidSize2_1 sAskSize2_1 sBidSize2_1 fAskSize3_1 fBidSize3_1 sAskSize3_1 sBidSize3_1 fAskSize4_1 fBidSize4_1 sAskSize4_1 sBidSize4_1 fAskSize5_1 fBidSize5_1 sAskSize5_1 sBidSize5_1 fLaggingRtn_2 spreadRatio_2 volumeImbalanceRatio_2 slope_b_2 slope_a_2 slope_ab_2 sLaggingRtn_2 stockSpreadRatio_2 stockVolumeImbalanceRatio_2 stockSlope_b_2 stockSlope_a_2 stockSlope_ab_2 fAskSize1_2 fBidSize1_2 sAskSize1_2 sBidSize1_2 fAskSize2_2 fBidSize2_2 sAskSize2_2 sBidSize2_2 fAskSize3_2 fBidSize3_2 sAskSize3_2 sBidSize3_2 fAskSize4_2 fBidSize4_2 sAskSize4_2 sBidSize4_2 fAskSize5_2 fBidSize5_2 sAskSize5_2 sBidSize5_2 fLaggingRtn_3 spreadRatio_3 volumeImbalanceRatio_3 slope_b_3 slope_a_3 slope_ab_3 sLaggingRtn_3 stockSpreadRatio_3 stockVolumeImbalanceRatio_3 stockSlope_b_3 stockSlope_a_3 stockSlope_ab_3 fAskSize1_3 fBidSize1_3 sAskSize1_3 sBidSize1_3 fAskSize2_3 fBidSize2_3 sAskSize2_3 sBidSize2_3 fAskSize3_3 fBidSize3_3 sAskSize3_3 sBidSize3_3 fAskSize4_3 fBidSize4_3 sAskSize4_3 sBidSize4_3 fAskSize5_3 fBidSize5_3 sAskSize5_3 sBidSize5_3 fLaggingRtn_4 spreadRatio_4 volumeImbalanceRatio_4 slope_b_4 slope_a_4 slope_ab_4 sLaggingRtn_4 stockSpreadRatio_4 stockVolumeImbalanceRatio_4 stockSlope_b_4 stockSlope_a_4 stockSlope_ab_4 fAskSize1_4 fBidSize1_4 sAskSize1_4 sBidSize1_4 fAskSize2_4 fBidSize2_4 sAskSize2_4 sBidSize2_4 fAskSize3_4 fBidSize3_4 sAskSize3_4 sBidSize3_4 fAskSize4_4 fBidSize4_4 sAskSize4_4 sBidSize4_4 fAskSize5_4 fBidSize5_4 sAskSize5_4 sBidSize5_4 fLaggingRtn_5 spreadRatio_5 volumeImbalanceRatio_5 slope_b_5 slope_a_5 slope_ab_5 sLaggingRtn_5 stockSpreadRatio_5 stockVolumeImbalanceRatio_5 stockSlope_b_5 stockSlope_a_5 stockSlope_ab_5 fAskSize1_5 fBidSize1_5 sAskSize1_5 sBidSize1_5 fAskSize2_5 fBidSize2_5 sAskSize2_5 sBidSize2_5 fAskSize3_5 fBidSize3_5 sAskSize3_5 sBidSize3_5 fAskSize4_5 fBidSize4_5 sAskSize4_5 sBidSize4_5 fAskSize5_5 fBidSize5_5 sAskSize5_5 sBidSize5_5 fLaggingRtn_6 spreadRatio_6 volumeImbalanceRatio_6 slope_b_6 slope_a_6 slope_ab_6 sLaggingRtn_6 stockSpreadRatio_6 stockVolumeImbalanceRatio_6 stockSlope_b_6 stockSlope_a_6 stockSlope_ab_6 fAskSize1_6 fBidSize1_6 sAskSize1_6 sBidSize1_6 fAskSize2_6 fBidSize2_6 sAskSize2_6 sBidSize2_6 fAskSize3_6 fBidSize3_6 sAskSize3_6 sBidSize3_6 fAskSize4_6 fBidSize4_6 sAskSize4_6 sBidSize4_6 fAskSize5_6 fBidSize5_6 sAskSize5_6 sBidSize5_6 fLaggingRtn_7 spreadRatio_7 volumeImbalanceRatio_7 slope_b_7 slope_a_7 slope_ab_7 sLaggingRtn_7 stockSpreadRatio_7 stockVolumeImbalanceRatio_7 stockSlope_b_7 stockSlope_a_7 stockSlope_ab_7 fAskSize1_7 fBidSize1_7 sAskSize1_7 sBidSize1_7 fAskSize2_7 fBidSize2_7 sAskSize2_7 sBidSize2_7 fAskSize3_7 fBidSize3_7 sAskSize3_7 sBidSize3_7 fAskSize4_7 fBidSize4_7 sAskSize4_7 sBidSize4_7 fAskSize5_7 fBidSize5_7 sAskSize5_7 sBidSize5_7 fLaggingRtn_8 spreadRatio_8 volumeImbalanceRatio_8 slope_b_8 slope_a_8 slope_ab_8 sLaggingRtn_8 stockSpreadRatio_8 stockVolumeImbalanceRatio_8 stockSlope_b_8 stockSlope_a_8 stockSlope_ab_8 fAskSize1_8 fBidSize1_8 sAskSize1_8 sBidSize1_8 fAskSize2_8 fBidSize2_8 sAskSize2_8 sBidSize2_8 fAskSize3_8 fBidSize3_8 sAskSize3_8 sBidSize3_8 fAskSize4_8 fBidSize4_8 sAskSize4_8 sBidSize4_8 fAskSize5_8 fBidSize5_8 sAskSize5_8 sBidSize5_8 fLaggingRtn_9 spreadRatio_9 volumeImbalanceRatio_9 slope_b_9 slope_a_9 slope_ab_9 sLaggingRtn_9 stockSpreadRatio_9 stockVolumeImbalanceRatio_9 stockSlope_b_9 stockSlope_a_9 stockSlope_ab_9 fAskSize1_9 fBidSize1_9 sAskSize1_9 sBidSize1_9 fAskSize2_9 fBidSize2_9 sAskSize2_9 sBidSize2_9 fAskSize3_9 fBidSize3_9 sAskSize3_9 sBidSize3_9 fAskSize4_9 fBidSize4_9 sAskSize4_9 sBidSize4_9 fAskSize5_9 fBidSize5_9 sAskSize5_9 sBidSize5_9 fLaggingRtn_10 spreadRatio_10 volumeImbalanceRatio_10 slope_b_10 slope_a_10 slope_ab_10 sLaggingRtn_10 stockSpreadRatio_10 stockVolumeImbalanceRatio_10 stockSlope_b_10 stockSlope_a_10 stockSlope_ab_10 fAskSize1_10 fBidSize1_10 sAskSize1_10 sBidSize1_10 fAskSize2_10 fBidSize2_10 sAskSize2_10 sBidSize2_10 fAskSize3_10 fBidSize3_10 sAskSize3_10 sBidSize3_10 fAskSize4_10 fBidSize4_10 sAskSize4_10 sBidSize4_10 fAskSize5_10 fBidSize5_10 sAskSize5_10 sBidSize5_10
feature_infos=[-0.023153304974718125:0.022272635609123625] [-0.64674415100964433:0.60235058744634129] [0:1] [0:5.2530863875779312] [-2.5391424875795154:0.09059233447212546] [-5.2265715579743608:0.086281494539191358] [-0.0061974523283705452:0.0052724199465732369] [-0.70147026278096802:0.75735128691139142] [-1601279867509511:1656496414665009] [0:0.014606227094493341] [0:0.024164472044978756] [-0.0076022765800994874:0.016811558221263102] [0:1] [0:1] [0:1] [0:1] [0:1] [0:1] [0:1] [0:1] [0:1] [0:1] [0:1] [0:1] [0:1] [0:1] [0:1] [0:1] [0:1] [0:1] [0:1] [0:1] [-0.023153304974718125:0.022272635609123625] [-0.64674415100964433:0.60235058744634129] [0:1] [0:5.2530863875779312] [-2.5391424875795154:0.09059233447212546] [-5.2265715579743608:0.086281494539191358] [-0.0070859463894858976:0.0070237338793077697] [-0.70147026278096802:0.75735128691139142] [-1601279867509511:1656496414665009] [0:0.014606227094493341] [0:0.024164472044978756] [-0.0076022765800994874:0.016811558221263102] [0:1] [0:1] [0:1] [0:1] [0:1] [0:1] [0:1] [0:1] [0:1] [0:1] [0:1] [0:1] [0:1] [0:1] [0:1] [0:1] [0:1] [0:1] [0:1] [0:1] [-0.023153304974718125:0.023990488636655982] [-0.64674415100964433:0.60235058744634129] [0:1] [0:5.2530863875779312] [-2.5391424875795154:0.09059233447212546] [-5.2265715579743608:0.086281494539191358] [-0.0086957069675541732:0.0081037720631069732] [-0.70147026278096802:0.75735128691139142] [-1601279867509511:1656496414665009] [0:0.014606227094493341] [0:0.024164472044978756] [-0.0076022765800994874:0.016811558221263102] [0:1] [0:1] [0:1] [0:1] [0:1] [0:1] [0:1] [0:1] [0:1] [0:1] [0:1] [0:1] [0:1] [0:1] [0:1] [0:1] [0:1] [0:1] [0:1] [0:1] [-0.023153304974718125:0.023990488636655982] [-0.64674415100964433:0.60235058744634129] [0:1] [0:5.2530863875779312] [-2.5391424875795154:0.08761739987453894] [-5.2265715579743608:0.086281494539191358] [-0.0083056955872784499:0.0083893109483046402] [-0.70147026278096802:0.75735128691139142] [-1601279867509511:1656496414665009] [0:0.014606227094493341] [0:0.024164472044978756] [-0.0076022765800994874:0.016811558221263102] [0:1] [0:1] [0:1] [0:1] [0:1] [0:1] [0:1] [0:1] [0:1] [0:1] [0:1] [0:1] [0:1] [0:1] [0:1] [0:1] [0:1] [0:1] [0:1] [0:1] [-0.024956731973867718:0.023990488636655982] [-0.64674415100964433:0.60235058744634129] [0:1] [0:5.2530863875779312] [-2.5391424875795154:0.08761739987453894] [-5.2265715579743608:0.086281494539191358] [-0.009975145056818846:0.0083893109483046402] [-0.70147026278096802:0.75735128691139142] [-1601279867509511:1656496414665009] [0:0.014606227094493341] [0:0.024164472044978756] [-0.0076022765800994874:0.016811558221263102] [0:1] [0:1] [0:1] [0:1] [0:1] [0:1] [0:1] [0:1] [0:1] [0:1] [0:1] [0:1] [0:1] [0:1] [0:1] [0:1] [0:1] [0:1] [0:1] [0:1] [-0.023194616980468652:0.023990488636655982] [-0.64559216384683882:0.60235058744634129] [0:1] [0:5.2530863875779312] [-2.5391424875795154:0.08761739987453894] [-5.2265715579743608:0.086281494539191358] [-0.010801933032814404:0.0097324369182310022] [-0.70147026278096802:0.75735128691139142] [-1601279867509511:1656496414665009] [0:0.014606227094493341] [0:0.024164472044978756] [-0.0076022765800994874:0.016811558221263102] [0:1] [0:1] [0:1] [0:1] [0:1] [0:1] [0:1] [0:1] [0:1] [0:1] [0:1] [0:1] [0:1] [0:1] [0:1] [0:1] [0:1] [0:1] [0:1] [0:1] [-0.023194616980468652:0.023990488636655982] [-0.64559216384683882:0.60235058744634129] [0:1] [0:5.2530863875779312] [-2.5391424875795154:0.08761739987453894] [-5.2265715579743608:0.086281494539191358] [-0.010801933032814404:0.011363758650315248] [-0.70147026278096802:0.75735128691139142] [-1601279867509511:1656496414665009] [0:0.014606227094493341] [0:0.024164472044978756] [-0.0076022765800994874:0.016811558221263102] [0:1] [0:1] [0:1] [0:1] [0:1] [0:1] [0:1] [0:1] [0:1] [0:1] [0:1] [0:1] [0:1] [0:1] [0:1] [0:1] [0:1] [0:1] [0:1] [0:1] [-0.023153304974718125:0.024183892452883882] [-0.64559216384683882:0.60235058744634129] [0:1] [0:5.2530863875779312] [-2.5391424875795154:0.08761739987453894] [-5.2265715579743608:0.086281494539191358] [-0.011628037995119911:0.011363758650315248] [-0.70147026278096802:0.75735128691139142] [-1601279867509511:1656496414665009] [0:0.014606227094493341] [0:0.024164472044978756] [-0.0076022765800994874:0.016811558221263102] [0:1] [0:1] [0:1] [0:1] [0:1] [0:1] [0:1] [0:1] [0:1] [0:1] [0:1] [0:1] [0:1] [0:1] [0:1] [0:1] [0:1] [0:1] [0:1] [0:1] [-0.022272635609123625:0.024183892452883882] [-0.64559216384683882:0.60235058744634129] [0:1] [0:5.2530863875779312] [-2.5391424875795154:0.08761739987453894] [-5.2265715579743608:0.086281494539191358] [-0.011628037995119911:0.011363758650315248] [-0.70147026278096802:0.75735128691139142] [-1601279867509511:1656496414665009] [0:0.014606227094493341] [0:0.024164472044978756] [-0.0076022765800994874:0.016811558221263102] [0:1] [0:1] [0:1] [0:1] [0:1] [0:1] [0:1] [0:1] [0:1] [0:1] [0:1] [0:1] [0:1] [0:1] [0:1] [0:1] [0:1] [0:1] [0:1] [0:1] [-0.022272635609123625:0.025952239509624775] [-0.64559216384683882:0.60235058744634129] [0:1] [0:5.2530863875779312] [-2.5391424875795154:0.08761739987453894] [-5.2265715579743608:0.086281494539191358] [-0.011628037995119911:0.012976662225780089] [-0.70147026278096802:0.75735128691139142] [-1601279867509511:1656496414665009] [0:0.014606227094493341] [0:0.024164472044978756] [-0.0076022765800994874:0.016811558221263102] [0:1] [0:1] [0:1] [0:1] [0:1] [0:1] [0:1] [0:1] [0:1] [0:1] [0:1] [0:1] [0:1] [0:1] [0:1] [0:1] [0:1] [0:1] [0:1] [0:1]
tree_sizes=956 897 880 907 884 929 879 910 898 893 946 885 889 899 897 897 912 888 773 904 892 894 885 925 897 762 950 903 862 882 853 875 768 889 949 858 912 885 873 749 774 854 865 864 895 769 848 845 865 859 870 745 907 757 855 891 853 878 772 867 893 752 879 792 851 856 891 760 760 889 896 896 774 869 880 754 763 878 861 780 874 847 771 772 763 854 911 893 852 885 853 883 900 889 767 875 754 859 851 791

Tree=0
num_leaves=8
num_cat=0
split_feature=11 256 230 6 14 262 64
split_gain=0.000763898 0.000449998 0.000314222 0.000305308 0.000198795 0.000103213 8.05818e-05
threshold=3.0987645673152219e-05 0.0016570023450181994 1.0000000180025095e-35 1.0000000180025095e-35 0.059356967813158169 0.0016652804735830531 0.00086956543656402385
decision_type=2 2 2 2 2 2 2
left_child=3 2 -2 4 -1 -3 -5
right_child=1 5 -4 6 -6 -7 -8
leaf_value=-5.9399561630372476e-07 -3.7092846691492298e-05 4.8091064354072619e-06 -6.2284395496871569e-05 -5.7423230468085997e-05 -2.0829674882196101e-05 -2.975907303091815e-05 -2.975907303091815e-05
leaf_weight=7681 40523 2449 6376 2198 26249 2638 888
leaf_count=7681 40523 2449 6376 2198 26249 2638 888
internal_value=-2.97591e-05 -3.75766e-05 -4.0863e-05 -1.878e-05 -1.57714e-05 -1.04613e-05 -4.6611e-05
internal_weight=0 51986 46899 37016 33930 5087 3086
internal_count=89002 51986 46899 37016 33930 5087 3086
is_linear=0
shrinkage=1


Tree=1
num_leaves=8
num_cat=0
split_feature=14 288 38 9 6 288 244
split_gain=0.000522711 0.00038569 0.000275312 0.000267891 0.000267712 7.61602e-05 5.41123e-05
threshold=0.27453168767507014 0.0016570023450181994 1.0000000180025095e-35 0.0072280794915256076 -0.00076745985904214098 0.0015438060170902548 0.26975051975051983
decision_type=2 2 2 2 2 2 2
left_child=2 4 3 -1 -2 -4 -3
right_child=1 6 5 -5 -6 -7 -8
leaf_value=4.1448990223752754e-06 1.5158113434116024e-05 0 -2.6518753627105141e-05 2.255487317643809e-05 -1.4321897372660352e-05 0 2.2166805483908587e-05
leaf_weight=30633 2855 397 2633 12396 34728 1224 4136
leaf_count=30633 2855 397 2633 12396 34728 1224 4136
internal_value=0 -8.06078e-06 7.2883e-06 9.82491e-06 -1.16515e-05 -1.68115e-05 1.81374e-05
internal_weight=0 42116 46886 43029 37583 3857 4533
internal_count=89002 42116 46886 43029 37583 3857 4533
is_linear=0
shrinkage=0.1


Tree=2
num_leaves=8
num_cat=0
split_feature=15 224 14 38 256 230 32
split_gain=0.000651679 0.000350033 0.000309078 0.000297475 0.000143038 7.10589e-05 2.69094e-05
threshold=0.072998897054267417 0.00088967995003841349 0.27828137817883519 -0.00076569693371464343 0.00082713004801338041 0.0030534392661865088 -0.0015497874471428472
decision_type=2 2 2 2 2 2 2
left_child=3 2 -2 6 -5 -3 -1
right_child=1 5 -4 4 -6 -7 -8
leaf_value=0 8.4705386216630657e-06 2.8154156967721819e-05 -5.7898776094081977e-06 -2.4583704773636618e-05 0 0 2.2353290703964906e-05
leaf_weight=344 33511 7006 26762 14552 4155 985 1687
leaf_count=344 33511 7006 26762 14552 4155 985 1687
internal_value=0 4.77016e-06 1.87006e-06 -1.54706e-05 -1.9841e-05 2.46177e-05 1.68095e-05
internal_weight=0 68264 60273 20738 18707 7991 2031
internal_count=89002 68264 60273 20738 18707 7991 2031
is_linear=0
shrinkage=0.1


Tree=3
num_leaves=8
num_cat=0
split_feature=11 256 230 6 64 262 64
split_gain=0.000484863 0.000281179 0.000244177 0.000224477 0.000152132 8.02515e-05 6.37879e-05
threshold=3.0987645673152219e-05 0.0016570023450181994 1.0000000180025095e-35 1.0000000180025095e-35 -0.00082576401923617471 0.0016652804735830531 0.00086956543656402385
decision_type=2 2 2 2 2 2 2
left_child=3 2 -2 4 -1 -3 -5
right_child=1 5 -4 6 -6 -7 -8
leaf_value=-3.717625774857968e-06 -5.4573292542281389e-06 2.8204447744283384e-05 -2.7685091009841411e-05 -2.4493231860563929e-05 1.4057450918883083e-05 0 0
leaf_weight=4120 40523 2449 6376 2198 29810 2638 888
leaf_count=4120 40523 2449 6376 2198 29810 2638 888
internal_value=0 -6.18101e-06 -8.82457e-06 8.79382e-06 1.14218e-05 1.50074e-05 -1.48528e-05
internal_weight=0 51986 46899 37016 33930 5087 3086
internal_count=89002 51986 46899 37016 33930 5087 3086
is_linear=0
shrinkage=0.1


Tree=4
num_leaves=8
num_cat=0
split_feature=15 6 192 198 14 6 256
split_gain=0.000487609 0.000299359 0.000286192 0.000304673 0.000141148 6.45172e-05 2.84367e-05
threshold=0.072998897054267417 -0.0008271300480133802 0.00080064068348661987 -0.00077041617707784827 0.11775210084033615 1.0000000180025095e-35 -0.0016736417300284854
decision_type=2 2 2 2 2 2 2
left_child=1 6 3 -2 -3 -4 -1
right_child=2 4 5 -5 -6 -7 -8
leaf_value=0 1.5197265589165751e-05 0 2.2195367676899296e-05 -2.5556357410205847e-06 -2.1841460047756857e-05 0 2.5829994588347153e-05
leaf_weight=310 12137 3434 9350 44943 15367 1834 1627
leaf_count=310 12137 3434 9350 44943 15367 1834 1627
internal_value=0 -1.34059e-05 4.10274e-06 9.35519e-07 -1.77438e-05 1.88193e-05 2.03376e-05
internal_weight=0 20738 68264 57080 18801 11184 1937
internal_count=89002 20738 68264 57080 18801 11184 1937
is_linear=0
shrinkage=0.1


Tree=5
num_leaves=8
num_cat=0
split_feature=15 17 38 288 32 288 64
split_gain=0.000408629 0.000245702 0.000199256 0.000180486 0.000145635 8.14438e-05 4.6341e-05
threshold=0.12576733325801229 0.65933268858800786 -0.00076569693371464343 0.00081168848994472864 -1.0000000180025095e-35 -0.00082440249509208019 -0.0015540028049336738
decision_type=2 2 2 2 2 2 2
left_child=2 4 6 -4 -2 -3 -1
right_child=1 5 3 -5 -6 -7 -8
leaf_value=0 -4.5268427067690561e-06 -1.2322735272778864e-05 -1.5756402646007518e-05 5.1936594660368788e-07 1.3540022441042098e-05 5.8498345793051136e-07 2.1290350976956826e-05
leaf_weight=592 3792 5949 23250 7000 28829 17321 2269
leaf_count=592 3792 5949 23250 7000 28829 17321 2269
internal_value=0 5.25684e-06 -8.76156e-06 -1.14548e-05 1.09434e-05 -2.01905e-06 1.40543e-05
internal_weight=0 55891 33111 30250 32621 23270 2861
internal_count=89002 55891 33111 30250 32621 23270 2861
is_linear=0
shrinkage=0.1


Tree=6
num_leaves=8
num_cat=0
split_feature=230 224 256 15 67 286 134
split_gain=0.000368814 0.00050427 0.000324016 0.000323908 4.25169e-05 4.08587e-05 3.87615e-05
threshold=-0.00077101017590752708 -1.0000000180025095e-35 -0.0016148572955971827 0.052694686356178223 0.013850689767603406 0.42873613703744379 -0.00083822316362613936
decision_type=2 2 2 2 2 2 2
left_child=2 6 5 -3 -4 -1 -2
right_child=1 3 4 -5 -6 -7 -8
leaf_value=-2.0387979272335754e-05 0 -1.4664652202870433e-05 2.7115081413995107e-05 3.658775826244805e-06 0 0 -2.5819770543414696e-05
leaf_weight=1039 374 11832 9106 51884 686 4983 9098
leaf_count=1039 374 11832 9106 51884 686 4983 9098
internal_value=0 -2.94566e-06 1.38946e-05 1.96407e-09 2.53042e-05 -1.96885e-06 -2.4483e-05
internal_weight=0 73188 15814 63716 9792 6022 9472
internal_count=89002 73188 15814 63716 9792 6022 9472
is_linear=0
shrinkage=0.1


Tree=7
num_leaves=8
num_cat=0
split_feature=11 294 288 288 160 198 313
split_gain=0.000322559 0.000202487 0.000247972 0.000201178 0.000160318 0.000113462 2.94379e-05
threshold=0.00088189803826158226 -0.00083402855034808699 0.00078247277315135488 -0.0016148572955971827 0.0008326396595306208 -0.00087183980241345427 0.51564027370478993
decision_type=2 2 2 2 2 2 2
left_child=1 3 -3 -1 5 -2 -6
right_child=4 2 -4 -5 6 -7 -8
leaf_value=0 2.3170434307802734e-06 -2.8634110358965864e-06 1.3301917731226e-05 2.5389237606964703e-05 0 -1.6920987046815257e-05 1.3354810994850944e-05
leaf_weight=5233 2003 40597 12231 7577 1691 17355 2315
leaf_count=5233 2003 40597 12231 7577 1691 17355 2315
internal_value=0 3.63017e-06 5.7276e-07 1.49746e-05 -1.00516e-05 -1.40939e-05 5.43931e-06
internal_weight=0 65638 52828 12810 23364 19358 4006
internal_count=89002 65638 52828 12810 23364 19358 4006
is_linear=0
shrinkage=0.1


Tree=8
num_leaves=8
num_cat=0
split_feature=15 6 96 14 6 102 0
split_gain=0.000279779 0.000210352 0.00020611 0.000181207 0.000169033 9.23407e-05 4.57978e-05
threshold=0.1778751140164184 -0.00088105749669953315 -0.00078926614652541349 0.26208861381275178 1.0000000180025095e-35 -0.001537280227122295 -0.0016488061107775562
decision_type=2 2 2 2 2 2 2
left_child=1 6 5 -3 -4 -2 -1
right_child=2 3 4 -5 -6 -7 -8
leaf_value=0 1.5392181440854086e-06 0 1.1159307375290151e-05 -1.3892436026048934e-05 -1.0857511999517949e-05 -1.7293564831684678e-05 3.300822828599647e-05
leaf_weight=255 2715 21118 34241 21148 3144 4844 1537
leaf_count=255 2715 21118 34241 21148 3144 4844 1537
internal_value=0 -5.60226e-06 5.61105e-06 -7.32775e-06 8.87456e-06 -8.38718e-06 2.60569e-05
internal_weight=0 44058 44944 42266 37385 7559 1792
internal_count=89002 44058 44944 42266 37385 7559 1792
is_linear=0
shrinkage=0.1


Tree=9
num_leaves=8
num_cat=0
split_feature=288 262 14 294 256 60 61
split_gain=0.000258973 0.000448028 0.0002309 0.000115207 6.8196e-05 2.48048e-05 2.0975e-05
threshold=0.00088731167918432174 0.00077821027382984919 0.066765725606736021 0.00089605758749033992 0.0024232649090496499 0.96225071225071235 0.029198635976129584
decision_type=2 2 2 2 2 2 2
left_child=1 2 -1 5 -5 -2 -3
right_child=3 6 -4 4 -6 -7 -8
leaf_value=1.4649055905491951e-05 2.8395994038783579e-05 0 -1.9759149379551621e-06 -2.1308282855398624e-06 1.8682110597017782e-05 0 -2.6744052554557996e-05
leaf_weight=9684 4490 348 59382 4687 1936 1424 7051
leaf_count=9684 4490 348 59382 4687 1936 1424 7051
internal_value=0 -2.15241e-06 1.20695e-07 1.33532e-05 1.50837e-06 2.38797e-05 -2.55589e-05
internal_weight=0 76465 69066 12537 6623 5914 7399
internal_count=89002 76465 69066 12537 6623 5914 7399
is_linear=0
shrinkage=0.1


Tree=10
num_leaves=8
num_cat=0
split_feature=1 25 198 160 15 160 29
split_gain=0.000246666 0.000209495 0.000192135 0.000164963 0.000143028 0.000115495 7.04564e-05
threshold=0.0072005118183342967 0.36435786435786438 -0.00077041617707784827 0.0016542612277810067 0.069320132013201335 -0.0016494851905708428 0.43050193050193059
decision_type=2 2 2 2 2 2 2
left_child=2 6 5 -4 -3 -1 -2
right_child=1 4 3 -5 -6 -7 -8
leaf_value=-5.6149998031567145e-06 -9.5506840760822945e-06 -1.1645633054361242e-06 -9.6638915571058424e-06 1.3399711808266882e-05 1.4497185038968235e-05 1.7065940523905844e-05 5.5244719808045634e-06
leaf_weight=2310 8872 5417 38223 2814 22323 5716 3327
leaf_count=2310 8872 5417 38223 2814 22323 5716 3327
internal_value=0 5.8781e-06 -4.70624e-06 -7.68773e-06 1.08551e-05 8.52048e-06 -4.11185e-06
internal_weight=0 39939 49063 41037 27740 8026 12199
internal_count=89002 39939 49063 41037 27740 8026 12199
is_linear=0
shrinkage=0.1


Tree=11
num_leaves=8
num_cat=0
split_feature=134 160 15 160 166 195 230
split_gain=0.000216483 0.000351128 0.000243534 0.000179541 4.17284e-05 4.10369e-05 3.75996e-05
threshold=-0.00077101017590752708 -1.0000000180025095e-35 0.035980470122616563 -0.0016494851905708428 -0.00085616459275694712 0.012638523674589451 -0.0016970732626360172
decision_type=2 2 2 2 2 2 2
left_child=3 4 -3 6 -2 -5 -1
right_child=1 2 -4 5 -6 -7 -8
leaf_value=0 0 -1.5333429465648493e-05 2.9473141780298978e-06 2.2277251081253597e-05 -2.1545016441910091e-05 0 -1.5920226447266463e-05
leaf_weight=2103 922 8260 58213 8161 9068 684 1591
leaf_count=2103 922 8260 58213 8161 9068 684 1591
internal_value=0 -1.95805e-06 4.32101e-07 1.22175e-05 -1.94828e-05 2.02856e-05 -2.71747e-06
internal_weight=0 76463 66473 12539 9990 8845 3694
internal_count=89002 76463 66473 12539 9990 8845 3694
is_linear=0
shrinkage=0.1


Tree=12
num_leaves=8
num_cat=0
split_feature=14 6 288 14 6 154 192
split_gain=0.00020031 0.000183678 0.000172661 0.000154821 0.00012643 4.4564e-05 3.08235e-05
threshold=0.27453168767507014 1.0000000180025095e-35 0.00174672666727993 0.052674932801526061 -0.00076745985904214098 0.9889499389499391 0.0017937238968279703
decision_type=2 2 2 2 2 2 2
left_child=1 3 4 -1 -2 -4 -3
right_child=2 6 5 -5 -6 -7 -8
leaf_value=1.9897015974371161e-05 1.0491906918702685e-05 -2.0468881525758983e-05 2.5203381315559168e-05 3.2205162693259895e-06 -8.8414313427880821e-06 0 0
leaf_weight=7643 2988 2997 2054 35978 36387 687 268
leaf_count=7643 2988 2997 2054 35978 36387 687 268
internal_value=0 4.52848e-06 -4.9731e-06 6.51374e-06 -6.96302e-06 1.77041e-05 -1.70348e-05
internal_weight=0 46886 42116 43621 39375 2741 3265
internal_count=89002 46886 42116 43621 39375 2741 3265
is_linear=0
shrinkage=0.1


Tree=13
num_leaves=8
num_cat=0
split_feature=64 294 288 70 288 92 96
split_gain=0.000192816 0.000258679 0.000218352 9.07984e-05 8.45876e-05 3.32594e-05 6.35461e-06
threshold=-0.00080256839061387797 -0.00077101017590752708 0.00088731167918432174 -0.00087489086189318488 -0.0016148572955971827 0.22295321637426904 -0.0016142064060593595
decision_type=2 2 2 2 2 2 2
left_child=3 4 -3 6 -2 -5 -1
right_child=1 2 -4 5 -6 -7 -8
leaf_value=-2.2658938637335319e-06 0 -3.4683145975769525e-06 1.1489963187063639e-05 0 2.01654616513629e-05 -2.1703349805351754e-05 6.0900759265424446e-06
leaf_weight=1988 3850 53288 11810 1414 9034 6180 1438
leaf_count=1988 3850 53288 11810 1414 9034 6180 1438
internal_value=0 1.81778e-06 -5.05834e-07 -1.2312e-05 1.48149e-05 -1.84264e-05 0
internal_weight=0 77982 65098 11020 12884 7594 3426
internal_count=89002 77982 65098 11020 12884 7594 3426
is_linear=0
shrinkage=0.1


Tree=14
num_leaves=8
num_cat=0
split_feature=15 17 6 15 6 271 32
split_gain=0.000185987 0.000149411 0.000137884 0.00011832 9.87226e-05 4.29583e-05 3.96857e-05
threshold=0.1778751140164184 0.67006802721088443 -0.00088105749669953315 0.029636949202166595 1.0000000180025095e-35 0.51847584912101052 -0.0016433868533116678
decision_type=2 2 2 2 2 2 2
left_child=2 4 6 -4 -2 -3 -1
right_child=1 5 3 -5 -6 -7 -8
leaf_value=0 1.1664315577973667e-05 0 -1.7477307650177427e-05 -2.8851346320904779e-06 -5.9448132513589786e-06 -1.1269590711716375e-05 2.8084137479142902e-05
leaf_weight=316 24226 14582 7928 34338 2373 3763 1476
leaf_count=316 24226 14582 7928 34338 2373 3763 1476
internal_value=0 4.59026e-06 -4.55189e-06 -6.00542e-06 9.48453e-06 -1.6234e-06 2.0693e-05
internal_weight=0 44944 44058 42266 26599 18345 1792
internal_count=89002 44944 44058 42266 26599 18345 1792
is_linear=0
shrinkage=0.1


Tree=15
num_leaves=8
num_cat=0
split_feature=256 198 294 15 286 57 54
split_gain=0.000182522 0.000199154 0.000198859 0.000144169 4.96433e-05 2.69547e-05 2.33801e-05
threshold=-1.0000000180025095e-35 -0.0008271300480133802 -1.0000000180025095e-35 0.042572892040977153 0.42873613703744379 0.11566332218506133 0.15689852583369115
decision_type=2 2 2 2 2 2 2
left_child=1 4 5 -4 -1 -2 -3
right_child=2 6 3 -5 -6 -7 -8
leaf_value=-1.1675138604606766e-05 0 0 -1.070435838770921e-05 2.6281147000014614e-06 7.0020783173944737e-06 1.9472639542489997e-05 -1.7949230082217425e-05
leaf_weight=1408 370 346 9479 52421 6742 7031 11205
leaf_count=1408 370 346 9479 52421 6742 7031 11205
internal_value=0 -8.4621e-06 2.44558e-06 3.24838e-07 1.78839e-06 1.79947e-05 -1.70963e-05
internal_weight=0 19701 69301 61900 8150 7401 11551
internal_count=89002 19701 69301 61900 8150 7401 11551
is_linear=0
shrinkage=0.1


Tree=16
num_leaves=8
num_cat=0
split_feature=16 166 224 192 221 11 220
split_gain=0.000177355 0.000149077 0.000175772 0.000144078 0.000105563 6.49468e-05 1.17652e-05
threshold=0.78319623971797891 0.0007812501589459232 0.0016570023450181994 -1.0000000180025095e-35 0.36055555555555557 0.0010530137642669262 0.33520599250936334
decision_type=2 2 2 2 2 2 2
left_child=1 3 -3 -1 6 -6 -2
right_child=4 2 -4 -5 5 -7 -8
leaf_value=-9.2198459553439557e-06 6.6701192427782505e-06 -2.3224754709788974e-05 1.798547251920396e-06 2.2480597906323844e-06 1.9161126994539622e-05 0 -2.1991942069675005e-06
leaf_weight=14190 1999 6668 2953 46711 8496 2049 5936
leaf_count=14190 1999 6668 2953 46711 8496 2049 5936
internal_value=0 -2.2572e-06 -1.38613e-05 -1.58093e-07 8.74803e-06 1.53042e-05 0
internal_weight=0 70522 9621 60901 18480 10545 7935
internal_count=89002 70522 9621 60901 18480 10545 7935
is_linear=0
shrinkage=0.1


Tree=17
num_leaves=8
num_cat=0
split_feature=224 166 14 230 249 160 263
split_gain=0.000167651 0.000268205 0.000117406 8.93088e-05 5.58704e-05 4.00947e-05 1.60395e-05
threshold=0.00077160509140306044 1.0000000180025095e-35 0.45950914149443567 0.00089445462136250608 0.3133928571428572 0.0017675659843128246 0.39192371747451632
decision_type=2 2 2 2 2 2 2
left_child=1 2 -1 4 -2 -5 -3
right_child=3 6 -4 5 -6 -7 -8
leaf_value=2.0829843557504969e-06 0 -2.4537582535406932e-05 -7.639231086969253e-06 -4.32211096131121e-06 1.9215579915310537e-05 1.3743857273999349e-05 0
leaf_weight=49843 2840 5239 16420 5182 7626 1610 242
leaf_count=49843 2840 5239 16420 5182 7626 1610 242
internal_value=0 -2.08685e-06 -8.1816e-08 8.89039e-06 1.46855e-05 0 -2.33719e-05
internal_weight=0 71744 66263 17258 10466 6792 5481
internal_count=89002 71744 66263 17258 10466 6792 5481
is_linear=0
shrinkage=0.1


Tree=18
num_leaves=7
num_cat=0
split_feature=64 70 160 70 282 14
split_gain=0.000154262 0.000214562 0.000145487 5.83495e-05 3.29254e-05 2.59441e-05
threshold=-0.0015378705803961166 -0.00077160509140306022 0.0015936268470895245 -0.0017050314902711248 0.28392446118434828 0.07262932127614867
decision_type=2 2 2 2 2 2
left_child=3 4 -3 -1 -2 -5
right_child=1 2 -4 5 -6 -7
leaf_value=0 0 -1.7551641020437814e-06 1.3127102705311632e-05 0 2.0748176099383673e-05 -2.4930582679660506e-05
leaf_weight=1133 609 69475 7210 915 5995 3665
leaf_count=1133 609 69475 7210 915 5995 3665
internal_value=0 1.13639e-06 -1.44734e-07 -1.58489e-05 1.84644e-05 -2.09934e-05
internal_weight=0 83289 76685 5713 6604 4580
internal_count=89002 83289 76685 5713 6604 4580
is_linear=0
shrinkage=0.1


Tree=19
num_leaves=8
num_cat=0
split_feature=1 89 14 15 298 160 304
split_gain=0.000145625 0.000144254 0.000122181 7.97329e-05 6.43954e-05 6.0413e-05 4.11338e-05
threshold=0.0072005118183342967 0.34272486772486782 0.25993737371802855 0.069320132013201335 0.0068505752130127752 0.0016542612277810067 0.52223320158102771
decision_type=2 2 2 2 2 2 2
left_child=2 6 4 -3 -1 -4 -2
right_child=1 3 5 -5 -6 -7 -8
leaf_value=-3.0929376196386199e-06 0 0 -1.0204074734112251e-05 1.1115391384020443e-05 6.9617317773929879e-06 3.6739688623072542e-06 -1.0383314536975189e-05
leaf_weight=12901 5664 5491 23264 23181 11134 1764 5603
leaf_count=12901 5664 5491 23264 23181 11134 1764 5603
internal_value=0 4.52273e-06 -3.60971e-06 8.49011e-06 8.91076e-07 -8.57892e-06 -4.13613e-06
internal_weight=0 39939 49063 28672 24035 25028 11267
internal_count=89002 39939 49063 28672 24035 25028 11267
is_linear=0
shrinkage=0.1


Tree=20
num_leaves=8
num_cat=0
split_feature=25 16 15 91 14 100 102
split_gain=0.000137027 0.000154628 0.000103362 9.75841e-05 7.77704e-05 7.04429e-05 1.3209e-05
threshold=0.31296641791044782 0.82807881773399028 0.1778751140164184 0.69710541015001604 0.20014619883040938 0.0086924418616712209 0.00078308551637285017
decision_type=2 2 2 2 2 2 2
left_child=4 2 -2 -3 6 -6 -1
right_child=1 3 -4 -5 5 -7 -8
leaf_value=1.2604690102155903e-06 -4.272462186034282e-06 2.0014404674625771e-05 4.3038040697417768e-06 8.1445553839190739e-08 -1.6849037428003677e-05 0 -1.3438885978100818e-05
leaf_weight=7418 29604 7061 26628 6420 8968 2237 666
leaf_count=7418 29604 7061 26628 6420 8968 2237 666
internal_value=0 2.09659e-06 0 1.17231e-05 -7.42642e-06 -1.28198e-05 0
internal_weight=0 69713 56232 13481 19289 11205 8084
internal_count=89002 69713 56232 13481 19289 11205 8084
is_linear=0
shrinkage=0.1


Tree=21
num_leaves=8
num_cat=0
split_feature=102 160 256 230 287 166 146
split_gain=0.000134121 0.000168757 0.00012394 0.000101619 4.1638e-05 3.31195e-05 2.24491e-05
threshold=1.0000000180025095e-35 0.0016135544650026647 0.00078247277315135488 -0.00077101017590752708 0.48589641585208765 0.00089445462136250608 0.12695955575212545
decision_type=2 2 2 2 2 2 2
left_child=2 6 3 -1 -3 -4 -2
right_child=1 4 5 -5 -6 -7 -8
leaf_value=7.0848343023041437e-06 0 -7.8136118140184754e-06 1.2731731668193606e-05 -2.3130441532992725e-06 1.2389253805086912e-05 0 -2.1570873096742154e-05
leaf_weight=14732 466 648 10736 51720 2791 1393 6516
leaf_count=14732 466 648 10736 51720 2791 1393 6516
internal_value=0 -1.06027e-05 1.46952e-06 0 3.8738e-06 1.07784e-05 -2.00523e-05
internal_weight=0 10421 78581 66452 3439 12129 6982
internal_count=89002 10421 78581 66452 3439 12129 6982
is_linear=0
shrinkage=0.1


Tree=22
num_leaves=8
num_cat=0
split_feature=96 102 9 166 125 102 28
split_gain=0.000131524 0.000175772 0.000106176 8.0661e-05 3.88171e-05 1.93683e-05 1.99353e-06
threshold=-0.00089766630933763014 -0.00077101017590752708 0.0072436089296485052 -0.0015420212684809085 0.15643825301204822 -0.0016771495349336971 0.42462121212121218
decision_type=2 2 2 2 2 2 2
left_child=3 4 -3 6 -2 -5 -1
right_child=1 2 -4 5 -6 -7 -8
leaf_value=3.3360889097645836e-06 0 -2.828074259318398e-06 5.2757876649092269e-06 0 1.9473912776389135e-05 -2.3883346416588887e-05 -2.195058060251348e-06
leaf_weight=794 1362 51027 23492 206 5959 3859 2303
leaf_count=794 1362 51027 23492 206 5959 3859 2303
internal_value=0 1.18147e-06 -5.60362e-08 -1.29495e-05 1.59894e-05 -2.2223e-05 0
internal_weight=0 81840 74519 7162 7321 4065 3097
internal_count=89002 81840 74519 7162 7321 4065 3097
is_linear=0
shrinkage=0.1


Tree=23
num_leaves=8
num_cat=0
split_feature=224 166 262 49 286 225 25
split_gain=0.000113249 0.000138877 0.000114156 8.58914e-05 3.98451e-05 2.48357e-05 1.48447e-05
threshold=-1.0000000180025095e-35 -0.00088105749669953315 -0.00077041617707784827 0.83239700374531844 0.42873613703744379 0.080544260810735541 0.11566332218506133
decision_type=2 2 2 2 2 2 2
left_child=1 4 6 -4 -1 -3 -2
right_child=2 5 3 -5 -6 -7 -8
leaf_value=-7.4435857521447556e-06 0 -1.7721452669642047e-05 2.8455216982763892e-06 -5.2555819160845637e-06 8.8456641146616665e-06 -2.8631681108016461e-06 1.4872861029551283e-05
leaf_weight=1149 371 7671 44702 18134 5168 4858 6949
leaf_count=1149 371 7671 44702 18134 5168 4858 6949
internal_value=0 -6.83878e-06 1.89178e-06 2.49892e-07 3.31933e-06 -1.32528e-05 1.37736e-05
internal_weight=0 18846 70156 62836 6317 12529 7320
internal_count=89002 18846 70156 62836 6317 12529 7320
is_linear=0
shrinkage=0.1


Tree=24
num_leaves=8
num_cat=0
split_feature=102 128 14 298 217 287 146
split_gain=0.000106658 0.000139742 0.000112853 8.57441e-05 7.05435e-05 4.23867e-05 2.68246e-05
threshold=0.00078308551637285017 0.0016214031348011917 0.27453168767507014 0.0073941602472583946 0.33150183150183155 0.48589641585208765 0.13463661062998813
decision_type=2 2 2 2 2 2 2
left_child=2 6 3 -1 -4 -3 -2
right_child=1 5 4 -5 -6 -7 -8
leaf_value=2.1657966198395382e-06 0 -8.1221450906502058e-06 -1.0647760911137811e-05 1.4645891850525493e-05 0 1.2837865041379481e-05 -2.0061586652100826e-05
leaf_weight=34167 479 632 8267 8009 28493 2583 6372
leaf_count=34167 479 632 8267 8009 28493 2583 6372
internal_value=0 -9.67615e-06 1.25394e-06 4.91968e-06 -2.51139e-06 3.68083e-06 -1.83078e-05
internal_weight=0 10066 78936 42176 36760 3215 6851
internal_count=89002 10066 78936 42176 36760 3215 6851
is_linear=0
shrinkage=0.1


Tree=25
num_leaves=7
num_cat=0
split_feature=64 70 15 70 249 46
split_gain=0.000107518 0.000125407 0.000111057 4.01458e-05 2.94312e-05 1.68998e-05
threshold=-0.0015378705803961166 -0.00088183444374845255 0.20018726591760302 -0.0017050314902711248 0.26138716356107666 0.021359917267390581
decision_type=2 2 2 2 2 2
left_child=3 4 -3 -1 -2 -5
right_child=1 2 -4 5 -6 -7
leaf_value=0 0 -3.2793228580948328e-06 4.2185287419088362e-06 0 2.3497817951682564e-05 -1.9108510402029131e-05
leaf_weight=1133 635 43759 35962 268 2933 4312
leaf_count=1133 635 43759 35962 268 2933 4312
internal_value=0 9.24142e-07 0 -1.32569e-05 1.92718e-05 -1.75177e-05
internal_weight=0 83289 79721 5713 3568 4580
internal_count=89002 83289 79721 5713 3568 4580
is_linear=0
shrinkage=0.1


Tree=26
num_leaves=8
num_cat=0
split_feature=288 294 262 288 288 254 289
split_gain=0.000103199 0.000111805 9.89413e-05 0.000115582 9.01373e-05 5.02604e-05 2.28005e-05
threshold=-1.0000000180025095e-35 -0.0015396470980304498 0.00089605758749033992 0.0016764475051553875 0.0008888891229990038 0.26900052511815159 0.086297747618280782
decision_type=2 2 2 2 2 2 2
left_child=1 5 4 -4 -2 -1 -3
right_child=2 6 3 -5 -6 -7 -8
leaf_value=-2.5278451914129799e-05 1.935962843489138e-06 -1.7339337469137149e-05 -1.6002936347874318e-05 3.2388630677990752e-06 1.5445421439648664e-05 4.2308532349037791e-06 -2.3291510239851391e-06
leaf_weight=557 52050 7012 6108 4153 6229 8350 4543
leaf_count=557 52050 7012 6108 4153 6229 8350 4543
internal_value=0 -6.21223e-06 1.88029e-06 -6.63701e-06 3.65777e-06 5.67151e-07 -1.28394e-05
internal_weight=0 20462 68540 10261 58279 8907 11555
internal_count=89002 20462 68540 10261 58279 8907 11555
is_linear=0
shrinkage=0.1


Tree=27
num_leaves=8
num_cat=0
split_feature=281 16 15 318 16 91 14
split_gain=9.90025e-05 0.000111268 0.000104642 6.80421e-05 5.10475e-05 5.0258e-05 4.45881e-05
threshold=0.34833164812942369 0.84105263157894739 0.20018726591760302 0.59857345923444016 0.78679653679653694 0.69710541015001604 0.10529655356665778
decision_type=2 2 2 2 2 2 2
left_child=3 2 -2 4 -1 -3 -5
right_child=1 5 -4 6 -6 -7 -8
leaf_value=-1.9676921520491299e-05 -3.8399100685004355e-06 1.716528639129709e-05 5.1217025310305936e-06 6.4661498605800294e-06 0 6.5530036669205964e-07 -4.7544614308527106e-06
leaf_weight=4849 29970 6389 23045 3941 1114 5769 13925
leaf_count=4849 29970 6389 23045 3941 1114 5769 13925
internal_value=0 2.03447e-06 0 -5.49786e-06 -1.51408e-05 1.06632e-05 -1.37295e-06
internal_weight=0 65173 53015 23829 5963 12158 17866
internal_count=89002 65173 53015 23829 5963 12158 17866
is_linear=0
shrinkage=0.1


Tree=28
num_leaves=8
num_cat=0
split_feature=96 166 14 287 133 38 245
split_gain=9.17929e-05 0.000173381 8.08334e-05 5.43834e-05 3.18326e-05 1.25608e-05 1.1121e-05
threshold=0.00080775461832693918 0.0015302230765534832 0.066765725606736021 0.47242736899266907 -0.00131351318399315 -0.00080450540285070804 0.74754901960784326
decision_type=2 2 2 2 2 2 2
left_child=1 2 -1 6 -5 -3 -2
right_child=3 5 -4 4 -6 -7 -8
leaf_value=8.2339278910076586e-06 -1.001698943161838e-05 0 -1.3856885724217252e-06 0 1.4690976234218169e-05 -2.129012686601876e-05 0
leaf_weight=10148 1110 75 62660 1936 7720 4353 1000
leaf_count=10148 1110 75 62660 1936 7720 4353 1000
internal_value=0 -1.21339e-06 0 8.2674e-06 1.18147e-05 -2.04261e-05 -2.91733e-07
internal_weight=0 77236 72808 11766 9656 4428 2110
internal_count=89002 77236 72808 11766 9656 4428 2110
is_linear=0
shrinkage=0.1


Tree=29
num_leaves=8
num_cat=0
split_feature=128 294 288 134 288 68 286
split_gain=8.94167e-05 9.28781e-05 7.72089e-05 6.74175e-05 3.69787e-05 2.44818e-05 2.05891e-05
threshold=-0.00079744833490824607 -0.00083263965953062058 0.00078247277315135488 -0.001537280227122295 -0.0026572208623640843 0.0086133126400310314 0.43213169978922017
decision_type=2 2 2 2 2 2 2
left_child=3 4 -3 6 -2 -5 -1
right_child=1 2 -4 5 -6 -7 -8
leaf_value=-9.5576487934685058e-06 0 -1.9703323958735314e-06 5.8788732853787484e-06 -1.4105386222293594e-05 1.2576053553638244e-05 0 5.436422910081939e-06
leaf_weight=979 402 48275 16917 8359 9159 971 3940
leaf_count=979 402 48275 16917 8359 9159 971 3940
internal_value=0 1.41661e-06 0 -7.22666e-06 1.06222e-05 -1.23295e-05 0
internal_weight=0 74753 65192 14249 9561 9330 4919
internal_count=89002 74753 65192 14249 9561 9330 4919
is_linear=0
shrinkage=0.1


Tree=30
num_leaves=8
num_cat=0
split_feature=6 14 16 32 10 132 38
split_gain=9.07723e-05 0.000128152 7.949e-05 6.95825e-05 3.54932e-05 1.54859e-05 3.42934e-06
threshold=1.0000000180025095e-35 0.059356967813158169 0.68783602150537648 0.0016135544650026647 0.0059049070528424683 0.027193116441352676 0.0016956344540846049
decision_type=2 2 2 2 2 2 2
left_child=1 4 -3 5 -1 -2 -5
right_child=3 2 -4 6 -6 -7 -8
leaf_value=0 -2.1423646563136535e-05 -2.5066314796243092e-06 4.7712462119649613e-06 7.8668860334074072e-06 1.6122151552523273e-05 0 0
leaf_weight=2419 3719 55222 20083 554 6458 75 472
leaf_count=2419 3719 55222 20083 554 6458 75 472
internal_value=0 7.81637e-07 -3.50663e-07 -1.33285e-05 1.22111e-05 -2.02258e-05 0
internal_weight=0 84182 75305 4820 8877 3794 1026
internal_count=89002 84182 75305 4820 8877 3794 1026
is_linear=0
shrinkage=0.1


Tree=31
num_leaves=8
num_cat=0
split_feature=25 1 291 309 221 285 19
split_gain=8.58028e-05 0.000104605 6.18886e-05 5.3571e-05 5.0628e-05 4.61151e-05 1.20747e-05
threshold=0.31296641791044782 -0.030540874529080737 0.0066658611300468565 0.092051820728291336 0.36055555555555557 0.35067567567567576 0.39045721874407141
decision_type=2 2 2 2 2 2 2
left_child=3 2 -2 6 -3 -5 -1
right_child=1 4 -4 5 -6 -7 -8
leaf_value=1.1763194552537357e-05 -9.9869997260590851e-06 1.6495183802729874e-07 0 -1.1488078536130223e-05 8.9766557702249756e-06 0 0
leaf_weight=1281 7502 15538 26618 12160 20055 5043 805
leaf_count=1281 7502 15538 26618 12160 20055 5043 805
internal_value=0 1.66612e-06 -1.94725e-06 -5.8694e-06 5.58491e-06 -8.15363e-06 5.20536e-06
internal_weight=0 69713 34120 19289 35593 17203 2086
internal_count=89002 69713 34120 19289 35593 17203 2086
is_linear=0
shrinkage=0.1


Tree=32
num_leaves=7
num_cat=0
split_feature=32 38 15 70 157 51
split_gain=8.10684e-05 0.000104693 9.8526e-05 2.58538e-05 1.93991e-05 1.38766e-05
threshold=-0.00090171349957479652 -0.00076804930616969347 0.029636949202166595 -0.0016956344540846045 0.11583184257602865 0.93488977713178312
decision_type=2 2 2 2 2 2
left_child=3 4 -3 -1 -2 -5
right_child=1 2 -4 5 -6 -7
leaf_value=0 0 -1.1207603878386364e-05 9.2033561700876492e-07 -1.9571767055011989e-05 1.6253570586396726e-05 0
leaf_weight=829 683 7359 71873 3037 4866 355
leaf_count=829 683 7359 71873 3037 4866 355
internal_value=0 7.25354e-07 -1.7348e-09 -1.34717e-05 1.40251e-05 -1.73798e-05
internal_weight=0 84781 79232 4221 5549 3392
internal_count=89002 84781 79232 4221 5549 3392
is_linear=0
shrinkage=0.1


Tree=33
num_leaves=8
num_cat=0
split_feature=17 16 10 164 285 300 230
split_gain=7.62347e-05 7.86723e-05 6.14031e-05 6.05171e-05 4.44766e-05 4.16488e-05 2.60744e-05
threshold=0.83239700374531844 0.85857142857142865 0.0079845811226612207 0.0059263613247461083 0.35805860805860812 0.59175084175084181 -0.00083125538680750555
decision_type=2 2 2 2 2 2 2
left_child=1 3 6 -1 -3 -4 -2
right_child=2 4 5 -5 -6 -7 -8
leaf_value=-1.4424455253107567e-05 5.5419371376972265e-06 0 -1.7213455278439937e-05 1.091285493874087e-06 1.4739238467062858e-05 0 -3.2099772740465907e-06
leaf_weight=2628 3412 4285 5190 48997 6760 858 16872
leaf_count=2628 3412 4285 5190 48997 6760 858 16872
internal_value=0 1.94513e-06 -4.46614e-06 0 9.62787e-06 -1.36164e-05 -9.39458e-07
internal_weight=0 62670 26332 51625 11045 6048 20284
internal_count=89002 62670 26332 51625 11045 6048 20284
is_linear=0
shrinkage=0.1


Tree=34
num_leaves=8
num_cat=0
split_feature=256 198 262 256 285 286 272
split_gain=7.37607e-05 7.61582e-05 7.01733e-05 7.61832e-05 7.22686e-05 2.9693e-05 2.09442e-05
threshold=-1.0000000180025095e-35 -0.00089365528704821162 0.00089605758749033992 0.0016764475051553875 0.6478537360890303 0.42873613703744379 0.38487525987525995
decision_type=2 2 2 2 2 2 2
left_child=1 5 4 -4 -2 -1 -3
right_child=2 6 3 -5 -6 -7 -8
leaf_value=-8.6220412835034592e-06 6.9457763171115864e-07 -1.7554220770020681e-05 -1.295203541949904e-05 2.1410235665135045e-06 9.331043122740951e-06 6.1230297892854679e-06 -4.2007463346189863e-06
leaf_weight=1241 44417 4469 6276 4028 14580 5708 8283
leaf_count=1241 44417 4469 6276 4028 14580 5708 8283
internal_value=0 -5.33932e-06 1.59345e-06 -5.48043e-06 3.10341e-06 1.15939e-06 -1.01505e-05
internal_weight=0 19701 69301 10304 58997 6949 12752
internal_count=89002 19701 69301 10304 58997 6949 12752
is_linear=0
shrinkage=0.1


Tree=35
num_leaves=8
num_cat=0
split_feature=6 14 160 64 19 82 70
split_gain=7.01201e-05 0.000108156 6.74288e-05 5.69413e-05 4.33188e-05 1.4642e-05 3.79482e-08
threshold=1.0000000180025095e-35 0.11775210084033615 0.0017474887642361383 0.00083194694734789476 0.19052957505872306 0.10818807041827071 0.0016899035343760362
decision_type=2 2 2 2 2 2 2
left_child=1 4 -3 5 -1 -2 -5
right_child=3 2 -4 6 -6 -7 -8
leaf_value=0 0 -1.8455216021523026e-06 1.5518540310629652e-05 6.0518774528325476e-07 9.592420760829389e-06 -2.1734740603692179e-05 0
leaf_weight=3033 150 62740 2188 1036 16221 2906 728
leaf_count=3033 150 62740 2188 1036 16221 2906 728
internal_value=0 7.24483e-07 -1.01094e-06 -1.16751e-05 7.41765e-06 -2.00325e-05 0
internal_weight=0 84182 64928 4820 19254 3056 1764
internal_count=89002 84182 64928 4820 19254 3056 1764
is_linear=0
shrinkage=0.1


Tree=36
num_leaves=8
num_cat=0
split_feature=288 9 249 230 70 28 295
split_gain=6.80042e-05 8.28499e-05 5.31725e-05 5.30571e-05 5.00209e-05 2.02653e-05 2.0086e-05
threshold=-0.00089047218549787022 0.0072436089296485052 0.56048780487804895 -0.00089365528704821162 1.0000000180025095e-35 0.69732205778717427 0.38101760755521702
decision_type=2 2 2 2 2 2 2
left_child=3 4 -3 5 -2 -1 -5
right_child=1 2 -4 6 -6 -7 -8
leaf_value=6.2644894269755315e-06 9.5046099341686716e-09 3.8599224900030851e-07 1.145110240232952e-05 -1.4112154151590655e-05 -9.4118476421632572e-06 -5.1307747772413031e-06 0
leaf_weight=2881 46076 12735 10954 6543 5989 3403 421
leaf_count=2881 46076 12735 10954 6543 5989 3403 421
internal_value=0 1.19617e-06 6.1862e-06 -6.56883e-06 -7.63227e-07 0 -1.25806e-05
internal_weight=0 75754 23689 13248 52065 6284 6964
internal_count=89002 75754 23689 13248 52065 6284 6964
is_linear=0
shrinkage=0.1


Tree=37
num_leaves=8
num_cat=0
split_feature=192 134 318 198 197 234 201
split_gain=6.66745e-05 0.000113822 5.61137e-05 3.9945e-05 4.39423e-05 2.17322e-05 1.56454e-05
threshold=0.00080710267727024398 0.00079365096028638515 0.31450853532592193 0.001687052577078241 -0.0011294709155063971 0.0076726927313409939 0.0073182974018061115
decision_type=2 2 2 2 2 2 2
left_child=1 2 -1 4 -2 -3 -5
right_child=3 5 -4 6 -6 -7 -8
leaf_value=-1.1515077727530689e-05 0 -1.8962620058876574e-05 6.2085215551242723e-07 -8.9555168619914556e-06 1.2777031173765083e-05 0 1.9835503507814587e-06
leaf_weight=4044 3060 4055 64594 1872 8594 1180 1603
leaf_count=4044 3060 4055 64594 1872 8594 1180 1603
internal_value=0 -1.17853e-06 0 6.10642e-06 9.09298e-06 -1.53954e-05 0
internal_weight=0 73873 68638 15129 11654 5235 3475
internal_count=89002 73873 68638 15129 11654 5235 3475
is_linear=0
shrinkage=0.1


Tree=38
num_leaves=8
num_cat=0
split_feature=313 1 315 9 118 30 68
split_gain=6.40387e-05 8.07184e-05 5.0533e-05 4.7023e-05 4.09032e-05 3.15549e-05 2.09417e-05
threshold=0.34833164812942369 -0.17013737631225909 0.4867138956881944 0.0067998837750404134 0.15678978367369409 0.98532998565279784 0.0085045368350298942
decision_type=2 2 2 2 2 2 2
left_child=2 5 4 -3 -1 -2 -4
right_child=1 3 6 -5 -6 -7 -8
leaf_value=0 -8.8475569006141774e-06 0 -3.2022213849418126e-06 6.3435855515762081e-06 -1.4692501157075189e-05 0 4.4382371989609764e-06
leaf_weight=634 7767 22199 12782 28985 6350 6180 4105
leaf_count=634 7767 22199 12782 28985 6350 6180 4105
internal_value=0 1.66903e-06 -4.38478e-06 3.68797e-06 -1.17349e-05 -4.57918e-06 -3.85998e-07
internal_weight=0 65131 23871 51184 6984 13947 16887
internal_count=89002 65131 23871 51184 6984 13947 16887
is_linear=0
shrinkage=0.1


Tree=39
num_leaves=7
num_cat=0
split_feature=22 286 17 285 53 15
split_gain=6.51118e-05 7.41741e-05 6.90985e-05 5.06317e-05 4.03904e-05 2.53973e-05
threshold=0.15689852583369115 0.2687369603594929 0.40093457943925243 0.79361054766734285 0.33602150537634412 0.051561161492334508
decision_type=2 2 2 2 2 2
left_child=4 3 -3 -2 -1 -6
right_child=1 2 -4 -5 5 -7
leaf_value=0 -2.1929411681830891e-05 4.2562235725592505e-06 -1.8988974506729526e-06 0 0 2.6150536628016937e-05
leaf_weight=984 2635 27145 55255 807 290 1886
leaf_count=984 2635 27145 55255 807 290 1886
internal_value=0 -4.72562e-07 0 -1.4868e-05 1.41413e-05 2.18176e-05
internal_weight=0 85842 82400 3442 3160 2176
internal_count=89002 85842 82400 3442 3160 2176
is_linear=0
shrinkage=0.1


Tree=40
num_leaves=7
num_cat=0
split_feature=256 198 230 11 30 170
split_gain=6.1654e-05 9.05539e-05 6.02213e-05 5.95533e-05 4.78192e-05 3.46886e-05
threshold=0.0017738367341273433 0.0015302230765534832 0.0025684950334392558 0.00088189803826158226 0.31713873590348812 0.0080768956504394338
decision_type=2 2 2 2 2 2
left_child=1 3 4 -1 -2 -3
right_child=2 5 -4 -5 -6 -7
leaf_value=2.0703538830425268e-06 0 -1.4474584625793296e-05 0 -4.2085033687613877e-06 2.9809357002719574e-05 0
leaf_weight=59265 203 6031 1073 19682 1889 859
leaf_count=59265 203 6031 1073 19682 1889 859
internal_value=0 -4.61427e-07 1.37484e-05 2.99874e-07 2.39543e-05 -1.15346e-05
internal_weight=0 85837 3165 78947 2092 6890
internal_count=89002 85837 3165 78947 2092 6890
is_linear=0
shrinkage=0.1


Tree=41
num_leaves=8
num_cat=0
split_feature=6 15 224 32 282 55 51
split_gain=5.99724e-05 8.18138e-05 6.75303e-05 5.47581e-05 2.53585e-05 1.73324e-05 1.88745e-07
threshold=-0.00076745985904214098 0.021995300297187093 -0.00088183444374845255 -0.0015936268470895241 0.26823725055432379 0.14654064355996813 0.74802954136411604
decision_type=2 2 2 2 2 2 2
left_child=3 5 -3 6 -5 -2 -1
right_child=1 2 -4 4 -6 -7 -8
leaf_value=-1.4728144405428969e-06 0 -7.274233231158865e-06 1.3516902841771284e-06 0 1.971770971354313e-05 -1.455562865412282e-05 0
leaf_weight=870 458 10402 68352 375 3526 4821 198
leaf_count=870 458 10402 68352 375 3526 4821 198
internal_value=0 -5.97252e-07 6.73187e-09 1.07078e-05 1.69237e-05 -1.26749e-05 0
internal_weight=0 84033 78754 4969 3901 5279 1068
internal_count=89002 84033 78754 4969 3901 5279 1068
is_linear=0
shrinkage=0.1


Tree=42
num_leaves=8
num_cat=0
split_feature=32 15 253 81 38 37 32
split_gain=5.65621e-05 6.12294e-05 5.54948e-05 4.30806e-05 3.37883e-05 1.73381e-05 1.28361e-06
threshold=-0.000796178512181278 0.20018726591760302 0.62382075471698128 0.88516483516483524 -0.00087489086189318488 0.0016670822690309066 -0.0015936268470895241
decision_type=2 2 2 2 2 2 2
left_child=4 2 -2 -3 6 -6 -1
right_child=1 3 -4 -5 5 -7 -8
leaf_value=0 -4.1380521893920978e-06 6.3376114516630178e-06 3.1012559488316044e-06 0 -1.306688062034171e-05 0 3.6207460454529555e-06
leaf_weight=1398 29352 25330 14291 11053 5959 640 979
leaf_count=1398 29352 25330 14291 11053 5959 640 979
internal_value=0 8.61572e-07 -1.39648e-06 4.01528e-06 -7.50972e-06 -1.13098e-05 0
internal_weight=0 80026 43643 36383 8976 6599 2377
internal_count=89002 80026 43643 36383 8976 6599 2377
is_linear=0
shrinkage=0.1


Tree=43
num_leaves=8
num_cat=0
split_feature=224 230 225 294 249 266 233
split_gain=5.36566e-05 7.52214e-05 5.09707e-05 3.2416e-05 3.82977e-05 2.31893e-05 8.09024e-06
threshold=0.00077160509140306044 1.0000000180025095e-35 0.092717103805513415 0.0016899035343760362 0.42163742690058487 0.0077107208297574987 0.0072778250323722272
decision_type=2 2 2 2 2 2 2
left_child=1 2 -1 4 -2 -3 -5
right_child=3 5 -4 6 -6 -7 -8
leaf_value=-1.9562769138499173e-06 0 -1.5152348465827658e-05 4.2200155654695822e-06 -6.052980009967155e-06 1.1915845018854537e-05 0 0
leaf_weight=47466 5265 4734 18421 2208 8035 1123 1750
leaf_count=47466 5265 4734 18421 2208 8035 1123 1750
internal_value=0 -1.19713e-06 0 5.01328e-06 7.54885e-06 -1.20823e-05 0
internal_weight=0 71744 65887 17258 13300 5857 3958
internal_count=89002 71744 65887 17258 13300 5857 3958
is_linear=0
shrinkage=0.1


Tree=44
num_leaves=8
num_cat=0
split_feature=25 65 91 272 254 68 58
split_gain=5.18758e-05 6.29472e-05 4.67324e-05 4.23884e-05 3.78095e-05 3.36762e-05 1.35664e-05
threshold=0.31296641791044782 0.016135075305467213 0.64292057853336726 0.63245614035087727 0.44302157801534731 0.010246685953321424 0.72865335292931055
decision_type=2 2 2 2 2 2 2
left_child=3 4 -3 6 -2 -5 -1
right_child=1 2 -4 5 -6 -7 -8
leaf_value=6.4524514586526782e-07 -8.4071778070047182e-06 9.3068304185941729e-06 2.7054760065985669e-08 -1.6683951321351728e-05 0 0 -4.5768473579772258e-06
leaf_weight=7847 5836 13588 15255 4165 35034 697 6580
leaf_count=7847 5836 13588 15255 4165 35034 697 6580
internal_value=0 1.28205e-06 4.96022e-06 -4.57749e-06 -9.17517e-07 -1.30073e-05 -6.14095e-07
internal_weight=0 69713 28843 19289 40870 4862 14427
internal_count=89002 69713 28843 19289 40870 4862 14427
is_linear=0
shrinkage=0.1


Tree=45
num_leaves=7
num_cat=0
split_feature=22 157 33 14 53 9
split_gain=5.05642e-05 6.10031e-05 6.05758e-05 5.06889e-05 3.31702e-05 1.5763e-05
threshold=0.15689852583369115 0.36474501108647456 -0.034610510107275928 0.27828137817883519 0.33602150537634412 0.0063448233228924804
decision_type=2 2 2 2 2 2
left_child=4 3 -3 -2 -1 -6
right_child=1 2 -4 -5 5 -7
leaf_value=0 0 -1.2293195780514034e-06 5.7294689432234791e-06 -7.2099864253093057e-06 0 2.2914998788954969e-05
leaf_weight=984 22812 21956 22451 18623 311 1865
leaf_count=984 22812 21956 22451 18623 311 1865
internal_value=0 -4.26348e-07 1.92421e-06 -3.33631e-06 1.24527e-05 1.94324e-05
internal_weight=0 85842 44407 41435 3160 2176
internal_count=89002 85842 44407 41435 3160 2176
is_linear=0
shrinkage=0.1


Tree=46
num_leaves=8
num_cat=0
split_feature=6 14 6 0 9 82 160
split_gain=5.00275e-05 7.68532e-05 5.12873e-05 4.59979e-05 2.31502e-05 1.5372e-05 1.85477e-06
threshold=1.0000000180025095e-35 0.0545578568770929 -0.00076745985904214098 0.0015910912392316237 0.0062476790273731288 0.10818807041827071 0.00081833078823390093
decision_type=2 2 2 2 2 2 2
left_child=1 4 -3 5 -1 -2 -5
right_child=3 2 -4 6 -6 -7 -8
leaf_value=0 0 9.4919825955282898e-06 -1.0629430430631277e-06 0 1.2120721107652329e-05 -1.6892650367652376e-05 5.272816608773667e-06
leaf_weight=964 168 4825 71406 183 6987 3802 667
leaf_count=964 168 4825 71406 183 6987 3802 667
internal_value=0 5.86875e-07 -1.82437e-07 -9.88806e-06 9.99923e-06 -1.53156e-05 0
internal_weight=0 84182 76231 4820 7951 3970 850
internal_count=89002 84182 76231 4820 7951 3970 850
is_linear=0
shrinkage=0.1


Tree=47
num_leaves=8
num_cat=0
split_feature=96 6 15 134 282 121 71
split_gain=4.98884e-05 5.60824e-05 5.57621e-05 3.22631e-05 1.86316e-05 1.20212e-05 1.33733e-07
threshold=-0.00089766630933763014 -0.00076745985904214098 0.029636949202166595 -0.0017057576534202921 0.26823725055432379 0.9104278074866311 0.20831759257548135
decision_type=2 2 2 2 2 2 2
left_child=3 4 -3 6 -2 -5 -1
right_child=1 2 -4 5 -6 -7 -8
leaf_value=1.0392932187697756e-06 0 -8.4114998112514105e-06 9.96721390835641e-07 -1.6232031277916549e-05 1.5787352808356114e-05 0 0
leaf_weight=1238 352 6878 71439 3410 3171 2121 393
leaf_count=1238 352 6878 71439 3410 3171 2121 393
internal_value=0 7.26802e-07 0 -7.9762e-06 1.30941e-05 -1.18621e-05 0
internal_weight=0 81840 78317 7162 3523 5531 1631
internal_count=89002 81840 78317 7162 3523 5531 1631
is_linear=0
shrinkage=0.1


Tree=48
num_leaves=8
num_cat=0
split_feature=96 166 319 14 291 189 102
split_gain=4.69925e-05 7.32703e-05 4.22117e-05 4.19251e-05 2.64111e-05 1.44605e-05 1.00012e-05
threshold=0.00080775461832693918 0.0015302230765534832 0.48589641585208765 0.45950914149443567 0.0062324114763014126 0.11834733893557424 0.00084104309149246614
decision_type=2 2 2 2 2 2 2
left_child=1 3 6 -1 -4 -3 -2
right_child=2 5 4 -5 -6 -7 -8
leaf_value=1.2590913856410662e-06 0 0 0 -4.283355700135367e-06 1.1344677080042727e-05 -1.5495976090248104e-05 -1.1078155473326668e-05
leaf_weight=54682 1367 525 1065 18126 8481 3903 853
leaf_count=54682 1367 525 1065 18126 8481 3903 853
internal_value=0 -8.80871e-07 5.90299e-06 0 9.31002e-06 -1.33791e-05 -1.45305e-06
internal_weight=0 77236 11766 72808 9546 4428 2220
internal_count=89002 77236 11766 72808 9546 4428 2220
is_linear=0
shrinkage=0.1


Tree=49
num_leaves=8
num_cat=0
split_feature=28 288 4 15 186 102 36
split_gain=4.63516e-05 6.60924e-05 6.25127e-05 4.04022e-05 3.59156e-05 2.7255e-05 1.90092e-05
threshold=0.48749218261413391 -0.001775411379812297 0.0067412573829785192 0.057561626604899462 0.26814888010540189 -0.0017873120014799679 0.0059263613247461083
decision_type=2 2 2 2 2 2 2
left_child=2 5 6 -4 -3 -2 -1
right_child=1 4 3 -5 -6 -7 -8
leaf_value=-8.7071426023513545e-06 0 -1.0273083007303274e-05 0 9.4423971125983527e-06 0 -2.2516212161167187e-05 0
leaf_weight=2646 399 3657 3596 14612 48508 2142 13442
leaf_count=2646 399 3657 3596 14612 48508 2142 13442
internal_value=0 -1.8106e-06 2.87852e-06 7.02577e-06 -7.16808e-07 -1.78919e-05 -8.08713e-07
internal_weight=0 54706 34296 18208 52165 2541 16088
internal_count=89002 54706 34296 18208 52165 2541 16088
is_linear=0
shrinkage=0.1


Tree=50
num_leaves=8
num_cat=0
split_feature=285 318 94 15 292 202 245
split_gain=4.5788e-05 4.86922e-05 7.23744e-05 4.41447e-05 3.67805e-05 2.94871e-05 1.08924e-05
threshold=0.7593103448275863 0.2687369603594929 0.16912242686890577 0.20018726591760302 0.0061296102295014159 0.0066311489392549697 0.40192307692307699
decision_type=2 2 2 2 2 2 2
left_child=1 2 -1 -3 6 -6 -2
right_child=4 3 -4 -5 5 -7 -8
leaf_value=0 0 -3.0761914097501061e-06 -2.4218370019588301e-05 1.9446993974293526e-06 0 8.5184344727212809e-06 -1.0180660824742828e-05
leaf_weight=788 394 34661 2219 32787 3239 13441 1473
leaf_count=788 394 34661 2219 32787 3239 13441 1473
internal_value=0 -1.20003e-06 -1.3862e-05 -3.95413e-07 4.38372e-06 6.3871e-06 -4.84112e-06
internal_weight=0 70455 3007 67448 18547 16680 1867
internal_count=89002 70455 3007 67448 18547 16680 1867
is_linear=0
shrinkage=0.1


Tree=51
num_leaves=7
num_cat=0
split_feature=22 121 44 309 41 11
split_gain=4.23956e-05 5.24251e-05 4.61966e-05 3.11471e-05 2.57662e-05 1.74448e-05
threshold=0.15689852583369115 0.3133928571428572 0.67028985507246386 0.16794871794871799 0.0063438501471104122 0.0035173480633862012
decision_type=2 2 2 2 2 2
left_child=4 3 -3 -2 -1 -6
right_child=1 2 -4 -5 5 -7
leaf_value=0 0 0 9.4645629132734024e-06 -7.3245017263203305e-06 1.9816185521108419e-05 0
leaf_weight=797 2888 62076 5445 15433 2134 229
leaf_count=797 2888 62076 5445 15433 2134 229
internal_value=0 -4.58374e-07 6.18107e-07 -5.30952e-06 1.13336e-05 1.67573e-05
internal_weight=0 85842 67521 18321 3160 2363
internal_count=89002 85842 67521 18321 3160 2363
is_linear=0
shrinkage=0.1


Tree=52
num_leaves=8
num_cat=0
split_feature=288 294 294 15 62 223 297
split_gain=3.98235e-05 7.70353e-05 4.86053e-05 4.03656e-05 3.24905e-05 2.70571e-05 6.71777e-06
threshold=0.0016570023450181994 0.00077821027382984919 0.0016899035343760362 0.20018726591760302 0.68209221134465892 0.38045308154003815 0.0072848270849075547
decision_type=2 2 2 2 2 2 2
left_child=1 3 5 -1 -3 -2 -4
right_child=2 4 6 -5 -6 -7 -8
leaf_value=-1.8666830265630892e-06 0 -1.8171190645080105e-05 -5.4327257620181762e-06 2.8297478509490122e-06 -1.7351137743246386e-06 1.7098118119970268e-05 2.1879511258890141e-06
leaf_weight=35954 618 3364 2002 35236 6320 3819 1689
leaf_count=35954 618 3364 2002 35236 6320 3819 1689
internal_value=0 -6.88664e-07 6.65401e-06 2.30385e-07 -9.11693e-06 1.38076e-05 0
internal_weight=0 80874 8128 71190 9684 4437 3691
internal_count=89002 80874 8128 71190 9684 4437 3691
is_linear=0
shrinkage=0.1


Tree=53
num_leaves=7
num_cat=0
split_feature=32 6 14 282 198 51
split_gain=4.11277e-05 6.27688e-05 4.79414e-05 1.88284e-05 1.53488e-05 1.50716e-05
threshold=-0.00090171349957479652 -0.00076745985904214098 0.45572420746051306 0.26823725055432379 -0.0033444870609793394 0.93488977713178312
decision_type=2 2 2 2 2 2
left_child=4 3 -3 -2 -1 -6
right_child=1 2 -4 -5 5 -7
leaf_value=0 0 1.2808202387667692e-06 -4.279966775737127e-06 1.5688408199214013e-05 -1.4012443264453824e-05 0
leaf_weight=251 356 60269 20774 3382 3560 410
leaf_count=251 356 60269 20774 3382 3560 410
internal_value=0 4.40565e-07 0 1.3127e-05 -9.67133e-06 -1.1752e-05
internal_weight=0 84781 81043 3738 4221 3970
internal_count=89002 84781 81043 3738 4221 3970
is_linear=0
shrinkage=0.1


Tree=54
num_leaves=8
num_cat=0
split_feature=256 102 262 14 30 285 190
split_gain=3.9065e-05 5.63842e-05 4.83231e-05 3.92307e-05 3.05523e-05 2.03484e-05 5.08209e-07
threshold=0.0017738367341273433 0.00078308551637285017 0.0033783840015759741 0.25745538625718861 0.30751587861679613 0.38266583229036299 0.97832796564680635
decision_type=2 2 2 2 2 2 2
left_child=1 3 4 -1 -2 -3 -4
right_child=2 5 6 -5 -6 -7 -8
leaf_value=2.5936088715087557e-06 0 -1.3643409420948178e-05 -3.2636729282959989e-06 -1.8490139842397691e-06 2.2824954836359702e-05 0 0
leaf_weight=39527 237 4190 477 37959 2233 4161 218
leaf_count=39527 237 4190 477 37959 2233 4161 218
internal_value=0 -4.31674e-07 1.08798e-05 2.08265e-07 1.86361e-05 -8.30842e-06 0
internal_weight=0 85837 3165 77486 2470 8351 695
internal_count=89002 85837 3165 77486 2470 8351 695
is_linear=0
shrinkage=0.1


Tree=55
num_leaves=8
num_cat=0
split_feature=288 262 285 161 308 286 295
split_gain=3.8257e-05 4.98364e-05 3.96049e-05 3.10223e-05 2.89697e-05 2.20748e-05 1.85986e-05
threshold=-1.0000000180025095e-35 -0.0015396470980304498 0.76095238095238105 -0.13688901128594569 0.938137755102041 0.45903200624512103 0.38101760755521702
decision_type=2 2 2 2 2 2 2
left_child=1 5 4 -4 -2 -1 -3
right_child=2 6 3 -5 -6 -7 -8
leaf_value=-6.8787167509715306e-06 -1.5745865305882923e-06 -9.2789958809603404e-06 0 8.8378149224974981e-06 3.5119930842069627e-06 4.7069871916136904e-06 0
leaf_weight=1604 39238 11449 3645 10057 15600 6623 786
leaf_count=1604 39238 11449 3645 10057 15600 6623 786
internal_value=0 -3.85007e-06 1.07536e-06 5.88971e-06 0 4.798e-07 -8.08503e-06
internal_weight=0 20462 68540 13702 54838 8227 12235
internal_count=89002 20462 68540 13702 54838 8227 12235
is_linear=0
shrinkage=0.1


Tree=56
num_leaves=8
num_cat=0
split_feature=6 14 298 0 12 50 160
split_gain=3.72646e-05 5.5172e-05 3.80816e-05 3.56023e-05 2.58132e-05 1.2152e-05 6.23486e-07
threshold=1.0000000180025095e-35 0.052674932801526061 0.0073575061816259016 0.0015910912392316237 0.38501602564102572 0.11264279199061809 0.00081833078823390093
decision_type=2 2 2 2 2 2 2
left_child=1 4 -3 5 -1 -2 -5
right_child=3 2 -4 6 -6 -7 -8
leaf_value=1.1874880108602218e-05 0 -2.2936271474489146e-06 2.1591888018817312e-06 0 0 -1.4817240873774937e-05 3.0571080115332444e-06
leaf_weight=5842 171 43616 32923 183 1801 3799 667
leaf_count=5842 171 43616 32923 183 1801 3799 667
internal_value=0 4.37172e-07 -1.66694e-07 -8.60073e-06 8.60302e-06 -1.33972e-05 0
internal_weight=0 84182 76539 4820 7643 3970 850
internal_count=89002 84182 76539 4820 7643 3970 850
is_linear=0
shrinkage=0.1


Tree=57
num_leaves=8
num_cat=0
split_feature=281 315 65 155 150 62 150
split_gain=3.57025e-05 4.61175e-05 4.3528e-05 4.78433e-05 3.63729e-05 2.66299e-05 1.7027e-05
threshold=0.34833164812942369 0.4867138956881944 -0.17013737631225909 0.51858129315756452 0.1565277090107243 0.99897119341563789 0.42555969112827069
decision_type=2 2 2 2 2 2 2
left_child=1 4 5 -4 -1 -2 -3
right_child=2 6 3 -5 -6 -7 -8
leaf_value=0 -7.2893322259927702e-06 3.1235122081315189e-06 7.0956019669789135e-06 6.1517836159668737e-08 -1.3168099127394313e-05 0 -3.2154710773824514e-06
leaf_weight=657 7840 7200 16945 34256 6298 6132 9674
leaf_count=657 7840 7200 16945 34256 6298 6132 9674
internal_value=0 -3.3485e-06 1.17411e-06 2.70573e-06 -1.02334e-05 -3.2796e-06 0
internal_weight=0 23829 65173 51201 6955 13972 16874
internal_count=89002 23829 65173 51201 6955 13972 16874
is_linear=0
shrinkage=0.1


Tree=58
num_leaves=7
num_cat=0
split_feature=6 0 9 32 28 234
split_gain=3.49676e-05 5.36867e-05 4.13956e-05 2.46785e-05 2.34028e-05 1.65613e-05
threshold=-0.00088183444374845255 -0.0007861636839763263 0.0072280794915256076 -0.0015936268470895241 0.39504283965728276 0.0060058525072598477
decision_type=2 2 2 2 2 2
left_child=3 4 -3 -1 -2 -5
right_child=1 2 -4 5 -6 -7
leaf_value=0 0 -1.3064010108078377e-06 3.4432990756471406e-06 0 -1.5868854165641762e-05 2.1522372315795034e-05
leaf_weight=750 1838 54456 27113 122 3100 1623
leaf_count=750 1838 54456 27113 122 3100 1623
internal_value=0 -3.43772e-07 7.38488e-08 1.16639e-05 -1.05214e-05 1.83284e-05
internal_weight=0 86507 81569 2495 4938 1745
internal_count=89002 86507 81569 2495 4938 1745
is_linear=0
shrinkage=0.1


Tree=59
num_leaves=8
num_cat=0
split_feature=314 3 311 305 275 285 62
split_gain=3.46823e-05 7.4774e-05 5.11202e-05 4.13e-05 5.36106e-05 4.76535e-05 2.15696e-05
threshold=0.26823725055432379 0.0078298624712222122 0.70318827952304896 0.76253132832080206 0.39760233778054571 0.62382075471698128 0.79023277357300548
decision_type=2 2 2 2 2 2 2
left_child=1 2 -1 5 -5 -2 -3
right_child=3 6 -4 4 -6 -7 -8
leaf_value=-2.2574719350949146e-05 0 1.7982687932974168e-05 0 1.1489332481823016e-06 -6.9642479144442113e-06 6.4199349217729456e-06 0
leaf_weight=3058 36907 741 1394 13467 13862 18412 1161
leaf_count=3058 36907 741 1394 13467 13862 18412 1161
internal_value=0 -7.13523e-06 -1.53372e-05 5.3125e-07 -2.37377e-06 2.25913e-06 3.54957e-06
internal_weight=0 6354 4452 82648 27329 55319 1902
internal_count=89002 6354 4452 82648 27329 55319 1902
is_linear=0
shrinkage=0.1


Tree=60
num_leaves=8
num_cat=0
split_feature=160 294 4 319 15 261 245
split_gain=3.46805e-05 4.26112e-05 3.24419e-05 3.06081e-05 3.01692e-05 2.40288e-05 1.26157e-05
threshold=0.00080645178773242076 0.00077821027382984919 0.0064809085113409796 0.46878608545034645 0.1862546638088434 -0.0013138688076847775 0.74754901960784326
decision_type=2 2 2 2 2 2 2
left_child=1 4 -3 6 -1 -5 -2
right_child=3 2 -4 5 -6 -7 -8
leaf_value=-2.2281487709481869e-06 -9.9317728576734789e-06 -1.9398044408264439e-05 -1.1859156584464198e-06 0 2.0547638069142429e-06 9.3579003086561673e-06 0
leaf_weight=31361 1313 2115 6723 2199 34579 9535 1177
leaf_count=31361 1313 2115 6723 2199 34579 9535 1177
internal_value=0 -8.56144e-07 -7.37663e-06 4.53079e-06 0 7.11911e-06 -1.16327e-06
internal_weight=0 74778 8838 14224 65940 11734 2490
internal_count=89002 74778 8838 14224 65940 11734 2490
is_linear=0
shrinkage=0.1


Tree=61
num_leaves=7
num_cat=0
split_feature=54 254 31 308 53 172
split_gain=3.43963e-05 4.3947e-05 4.21888e-05 4.04109e-05 3.07685e-05 2.48838e-05
threshold=0.15689852583369115 0.26900052511815159 0.75170351828674742 0.80810147299509005 0.41742424242424248 0.37965517241379315
decision_type=2 2 2 2 2 2
left_child=4 3 -3 -2 -1 -6
right_child=1 2 -4 -5 5 -7
leaf_value=0 -2.0302647753167456e-05 3.172554714010846e-06 -1.5888417877692954e-06 0 2.5668052601598247e-05 0
leaf_weight=1236 2081 28349 54092 1265 1345 634
leaf_count=1236 2081 28349 54092 1265 1345 634
internal_value=0 -4.07625e-07 0 -1.16446e-05 1.01267e-05 1.7946e-05
internal_weight=0 85787 82441 3346 3215 1979
internal_count=89002 85787 82441 3346 3215 1979
is_linear=0
shrinkage=0.1


Tree=62
num_leaves=8
num_cat=0
split_feature=28 288 4 27 31 294 315
split_gain=3.20943e-05 5.13825e-05 4.71453e-05 4.80632e-05 3.49685e-05 3.01966e-05 2.98481e-05
threshold=0.48749218261413391 -0.0016148572955971827 0.0072621478132422921 0.75418484569507271 0.54405137672959736 -0.00088105749669953315 0.43606836859590842
decision_type=2 2 2 2 2 2 2
left_child=2 4 6 -4 -2 -3 -1
right_child=1 5 3 -5 -6 -7 -8
leaf_value=-6.1938772722777385e-06 0 7.2989165584704072e-06 1.3161621599129929e-05 0 -1.3853883810663046e-05 -1.145095303293613e-06 1.9556407197155764e-06
leaf_weight=6039 2066 4613 6613 4179 5163 42864 17465
leaf_count=6039 2066 4613 6613 4179 5163 42864 17465
internal_value=0 -1.52633e-06 2.37526e-06 7.84947e-06 -9.41844e-06 0 0
internal_weight=0 54706 34296 10792 7229 47477 23504
internal_count=89002 54706 34296 10792 7229 47477 23504
is_linear=0
shrinkage=0.1


Tree=63
num_leaves=7
num_cat=0
split_feature=164 305 307 124 57 286
split_gain=3.07269e-05 4.09621e-05 3.80471e-05 3.7346e-05 2.1666e-05 2.17537e-05
threshold=0.0058726321113070886 0.76253132832080206 0.38101673101673106 0.96225071225071235 0.11952380952380953 0.99897119341563789
decision_type=2 2 2 2 2 2
left_child=4 3 -3 -2 -1 -6
right_child=1 2 -4 -5 5 -7
leaf_value=0 3.6878645167372849e-06 3.3027953389582524e-07 -6.0398729221615709e-06 -1.50598379646269e-06 -2.0070771060092317e-05 0
leaf_weight=205 42144 13260 15427 15347 1819 800
leaf_count=205 42144 13260 15427 15347 1819 800
internal_value=0 3.16991e-07 -2.53093e-06 2.01972e-06 -1.02828e-05 -1.40262e-05
internal_weight=0 86178 28687 57491 2824 2619
internal_count=89002 86178 28687 57491 2824 2619
is_linear=0
shrinkage=0.1


Tree=64
num_leaves=8
num_cat=0
split_feature=32 134 35 259 125 318 236
split_gain=3.05999e-05 3.87791e-05 2.99296e-05 3.195e-05 2.73088e-05 2.12248e-05 1.34581e-06
threshold=0.00077101017590752729 0.0015278850697386661 0.0081094498074882528 0.0064284479322778429 0.36474501108647456 0.91687604690117264 0.18537609774723179
decision_type=2 2 2 2 2 2 2
left_child=1 4 3 -2 -1 -3 -4
right_child=2 5 6 -5 -6 -7 -8
leaf_value=-2.0476613045398905e-06 0 -1.6100548041668763e-05 0 1.332394844926177e-05 1.7735767310828168e-06 0 -2.6826108184841823e-06
leaf_weight=36594 1863 2451 721 5010 38038 2455 1870
leaf_count=36594 1863 2451 721 5010 38038 2455 1870
internal_value=0 -6.66753e-07 5.34755e-06 9.10617e-06 0 -9.28706e-06 0
internal_weight=0 79538 9464 6873 74632 4906 2591
internal_count=89002 79538 9464 6873 74632 4906 2591
is_linear=0
shrinkage=0.1


Tree=65
num_leaves=8
num_cat=0
split_feature=6 14 238 0 19 82 160
split_gain=2.98072e-05 4.95899e-05 3.69207e-05 2.84656e-05 2.63824e-05 1.20047e-05 7.93773e-08
threshold=1.0000000180025095e-35 0.11775210084033615 0.14756567252617028 0.0015910912392316237 0.19052957505872306 0.10818807041827071 0.00081833078823390093
decision_type=2 2 2 2 2 2 2
left_child=1 4 -3 5 -1 -2 -5
right_child=3 2 -4 6 -6 -7 -8
leaf_value=0 0 -5.6794538910440814e-06 1.5356957490446671e-07 0 6.7527520878922276e-06 -1.3468546037007004e-05 1.0908010365085064e-06
leaf_weight=3033 168 12434 52494 183 16221 3802 667
leaf_count=3033 168 12434 52494 183 16221 3802 667
internal_value=0 3.93927e-07 -7.14086e-07 -7.68953e-06 4.97136e-06 -1.19786e-05 0
internal_weight=0 84182 64928 4820 19254 3970 850
internal_count=89002 84182 64928 4820 19254 3970 850
is_linear=0
shrinkage=0.1


Tree=66
num_leaves=8
num_cat=0
split_feature=291 224 291 86 17 287 146
split_gain=3.01001e-05 3.81666e-05 3.80518e-05 3.67639e-05 4.66187e-05 3.52738e-05 3.36417e-05
threshold=0.0066005783755994597 0.0017738367341273433 0.007894754262906702 0.4074980733487466 0.40093457943925243 0.54618616677440213 0.54554280670785527
decision_type=2 2 2 2 2 2 2
left_child=3 2 -2 6 -5 -3 -1
right_child=1 5 -4 4 -6 -7 -8
leaf_value=5.3171417800489643e-06 2.3236518606620729e-06 0 -2.8679037235399371e-06 0 -1.141433646771933e-05 2.1868412521002981e-05 -8.3616132189413967e-06
leaf_weight=7215 41626 547 19998 7912 8073 1683 1948
leaf_count=7215 41626 547 19998 7912 8073 1683 1948
internal_value=0 1.1139e-06 3.7613e-07 -2.96962e-06 -6.05279e-06 1.42393e-05 6.41824e-07
internal_weight=0 63854 61624 25148 15985 2230 9163
internal_count=89002 63854 61624 25148 15985 2230 9163
is_linear=0
shrinkage=0.1


Tree=67
num_leaves=7
num_cat=0
split_feature=6 0 15 28 0 234
split_gain=2.95916e-05 4.25133e-05 3.52796e-05 1.60806e-05 1.5788e-05 9.05526e-06
threshold=-0.00088183444374845255 -0.0007861636839763263 0.052694686356178223 0.39504283965728276 -0.0016488061107775562 0.0060058525072598477
decision_type=2 2 2 2 2 2
left_child=4 3 -3 -2 -1 -6
right_child=1 2 -4 -5 5 -7
leaf_value=0 0 -4.4888604039951552e-06 1.1074070090528471e-06 -1.3876182894855501e-05 0 1.7043591517544387e-05
leaf_weight=517 1838 13357 68212 3100 142 1836
leaf_count=517 1838 13357 68212 3100 142 1836
internal_value=0 -3.56348e-07 0 -9.39769e-06 1.06862e-05 1.49618e-05
internal_weight=0 86507 81569 4938 2495 1978
internal_count=89002 86507 81569 4938 2495 1978
is_linear=0
shrinkage=0.1


Tree=68
num_leaves=7
num_cat=0
split_feature=22 314 3 227 257 11
split_gain=2.74662e-05 3.51125e-05 5.1104e-05 3.31923e-05 2.08896e-05 1.86821e-05
threshold=0.15689852583369115 0.26823725055432379 0.0078298624712222122 0.0087717095990455986 0.056377476109389445 0.0041258377483252952
decision_type=2 2 2 2 2 2
left_child=4 2 -2 -3 5 -1
right_child=1 3 -4 -5 -6 -7
leaf_value=2.0701554459890616e-05 -1.5070224777960015e-05 9.1130179028659804e-07 0 -5.1100154318046042e-06 0 0
leaf_weight=1534 3853 70126 1382 10481 1519 107
leaf_count=1534 3853 70126 1382 10481 1519 107
internal_value=0 -3.88021e-07 -8.33905e-06 0 9.10083e-06 1.69344e-05
internal_weight=0 85842 5235 80607 3160 1641
internal_count=89002 85842 5235 80607 3160 1641
is_linear=0
shrinkage=0.1


Tree=69
num_leaves=8
num_cat=0
split_feature=31 14 279 36 298 317 166
split_gain=2.84098e-05 4.24991e-05 5.86786e-05 3.99067e-05 3.47069e-05 3.0844e-05 1.77199e-05
threshold=0.88942710759198895 0.32675216340531693 0.19423023578363388 0.006356358754313768 0.0067638333338506714 0.62382075471698128 -0.00083125538680750555
decision_type=2 2 2 2 2 2 2
left_child=1 4 -3 6 -1 -5 -2
right_child=3 2 -4 5 -6 -7 -8
leaf_value=0 0 2.4845981454668486e-05 -3.5108800108325405e-06 -2.032546569003654e-06 8.0975673658868099e-06 3.9529014073611448e-06 -9.5846721693349914e-06
leaf_weight=9367 835 689 15066 29719 13763 11882 7681
leaf_count=9367 835 689 15066 29719 13763 11882 7681
internal_value=0 1.99479e-06 -1.24278e-06 -1.60664e-06 4.90015e-06 0 -7.87725e-06
internal_weight=0 38885 15755 50117 23130 41601 8516
internal_count=89002 38885 15755 50117 23130 41601 8516
is_linear=0
shrinkage=0.1


Tree=70
num_leaves=8
num_cat=0
split_feature=9 227 14 17 3 22 22
split_gain=2.74915e-05 3.52255e-05 3.75177e-05 2.85743e-05 3.39865e-05 1.88356e-05 1.88086e-05
threshold=0.0072436089296485052 0.008920483877266171 0.3898693826776552 0.40093457943925243 0.0069000419329424221 0.72384506041222474 0.46776452516490469
decision_type=2 2 2 2 2 2 2
left_child=3 2 -2 6 -5 -3 -1
right_child=1 5 -4 4 -6 -7 -8
leaf_value=-8.3327270215593295e-07 7.544446638108029e-06 -8.6137968502228355e-06 0 -7.3688757345973786e-06 -3.1036762490306312e-07 0 4.3529341678426506e-06
leaf_weight=8661 14751 3483 9763 12542 27342 1026 11434
leaf_count=8661 14751 3483 9763 12542 27342 1026 11434
internal_value=0 2.50599e-06 4.35266e-06 -1.24286e-06 -2.93602e-06 -3.9424e-06 1.31184e-06
internal_weight=0 29023 24514 59979 39884 4509 20095
internal_count=89002 29023 24514 59979 39884 4509 20095
is_linear=0
shrinkage=0.1


Tree=71
num_leaves=8
num_cat=0
split_feature=192 102 249 294 288 315 318
split_gain=2.62331e-05 3.89767e-05 2.55159e-05 2.39295e-05 1.96304e-05 1.96279e-05 1.64722e-05
threshold=-1.0000000180025095e-35 -0.001537280227122295 0.35805860805860812 -0.00084817662408909189 0.00078247277315135488 0.43123838289962829 0.43213169978922017
decision_type=2 2 2 2 2 2 2
left_child=1 6 -3 5 -5 -2 -1
right_child=3 2 -4 4 -6 -7 -8
leaf_value=0 0 -1.5441743194551148e-05 -2.0918071219486628e-06 -8.6119495668392132e-07 3.0633819827885502e-06 9.3259171726003964e-06 7.468537173780644e-06
leaf_weight=833 1633 3305 10365 46655 17231 5552 3428
leaf_count=833 1633 3305 10365 46655 17231 5552 3428
internal_value=0 -3.46288e-06 -6.50411e-06 8.15883e-07 0 6.31574e-06 2.49357e-06
internal_weight=0 17931 13670 71071 63886 7185 4261
internal_count=89002 17931 13670 71071 63886 7185 4261
is_linear=0
shrinkage=0.1


Tree=72
num_leaves=7
num_cat=0
split_feature=6 14 302 19 64 124
split_gain=2.53964e-05 3.57897e-05 3.51504e-05 2.16721e-05 2.05357e-05 1.30291e-05
threshold=1.0000000180025095e-35 0.11775210084033615 0.14750321069728792 0.19052957505872306 0.00084889663854692554 0.18942218080149117
decision_type=2 2 2 2 2 2
left_child=1 3 -3 -1 5 -2
right_child=4 2 -4 -5 -6 -7
leaf_value=0 0 -5.2821959716755358e-06 3.1618251583363726e-07 5.8922428173189832e-06 0 -1.4567161840811279e-05
leaf_weight=3033 419 13168 51760 16221 1668 2733
leaf_count=3033 419 13168 51760 16221 1668 2733
internal_value=0 3.38349e-07 -5.69825e-07 4.24189e-06 -7.11962e-06 -1.19441e-05
internal_weight=0 84182 64928 19254 4820 3152
internal_count=89002 84182 64928 19254 4820 3152
is_linear=0
shrinkage=0.1


Tree=73
num_leaves=8
num_cat=0
split_feature=256 262 262 146 16 252 10
split_gain=2.46613e-05 3.84319e-05 3.43412e-05 3.80939e-05 2.36509e-05 1.93956e-05 1.20121e-05
threshold=-0.0016148572955971827 -0.00077041617707784827 -0.0016970732626360172 0.50047619047619063 0.3430703624733476 0.95861872146118732 0.0069870276062699958
decision_type=2 2 2 2 2 2 2
left_child=2 5 6 -4 -3 -2 -1
right_child=1 4 3 -5 -6 -7 -8
leaf_value=1.0291525461666334e-05 9.3546583998958372e-06 -3.0333607952969281e-06 -1.6233685632826564e-05 0 8.8970890898888444e-07 0 0
leaf_weight=1134 6837 21732 3605 2519 47250 3480 2445
leaf_count=1134 6837 21732 3605 2519 47250 3480 2445
internal_value=0 5.13335e-07 -4.8231e-06 -9.64013e-06 -1.11467e-07 6.26042e-06 0
internal_weight=0 79299 9703 6124 68982 10317 3579
internal_count=89002 79299 9703 6124 68982 10317 3579
is_linear=0
shrinkage=0.1


Tree=74
num_leaves=8
num_cat=0
split_feature=318 156 249 294 288 28 47
split_gain=2.50698e-05 4.61293e-05 4.42161e-05 3.58579e-05 3.5481e-05 2.78485e-05 1.07127e-05
threshold=0.44302157801534731 0.44151846785225723 0.69337606837606847 -0.001629993293604137 -0.0016148572955971827 0.80707196029776684 0.1391140895717555
decision_type=2 2 2 2 2 2 2
left_child=1 6 -3 5 -5 -2 -1
right_child=3 2 -4 4 -6 -7 -8
leaf_value=-9.7686776344102497e-09 1.2235710110520979e-05 -1.6380521459315939e-05 0 -8.853480629453642e-06 4.7538224694295149e-07 0 6.0809273877652333e-06
leaf_weight=2362 4450 4191 3054 4341 64317 3379 2908
leaf_count=2362 4450 4191 3054 4341 64317 3379 2908
internal_value=0 -4.20719e-06 -9.70508e-06 6.17608e-07 0 7.03756e-06 2.78499e-07
internal_weight=0 12515 7245 76487 68658 7829 5270
internal_count=89002 12515 7245 76487 68658 7829 5270
is_linear=0
shrinkage=0.1


Tree=75
num_leaves=7
num_cat=0
split_feature=54 254 94 31 85 134
split_gain=2.3214e-05 3.00058e-05 3.62894e-05 2.88979e-05 2.28692e-05 1.67354e-05
threshold=0.15689852583369115 0.26900052511815159 0.24546724364592465 0.75170351828674742 0.39339826839826847 0.0007812501589459232
decision_type=2 2 2 2 2 2
left_child=4 2 -2 -3 -1 -6
right_child=1 3 -4 -5 5 -7
leaf_value=0 0 2.5945818471229515e-06 -2.0741054596407707e-05 -1.3469455504567393e-06 1.8726567982493459e-05 0
leaf_weight=1163 1778 28349 1568 54092 1758 294
leaf_count=1163 1778 28349 1568 54092 1758 294
internal_value=0 -3.68357e-07 -9.65154e-06 0 8.28143e-06 1.4795e-05
internal_weight=0 85787 3346 82441 3215 2052
internal_count=89002 85787 3346 82441 3215 2052
is_linear=0
shrinkage=0.1


Tree=76
num_leaves=7
num_cat=0
split_feature=6 15 32 224 61 311
split_gain=2.33718e-05 3.18777e-05 2.54167e-05 2.4962e-05 1.75015e-05 1.28351e-05
threshold=-0.00076745985904214098 0.021995300297187093 -0.0015936268470895241 -0.00088183444374845255 0.13921188630490958 0.25303663634128354
decision_type=2 2 2 2 2 2
left_child=2 5 -1 -3 -4 -2
right_child=1 3 4 -5 -6 -7
leaf_value=0 0 -4.5081308096339384e-06 0 7.4772475405010747e-07 1.4016677588872519e-05 -1.055967063032229e-05
leaf_weight=1068 1116 10402 614 68352 3287 4163
leaf_count=1068 1116 10402 614 68352 3287 4163
internal_value=0 -4.50934e-07 6.60268e-06 0 1.09856e-05 -7.97629e-06
internal_weight=0 84033 4969 78754 3901 5279
internal_count=89002 84033 4969 78754 3901 5279
is_linear=0
shrinkage=0.1


Tree=77
num_leaves=8
num_cat=0
split_feature=291 242 48 160 44 319 177
split_gain=2.2376e-05 3.37679e-05 3.59193e-05 3.10169e-05 3.72897e-05 3.55169e-05 2.30566e-05
threshold=0.0066005783755994597 0.4867490752446505 0.67669683257918567 0.0016597525614256983 0.69309262166405039 0.52655936043777529 0.395476616406849
decision_type=2 2 2 2 2 2 2
left_child=1 6 -3 4 -2 -5 -1
right_child=3 2 -4 5 -6 -7 -8
leaf_value=3.8824897361069503e-06 -4.6125568229856137e-07 -1.1411033087235786e-05 0 0 8.3744381314909803e-06 1.4162519393010217e-05 -3.6206568074952996e-06
leaf_weight=8107 54063 6646 2129 1045 5154 3592 8266
leaf_count=8107 54063 6646 2129 1045 5154 3592 8266
internal_value=0 -2.58873e-06 -7.59519e-06 9.30011e-07 3.43258e-08 8.876e-06 0
internal_weight=0 25148 8775 63854 59217 4637 16373
internal_count=89002 25148 8775 63854 59217 4637 16373
is_linear=0
shrinkage=0.1


Tree=78
num_leaves=8
num_cat=0
split_feature=102 96 213 202 288 56 222
split_gain=2.21046e-05 3.52286e-05 2.19844e-05 2.71541e-05 2.19153e-05 1.3265e-05 1.62918e-06
threshold=0.00090090260701725111 0.00077160509140306044 0.63714733542319768 0.0081707530407763383 -0.0024570041050697706 0.41421362489486968 0.89833287024173403
decision_type=2 2 2 2 2 2 2
left_child=1 4 3 -2 -1 -3 -4
right_child=2 5 6 -5 -6 -7 -8
leaf_value=-9.6889596869041581e-06 -1.7203803577007434e-05 0 -2.677934765126631e-06 0 0 8.3838387024197625e-06 1.5538002250109563e-06
leaf_weight=2351 2368 2184 1668 391 71206 7041 1793
leaf_count=2351 2368 2184 1668 391 71206 7041 1793
internal_value=0 3.73297e-07 -5.80368e-06 -1.24745e-05 -1.4565e-07 6.2665e-06 0
internal_weight=0 82782 6220 2759 73557 9225 3461
internal_count=89002 82782 6220 2759 73557 9225 3461
is_linear=0
shrinkage=0.1


Tree=79
num_leaves=7
num_cat=0
split_feature=164 273 11 92 5 286
split_gain=2.11641e-05 3.01945e-05 3.83484e-05 3.1091e-05 2.30119e-05 1.94921e-05
threshold=0.0058726321113070886 0.76253132832080206 0.00053855865504710972 0.96225071225071235 -0.00086863728244508784 0.98812962310672792
decision_type=2 2 2 2 2 2
left_child=4 3 -3 -2 -1 -6
right_child=1 2 -4 -5 5 -7
leaf_value=0 3.2558076150065878e-06 0 -6.9192181895871696e-06 -1.4694735331325603e-06 -2.3077365704287971e-05 0
leaf_weight=1048 42163 17826 10878 15311 1187 589
leaf_count=1048 42163 17826 10878 15311 1187 589
internal_value=0 2.27532e-07 -2.18717e-06 1.71525e-06 -8.56507e-06 -1.56911e-05
internal_weight=0 86178 28704 57474 2824 1776
internal_count=89002 86178 28704 57474 2824 1776
is_linear=0
shrinkage=0.1


Tree=80
num_leaves=8
num_cat=0
split_feature=9 272 281 31 189 148 14
split_gain=2.04403e-05 3.0869e-05 4.00627e-05 2.4855e-05 5.70911e-05 2.65621e-05 1.8558e-05
threshold=0.0072436089296485052 0.48331479421579543 0.56330128205128216 0.74471804790953733 0.36474501108647456 0.29190074906367047 0.20014619883040938
decision_type=2 2 2 2 2 2 2
left_child=3 6 -3 5 -5 -1 -2
right_child=1 2 -4 4 -6 -7 -8
leaf_value=1.1369179310440884e-05 3.1979954108143987e-06 0 1.0949822994989025e-05 -7.1785378111878448e-06 0 0 -3.6590702019345904e-06
leaf_weight=2262 5708 6819 6995 16838 21845 19034 9501
leaf_count=2262 5708 6819 6995 16838 21845 19034 9501
internal_value=0 2.11148e-06 5.63138e-06 -1.11829e-06 -2.76986e-06 1.12131e-06 -2.08722e-08
internal_weight=0 29023 13814 59979 38683 21296 15209
internal_count=89002 29023 13814 59979 38683 21296 15209
is_linear=0
shrinkage=0.1


Tree=81
num_leaves=8
num_cat=0
split_feature=32 60 6 118 70 317 163
split_gain=2.0194e-05 3.04772e-05 2.27404e-05 2.53514e-05 1.54395e-05 9.85232e-06 2.53386e-06
threshold=-0.000796178512181278 0.39504283965728276 -0.00076745985904214098 0.15678978367369409 -0.0017873120014799679 0.11173533083645444 0.0066838197314605776
decision_type=2 2 2 2 2 2 2
left_child=1 6 5 -4 -3 -2 -1
right_child=2 4 3 -5 -6 -7 -8
leaf_value=0 0 0 9.3587859834523839e-06 -2.1559049284004622e-07 -1.0870817392646477e-05 1.1279096205337442e-05 3.4241385620488559e-06
leaf_weight=1033 385 343 2855 74080 5439 2706 2161
leaf_count=1033 385 343 2855 74080 5439 2706 2161
internal_value=0 -4.52263e-06 4.78729e-07 0 -9.19034e-06 8.91628e-06 0
internal_weight=0 8976 80026 76935 5782 3091 3194
internal_count=89002 8976 80026 76935 5782 3091 3194
is_linear=0
shrinkage=0.1


Tree=82
num_leaves=7
num_cat=0
split_feature=6 14 270 308 0 61
split_gain=1.97616e-05 2.80784e-05 3.76564e-05 3.51071e-05 2.0583e-05 9.99057e-06
threshold=1.0000000180025095e-35 0.25745538625718861 0.14750321069728792 0.68237250554323736 0.0015910912392316237 0.051503094606542892
decision_type=2 2 2 2 2 2
left_child=1 2 -1 -3 5 -2
right_child=4 3 -4 -5 -6 -7
leaf_value=0 0 -4.4038661031889051e-06 5.3519369913440483e-06 9.4774581740135282e-07 0 -1.154061572054565e-05
leaf_weight=20307 265 20320 21088 22467 850 3705
leaf_count=20307 265 20320 21088 22467 850 3705
internal_value=0 3.42619e-07 2.34415e-06 -1.21534e-06 -6.24083e-06 -9.95648e-06
internal_weight=0 84182 41395 42787 4820 3970
internal_count=89002 84182 41395 42787 4820 3970
is_linear=0
shrinkage=0.1


Tree=83
num_leaves=7
num_cat=0
split_feature=68 28 288 294 80 48
split_gain=1.87101e-05 2.99777e-05 4.35322e-05 3.37155e-05 2.12337e-05 1.94313e-05
threshold=0.0059262524464707899 0.48749218261413391 -0.001775411379812297 0.0016488061107775567 0.24467120181405896 0.75893997445721595
decision_type=2 2 2 2 2 2
left_child=4 3 -3 -2 -1 -6
right_child=1 2 -4 -5 5 -7
leaf_value=0 4.3206936602465538e-06 -1.3893610389277372e-05 0 -4.4698514113407057e-06 -2.0691475147596289e-05 0
leaf_weight=1809 28209 2504 51498 3431 1372 179
leaf_count=1809 28209 2504 51498 3431 1372 179
internal_value=0 2.71105e-07 -9.4333e-07 2.85565e-06 -7.3355e-06 -1.59204e-05
internal_weight=0 85642 54002 31640 3360 1551
internal_count=89002 85642 54002 31640 3360 1551
is_linear=0
shrinkage=0.1


Tree=84
num_leaves=7
num_cat=0
split_feature=6 0 11 32 234 176
split_gain=1.86967e-05 2.79229e-05 2.10099e-05 1.21967e-05 1.07386e-05 1.02088e-05
threshold=-0.00088183444374845255 -0.0007861636839763263 -0.00016762940951379034 -0.0015936268470895241 0.0060058525072598477 0.84105263157894739
decision_type=2 2 2 2 2 2
left_child=3 5 -3 -1 -5 -2
right_child=1 2 -4 4 -6 -7
leaf_value=0 -9.8172301484960973e-06 2.3684308207618156e-06 -1.0116224274648285e-06 0 1.5853979467899045e-05 0
leaf_weight=750 4043 27610 53959 122 1623 895
leaf_count=750 4043 27610 53959 122 1623 895
internal_value=0 -3.10701e-07 0 8.46087e-06 1.31241e-05 -7.6313e-06
internal_weight=0 86507 81569 2495 1745 4938
internal_count=89002 86507 81569 2495 1745 4938
is_linear=0
shrinkage=0.1


Tree=85
num_leaves=8
num_cat=0
split_feature=318 204 242 262 62 207 93
split_gain=1.83398e-05 3.94009e-05 3.17409e-05 2.9855e-05 2.96253e-05 2.12723e-05 1.92404e-05
threshold=0.44302157801534731 0.65881374722838149 0.27837980318650429 -0.001629993293604137 0.39251168224299071 0.18629314843808251 0.29217479674796754
decision_type=2 2 2 2 2 2 2
left_child=1 2 -1 5 -5 -2 -3
right_child=3 6 -4 4 -6 -7 -8
leaf_value=0 0 0 -9.4961492483842645e-06 -1.1982673598910599e-05 2.364222167764797e-07 1.2481359563573304e-05 1.9952622743223055e-05
leaf_weight=2697 3871 473 8618 2037 67165 3414 727
leaf_count=2697 3871 473 8618 2037 67165 3414 727
internal_value=0 -3.60675e-06 -6.37425e-06 5.18877e-07 0 6.61873e-06 8.99343e-06
internal_weight=0 12515 11315 76487 69202 7285 1200
internal_count=89002 12515 11315 76487 69202 7285 1200
is_linear=0
shrinkage=0.1


Tree=86
num_leaves=8
num_cat=0
split_feature=217 155 172 86 85 315 305
split_gain=1.86529e-05 4.04471e-05 3.54563e-05 3.01114e-05 3.42209e-05 2.53638e-05 1.63423e-05
threshold=0.3133928571428572 0.52391349552921618 0.14854215918045707 0.41673669467787122 0.12571839080459773 0.53528191359531374 0.86729559748427687
decision_type=2 2 2 2 2 2 2
left_child=3 2 -2 6 -5 -3 -1
right_child=1 5 -4 4 -6 -7 -8
leaf_value=5.5334996010861206e-06 -8.649164228574138e-08 -6.917964418529659e-06 6.6797184777229466e-06 3.0363007638350897e-07 -9.003391298139151e-06 0 -2.379468655426272e-06
leaf_weight=4682 6077 5752 17387 1533 9759 40238 3574
leaf_count=4682 6077 5752 17387 1533 9759 40238 3574
internal_value=0 7.44029e-07 4.2372e-06 -2.75231e-06 -6.30585e-06 -6.86083e-07 1.46647e-07
internal_weight=0 69454 23464 19548 11292 45990 8256
internal_count=89002 69454 23464 19548 11292 45990 8256
is_linear=0
shrinkage=0.1


Tree=87
num_leaves=8
num_cat=0
split_feature=31 27 14 14 119 187 299
split_gain=1.907e-05 3.43213e-05 3.23129e-05 3.05152e-05 2.9645e-05 2.50823e-05 2.22603e-05
threshold=0.88942710759198895 0.24903953523835762 0.32675216340531693 0.11951705373627443 0.82440886240923483 0.65097505381790566 0.00072509061321642508
decision_type=2 2 2 2 2 2 2
left_child=1 3 -3 -1 5 -2 -6
right_child=4 2 -4 -5 6 -7 -8
leaf_value=0 1.4613692596048595e-06 3.2611448085616454e-06 -2.5584688222461731e-06 2.2135356447235464e-05 -1.2049437220630426e-05 -3.2759164868340832e-06 0
leaf_weight=478 26571 22035 14855 1517 4173 18124 1249
leaf_count=478 26571 22035 14855 1517 4173 18124 1249
internal_value=0 1.63099e-06 4.78721e-07 1.48201e-05 -1.31952e-06 -9.73174e-08 -8.40771e-06
internal_weight=0 38885 36890 1995 50117 44695 5422
internal_count=89002 38885 36890 1995 50117 44695 5422
is_linear=0
shrinkage=0.1


Tree=88
num_leaves=8
num_cat=0
split_feature=192 198 166 50 60 170 24
split_gain=1.8372e-05 3.53669e-05 2.75375e-05 2.16955e-05 2.01303e-05 1.84916e-05 5.53642e-08
threshold=0.0017738367341273433 0.0025773214898592305 0.0015302230765534832 0.19784102822972083 0.48749218261413391 0.0080935876400005293 0.31686991869918707
decision_type=2 2 2 2 2 2 2
left_child=2 3 4 -2 -1 -4 -3
right_child=1 6 5 -5 -6 -7 -8
leaf_value=2.2484235597789243e-06 0 0 -8.9188322674271184e-06 2.3137975051742972e-05 -9.8432042314433009e-07 0 -8.8609938682995864e-07
leaf_weight=30322 209 201 5865 1397 49677 626 705
leaf_count=30322 209 201 5865 1397 49677 626 705
internal_value=0 8.40218e-06 -2.71446e-07 1.8183e-05 3.85691e-08 -6.58686e-06 0
internal_weight=0 2512 86490 1606 79999 6491 906
internal_count=89002 2512 86490 1606 79999 6491 906
is_linear=0
shrinkage=0.1


Tree=89
num_leaves=8
num_cat=0
split_feature=224 29 253 54 229 230 19
split_gain=1.86754e-05 2.52827e-05 3.57129e-05 1.85719e-05 1.7387e-05 2.49208e-05 1.0518e-05
threshold=0.00077160509140306044 0.051503094606542892 0.29217479674796754 0.7958039906103288 -0.001129455453773507 0.0026315809722863297 0.32571863448575783
decision_type=2 2 2 2 2 2 2
left_child=1 3 -3 -1 6 -6 -2
right_child=4 2 -4 -5 5 -7 -8
leaf_value=9.9915457301857624e-06 1.644837434641271e-06 -4.6508611290123029e-06 0 0 6.8867696521487681e-06 -1.3756685750103677e-06 -6.0676339369393871e-06
leaf_weight=3451 1412 22651 44911 731 11996 1097 2753
leaf_count=3451 1412 22651 44911 731 11996 1097 2753
internal_value=0 -7.35485e-07 -1.40214e-06 6.16227e-06 2.92788e-06 4.95772e-06 0
internal_weight=0 71744 67562 4182 17258 13093 4165
internal_count=89002 71744 67562 4182 17258 13093 4165
is_linear=0
shrinkage=0.1


Tree=90
num_leaves=8
num_cat=0
split_feature=250 112 243 22 259 213 9
split_gain=1.74761e-05 4.52249e-05 5.29357e-05 2.73888e-05 1.94626e-05 1.63192e-05 1.44214e-05
threshold=0.26823725055432379 0.3986301369863014 0.58124704770902225 0.13222382688031545 0.0087710003586391402 0.18245838668373884 0.0067932538533312182
decision_type=2 2 2 2 2 2 2
left_child=1 6 -3 5 -5 -2 -1
right_child=3 2 -4 4 -6 -7 -8
leaf_value=0 0 -2.0400273847997956e-05 0 7.4841850240895819e-07 -3.830213560553593e-06 2.2019862630826891e-05 1.0070483005202935e-05
leaf_weight=1035 131 2752 1043 71145 10550 924 1422
leaf_count=1035 131 2752 1043 71145 10550 924 1422
internal_value=0 -5.11785e-06 -1.27402e-05 3.64649e-07 0 1.64319e-05 6.50821e-08
internal_weight=0 6252 3795 82750 81695 1055 2457
internal_count=89002 6252 3795 82750 81695 1055 2457
is_linear=0
shrinkage=0.1


Tree=91
num_leaves=8
num_cat=0
split_feature=291 108 27 186 86 235 46
split_gain=1.70388e-05 2.66532e-05 2.96273e-05 2.63981e-05 2.47061e-05 2.9933e-05 2.60503e-05
threshold=0.0066185117710565412 0.67028985507246386 0.76454013938704701 0.24214638157894738 0.4074980733487466 0.00056041897325148778 0.34623709623709625
decision_type=2 2 2 2 2 2 2
left_child=4 3 -3 -2 6 -6 -1
right_child=1 2 -4 -5 5 -7 -8
leaf_value=5.255828880711358e-06 -9.4010884511659187e-06 1.2905390366219053e-05 0 6.8114953380079091e-07 -7.4315566237411233e-06 0 -5.4421303209280295e-06
leaf_weight=6771 2701 3669 2352 54432 12049 4445 2583
leaf_count=6771 2701 3669 2352 54432 12049 4445 2583
internal_value=0 8.74382e-07 7.23086e-06 0 -2.17345e-06 -4.71137e-06 5.70539e-07
internal_weight=0 63154 6021 57133 25848 16494 9354
internal_count=89002 63154 6021 57133 25848 16494 9354
is_linear=0
shrinkage=0.1


Tree=92
num_leaves=8
num_cat=0
split_feature=81 67 123 252 312 68 213
split_gain=1.6124e-05 3.49354e-05 3.20157e-05 2.52717e-05 2.4664e-05 1.93775e-05 1.53963e-05
threshold=0.40093457943925243 0.0068997068209938313 0.76060955899330418 0.96922348484848497 0.41763565891472876 0.0065866062719633764 0.97467948717948727
decision_type=2 2 2 2 2 2 2
left_child=3 5 -3 4 -1 -2 -5
right_child=1 2 -4 6 -6 -7 -8
leaf_value=0 -9.3557232935414977e-06 2.9863761624442404e-06 -2.5176917815602663e-06 -6.5825716513405471e-06 5.8846888281451631e-06 -5.0642845671107466e-07 0
leaf_weight=5356 6743 24076 17217 4127 16807 11363 3313
leaf_count=5356 6743 24076 17217 4127 16807 11363 3313
internal_value=0 -9.50885e-07 2.99316e-07 1.9059e-06 3.89005e-06 -4.69646e-06 -1.82816e-06
internal_weight=0 59399 41293 29603 22163 18106 7440
internal_count=89002 59399 41293 29603 22163 18106 7440
is_linear=0
shrinkage=0.1


Tree=93
num_leaves=8
num_cat=0
split_feature=31 155 27 218 44 9 283
split_gain=1.6799e-05 2.78715e-05 2.6554e-05 2.46485e-05 2.20981e-05 1.85704e-05 1.80558e-05
threshold=0.91814263322884027 0.64979723850334115 0.24408114239957299 0.24214638157894738 0.72850122850122856 0.0079268722510144937 0.54626208166217383
decision_type=2 2 2 2 2 2 2
left_child=2 4 5 -3 -2 -1 -4
right_child=1 3 6 -5 -6 -7 -8
leaf_value=1.8944937348837838e-05 0 -2.359959876151204e-05 -2.3086122110925648e-06 -2.5029328283423015e-06 1.0787393145270669e-05 0 2.171888065435024e-06
leaf_weight=1478 26542 869 11142 19246 1910 430 27385
leaf_count=1478 26542 869 11142 19246 1910 430 27385
internal_value=0 -1.28916e-06 1.46914e-06 -4.21951e-06 2.13402e-07 1.34427e-05 4.55817e-07
internal_weight=0 48567 40435 20115 28452 1908 38527
internal_count=89002 48567 40435 20115 28452 1908 38527
is_linear=0
shrinkage=0.1


Tree=94
num_leaves=7
num_cat=0
split_feature=70 96 261 14 79 13
split_gain=1.58387e-05 4.25952e-05 1.99062e-05 1.77804e-05 1.37256e-05 2.01291e-05
threshold=0.0016899035343760362 0.0016135544650026647 -0.0013138688076847775 0.45572420746051306 0.61548800661703906 0.64365079365079381
decision_type=2 2 2 2 2 2
left_child=1 3 -3 -1 5 -2
right_child=4 2 -4 -5 -6 -7
leaf_value=5.0958004615526399e-07 -1.6944177156499383e-05 0 1.3359268712757385e-05 -2.7774680136038591e-06 0 0
leaf_weight=61202 1722 707 3507 21196 321 347
leaf_count=61202 1722 707 3507 21196 321 347
internal_value=0 1.70049e-07 1.00644e-05 -1.39456e-07 -8.07587e-06 -1.19026e-05
internal_weight=0 86612 4214 82398 2390 2069
internal_count=89002 86612 4214 82398 2390 2069
is_linear=0
shrinkage=0.1


Tree=95
num_leaves=8
num_cat=0
split_feature=299 11 265 9 256 112 27
split_gain=1.666e-05 3.35239e-05 2.86832e-05 2.71396e-05 2.60756e-05 2.57773e-05 2.07776e-05
threshold=0.00077427628466980385 0.00072583505473308556 0.0065042886011058365 0.0062682256960628754 0.00174672666727993 0.85857142857142865 0.95085626463700235
decision_type=2 2 2 2 2 2 2
left_child=1 5 3 -2 -3 -1 -4
right_child=2 4 6 -5 -6 -7 -8
leaf_value=-9.1352650610078975e-07 0 -8.5762685319755446e-06 1.6796483930360388e-06 1.129549777665391e-05 0 5.0004107056920901e-06 -6.2381955957911585e-06
leaf_weight=44466 4542 8826 11712 5264 877 8825 4490
leaf_count=44466 4542 8826 11712 5264 877 8825 4490
internal_value=0 -9.18871e-07 2.08821e-06 6.38872e-06 -6.32701e-06 0 0
internal_weight=0 62994 26008 9806 9703 53291 16202
internal_count=89002 62994 26008 9806 9703 53291 16202
is_linear=0
shrinkage=0.1


Tree=96
num_leaves=7
num_cat=0
split_feature=6 15 93 299 243 240
split_gain=1.62109e-05 2.1414e-05 1.73016e-05 1.69528e-05 1.60373e-05 9.99124e-06
threshold=-0.00076745985904214098 0.021995300297187093 0.14839839839839844 5.9856836768981861e-05 0.19052957505872306 0.1676706827309237
decision_type=2 2 2 2 2 2
left_child=2 5 -1 -3 -4 -2
right_child=1 3 4 -5 -6 -7
leaf_value=0 0 -1.5985512056636522e-06 0 1.3570353591414421e-06 1.2158847488899426e-05 -8.2110266301196841e-06
leaf_weight=890 473 34320 795 44434 3284 4806
leaf_count=890 473 34320 795 44434 3284 4806
internal_value=0 -3.44637e-07 5.53305e-06 0 8.928e-06 -6.51569e-06
internal_weight=0 84033 4969 78754 4079 5279
internal_count=89002 84033 4969 78754 4079 5279
is_linear=0
shrinkage=0.1


Tree=97
num_leaves=8
num_cat=0
split_feature=304 277 48 153 301 26 115
split_gain=1.62399e-05 2.61103e-05 2.51474e-05 2.78472e-05 2.60025e-05 2.30262e-05 3.61667e-06
threshold=0.18808962264150947 0.54653679653679665 0.330952380952381 0.36435786435786438 0.29099462365591405 0.52835548885077199 0.40081808144009107
decision_type=2 2 2 2 2 2 2
left_child=1 6 4 -4 -2 -3 -1
right_child=2 5 3 -5 -6 -7 -8
leaf_value=0 -7.0375596529894894e-06 0 -2.9068673215017988e-06 1.8358899024802889e-06 0 1.3071194766604665e-05 -5.6495831858403824e-06
leaf_weight=1557 10515 1517 15825 44971 9752 3732 1133
leaf_count=1557 10515 1517 15825 44971 9752 3732 1133
internal_value=0 4.29261e-06 -4.45782e-07 3.35009e-07 -3.58694e-06 8.80975e-06 0
internal_weight=0 7939 81063 60796 20267 5249 2690
internal_count=89002 7939 81063 60796 20267 5249 2690
is_linear=0
shrinkage=0.1


Tree=98
num_leaves=8
num_cat=0
split_feature=128 102 134 312 118 156 157
split_gain=1.60659e-05 2.90295e-05 2.46369e-05 2.31742e-05 1.9598e-05 1.63202e-05 1.05471e-06
threshold=-0.0016494851905708428 -0.0016956344540846045 -0.00089365528704821162 0.84045454545454557 0.15678978367369409 0.85092592592592597 0.11173533083645444
decision_type=2 2 2 2 2 2 2
left_child=1 6 5 -3 -4 -2 -1
right_child=2 3 4 -5 -6 -7 -8
leaf_value=0 1.1404108057605886e-05 -1.7423165045195375e-05 7.8411446731495521e-06 0 -4.4238032734311387e-07 0 2.773495900311386e-06
leaf_weight=264 3214 2221 2948 1701 75214 2069 1371
leaf_count=264 3214 2221 2948 1701 75214 2069 1371
internal_value=0 -5.23376e-06 3.17977e-07 -1.06219e-05 0 6.9448e-06 0
internal_weight=0 5557 83445 3922 78162 5283 1635
internal_count=89002 5557 83445 3922 78162 5283 1635
is_linear=0
shrinkage=0.1


Tree=99
num_leaves=7
num_cat=0
split_feature=196 35 24 273 275 61
split_gain=1.58675e-05 2.57814e-05 2.57635e-05 2.09758e-05 3.20185e-05 2.31986e-05
threshold=0.0058726321113070886 0.0069618534255535 0.32049382716049385 0.76253132832080206 0.3831946244627874 0.29217479674796754
decision_type=2 2 2 2 2 2
left_child=1 2 -1 5 -5 -2
right_child=3 -3 -4 4 -6 -7
leaf_value=0 -6.910125962996542e-07 0 -2.0484660922338142e-05 8.9439526048817899e-07 -5.0788476308767136e-06 3.0384374499033922e-06
leaf_weight=467 19519 817 1596 13333 15366 37904
leaf_count=467 19519 817 1596 13333 15366 37904
internal_value=0 -7.31985e-06 -1.41337e-05 2.24924e-07 -1.73956e-06 1.48874e-06
internal_weight=0 2880 2063 86122 28699 57423
internal_count=89002 2880 2063 86122 28699 57423
is_linear=0
shrinkage=0.1


end of trees

feature_importances:
sAskSize1_1=32
sLaggingRtn_1=28
sBidSize1_1=26
fLaggingRtn_10=24
fLaggingRtn_6=15
fLaggingRtn_2=14
fLaggingRtn_9=14
sLaggingRtn_10=14
stockSlope_b_1=12
sLaggingRtn_4=12
sLaggingRtn_8=12
sLaggingRtn_9=11
stockSlope_ab_1=10
sLaggingRtn_3=10
sLaggingRtn_6=10
fLaggingRtn_8=10
fLaggingRtn_1=9
fLaggingRtn_3=9
sLaggingRtn_7=9
sAskSize5_9=9
fAskSize5_1=8
fLaggingRtn_4=8
sLaggingRtn_5=8
fBidSize5_9=8
fAskSize2_1=7
sAskSize3_1=7
sBidSize5_1=7
sLaggingRtn_2=7
sAskSize5_10=7
fBidSize2_1=6
fLaggingRtn_7=6
fBidSize4_8=6
slope_b_10=6
sBidSize2_1=5
fBidSize4_1=5
sBidSize4_1=5
slope_a_3=5
sBidSize4_10=5
spreadRatio_1=4
sAskSize3_2=4
fBidSize5_2=4
sAskSize5_2=4
sAskSize2_5=4
stockSlope_a_8=4
sAskSize5_8=4
sAskSize4_9=4
sBidSize5_9=4
stockSlope_a_10=4
slope_b_1=3
slope_a_1=3
stockSlope_a_1=3
sAskSize5_1=3
fAskSize1_2=3
fAskSize2_2=3
sBidSize2_2=3
fBidSize3_2=3
fAskSize5_2=3
sAskSize2_3=3
sAskSize3_3=3
sBidSize4_3=3
sAskSize3_4=3
fLaggingRtn_5=3
sBidSize4_5=3
fBidSize5_5=3
slope_a_6=3
fBidSize3_7=3
fBidSize3_8=3
fAskSize2_9=3
fBidSize4_9=3
stockSlope_ab_10=3
fBidSize2_10=3
fAskSize3_10=3
sBidSize5_10=3
fAskSize4_1=2
fBidSize5_1=2
slope_b_2=2
slope_a_2=2
sAskSize1_2=2
sAskSize2_2=2
fBidSize4_2=2
spreadRatio_3=2
slope_b_3=2
fBidSize2_3=2
fBidSize3_3=2
fAskSize5_3=2
fBidSize5_3=2
sAskSize5_3=2
fAskSize2_4=2
fBidSize4_4=2
fAskSize5_4=2
fBidSize5_4=2
sAskSize3_5=2
fAskSize5_5=2
stockSlope_a_6=2
fAskSize1_6=2
sAskSize4_6=2
fBidSize5_6=2
stockSlope_a_7=2
fBidSize4_7=2
fBidSize5_7=2
spreadRatio_8=2
slope_b_8=2
sAskSize2_8=2
sBidSize2_8=2
fAskSize5_8=2
fBidSize5_8=2
slope_b_9=2
slope_ab_9=2
fBidSize2_9=2
sBidSize2_9=2
stockSpreadRatio_10=2
fAskSize2_10=2
fBidSize3_10=2
sBidSize3_10=2
fAskSize4_10=2
fBidSize4_10=2
sAskSize4_10=2
fBidSize5_10=2
slope_ab_1=1
fAskSize1_1=1
fBidSize1_1=1
sAskSize4_1=1
spreadRatio_2=1
slope_ab_2=1
stockSlope_b_2=1
sBidSize1_2=1
fBidSize2_2=1
sBidSize3_2=1
fAskSize4_2=1
sAskSize4_2=1
stockSpreadRatio_3=1
sBidSize1_3=1
fAskSize2_3=1
fBidSize4_3=1
slope_a_4=1
fAskSize1_4=1
sBidSize2_4=1
sBidSize3_4=1
sBidSize4_4=1
slope_a_5=1
slope_ab_5=1
fAskSize3_5=1
fBidSize4_5=1
sAskSize4_5=1
spreadRatio_6=1
slope_b_6=1
fAskSize2_6=1
fBidSize2_6=1
sBidSize4_6=1
sAskSize5_6=1
slope_b_7=1
slope_a_7=1
slope_ab_7=1
stockSlope_b_7=1
fAskSize1_7=1
sBidSize1_7=1
sAskSize4_7=1
fAskSize5_7=1
sAskSize5_7=1
sBidSize5_7=1
slope_ab_8=1
stockSlope_b_8=1
stockSlope_ab_8=1
fAskSize1_8=1
sAskSize1_8=1
fAskSize2_8=1
fAskSize3_8=1
sAskSize4_8=1
spreadRatio_9=1
stockSpreadRatio_9=1
stockSlope_b_9=1
stockSlope_a_9=1
sAskSize1_9=1
sBidSize1_9=1
fBidSize3_9=1
sBidSize3_9=1
sBidSize4_9=1
spreadRatio_10=1
slope_a_10=1
stockSlope_b_10=1
fAskSize1_10=1
fBidSize1_10=1
sAskSize1_10=1
sBidSize2_10=1

parameters:
[boosting: gbdt]
[objective: regression]
[metric: l2]
[tree_learner: serial]
[device_type: cpu]
[data: ]
[valid: ]
[num_iterations: 100]
[learning_rate: 0.1]
[num_leaves: 8]
[num_threads: -1]
[deterministic: 0]
[force_col_wise: 0]
[force_row_wise: 0]
[histogram_pool_size: -1]
[max_depth: 3]
[min_data_in_leaf: 20]
[min_sum_hessian_in_leaf: 0.001]
[bagging_fraction: 0.8]
[pos_bagging_fraction: 1]
[neg_bagging_fraction: 1]
[bagging_freq: 0]
[bagging_seed: 3]
[feature_fraction: 0.8]
[feature_fraction_bynode: 1]
[feature_fraction_seed: 2]
[extra_trees: 0]
[extra_seed: 6]
[early_stopping_round: 0]
[first_metric_only: 0]
[max_delta_step: 0]
[lambda_l1: 0.161933]
[lambda_l2: 0.12181]
[linear_lambda: 0]
[min_gain_to_split: 0]
[drop_rate: 0.1]
[max_drop: 50]
[skip_drop: 0.5]
[xgboost_dart_mode: 0]
[uniform_drop: 0]
[drop_seed: 4]
[top_rate: 0.2]
[other_rate: 0.1]
[min_data_per_group: 100]
[max_cat_threshold: 32]
[cat_l2: 10]
[cat_smooth: 10]
[max_cat_to_onehot: 4]
[top_k: 20]
[monotone_constraints: ]
[monotone_constraints_method: basic]
[monotone_penalty: 0]
[feature_contri: ]
[forcedsplits_filename: ]
[refit_decay_rate: 0.9]
[cegb_tradeoff: 1]
[cegb_penalty_split: 0]
