tree
version=v3
num_class=1
num_tree_per_iteration=1
label_index=0
max_feature_idx=319
objective=regression
feature_names=fLaggingRtn_1 spreadRatio_1 volumeImbalanceRatio_1 slope_b_1 slope_a_1 slope_ab_1 sLaggingRtn_1 stockSpreadRatio_1 stockVolumeImbalanceRatio_1 stockSlope_b_1 stockSlope_a_1 stockSlope_ab_1 fAskSize1_1 fBidSize1_1 sAskSize1_1 sBidSize1_1 fAskSize2_1 fBidSize2_1 sAskSize2_1 sBidSize2_1 fAskSize3_1 fBidSize3_1 sAskSize3_1 sBidSize3_1 fAskSize4_1 fBidSize4_1 sAskSize4_1 sBidSize4_1 fAskSize5_1 fBidSize5_1 sAskSize5_1 sBidSize5_1 fLaggingRtn_2 spreadRatio_2 volumeImbalanceRatio_2 slope_b_2 slope_a_2 slope_ab_2 sLaggingRtn_2 stockSpreadRatio_2 stockVolumeImbalanceRatio_2 stockSlope_b_2 stockSlope_a_2 stockSlope_ab_2 fAskSize1_2 fBidSize1_2 sAskSize1_2 sBidSize1_2 fAskSize2_2 fBidSize2_2 sAskSize2_2 sBidSize2_2 fAskSize3_2 fBidSize3_2 sAskSize3_2 sBidSize3_2 fAskSize4_2 fBidSize4_2 sAskSize4_2 sBidSize4_2 fAskSize5_2 fBidSize5_2 sAskSize5_2 sBidSize5_2 fLaggingRtn_3 spreadRatio_3 volumeImbalanceRatio_3 slope_b_3 slope_a_3 slope_ab_3 sLaggingRtn_3 stockSpreadRatio_3 stockVolumeImbalanceRatio_3 stockSlope_b_3 stockSlope_a_3 stockSlope_ab_3 fAskSize1_3 fBidSize1_3 sAskSize1_3 sBidSize1_3 fAskSize2_3 fBidSize2_3 sAskSize2_3 sBidSize2_3 fAskSize3_3 fBidSize3_3 sAskSize3_3 sBidSize3_3 fAskSize4_3 fBidSize4_3 sAskSize4_3 sBidSize4_3 fAskSize5_3 fBidSize5_3 sAskSize5_3 sBidSize5_3 fLaggingRtn_4 spreadRatio_4 volumeImbalanceRatio_4 slope_b_4 slope_a_4 slope_ab_4 sLaggingRtn_4 stockSpreadRatio_4 stockVolumeImbalanceRatio_4 stockSlope_b_4 stockSlope_a_4 stockSlope_ab_4 fAskSize1_4 fBidSize1_4 sAskSize1_4 sBidSize1_4 fAskSize2_4 fBidSize2_4 sAskSize2_4 sBidSize2_4 fAskSize3_4 fBidSize3_4 sAskSize3_4 sBidSize3_4 fAskSize4_4 fBidSize4_4 sAskSize4_4 sBidSize4_4 fAskSize5_4 fBidSize5_4 sAskSize5_4 sBidSize5_4 fLaggingRtn_5 spreadRatio_5 volumeImbalanceRatio_5 slope_b_5 slope_a_5 slope_ab_5 sLaggingRtn_5 stockSpreadRatio_5 stockVolumeImbalanceRatio_5 stockSlope_b_5 stockSlope_a_5 stockSlope_ab_5 fAskSize1_5 fBidSize1_5 sAskSize1_5 sBidSize1_5 fAskSize2_5 fBidSize2_5 sAskSize2_5 sBidSize2_5 fAskSize3_5 fBidSize3_5 sAskSize3_5 sBidSize3_5 fAskSize4_5 fBidSize4_5 sAskSize4_5 sBidSize4_5 fAskSize5_5 fBidSize5_5 sAskSize5_5 sBidSize5_5 fLaggingRtn_6 spreadRatio_6 volumeImbalanceRatio_6 slope_b_6 slope_a_6 slope_ab_6 sLaggingRtn_6 stockSpreadRatio_6 stockVolumeImbalanceRatio_6 stockSlope_b_6 stockSlope_a_6 stockSlope_ab_6 fAskSize1_6 fBidSize1_6 sAskSize1_6 sBidSize1_6 fAskSize2_6 fBidSize2_6 sAskSize2_6 sBidSize2_6 fAskSize3_6 fBidSize3_6 sAskSize3_6 sBidSize3_6 fAskSize4_6 fBidSize4_6 sAskSize4_6 sBidSize4_6 fAskSize5_6 fBidSize5_6 sAskSize5_6 sBidSize5_6 fLaggingRtn_7 spreadRatio_7 volumeImbalanceRatio_7 slope_b_7 slope_a_7 slope_ab_7 sLaggingRtn_7 stockSpreadRatio_7 stockVolumeImbalanceRatio_7 stockSlope_b_7 stockSlope_a_7 stockSlope_ab_7 fAskSize1_7 fBidSize1_7 sAskSize1_7 sBidSize1_7 fAskSize2_7 fBidSize2_7 sAskSize2_7 sBidSize2_7 fAskSize3_7 fBidSize3_7 sAskSize3_7 sBidSize3_7 fAskSize4_7 fBidSize4_7 sAskSize4_7 sBidSize4_7 fAskSize5_7 fBidSize5_7 sAskSize5_7 sBidSize5_7 fLaggingRtn_8 spreadRatio_8 volumeImbalanceRatio_8 slope_b_8 slope_a_8 slope_ab_8 sLaggingRtn_8 stockSpreadRatio_8 stockVolumeImbalanceRatio_8 stockSlope_b_8 stockSlope_a_8 stockSlope_ab_8 fAskSize1_8 fBidSize1_8 sAskSize1_8 sBidSize1_8 fAskSize2_8 fBidSize2_8 sAskSize2_8 sBidSize2_8 fAskSize3_8 fBidSize3_8 sAskSize3_8 sBidSize3_8 fAskSize4_8 fBidSize4_8 sAskSize4_8 sBidSize4_8 fAskSize5_8 fBidSize5_8 sAskSize5_8 sBidSize5_8 fLaggingRtn_9 spreadRatio_9 volumeImbalanceRatio_9 slope_b_9 slope_a_9 slope_ab_9 sLaggingRtn_9 stockSpreadRatio_9 stockVolumeImbalanceRatio_9 stockSlope_b_9 stockSlope_a_9 stockSlope_ab_9 fAskSize1_9 fBidSize1_9 sAskSize1_9 sBidSize1_9 fAskSize2_9 fBidSize2_9 sAskSize2_9 sBidSize2_9 fAskSize3_9 fBidSize3_9 sAskSize3_9 sBidSize3_9 fAskSize4_9 fBidSize4_9 sAskSize4_9 sBidSize4_9 fAskSize5_9 fBidSize5_9 sAskSize5_9 sBidSize5_9 fLaggingRtn_10 spreadRatio_10 volumeImbalanceRatio_10 slope_b_10 slope_a_10 slope_ab_10 sLaggingRtn_10 stockSpreadRatio_10 stockVolumeImbalanceRatio_10 stockSlope_b_10 stockSlope_a_10 stockSlope_ab_10 fAskSize1_10 fBidSize1_10 sAskSize1_10 sBidSize1_10 fAskSize2_10 fBidSize2_10 sAskSize2_10 sBidSize2_10 fAskSize3_10 fBidSize3_10 sAskSize3_10 sBidSize3_10 fAskSize4_10 fBidSize4_10 sAskSize4_10 sBidSize4_10 fAskSize5_10 fBidSize5_10 sAskSize5_10 sBidSize5_10
feature_infos=[-0.011992149045264355:0.010652564116207408] [-0.71850672439196372:0.67514632313961809] [0:1] [0:10.52785120095359] [-4.7887359592568419:0.16443043821059508] [-11.13179297851841:0.091718910935261494] [-0.0070484873310618923:0.0076239251106597905] [-0.74327458478770903:0.61303814551202396] [-12773.889203097333:23622.793469197797] [0:0.02352387478994122] [-0.96067765503149183:0.025189383137540981] [-0.9694840695508482:0.018145820648808479] [0:1] [0:1] [0:1] [0:1] [0:1] [0:1] [0:1] [0:1] [0:1] [0:1] [0:1] [0:1] [0:1] [0:1] [0:1] [0:1] [0:1] [0:1] [0:1] [0:1] [-0.014676714415933212:0.011527505171067709] [-0.71850672439196372:0.67514632313961809] [0:1] [0:10.52785120095359] [-4.7887359592568419:0.10822784642287822] [-11.13179297851841:0.091718910935261494] [-0.0092422099648210576:0.0078947778470084273] [-0.74327458478770903:0.61303814551202396] [-12773.889203097333:23622.793469197797] [0:0.02352387478994122] [-0.96067765503149183:0.025189383137540981] [-0.9694840695508482:0.018145820648808479] [0:1] [0:1] [0:1] [0:1] [0:1] [0:1] [0:1] [0:1] [0:1] [0:1] [0:1] [0:1] [0:1] [0:1] [0:1] [0:1] [0:1] [0:1] [0:1] [0:1] [-0.011992149045264355:0.013333530869465093] [-0.71850672439196372:0.67514632313961809] [0:1] [0:10.52785120095359] [-4.7887359592568419:0.10822784642287822] [-11.13179297851841:0.091718910935261494] [-0.0092422099648210576:0.010481277467583539] [-0.74327458478770903:0.61303814551202396] [-12773.889203097333:23622.793469197797] [0:0.02352387478994122] [-0.96067765503149183:0.025189383137540981] [-0.9694840695508482:0.018145820648808479] [0:1] [0:1] [0:1] [0:1] [0:1] [0:1] [0:1] [0:1] [0:1] [0:1] [0:1] [0:1] [0:1] [0:1] [0:1] [0:1] [0:1] [0:1] [0:1] [0:1] [-0.014676714415933212:0.021033280170768442] [-0.71850672439196372:0.67514632313961809] [0:1] [0:10.52785120095359] [-4.7887359592568419:0.10822784642287822] [-11.13179297851841:0.091718910935261494] [-0.011080445776571857:0.015282054810939805] [-0.74327458478770903:0.61303814551202396] [-12773.889203097333:23622.793469197797] [0:0.02352387478994122] [-0.96067765503149183:0.025189383137540981] [-0.9694840695508482:0.018145820648808479] [0:1] [0:1] [0:1] [0:1] [0:1] [0:1] [0:1] [0:1] [0:1] [0:1] [0:1] [0:1] [0:1] [0:1] [0:1] [0:1] [0:1] [0:1] [0:1] [0:1] [-0.014676714415933212:0.022923639901937243] [-0.71850672439196372:0.67514632313961809] [0:1] [0:10.52785120095359] [-4.7887359592568419:0.10822784642287822] [-11.13179297851841:0.091718910935261494] [-0.012915308676682002:0.017175994771010394] [-0.74327458478770903:0.61303814551202396] [-12773.889203097333:23622.793469197797] [0:0.02352387478994122] [-0.96067765503149183:0.025189383137540981] [-0.9694840695508482:0.018145820648808479] [0:1] [0:1] [0:1] [0:1] [0:1] [0:1] [0:1] [0:1] [0:1] [0:1] [0:1] [0:1] [0:1] [0:1] [0:1] [0:1] [0:1] [0:1] [0:1] [0:1] [-0.016605547614775951:0.022923639901937243] [-0.71850672439196372:0.67514632313961809] [0:1] [0:10.52785120095359] [-4.7887359592568419:0.10822784642287822] [-11.13179297851841:0.091718910935261494] [-0.014746811020150297:0.017175994771010394] [-0.74327458478770903:0.61303814551202396] [-12773.889203097333:23622.793469197797] [0:0.02352387478994122] [-0.96067765503149183:0.025189383137540981] [-0.9694840695508482:0.018145820648808479] [0:1] [0:1] [0:1] [0:1] [0:1] [0:1] [0:1] [0:1] [0:1] [0:1] [0:1] [0:1] [0:1] [0:1] [0:1] [0:1] [0:1] [0:1] [0:1] [0:1] [-0.018365989145486594:0.022923639901937243] [-0.71850672439196372:0.67514632313961809] [0:1] [0:10.52785120095359] [-4.7887359592568419:0.10822784642287822] [-11.13179297851841:0.091718910935261494] [-0.016514136764413045:0.017208837680639633] [-0.74327458478770903:0.61303814551202396] [-12773.889203097333:23622.793469197797] [0:0.02352387478994122] [-0.96067765503149183:0.025189383137540981] [-0.9694840695508482:0.018145820648808479] [0:1] [0:1] [0:1] [0:1] [0:1] [0:1] [0:1] [0:1] [0:1] [0:1] [0:1] [0:1] [0:1] [0:1] [0:1] [0:1] [0:1] [0:1] [0:1] [0:1] [-0.022080013841858204:0.02296751675059916] [-0.71850672439196372:0.67514632313961809] [0:1] [0:10.52785120095359] [-4.7887359592568419:0.10822784642287822] [-11.13179297851841:0.091718910935261494] [-0.02022127724723255:0.019139340210697853] [-0.74327458478770903:0.61303814551202396] [-12773.889203097333:23622.793469197797] [0:0.02352387478994122] [-0.96067765503149183:0.025189383137540981] [-0.9694840695508482:0.018145820648808479] [0:1] [0:1] [0:1] [0:1] [0:1] [0:1] [0:1] [0:1] [0:1] [0:1] [0:1] [0:1] [0:1] [0:1] [0:1] [0:1] [0:1] [0:1] [0:1] [0:1] [-0.022080013841858204:0.02485787648176796] [-0.71850672439196372:0.67514632313961809] [0:1] [0:10.52785120095359] [-4.7887359592568419:0.10822784642287822] [-11.13179297851841:0.091718910935261494] [-0.022039459566291164:0.021033280170768442] [-0.74327458478770903:0.61303814551202396] [-12773.889203097333:23622.793469197797] [0:0.02352387478994122] [-0.96067765503149183:0.025189383137540981] [-0.9694840695508482:0.018145820648808479] [0:1] [0:1] [0:1] [0:1] [0:1] [0:1] [0:1] [0:1] [0:1] [0:1] [0:1] [0:1] [0:1] [0:1] [0:1] [0:1] [0:1] [0:1] [0:1] [0:1] [-0.022080013841858204:0.02485787648176796] [-0.71850672439196372:0.67514632313961809] [0:1] [0:10.52785120095359] [-4.7887359592568419:0.10822784642287822] [-11.13179297851841:0.091718910935261494] [-0.022039459566291164:0.021033280170768442] [-0.74327458478770903:0.61303814551202396] [-12773.889203097333:23622.793469197797] [0:0.02352387478994122] [-0.96067765503149183:0.025189383137540981] [-0.9694840695508482:0.018145820648808479] [0:1] [0:1] [0:1] [0:1] [0:1] [0:1] [0:1] [0:1] [0:1] [0:1] [0:1] [0:1] [0:1] [0:1] [0:1] [0:1] [0:1] [0:1] [0:1] [0:1]
tree_sizes=834 825 828 831 829 836 827 833 829 829 842 828 832 836 820 834 824 834 834 837 817 823 824 833 835 827 818 829 821 844 825 842 830 843 836 829 833 821 832 806 820 820 827 825 824 813 810 621 838 825 823 829 711 826 832 811 839 834 799 819 783 822 838 820 824 622 828 836 834 831 819 824 828 784 818 805 627 824 824 798 792 811 817 834 637 833 830 817 823 806 830 833 628 829 823 802 825 824 824 823

Tree=0
num_leaves=7
num_cat=0
split_feature=6 6 15 64 64 0
split_gain=0.000147476 0.000130677 0.000165774 7.6108e-05 6.50835e-05 2.68485e-05
threshold=0.0010989015412397054 -0.0010845991237724559 0.064533338037434038 0.0013227520942118434 -0.0012610347163546363 0.003805300390671285
decision_type=2 2 2 2 2 2
left_child=1 4 -3 -2 -1 -5
right_child=3 2 -4 5 -6 -7
leaf_value=3.2213593689393411e-06 -3.7463050728580784e-05 -1.3456162635796541e-05 1.0684517006799027e-06 -5.608773963020522e-06 3.5275812934312318e-05 6.8305739842259143e-05
leaf_weight=1090 1602 8780 74823 876 1554 52
leaf_count=1090 1602 8780 74823 876 1554 52
internal_value=-4.62768e-07 2.35301e-07 -4.58893e-07 -2.42597e-05 2.21234e-05 -1.28971e-06
internal_weight=0 86247 83603 2530 2644 928
internal_count=88777 86247 83603 2530 2644 928
is_linear=0
shrinkage=1


Tree=1
num_leaves=7
num_cat=0
split_feature=6 14 6 0 0 0
split_gain=0.000119457 0.000128257 0.000120186 6.11242e-05 2.21478e-05 1.77318e-05
threshold=0.0010989015412397054 0.027723559049476324 -0.0010845991237724559 0.0013245040857885473 0.00092081057332471527 0.0027460339604270527
decision_type=2 2 2 2 2 2
left_child=1 4 -3 -2 -1 -5
right_child=3 2 -4 5 -6 -7
leaf_value=1.6773996856491193e-05 -3.1981308310391273e-05 2.0852437351739591e-05 -9.1010813368122343e-07 -4.7547315138893311e-06 5.9151105462672446e-05 3.7034899663495806e-05
leaf_weight=3824 1731 2621 79671 680 131 119
leaf_count=3824 1731 2621 79671 680 131 119
internal_value=0 6.28453e-07 -2.14973e-07 -2.14173e-05 1.82192e-05 1.26352e-06
internal_weight=0 86247 82292 2530 3955 799
internal_count=88777 86247 82292 2530 3955 799
is_linear=0
shrinkage=0.1


Tree=2
num_leaves=7
num_cat=0
split_feature=192 38 14 32 64 212
split_gain=7.76876e-05 0.000110309 8.7726e-05 2.83934e-05 1.74856e-05 1.51834e-05
threshold=0.0026572208623627529 0.0011025362791565743 0.076526294880560883 0.0013245040857885473 0.0021905840077813825 0.14851787271142111
decision_type=2 2 2 2 2 2
left_child=1 2 -1 -3 -2 -6
right_child=4 3 -4 -5 5 -7
leaf_value=8.4129048290519079e-06 1.1280191159328967e-05 -2.4976220920641968e-05 -1.0322224316374996e-06 -3.9981962759558702e-06 -1.2338518927485132e-05 3.4964562575762809e-05
leaf_weight=11380 1089 2218 72316 938 69 767
leaf_count=11380 1089 2218 72316 938 69 767
internal_value=0 -4.40052e-07 2.50051e-07 -1.87934e-05 1.98704e-05 3.08637e-05
internal_weight=0 86852 83696 3156 1925 836
internal_count=88777 86852 83696 3156 1925 836
is_linear=0
shrinkage=0.1


Tree=3
num_leaves=7
num_cat=0
split_feature=6 6 14 64 64 6
split_gain=9.13364e-05 8.53997e-05 0.000105885 5.34098e-05 4.65426e-05 1.7876e-05
threshold=-0.0010845991237724559 0.00096899255133919848 0.058870814566312706 -0.0013089012710394419 0.0013227520942118434 -0.0024539926560964704
decision_type=2 2 2 2 2 2
left_child=3 2 -2 5 -3 -1
right_child=1 4 -4 -5 -6 -7
leaf_value=2.2604083163327708e-05 1.0500327065950448e-05 -2.8652347661037321e-05 -1.2149429342130048e-06 2.9518175617083847e-05 -5.0420699532953144e-07 -7.6098128953982531e-06
leaf_weight=265 8600 1640 74959 1630 934 749
leaf_count=265 8600 1640 74959 1630 934 749
internal_value=0 -5.61844e-07 -7.2242e-09 1.83075e-05 -1.85024e-05 1.24186e-07
internal_weight=0 86133 83559 2644 2574 1014
internal_count=88777 86133 83559 2644 2574 1014
is_linear=0
shrinkage=0.1


Tree=4
num_leaves=7
num_cat=0
split_feature=6 15 6 0 15 6
split_gain=7.40276e-05 0.000113059 8.24867e-05 5.42225e-05 2.61682e-05 2.09363e-05
threshold=-0.001091703490471829 0.064533338037434038 0.0010989015412397054 -0.0011049728254017841 0.010662729945724326 -0.0022701514593914669
decision_type=2 2 2 2 2 2
left_child=3 4 -3 5 -2 -1
right_child=1 2 -4 -5 -6 -7
leaf_value=1.5798619621825355e-05 -2.1907078420207284e-05 1.3150417555159869e-06 -1.7179910486728762e-05 2.8617813871575959e-05 -8.3996307887882924e-06 -1.2286629098060914e-05
leaf_weight=456 1837 74835 2491 1539 6985 634
leaf_count=456 1837 74835 2491 1539 6985 634
internal_value=0 -5.04518e-07 7.17114e-07 1.653e-05 -1.12309e-05 -3.86343e-07
internal_weight=0 86148 77326 2629 8822 1090
internal_count=88777 86148 77326 2629 8822 1090
is_linear=0
shrinkage=0.1


Tree=5
num_leaves=7
num_cat=0
split_feature=192 102 14 128 64 24
split_gain=6.62492e-05 7.02537e-05 5.42413e-05 3.01007e-05 1.51793e-05 1.54358e-05
threshold=0.0026572208623627529 0.00090744126541153502 0.076526294880560883 0.0013227520942118434 0.0024524852903535792 0.11142147734326506
decision_type=2 2 2 2 2 2
left_child=1 2 -1 -3 5 -2
right_child=4 3 -4 -5 -6 -7
leaf_value=6.6884099746592925e-06 3.8726199597328826e-05 -1.8095991696471346e-05 -7.4666812651674312e-07 -1.7153029792845923e-06 3.0584799216580364e-05 6.8348870922903626e-06
leaf_weight=11394 182 3072 70582 1804 675 1068
leaf_count=11394 182 3072 70582 1804 675 1068
internal_value=0 -4.06937e-07 2.84742e-07 -1.20693e-05 1.83488e-05 1.16099e-05
internal_weight=0 86852 81976 4876 1925 1250
internal_count=88777 86852 81976 4876 1925 1250
is_linear=0
shrinkage=0.1


Tree=6
num_leaves=7
num_cat=0
split_feature=160 38 14 262 64 70
split_gain=6.26615e-05 5.94357e-05 5.09446e-05 2.15859e-05 1.39833e-05 1.19346e-05
threshold=0.0026578100469376591 0.0011235959784521301 0.019135070181872642 -0.003780726217492258 0.00088888912299989198 0.0018066866992572097
decision_type=2 2 2 2 2 2
left_child=1 2 -1 -3 5 -2
right_child=4 3 -4 -5 -6 -7
leaf_value=1.3142019024375791e-05 8.5940967856412379e-06 4.7651314351476444e-05 -3.1961702044941809e-07 -1.4874945764039397e-05 2.4400171553364928e-05 -4.8070005880452909e-05
leaf_weight=2912 311 55 81049 3141 1267 42
leaf_count=2912 311 55 81049 3141 1267 42
internal_value=0 -3.62242e-07 1.45312e-07 -1.37475e-05 1.94869e-05 1.38619e-06
internal_weight=0 87157 83961 3196 1620 353
internal_count=88777 87157 83961 3196 1620 353
is_linear=0
shrinkage=0.1


Tree=7
num_leaves=7
num_cat=0
split_feature=6 15 6 192 0 207
split_gain=6.05969e-05 8.64959e-05 6.16316e-05 4.66725e-05 2.55129e-05 2.25265e-05
threshold=-1.0000000180025095e-35 0.064533338037434038 0.00096899255133919848 -0.0026367857980931215 -0.0012422366638307201 0.083662041633936271
decision_type=2 2 2 2 2 2
left_child=3 5 -3 -1 -5 -2
right_child=1 2 -4 4 -6 -7
leaf_value=-1.3557914017245007e-05 -5.8937668474097775e-06 1.1227098171509845e-06 -1.4729544188394826e-05 3.899454102156133e-06 2.7412128696055252e-05 -1.641937873552004e-05
leaf_weight=480 5492 74685 2535 671 1611 3303
leaf_count=480 5492 74685 2535 671 1611 3303
internal_value=0 -4.68012e-07 6.00178e-07 1.45799e-05 2.05705e-05 -9.8654e-06
internal_weight=0 86015 77220 2762 2282 8795
internal_count=88777 86015 77220 2762 2282 8795
is_linear=0
shrinkage=0.1


Tree=8
num_leaves=7
num_cat=0
split_feature=256 166 6 6 14 192
split_gain=5.84578e-05 5.72869e-05 4.41514e-05 2.06921e-05 2.61604e-05 2.58965e-05
threshold=0.0017961391476881696 0.0011370156667727118 -0.0010845991237724559 0.0011547534014861862 0.074346127831936601 0.0042283408344028226
decision_type=2 2 2 2 2 2
left_child=1 2 -1 5 -5 -2
right_child=3 -3 -4 4 -6 -7
leaf_value=1.3191407883272862e-05 8.2327526754427294e-06 -1.3015038692059959e-05 -6.4819203688130105e-07 -3.1693259204165459e-05 4.8841902217250608e-06 3.051374997965441e-05
leaf_weight=2378 6383 3667 74833 274 666 576
leaf_count=2378 6383 3667 74833 274 666 576
internal_value=0 -8.01987e-07 -2.1982e-07 8.21103e-06 -5.60286e-06 1.01006e-05
internal_weight=0 80878 77211 7899 940 6959
internal_count=88777 80878 77211 7899 940 6959
is_linear=0
shrinkage=0.1


Tree=9
num_leaves=7
num_cat=0
split_feature=224 6 14 36 192 230
split_gain=4.85635e-05 5.45876e-05 4.73645e-05 1.84643e-05 1.68826e-05 2.5716e-05
threshold=0.0017961391476881696 0.0022050752387765553 0.025597764198189012 0.0092525444667416971 0.0042283408344028226 0.0020986389676700416
decision_type=2 2 2 2 2 2
left_child=1 2 -1 -3 5 -2
right_child=4 3 -4 -5 -6 -7
leaf_value=1.0380670808372105e-05 1.1522876323489945e-05 -5.9398378025159572e-05 -1.02114128634912e-06 -1.9221525350789588e-05 2.1065061220640542e-05 -1.1076847477337252e-06
leaf_weight=3823 3679 169 76999 422 855 2830
leaf_count=3823 3679 169 76999 422 855 2830
internal_value=0 -7.03277e-07 -4.79784e-07 -3.09887e-05 7.77683e-06 6.00607e-06
internal_weight=0 81413 80822 591 7364 6509
internal_count=88777 81413 80822 591 7364 6509
is_linear=0
shrinkage=0.1


Tree=10
num_leaves=7
num_cat=0
split_feature=15 6 6 160 32 303
split_gain=4.66172e-05 8.11737e-05 5.43845e-05 6.33768e-05 2.70037e-05 2.59203e-05
threshold=0.14302026899280909 -0.0018066866992572093 0.00096899255133919848 0.00090090114463148307 -1.0000000180025095e-35 0.17701506389662316
decision_type=2 2 2 2 2 2
left_child=1 -1 3 -2 -4 -3
right_child=2 5 4 -5 -6 -7
leaf_value=2.3819434263828073e-05 7.411548848201743e-07 -3.2735673581603483e-06 -5.6741016540746689e-05 1.0944845838827231e-05 -1.0806166815898595e-05 -1.1359940380682335e-05
leaf_weight=983 59113 13880 138 6793 2266 5604
leaf_count=983 59113 13880 138 6793 2266 5604
internal_value=0 -4.18643e-06 1.25426e-06 1.79536e-06 -1.35115e-05 -5.60782e-06
internal_weight=0 20467 68310 65906 2404 19484
internal_count=88777 20467 68310 65906 2404 19484
is_linear=0
shrinkage=0.1


Tree=11
num_leaves=7
num_cat=0
split_feature=32 6 14 70 64 0
split_gain=4.45511e-05 5.01488e-05 5.69179e-05 2.40633e-05 2.0172e-05 1.53322e-05
threshold=0.0013315587097419981 0.0010989015412397054 0.019135070181872642 -0.00094428734393403591 0.0026572208623627529 -1.0000000180025095e-35
decision_type=2 2 2 2 2 2
left_child=1 2 -1 -2 -5 -3
right_child=3 5 -4 4 -6 -7
leaf_value=1.4266806919142021e-05 6.2243227346467627e-05 -6.6044853289026141e-05 -5.5758639227682428e-07 6.0128115894924623e-06 2.6777405784399481e-05 -1.5570396685280444e-05
leaf_weight=2675 93 65 81356 2402 593 1593
leaf_count=2675 93 65 81356 2402 593 1593
internal_value=0 -4.25497e-07 -8.37171e-08 1.18003e-05 1.0179e-05 -1.76484e-05
internal_weight=0 85689 84031 3088 2995 1658
internal_count=88777 85689 84031 3088 2995 1658
is_linear=0
shrinkage=0.1


Tree=12
num_leaves=7
num_cat=0
split_feature=32 6 15 6 192 294
split_gain=4.13523e-05 6.15271e-05 5.58544e-05 2.29919e-05 2.82489e-05 2.09434e-05
threshold=-0.0010787490700105982 -0.001091703490471829 0.030572063346138274 -0.002254795252987662 -0.0035010983387331325 0.0011448333198322838
decision_type=2 2 2 2 2 2
left_child=3 5 -3 -1 -5 -2
right_child=1 2 -4 4 -6 -7
leaf_value=1.2672967236936639e-05 2.5226519736183418e-05 -1.0480464212807676e-05 8.3987219169923536e-07 -3.103007065868804e-05 -7.5627589697218995e-06 -1.4191432929075192e-05
leaf_weight=471 1286 4619 77125 586 4545 145
leaf_count=471 1286 4619 77125 586 4545 145
internal_value=0 5.60084e-07 1.98197e-07 -8.31621e-06 -1.0275e-05 2.11175e-05
internal_weight=0 83175 81744 5602 5131 1431
internal_count=88777 83175 81744 5602 5131 1431
is_linear=0
shrinkage=0.1


Tree=13
num_leaves=7
num_cat=0
split_feature=0 6 14 294 6 192
split_gain=3.86396e-05 5.97205e-05 3.60967e-05 2.09162e-05 2.03856e-05 2.4602e-05
threshold=-1.0000000180025095e-35 -1.0000000180025095e-35 0.12329776216116563 1.0000000180025095e-35 -0.0018885763718725632 -0.0035010983387331325
decision_type=2 2 2 2 2 2
left_child=4 3 -3 -2 -1 -6
right_child=1 2 -4 -5 5 -7
leaf_value=5.3524333498064638e-06 2.4394453068370619e-05 4.0113116136070716e-06 -9.9660091059517599e-07 -1.584504588490781e-05 -3.871952915816386e-05 -9.6483640266668779e-06
leaf_weight=784 1327 18536 64365 138 325 3302
leaf_count=784 1327 18536 64365 138 325 3302
internal_value=0 4.76826e-07 1.21145e-07 2.04917e-05 -9.12412e-06 -1.22987e-05
internal_weight=0 84366 82901 1465 4411 3627
internal_count=88777 84366 82901 1465 4411 3627
is_linear=0
shrinkage=0.1


Tree=14
num_leaves=7
num_cat=0
split_feature=64 6 15 6 23 206
split_gain=3.68031e-05 4.03203e-05 4.48519e-05 1.99525e-05 1.6211e-05 1.45128e-05
threshold=0.0026572208623627529 0.00096899255133919848 0.14563957608811365 0.0025031341390717725 0.34789134867142407 0.096255349251419361
decision_type=2 2 2 2 2 2
left_child=1 2 -1 5 -3 -2
right_child=3 4 -4 -5 -6 -7
leaf_value=-3.9250960851885961e-06 6.0996717518849298e-05 -3.667604116649602e-05 1.4411246619759254e-06 -2.3758412624804173e-05 -1.0136022325011046e-05 2.0785603566925458e-05
leaf_weight=20449 116 268 65323 80 2002 539
leaf_count=20449 116 268 65323 80 2002 539
internal_value=0 -1.86408e-07 1.59841e-07 2.22836e-05 -1.33418e-05 2.81581e-05
internal_weight=0 88042 85772 735 2270 655
internal_count=88777 88042 85772 735 2270 655
is_linear=0
shrinkage=0.1


Tree=15
num_leaves=7
num_cat=0
split_feature=256 294 0 70 47 0
split_gain=3.59459e-05 3.13854e-05 2.42281e-05 2.01657e-05 1.68502e-05 1.24611e-05
threshold=0.0018264860493455439 0.0018814697647711045 -0.0013227520942118429 -0.0011235959784521297 0.16352350995549211 -0.0025477762133001565
decision_type=2 2 2 2 2 2
left_child=1 2 -1 -2 -5 -3
right_child=3 5 -4 4 -6 -7
leaf_value=-1.2553205005537302e-05 3.6175273429717417e-05 -8.9906341491221805e-05 4.1706008249891295e-08 -1.2018109335238039e-06 9.0186509925135889e-06 -9.6752862538400063e-06
leaf_weight=1558 226 20 76448 2361 4918 3246
leaf_count=1558 226 20 76448 2361 4918 3246
internal_value=0 -6.11998e-07 -2.07742e-07 6.62118e-06 5.68098e-06 -1.0217e-05
internal_weight=0 81272 78006 7505 7279 3266
internal_count=88777 81272 78006 7505 7279 3266
is_linear=0
shrinkage=0.1


Tree=16
num_leaves=7
num_cat=0
split_feature=32 38 46 70 117 46
split_gain=3.24074e-05 3.28736e-05 3.95316e-05 1.89405e-05 1.51447e-05 1.50757e-05
threshold=0.0013315587097419981 0.0011025362791565743 0.0068422861241340055 -0.00094428734393403591 0.61674454828660441 0.0068422861241340055
decision_type=2 2 2 2 2 2
left_child=1 2 -1 4 -2 -3
right_child=3 5 -4 -5 -6 -7
leaf_value=1.9873001672638276e-05 9.0195931138984774e-06 -3.0203711472392091e-05 -2.6952367923038904e-07 8.6186184803121605e-06 9.4369157491602744e-05 -8.3270595394150988e-06
leaf_weight=986 45 385 82306 2995 48 2012
leaf_count=986 45 385 82306 2995 48 2012
internal_value=0 -3.63356e-07 -2.91045e-08 1.00639e-05 5.48399e-05 -1.19094e-05
internal_weight=0 85689 83292 3088 93 2397
internal_count=88777 85689 83292 3088 93 2397
is_linear=0
shrinkage=0.1


Tree=17
num_leaves=7
num_cat=0
split_feature=160 70 15 166 96 0
split_gain=3.09841e-05 6.69637e-05 2.68242e-05 1.85736e-05 1.81135e-05 1.68114e-05
threshold=-1.0000000180025095e-35 -0.001100110454801406 0.012300874975329645 -0.0018165324249408419 -0.0027688160021717141 0.0021436260058100847
decision_type=2 2 2 2 2 2
left_child=3 5 -3 4 -1 -2
right_child=1 2 -4 -5 -6 -7
leaf_value=-1.5222126578629681e-05 1.6981849139427279e-05 -1.0989825323267359e-05 5.6468229290411302e-07 -7.6493365078761643e-06 2.9737639354889256e-06 9.368700350462427e-05
leaf_weight=636 2125 2066 72299 7728 3893 30
leaf_count=636 2125 2066 72299 7728 3893 30
internal_value=0 7.4729e-07 2.41465e-07 -4.66823e-06 3.82234e-07 1.8126e-05
internal_weight=0 76520 74365 12257 4529 2155
internal_count=88777 76520 74365 12257 4529 2155
is_linear=0
shrinkage=0.1


Tree=18
num_leaves=7
num_cat=0
split_feature=160 166 70 6 166 272
split_gain=2.99297e-05 3.32998e-05 2.66968e-05 2.24209e-05 1.82867e-05 1.5671e-05
threshold=0.00090090114463148307 0.0011370156667727118 -0.0019212319507726503 -0.0024539926560964704 -1.0000000180025095e-35 0.88273491214667688
decision_type=2 2 2 2 2 2
left_child=1 3 5 -1 -4 -2
right_child=2 -3 4 -5 -6 -7
leaf_value=2.0127935494806886e-05 2.7782731734097325e-05 -1.2137450321854238e-05 4.4841040785220551e-05 -4.6941681349626513e-07 3.8907127967933634e-06 0.00011556800354970081
leaf_weight=532 83 2465 111 74547 11008 31
leaf_count=532 83 2465 111 74547 11008 31
internal_value=0 -6.99014e-07 4.82405e-06 -3.21276e-07 4.31431e-06 5.30979e-05
internal_weight=0 77544 11233 75079 11119 114
internal_count=88777 77544 11233 75079 11119 114
is_linear=0
shrinkage=0.1


Tree=19
num_leaves=7
num_cat=0
split_feature=64 70 15 96 70 192
split_gain=2.76297e-05 5.27548e-05 2.76902e-05 1.85303e-05 1.70378e-05 1.61066e-05
threshold=-0.0010504205544057397 -0.001100110454801406 0.14563957608811365 0.0010928966099901241 -0.0022497225806148431 -0.0032555682936421522
decision_type=2 2 2 2 2 2
left_child=4 3 -3 -2 -1 -6
right_child=1 2 -4 -5 5 -7
leaf_value=3.3407128950339736e-06 1.3239258388112504e-05 -3.2908913354475296e-06 1.1240916057087054e-06 5.7185355682867723e-05 -2.5124076288031853e-05 -6.6739620361272158e-06
leaf_weight=1551 2272 18560 60528 103 530 5233
leaf_count=1551 2272 18560 60528 103 530 5233
internal_value=0 5.29005e-07 8.5925e-08 1.52144e-05 -5.88723e-06 -8.39928e-06
internal_weight=0 81463 79088 2375 7314 5763
internal_count=88777 81463 79088 2375 7314 5763
is_linear=0
shrinkage=0.1


Tree=20
num_leaves=7
num_cat=0
split_feature=6 64 14 14 222 270
split_gain=2.83772e-05 3.5968e-05 2.92679e-05 2.13605e-05 1.66744e-05 1.55042e-05
threshold=0.0022050752387765553 0.0026572208623627529 0.076526294880560883 0.085249732178161688 0.19202230758894098 0.054841752328416427
decision_type=2 2 2 2 2 2
left_child=1 2 -1 -2 -5 -3
right_child=3 5 -4 4 -6 -7
leaf_value=4.6506537062692961e-06 -3.0020259672103753e-05 6.3625967240054192e-05 -6.9995826463909565e-07 -7.3124566365644189e-05 3.8333764374563674e-06 1.7423335433016469e-05
leaf_weight=11828 548 90 75330 30 445 506
leaf_count=11828 548 90 75330 30 445 506
internal_value=0 1.93577e-07 2.42737e-08 -1.65583e-05 -6.81192e-07 2.46763e-05
internal_weight=0 87754 87158 1023 475 596
internal_count=88777 87754 87158 1023 475 596
is_linear=0
shrinkage=0.1


Tree=21
num_leaves=7
num_cat=0
split_feature=160 6 14 23 179 224
split_gain=2.43534e-05 2.36604e-05 3.62442e-05 1.47873e-05 1.14815e-05 1.8307e-05
threshold=0.0026578100469376591 0.00096899255133919848 0.0068422861241340055 0.34789134867142407 0.73272431161832374 0.0067039440915541712
decision_type=2 2 2 2 2 2
left_child=1 2 -1 -3 -2 -6
right_child=4 3 -4 -5 5 -7
leaf_value=1.9146309212838795e-05 5.7383485452609158e-06 -3.319171353997371e-05 -1.8662291981364875e-07 -7.4102606723047638e-06 1.6369446217410635e-05 7.1120426568852747e-05
leaf_weight=981 1050 259 84033 1884 497 73
leaf_count=981 1050 259 84033 1884 497 73
internal_value=0 -2.25134e-07 3.45313e-08 -1.06029e-05 1.21492e-05 2.36701e-05
internal_weight=0 87157 85014 2143 1620 570
internal_count=88777 87157 85014 2143 1620 570
is_linear=0
shrinkage=0.1


Tree=22
num_leaves=7
num_cat=0
split_feature=0 6 15 138 6 15
split_gain=2.49934e-05 3.54356e-05 4.02386e-05 2.20237e-05 2.08685e-05 1.5578e-05
threshold=-0.0013227520942118429 -1.0000000180025095e-35 0.021983775386916753 0.0064229316708079047 -0.0024539926560964704 0.56583679170776446
decision_type=2 2 2 2 2 2
left_child=4 3 -3 -2 5 -1
right_child=1 2 -4 -5 -6 -7
leaf_value=2.9382142371587106e-05 -5.0455484030880525e-05 -1.0479410368219411e-05 3.9182892938426392e-07 1.545919394443474e-05 -1.5849996419505066e-05 -3.5652357559431651e-05
leaf_weight=185 51 3553 81496 1881 1567 44
leaf_count=185 51 3553 81496 1881 1567 44
internal_value=0 2.41894e-07 -6.03939e-08 1.36341e-05 -1.16759e-05 1.61682e-05
internal_weight=0 86981 85049 1932 1796 229
internal_count=88777 86981 85049 1932 1796 229
is_linear=0
shrinkage=0.1


Tree=23
num_leaves=7
num_cat=0
split_feature=160 70 15 314 166 4
split_gain=2.32295e-05 4.43439e-05 1.95471e-05 1.54068e-05 1.30265e-05 1.60188e-05
threshold=-0.0011363641255015542 -0.001091703490471829 0.15810284015264955 0.76172848042878083 -0.0023894908081754092 0.007597018969867848
decision_type=2 2 2 2 2 2
left_child=4 3 -3 -2 5 -1
right_child=1 2 -4 -5 -6 -7
leaf_value=-1.914193065284239e-05 2.0195571591408606e-05 -2.5758699511889507e-06 1.0816731797798973e-06 3.7659642878602011e-06 -6.8475434145922541e-06 4.3504160215816451e-06
leaf_weight=331 1490 19649 56944 970 7088 2305
leaf_count=331 1490 19649 56944 970 7088 2305
internal_value=0 5.67852e-07 1.41228e-07 1.37841e-05 -4.61165e-06 1.33811e-06
internal_weight=0 79053 76593 2460 9724 2636
internal_count=88777 79053 76593 2460 9724 2636
is_linear=0
shrinkage=0.1


Tree=24
num_leaves=7
num_cat=0
split_feature=160 102 70 64 6 272
split_gain=2.24172e-05 2.34112e-05 1.74164e-05 1.61721e-05 1.37623e-05 1.24663e-05
threshold=0.00090090114463148307 0.00090744126541153502 -0.0019212319507726503 -0.0026660759165277876 0.0022446726812970223 0.88273491214667688
decision_type=2 2 2 2 2 2
left_child=1 3 5 -1 -4 -2
right_child=2 -3 4 -5 -6 -7
leaf_value=-1.5570353424946493e-05 2.0445987574842252e-05 -1.0456511659081787e-05 4.5622707023976898e-06 -1.5236586980823977e-07 -1.1817117067873711e-05 9.8818090012193555e-05
leaf_weight=687 83 2340 10585 74517 534 31
leaf_count=687 83 2340 10585 74517 534 31
internal_value=0 -6.04145e-07 4.17576e-06 -2.95398e-07 3.76085e-06 4.32012e-05
internal_weight=0 77544 11233 75204 11119 114
internal_count=88777 77544 11233 75204 11119 114
is_linear=0
shrinkage=0.1


Tree=25
num_leaves=7
num_cat=0
split_feature=5 0 256 0 102 247
split_gain=2.17007e-05 2.51616e-05 2.23104e-05 1.90608e-05 1.81464e-05 1.09695e-05
threshold=0.00018820762301053915 0.00404043885259009 0.0033670076082090721 -1.0000000180025095e-35 -0.00090826546319888724 0.57586248848827004
decision_type=2 2 2 2 2 2
left_child=1 3 4 -1 -2 -3
right_child=2 5 -4 -5 -6 -7
leaf_value=-1.0689368039951317e-05 9.2883998677380998e-06 0.00013186775296513933 1.7473298464248972e-05 -9.3377401346220621e-07 8.3348166088104398e-07 1.5826741165714621e-05
leaf_weight=2088 2773 20 904 51945 31027 20
leaf_count=2088 2773 20 904 51945 31027 20
internal_value=0 -1.25212e-06 1.95199e-06 -1.3138e-06 1.532e-06 7.79609e-05
internal_weight=0 54073 34704 54033 33800 40
internal_count=88777 54073 34704 54033 33800 40
is_linear=0
shrinkage=0.1


Tree=26
num_leaves=7
num_cat=0
split_feature=6 288 14 14 159 57
split_gain=1.99427e-05 2.47973e-05 2.2266e-05 1.68982e-05 1.54188e-05 1.52052e-05
threshold=0.0021953932087446231 0.0067340406639351267 0.12329776216116563 0.040047812199707031 0.62171814804961933 0.30798149219201859
decision_type=2 2 2 2 2 2
left_child=1 2 -1 5 -3 -2
right_child=3 4 -4 -5 -6 -7
leaf_value=3.0818541452141414e-06 -4.3753982596314921e-05 5.7914105237194042e-05 -7.8201982094521994e-07 -2.6370535230573625e-06 1.1252518568192971e-05 -4.985070482459181e-06
leaf_weight=19079 266 112 68292 622 226 180
leaf_count=19079 266 112 68292 622 226 180
internal_value=0 1.66311e-07 5.98433e-08 -1.35815e-05 2.7201e-05 -2.84761e-05
internal_weight=0 87709 87371 1068 338 446
internal_count=88777 87709 87371 1068 338 446
is_linear=0
shrinkage=0.1


Tree=27
num_leaves=7
num_cat=0
split_feature=6 0 15 15 97 192
split_gain=1.94177e-05 2.82391e-05 2.64168e-05 1.50996e-05 1.59407e-05 1.46002e-05
threshold=-0.0018921498456196948 -1.0000000180025095e-35 0.010662729945724326 0.064533338037434038 0.0018070179346513142 -0.0035010983387331325
decision_type=2 2 2 2 2 2
left_child=3 5 -3 -1 -5 -2
right_child=1 2 -4 4 -6 -7
leaf_value=2.3773133420879675e-05 -2.897743988785439e-05 -1.1187920073195515e-05 4.6878184837143027e-07 -9.8593413681266322e-06 1.9592606860340386e-05 -6.7350103315722743e-06
leaf_weight=599 331 1991 81789 438 314 3315
leaf_count=599 331 1991 81789 438 314 3315
internal_value=0 -1.83201e-07 1.89802e-07 1.18977e-05 2.21977e-06 -8.79939e-06
internal_weight=0 87426 83780 1351 752 3646
internal_count=88777 87426 83780 1351 752 3646
is_linear=0
shrinkage=0.1


Tree=28
num_leaves=7
num_cat=0
split_feature=32 6 14 6 151 55
split_gain=1.90306e-05 1.98575e-05 2.77555e-05 1.54142e-05 1.61484e-05 1.51424e-05
threshold=0.0013315587097419981 0.0010989015412397054 0.010994656241949827 0.0017969471272945017 0.21405539211429869 0.33538197695541211
decision_type=2 2 2 2 2 2
left_child=1 2 -1 4 -2 -5
right_child=3 -3 -4 5 -6 -7
leaf_value=1.3353046973338956e-05 6.3027531643438547e-05 -1.1115559531175337e-05 -3.0986921076987259e-07 -4.4657157509976629e-05 1.0276417385608783e-05 1.8008376743372909e-07
leaf_weight=1514 61 1658 82517 84 2281 662
leaf_count=1514 61 1658 82517 84 2281 662
internal_value=0 -2.77545e-07 -6.17452e-08 7.71298e-06 1.17206e-05 -4.64828e-06
internal_weight=0 85689 84031 3088 2342 746
internal_count=88777 85689 84031 3088 2342 746
is_linear=0
shrinkage=0.1


Tree=29
num_leaves=7
num_cat=0
split_feature=0 294 96 192 134 298
split_gain=1.77806e-05 2.03611e-05 1.86527e-05 1.84443e-05 2.48616e-05 1.68604e-05
threshold=0.00094696998003529498 -0.0022396454020232599 -0.0022358875998866874 -0.00090497762261998449 -0.0012820519844689569 0.0083404980955520767
decision_type=2 2 2 2 2 2
left_child=3 -2 -3 5 -5 -1
right_child=1 2 -4 4 -6 -7
leaf_value=-1.0962124576705106e-05 3.1545799499199284e-05 -7.7874802807367913e-05 5.2451769613033758e-06 1.0241309584945718e-05 -3.2061485864986238e-08 -1.9127822725304076e-06
leaf_weight=2649 308 27 3288 2436 70504 9565
leaf_count=2649 308 27 3288 2436 70504 9565
internal_value=0 6.86159e-06 4.51854e-06 -2.91372e-07 3.08787e-07 -3.88889e-06
internal_weight=0 3623 3315 85154 72940 12214
internal_count=88777 3623 3315 85154 72940 12214
is_linear=0
shrinkage=0.1


Tree=30
num_leaves=7
num_cat=0
split_feature=5 0 64 256 70 115
split_gain=1.78092e-05 1.84172e-05 1.66292e-05 1.5221e-05 1.4097e-05 1.36452e-05
threshold=0.00053071402894484907 0.00404043885259009 -0.0010504205544057397 0.0033670076082090721 -0.00094428734393403591 0.53690494660192944
decision_type=2 2 2 2 2 2
left_child=1 2 -1 4 -2 -3
right_child=3 5 -4 -5 -6 -7
leaf_value=-6.4777391055428606e-06 1.020027747138178e-05 0.00012240077900465358 -5.2751841401169871e-07 1.6146066459231565e-05 1.0564609699327196e-06 3.4349161062295508e-08
leaf_weight=5155 1806 21 54104 745 26925 21
leaf_count=5155 1806 21 54104 745 26925 21
internal_value=0 -9.9826e-07 -1.04791e-06 2.00925e-06 1.63696e-06 6.51349e-05
internal_weight=0 59301 59259 29476 28731 42
internal_count=88777 59301 59259 29476 28731 42
is_linear=0
shrinkage=0.1


Tree=31
num_leaves=7
num_cat=0
split_feature=15 6 32 6 224 32
split_gain=1.6243e-05 2.88744e-05 2.02146e-05 1.72639e-05 2.16801e-05 1.32089e-05
threshold=0.34226162012782785 -0.0017652268996917184 -0.0010905129731804129 0.0012285018465263422 0.0011325033154259148 -1.0000000180025095e-35
decision_type=2 2 2 2 2 2
left_child=1 -1 -3 4 -2 -5
right_child=3 2 -4 5 -6 -7
leaf_value=1.2196365978496723e-05 1.0788514922146618e-06 -1.1164552497177374e-05 -1.3047165020607322e-06 -4.9358438772606184e-05 9.3472755773937467e-06 -6.6809803908772579e-06
leaf_weight=1522 38606 2196 41420 78 3465 1490
leaf_count=1522 38606 2196 41420 78 3465 1490
internal_value=0 -1.32916e-06 -1.80491e-06 1.37651e-06 1.76375e-06 -8.90888e-06
internal_weight=0 45138 43616 43639 42071 1568
internal_count=88777 45138 43616 43639 42071 1568
is_linear=0
shrinkage=0.1


Tree=32
num_leaves=7
num_cat=0
split_feature=288 38 0 196 37 32
split_gain=1.48622e-05 1.66987e-05 1.46783e-05 1.44347e-05 1.11179e-05 1.0387e-05
threshold=0.0018535702414097523 0.002176281999421104 -0.0013280220290581288 0.010674487151880711 -0.00051867951875372408 0.004730938923072526
decision_type=2 2 2 2 2 2
left_child=1 2 -1 -3 -2 -6
right_child=4 3 -4 -5 5 -7
leaf_value=-9.742020592929884e-06 -6.6147030757349097e-07 -2.1613288254759263e-05 -4.3262223509195096e-08 3.5111011386436165e-06 6.6672028464718844e-06 6.4461371882786709e-05
leaf_weight=1593 2929 676 78350 330 4867 32
leaf_count=1593 2929 676 78350 330 4867 32
internal_value=0 -4.01797e-07 -2.38584e-07 -1.32082e-05 4.16131e-06 7.0783e-06
internal_weight=0 80949 79943 1006 7828 4899
internal_count=88777 80949 79943 1006 7828 4899
is_linear=0
shrinkage=0.1


Tree=33
num_leaves=7
num_cat=0
split_feature=5 294 32 96 6 15
split_gain=1.4386e-05 1.30674e-05 1.84042e-05 1.40547e-05 1.13955e-05 1.41846e-05
threshold=-0.00051867951875372408 -1.0000000180025095e-35 0.00095602323581278636 -0.0013315587097419976 -0.0024539926560964704 0.0059559282592655657
decision_type=2 2 2 2 2 2
left_child=4 2 -2 -3 -1 -6
right_child=1 3 -4 -5 5 -7
leaf_value=1.6071696869191786e-05 3.8963675814077698e-06 -1.0719721018883235e-05 2.5157076014642917e-05 8.5151329283303166e-07 -1.5283522153038159e-05 -1.2271047294585965e-06
leaf_weight=372 6240 1078 440 38162 733 41752
leaf_count=372 6240 1078 440 38162 733 41752
internal_value=0 1.23011e-06 5.32139e-06 5.29438e-07 -1.31736e-06 -1.47349e-06
internal_weight=0 45920 6680 39240 42857 42485
internal_count=88777 45920 6680 39240 42857 42485
is_linear=0
shrinkage=0.1


Tree=34
num_leaves=7
num_cat=0
split_feature=256 294 198 171 6 32
split_gain=1.35199e-05 2.46255e-05 1.79506e-05 1.36063e-05 1.22142e-05 1.18224e-05
threshold=-1.0000000180025095e-35 -1.0000000180025095e-35 0.0024009649977032592 -0.0020543661183331919 0.0022446726812970223 0.00091911790587539965
decision_type=2 2 2 2 2 2
left_child=2 -2 5 -4 -3 -1
right_child=1 4 3 -5 -6 -7
leaf_value=-3.088463394998051e-06 8.379031135328496e-06 2.7237249253518812e-07 -0.00010354448403301299 -1.655566907307815e-05 -1.1885544047797256e-05 1.0678192884742836e-05
leaf_weight=14088 3814 69301 30 60 836 648
leaf_count=14088 3814 69301 30 60 836 648
internal_value=0 5.53028e-07 -2.75564e-06 -4.73803e-05 1.25111e-07 -2.47193e-06
internal_weight=0 73951 14826 90 70137 14736
internal_count=88777 73951 14826 90 70137 14736
is_linear=0
shrinkage=0.1


Tree=35
num_leaves=7
num_cat=0
split_feature=15 6 303 256 6 182
split_gain=1.32602e-05 2.64448e-05 1.83524e-05 1.63889e-05 1.57032e-05 1.40914e-05
threshold=0.11712765021670871 -0.0018066866992572093 0.17701506389662316 0.00090334261247448932 0.0026560487424451833 0.23690362968876319
decision_type=2 2 2 2 2 2
left_child=1 5 -3 4 -2 -1
right_child=3 2 -4 -5 -6 -7
leaf_value=-2.1813468963972276e-05 2.158586150820352e-08 -1.2814233487805636e-06 -8.7263296424698106e-06 4.3716394307359885e-06 -8.6462805837934453e-05 1.8392882590958023e-05
leaf_weight=94 61660 11592 4675 9919 21 816
leaf_count=94 61660 11592 4675 9919 21 816
internal_value=0 -2.49497e-06 -3.43114e-06 5.98847e-07 -5.19521e-09 1.4059e-05
internal_weight=0 17177 16267 71600 61681 910
internal_count=88777 17177 16267 71600 61681 910
is_linear=0
shrinkage=0.1


Tree=36
num_leaves=7
num_cat=0
split_feature=0 198 5 224 160 247
split_gain=1.34795e-05 1.31979e-05 1.25974e-05 1.44527e-05 1.31792e-05 1.1143e-05
threshold=0.0013245040857885473 -0.0049019779621999318 0.00053071402894484907 -0.0028155838802286222 0.0042194202377485732 0.53864617579465424
decision_type=2 2 2 2 2 2
left_child=2 -2 3 -1 -4 -3
right_child=1 5 4 -5 -6 -7
leaf_value=-1.2269747340422695e-05 8.6314556298760462e-05 1.6939723772294896e-05 1.338655039553733e-06 -8.0526856355036118e-07 2.747272123512546e-05 6.1744177807035016e-07
leaf_weight=1124 22 736 28892 56788 195 1020
leaf_count=1124 22 736 28892 56788 195 1020
internal_value=0 8.61944e-06 -1.76125e-07 -1.03062e-06 1.51951e-06 7.55232e-06
internal_weight=0 1778 86999 57912 29087 1756
internal_count=88777 1778 86999 57912 29087 1756
is_linear=0
shrinkage=0.1


Tree=37
num_leaves=7
num_cat=0
split_feature=6 0 64 16 11 296
split_gain=1.20149e-05 1.82795e-05 1.67238e-05 1.5849e-05 1.48522e-05 1.29187e-05
threshold=-1.0000000180025095e-35 -0.0017590167658392273 0.0022650095358747184 0.85764944275582577 -0.00049752231239419225 0.81215367456575727
decision_type=2 2 2 2 2 2
left_child=2 -2 3 -1 -3 -4
right_child=1 4 5 -5 -6 -7
leaf_value=1.2542903417602794e-06 -1.427519605955641e-05 1.4720346604159425e-06 0.00011770247856938352 1.9681294219225091e-05 -1.1982126297385754e-06 8.1746643594263969e-08
leaf_weight=2110 914 36377 24 608 48724 20
leaf_count=2110 914 36377 24 608 48724 20
internal_value=0 -2.07883e-07 6.49268e-06 5.43681e-06 -5.48651e-08 6.79775e-05
internal_weight=0 86015 2762 2718 85101 44
internal_count=88777 86015 2762 2718 85101 44
is_linear=0
shrinkage=0.1


Tree=38
num_leaves=7
num_cat=0
split_feature=15 256 198 198 121 158
split_gain=1.22517e-05 1.09798e-05 2.12791e-05 1.23854e-05 1.09599e-05 1.29639e-05
threshold=0.0059559282592655657 -0.001551487300746057 -1.0000000180025095e-35 0.0022909547525555856 0.058578431372549027 0.19900031314553832
decision_type=2 2 2 2 2 2
left_child=4 3 -3 -2 -1 -6
right_child=1 2 -4 -5 5 -7
leaf_value=6.9647967115995276e-06 -2.9179119623065078e-06 7.5346140823865857e-06 1.31779067218592e-07 -4.8708261178833533e-05 -8.7992479185449249e-05 -1.2340781894573305e-05
leaf_weight=306 8458 4099 74785 60 24 1045
leaf_count=306 8458 4099 74785 60 24 1045
internal_value=0 1.48427e-07 5.18533e-07 -3.25977e-06 -9.36498e-06 -1.41932e-05
internal_weight=0 87402 78884 8518 1375 1069
internal_count=88777 87402 78884 8518 1375 1069
is_linear=0
shrinkage=0.1


Tree=39
num_leaves=7
num_cat=0
split_feature=288 294 159 79 134 108
split_gain=1.1349e-05 1.68866e-05 1.41841e-05 2.42271e-05 1.07539e-05 9.51516e-06
threshold=0.0067340406639351267 0.007548401647924142 0.62171814804961933 0.41768587916673233 0.005056933118464447 0.07278747742323903
decision_type=2 2 2 2 2 2
left_child=1 4 3 -2 -1 -4
right_child=2 -3 5 -5 -6 -7
leaf_value=-1.0701046553647873e-08 7.4620885592911572e-05 -8.0655415545800372e-05 -2.765533595741912e-05 -1.0478486831365311e-05 -3.282465164154393e-05 1.4791275051415103e-05
leaf_weight=88251 88 26 72 49 100 191
leaf_count=88251 88 26 72 49 100 191
internal_value=0 -7.5279e-08 1.68069e-05 4.29839e-05 -4.97032e-08 2.5456e-06
internal_weight=0 88377 400 137 88351 263
internal_count=88777 88377 400 137 88351 263
is_linear=0
shrinkage=0.1


Tree=40
num_leaves=7
num_cat=0
split_feature=6 0 14 59 14 190
split_gain=1.18725e-05 1.86095e-05 1.3019e-05 1.15665e-05 1.14389e-05 1.29498e-05
threshold=0.0021953932087446231 0.00121359282880551 0.044489047517379095 0.31063160357768532 0.027723559049476324 0.94854634652451386
decision_type=2 2 2 2 2 2
left_child=1 2 -1 -3 5 -2
right_child=4 3 -4 -5 -6 -7
leaf_value=4.1181547122352031e-06 -6.0635881711562998e-06 3.5969499945435556e-05 -4.5858371667820483e-07 7.2674829318561431e-06 -2.4882901275762321e-06 -4.4064478699711141e-05
leaf_weight=6745 202 156 78904 1904 686 180
leaf_count=6745 202 156 78904 1904 686 180
internal_value=0 1.27762e-07 -9.62381e-08 9.52088e-06 -1.04797e-05 -2.44003e-05
internal_weight=0 87709 85649 2060 1068 382
internal_count=88777 87709 85649 2060 1068 382
is_linear=0
shrinkage=0.1


Tree=41
num_leaves=7
num_cat=0
split_feature=6 14 72 0 256 206
split_gain=1.04103e-05 2.00675e-05 1.44058e-05 1.53738e-05 1.39919e-05 1.04466e-05
threshold=0.0010989015412397054 0.0068422861241340055 1.1155740535038159 -0.00088967995003885736 0.0019138779348821802 0.17109142761105453
decision_type=2 2 2 2 2 2
left_child=1 -1 3 -2 -3 -4
right_child=2 4 5 -5 -6 -7
leaf_value=1.4326581213546778e-05 -6.3362797745439647e-05 -3.2734629486675027e-07 -9.15430501635159e-06 -8.2552323622398633e-06 4.7336533757290574e-06 2.2959932312486925e-05
leaf_weight=992 53 79389 157 2060 5866 260
leaf_count=992 53 79389 157 2060 5866 260
internal_value=0 1.8542e-07 -6.3226e-06 -9.71535e-06 1.89489e-08 1.04747e-05
internal_weight=0 86247 2530 2113 85255 417
internal_count=88777 86247 2530 2113 85255 417
is_linear=0
shrinkage=0.1


Tree=42
num_leaves=7
num_cat=0
split_feature=15 95 211 0 198 234
split_gain=1.03195e-05 1.4676e-05 1.55473e-05 1.13808e-05 1.4017e-05 1.30329e-05
threshold=0.010662729945724326 0.42313757717973038 0.18119137453112225 -1.0000000180025095e-35 -0.0044543558731531254 0.0068532958307497725
decision_type=2 2 2 2 2 2
left_child=1 -1 -3 5 -5 -2
right_child=3 2 -4 4 -6 -7
leaf_value=5.2603471538095031e-06 -2.7082726170250551e-05 -6.6126572959338784e-05 -9.8787241157829967e-06 2.2281978310063679e-05 3.5945522506463233e-07 -3.4409583608424767e-06
leaf_weight=717 251 52 1593 293 81911 3960
leaf_count=717 251 52 1593 293 81911 3960
internal_value=0 -6.52152e-06 -1.17568e-05 1.78019e-07 4.39594e-07 -4.8892e-06
internal_weight=0 2362 1645 86415 82204 4211
internal_count=88777 2362 1645 86415 82204 4211
is_linear=0
shrinkage=0.1


Tree=43
num_leaves=7
num_cat=0
split_feature=6 15 192 84 56 0
split_gain=1.12539e-05 1.70417e-05 1.54745e-05 1.54497e-05 1.42235e-05 1.36241e-05
threshold=-1.0000000180025095e-35 0.010662729945724326 -0.0053333501894177173 0.31641993849674616 0.066890380313199119 -0.0017590167658392273
decision_type=2 2 2 2 2 2
left_child=2 4 3 -1 -2 -3
right_child=1 5 -4 -5 -6 -7
leaf_value=-9.4111038311697558e-05 1.0305561495663047e-05 -1.2253216072101528e-05 7.9267681122578991e-06 -6.7982222324438933e-06 -1.3635387025696621e-05 1.3704479227791909e-07
leaf_weight=28 288 897 2642 92 1536 83294
leaf_count=28 288 897 2642 92 1536 83294
internal_value=0 -2.02147e-07 6.28275e-06 -2.85425e-05 -9.76508e-06 3.08135e-09
internal_weight=0 86015 2762 120 1824 84191
internal_count=88777 86015 2762 120 1824 84191
is_linear=0
shrinkage=0.1


Tree=44
num_leaves=7
num_cat=0
split_feature=1 192 122 198 166 291
split_gain=1.02059e-05 1.91863e-05 1.93838e-05 1.54363e-05 1.25418e-05 1.47428e-05
threshold=0.068499117157853076 -0.0053333501894177173 0.92544844958731753 -0.0063158384612247423 -0.0048899926023158171 0.0079658764019476889
decision_type=2 2 2 2 2 2
left_child=1 2 -1 -3 5 -2
right_child=4 3 -4 -5 -6 -7
leaf_value=-1.0991950031939052e-05 -1.0789945153339682e-05 8.3066362286617976e-05 -7.9065856003631831e-05 -6.5467987706253053e-07 1.4411092711333024e-06 6.7751117001455828e-05
leaf_weight=164 34 22 60 60300 28136 61
leaf_count=164 34 22 60 60300 28136 61
internal_value=0 -7.32679e-07 -2.99605e-05 -6.21418e-07 1.56966e-06 3.79112e-05
internal_weight=0 60546 224 60322 28231 95
internal_count=88777 60546 224 60322 28231 95
is_linear=0
shrinkage=0.1


Tree=45
num_leaves=7
num_cat=0
split_feature=64 124 156 278 6 14
split_gain=9.65136e-06 1.68872e-05 2.02661e-05 1.2634e-05 1.15337e-05 1.53889e-05
threshold=0.0026572208623627529 0.63925976001352047 0.75815313718539534 0.23452353562909006 0.00096899255133919848 0.0068422861241340055
decision_type=2 2 2 2 2 2
left_child=4 3 -3 -2 5 -1
right_child=1 2 -4 -5 -6 -7
leaf_value=1.2510028985898646e-05 4.4189429653475863e-05 7.7433891433700391e-05 1.2184612122821888e-05 -4.6289916949332429e-06 -7.1323916150473316e-06 -5.4145204717640418e-08
leaf_weight=986 60 74 156 445 2270 84786
leaf_count=986 60 74 156 445 2270 84786
internal_value=0 1.14109e-05 3.38932e-05 8.45736e-07 -9.59359e-08 8.83706e-08
internal_weight=0 735 230 505 88042 85772
internal_count=88777 735 230 505 88042 85772
is_linear=0
shrinkage=0.1


Tree=46
num_leaves=7
num_cat=0
split_feature=0 13 262 6 57 11
split_gain=9.49546e-06 1.66473e-05 1.47663e-05 1.31952e-05 1.32897e-05 1.28902e-05
threshold=0.00094696998003529498 0.32515060240963861 -0.0045172310300731757 0.00096899255133919848 0.38496824276640801 -0.0012494443305614111
decision_type=2 2 2 2 2 2
left_child=3 2 -2 5 -5 -1
right_child=1 -3 -4 4 -6 -7
leaf_value=2.1930851014879946e-06 8.7460236895735538e-05 -1.7288410592755951e-06 1.0574102191112405e-05 -1.9011497222843815e-05 0 -7.3625449249022639e-07
leaf_weight=19618 26 1800 1797 743 711 64082
leaf_count=19618 26 1800 1797 743 711 64082
internal_value=0 5.01349e-06 1.17609e-05 -2.1374e-07 -9.65895e-06 -4.76975e-08
internal_weight=0 3623 1823 85154 1454 83700
internal_count=88777 3623 1823 85154 1454 83700
is_linear=0
shrinkage=0.1


Tree=47
num_leaves=5
num_cat=0
split_feature=6 288 3 262
split_gain=9.71553e-06 1.01289e-05 1.34021e-05 1.20645e-05
threshold=0.0037209474051929097 0.0067340406639351267 0.010707386784525473 0.005056933118464447
decision_type=2 2 2 2
left_child=1 3 -3 -1
right_child=-2 2 -4 -5
leaf_value=1.9548669814559917e-08 -4.98997800648917e-05 2.5475855800249334e-05 -2.1151845467627642e-05 -2.0000468483411649e-05
leaf_weight=88051 39 312 73 302
leaf_count=88051 39 312 73 302
internal_value=0 2.16487e-08 1.62076e-05 -4.70212e-08
internal_weight=0 88738 385 88353
internal_count=88777 88738 385 88353
is_linear=0
shrinkage=0.1


Tree=48
num_leaves=7
num_cat=0
split_feature=13 0 166 4 192 192
split_gain=8.97431e-06 1.76454e-05 1.37375e-05 1.31039e-05 2.13061e-05 1.30259e-05
threshold=0.30571895424836609 0.0009416198639824459 -1.0000000180025095e-35 0.0097406745627479068 -0.0053333501894177173 0.0043859772165260056
decision_type=2 2 2 2 2 2
left_child=1 5 -3 4 -2 -1
right_child=3 2 -4 -5 -6 -7
leaf_value=3.7776412132175561e-07 -5.0066565654993363e-05 3.5353320340344493e-05 7.3885564949436098e-06 3.2394836620772026e-07 -3.1601058426750796e-06 2.0759340093156408e-05
leaf_weight=48869 98 204 1542 22972 14776 316
leaf_count=48869 98 204 1542 22972 14776 316
internal_value=0 8.66261e-07 1.07501e-05 -1.1668e-06 -3.48022e-06 5.12054e-07
internal_weight=0 50931 1746 37846 14874 49185
internal_count=88777 50931 1746 37846 14874 49185
is_linear=0
shrinkage=0.1


Tree=49
num_leaves=7
num_cat=0
split_feature=6 64 15 303 108 207
split_gain=9.9182e-06 1.27925e-05 1.17743e-05 1.06262e-05 1.39291e-05 1.03996e-05
threshold=-0.0018921498456196948 -0.001356852935798347 0.079565972943408253 0.072618833959235657 0.049904214559386977 0.21180347876979741
decision_type=2 2 2 2 2 2
left_child=3 -2 -3 4 -1 -5
right_child=1 2 -4 5 -6 -7
leaf_value=-1.2600980474033365e-05 -6.0196897508334546e-06 -2.9378860246782663e-06 5.7660274489162353e-07 -1.0087605119187873e-05 3.9947247634326906e-05 1.0756812126701016e-05
leaf_weight=62 3541 10962 72923 346 198 745
leaf_count=62 3541 10962 72923 346 198 745
internal_value=0 -1.31234e-07 1.15373e-07 8.50289e-06 2.67841e-05 3.99549e-06
internal_weight=0 87426 83885 1351 260 1091
internal_count=88777 87426 83885 1351 260 1091
is_linear=0
shrinkage=0.1


Tree=50
num_leaves=7
num_cat=0
split_feature=6 10 101 15 19 271
split_gain=8.71469e-06 1.37872e-05 1.43695e-05 1.30472e-05 1.29327e-05 1.19357e-05
threshold=-1.0000000180025095e-35 0.0076138463487925917 -0.0012008043182285247 0.0059559282592655657 0.34648780153508779 0.69629441528882874
decision_type=2 2 2 2 2 2
left_child=1 5 -3 4 -2 -1
right_child=3 2 -4 -5 -6 -7
leaf_value=-6.4538488552260619e-06 4.2832505092531054e-06 -1.7797257009067265e-06 1.3762191047461464e-05 -4.2676956438529826e-08 -1.9648876787533713e-05 -6.8252107981915601e-05
leaf_weight=229 327 933 1562 85024 664 38
leaf_count=229 327 933 1562 85024 664 38
internal_value=0 5.52901e-06 7.88442e-06 -1.77583e-07 -1.15861e-05 -1.58653e-05
internal_weight=0 2762 2495 86015 991 267
internal_count=88777 2762 2495 86015 991 267
is_linear=0
shrinkage=0.1


Tree=51
num_leaves=7
num_cat=0
split_feature=224 198 38 198 19 44
split_gain=8.06231e-06 1.48622e-05 1.12354e-05 1.09385e-05 8.36154e-06 1.32662e-05
threshold=-0.0013297880178795294 -1.0000000180025095e-35 -0.0022650095358747175 -0.0012315277161984992 0.18813070590646552 0.40991803278688527
decision_type=2 2 2 2 2 2
left_child=4 3 -3 -2 5 -1
right_child=1 2 -4 -5 -6 -7
leaf_value=-1.1215640922610283e-05 4.7839392520420346e-06 2.0046428886068388e-05 -9.314068689221019e-08 2.7450609868239466e-05 -2.4124407201043061e-06 -8.104729624411363e-05
leaf_weight=215 4053 278 76109 229 7860 33
leaf_count=215 4053 278 76109 229 7860 33
internal_value=0 3.01529e-07 -1.76924e-08 6.03456e-06 -3.0065e-06 -2.11713e-05
internal_weight=0 80669 76387 4282 8108 248
internal_count=88777 80669 76387 4282 8108 248
is_linear=0
shrinkage=0.1


Tree=52
num_leaves=6
num_cat=0
split_feature=6 302 0 181 0
split_gain=8.27951e-06 1.38431e-05 1.18244e-05 9.49097e-06 7.59373e-06
threshold=0.0026631221413371269 0.079053877828204625 0.00404043885259009 0.34660066006600665 -1.0000000180025095e-35
decision_type=2 2 2 2 2
left_child=2 -2 4 -3 -1
right_child=1 3 -4 -5 -6
leaf_value=-4.0389666098089242e-06 -9.5865943456283846e-05 -5.1162675287377715e-05 5.8989585387764278e-05 2.7987142361307823e-05 2.1828020518306835e-07
leaf_weight=4409 24 26 34 35 84249
leaf_count=4409 24 26 34 35 84249
internal_value=0 -3.11954e-05 2.91776e-08 -3.05378e-06 4.71076e-09
internal_weight=0 85 88692 61 88658
internal_count=88777 85 88692 61 88658
is_linear=0
shrinkage=0.1


Tree=53
num_leaves=7
num_cat=0
split_feature=254 166 223 160 256 102
split_gain=7.64604e-06 1.15071e-05 1.34355e-05 1.12606e-05 1.10762e-05 1.39303e-05
threshold=0.29322044182412998 -0.0054200718923209648 0.99978786593126867 -0.0026660759165277876 -0.0054739668206269512 -0.0035847705880800436
decision_type=2 2 2 2 2 2
left_child=4 2 -2 -3 -1 -6
right_child=1 3 -4 -5 5 -7
leaf_value=-5.1997852534951377e-05 5.1707559770571839e-05 -9.8498553836677397e-06 -1.0342140421397228e-05 3.3757864122061135e-07 4.6870459706292927e-05 -3.505389661391314e-06
leaf_weight=47 92 1099 50 81460 55 5974
leaf_count=47 92 1099 50 81460 55 5974
internal_value=0 2.50901e-07 2.87012e-05 1.99975e-07 -3.42449e-06 -3.01855e-06
internal_weight=0 82701 142 82559 6076 6029
internal_count=88777 82701 142 82559 6076 6029
is_linear=0
shrinkage=0.1


Tree=54
num_leaves=7
num_cat=0
split_feature=15 299 6 239 6 6
split_gain=7.52332e-06 1.48911e-05 1.32209e-05 1.19519e-05 1.15e-05 8.68681e-06
threshold=0.34899030347770177 6.3601536793061339e-05 0.0026631221413371269 0.34898425123474053 -0.0017905122088528456 0.0011961728193101708
decision_type=2 2 2 2 2 2
left_child=1 2 -1 5 -3 -2
right_child=3 4 -4 -5 -6 -7
leaf_value=-3.0448402270276996e-06 5.8248140392199299e-06 1.3393077819246671e-05 -8.0913536287836489e-05 1.9825242915112856e-07 2.1718268889085568e-07 -5.8646758839085731e-06
leaf_weight=17830 6483 680 22 35809 27262 691
leaf_count=17830 6483 680 22 35809 27262 691
internal_value=0 -8.92631e-07 -3.15002e-06 9.49422e-07 5.43718e-07 4.67596e-06
internal_weight=0 45794 17852 42983 27942 7174
internal_count=88777 45794 17852 42983 27942 7174
is_linear=0
shrinkage=0.1


Tree=55
num_leaves=7
num_cat=0
split_feature=96 134 153 294 146 6
split_gain=7.39961e-06 1.44782e-05 1.63001e-05 1.24741e-05 1.25535e-05 1.11717e-05
threshold=0.0017969471272945017 0.0035524044062373865 0.82478070175438611 -0.002649012818777496 0.78788908802505009 -0.0022497225806148431
decision_type=2 2 2 2 2 2
left_child=1 -1 -3 4 -2 -5
right_child=3 2 -4 5 -6 -7
leaf_value=-1.6800900758463032e-07 5.6271630734187851e-05 -2.1252203219687676e-06 -8.7895021148222155e-05 6.4087712269060476e-05 -1.9089381721561488e-05 2.5915526366917807e-06
leaf_weight=84034 85 59 40 30 26 4503
leaf_count=84034 85 59 40 30 26 4503
internal_value=0 -2.15001e-07 -3.84415e-05 3.88539e-06 3.71381e-05 3.03484e-06
internal_weight=0 84133 99 4644 111 4533
internal_count=88777 84133 99 4644 111 4533
is_linear=0
shrinkage=0.1


Tree=56
num_leaves=7
num_cat=0
split_feature=14 6 174 148 6 256
split_gain=7.06081e-06 2.11892e-05 2.76074e-05 1.38826e-05 1.15645e-05 1.49629e-05
threshold=0.13505977637060063 0.0013210047314191622 0.17098300495354543 0.062781531531531543 -1.0000000180025095e-35 -0.001551487300746057
decision_type=2 2 2 2 2 2
left_child=1 2 -1 -3 -2 -6
right_child=4 3 -4 -5 5 -7
leaf_value=5.2080569584270235e-07 6.2775459539518657e-06 6.1280176451394589e-05 9.8095756672962252e-06 -1.3000912584497954e-05 -6.3977449102119406e-06 -3.5109542175292618e-07
leaf_weight=16605 2415 25 3977 1177 4399 60179
leaf_count=16605 2415 25 3977 1177 4399 60179
internal_value=0 1.56331e-06 2.32364e-06 -1.13191e-05 -5.09187e-07 -7.65535e-07
internal_weight=0 21784 20582 1202 66993 64578
internal_count=88777 21784 20582 1202 66993 64578
is_linear=0
shrinkage=0.1


Tree=57
num_leaves=7
num_cat=0
split_feature=13 0 112 298 224 294
split_gain=7.13811e-06 1.59355e-05 2.0236e-05 1.30661e-05 1.86494e-05 1.24612e-05
threshold=0.19304295220810649 1.0000000180025095e-35 0.13520041780911349 0.0083769458847734457 -0.0024140032584938349 -0.0084567194682407792
decision_type=2 2 2 2 2 2
left_child=1 5 -3 4 -2 -1
right_child=3 2 -4 -5 -6 -7
leaf_value=6.6200070066229778e-05 -2.6681118907444449e-05 4.5094537558219975e-05 7.0220058563324849e-06 -1.9791138973440476e-07 -3.7085710983170757e-06 5.7048995639653241e-07
leaf_weight=29 382 160 1276 45152 5375 36403
leaf_count=29 382 160 1276 45152 5375 36403
internal_value=0 1.0393e-06 1.13786e-05 -7.73749e-07 -5.26146e-06 6.27248e-07
internal_weight=0 37868 1436 50909 5757 36432
internal_count=88777 37868 1436 50909 5757 36432
is_linear=0
shrinkage=0.1


Tree=58
num_leaves=7
num_cat=0
split_feature=44 32 73 186 64 59
split_gain=7.03384e-06 1.14535e-05 1.91829e-05 1.23155e-05 1.13278e-05 1.50682e-05
threshold=0.18926915080761239 0.0019212319507726507 0.0079549123466046961 0.12734161939165892 -0.0028463023723714893 0.72914473051463369
decision_type=2 2 2 2 2 2
left_child=4 3 -3 -2 5 -1
right_child=1 2 -4 -5 -6 -7
leaf_value=0 -2.0149281714544372e-05 7.8547574262795294e-05 9.265152976012744e-06 9.1357366077394394e-07 -6.7454900844643948e-07 -4.0740243405346957e-05
leaf_weight=193 279 44 588 39274 48234 165
leaf_count=193 279 44 588 39274 48234 165
internal_value=0 9.78639e-07 1.4349e-05 7.60842e-07 -8.09627e-07 -1.85495e-05
internal_weight=0 40185 632 39553 48592 358
internal_count=88777 40185 632 39553 48592 358
is_linear=0
shrinkage=0.1


Tree=59
num_leaves=7
num_cat=0
split_feature=0 230 183 224 122 26
split_gain=6.30212e-06 1.1178e-05 2.46324e-05 1.20866e-05 9.48008e-06 1.4537e-05
threshold=-0.001800181962588798 -0.0054005575553799359 0.37579260559945377 -0.0028155838802286222 0.3889538595466549 0.35516624714303618
decision_type=2 2 2 2 2 2
left_child=4 2 -2 -3 5 -1
right_child=1 3 -4 -5 -6 -7
leaf_value=-1.3050307154489837e-06 8.1524799669426611e-05 -1.0491489614544778e-05 2.535422476680582e-07 1.9193632105170869e-07 -2.0055441999513256e-06 -4.3481643409911286e-05
leaf_weight=188 54 1072 134 85948 1224 157
leaf_count=188 54 1072 134 85948 1224 157
internal_value=0 1.12954e-07 2.44726e-05 5.84373e-08 -6.2815e-06 -2.09752e-05
internal_weight=0 87208 188 87020 1569 345
internal_count=88777 87208 188 87020 1569 345
is_linear=0
shrinkage=0.1


Tree=60
num_leaves=7
num_cat=0
split_feature=6 23 236 96 159 175
split_gain=6.28039e-06 1.23363e-05 1.14304e-05 1.12961e-05 2.01155e-05 1.06754e-05
threshold=0.0022050752387765553 0.34789134867142407 0.088733536934529497 0.0064471817518438898 0.62471364185583333 0.68617146787424832
decision_type=2 2 2 2 2 2
left_child=3 2 -2 -1 -5 -3
right_child=1 5 -4 4 -6 -7
leaf_value=5.9020309521385815e-08 -7.9624152770017294e-05 1.8686794099507637e-06 -1.0891737501922413e-05 0.00012237819600800562 0 -2.3994997160224612e-05
leaf_weight=87694 44 707 69 21 39 203
leaf_count=87694 44 707 69 21 39 203
internal_value=0 -7.79025e-06 -3.91107e-05 9.05754e-08 4.34687e-05 -3.72025e-06
internal_weight=0 1023 113 87754 60 910
internal_count=88777 1023 113 87754 60 910
is_linear=0
shrinkage=0.1


Tree=61
num_leaves=7
num_cat=0
split_feature=11 6 235 220 6 154
split_gain=6.42936e-06 1.19539e-05 1.21887e-05 1.09354e-05 9.50072e-06 1.04697e-05
threshold=-0.0019806132098165214 0.0011049728254017845 -0.0017756362928383919 0.11989583333333335 -0.0024539926560964704 0.24131521864281857
decision_type=2 2 2 2 2 2
left_child=1 2 -1 -3 5 -2
right_child=4 3 -4 -5 -6 -7
leaf_value=1.1293291902887327e-06 7.5708152825585372e-05 1.5627309115406894e-05 8.9753524809182846e-06 -1.5445070440032237e-05 -4.244304392709957e-07 9.3804823792919756e-06
leaf_weight=8140 26 133 2645 632 76687 514
leaf_count=8140 26 133 2645 632 76687 514
internal_value=0 2.20036e-06 3.0688e-06 -9.82798e-06 -3.2928e-07 1.28788e-05
internal_weight=0 11550 10785 765 77227 540
internal_count=88777 11550 10785 765 77227 540
is_linear=0
shrinkage=0.1


Tree=62
num_leaves=7
num_cat=0
split_feature=13 294 64 64 134 32
split_gain=6.28625e-06 1.12182e-05 9.28719e-06 9.02108e-06 1.14415e-05 7.96994e-06
threshold=0.42325017325017328 0.0080377283363106695 -0.0011037532076052512 0.00089285738011746229 -1.0000000180025095e-35 0.0026263979145202403
decision_type=2 2 2 2 2 2
left_child=3 2 -2 5 -5 -1
right_child=1 -3 -4 4 -6 -7
leaf_value=1.5239603949382735e-07 -6.8534956684494599e-06 -5.7829439083577363e-05 -5.5513692061640872e-07 2.2669791519204179e-05 3.1884425085036897e-06 6.3311747901227241e-05
leaf_weight=51955 2565 35 28057 322 5823 20
leaf_count=51955 2565 35 28057 322 5823 20
internal_value=0 -1.15822e-06 -1.08808e-06 6.11552e-07 4.23604e-06 1.79865e-07
internal_weight=0 30657 30622 58120 6145 51975
internal_count=88777 30657 30622 58120 6145 51975
is_linear=0
shrinkage=0.1


Tree=63
num_leaves=7
num_cat=0
split_feature=15 128 108 0 278 262
split_gain=6.24366e-06 8.97646e-06 8.3645e-06 7.64419e-06 1.72275e-05 1.03204e-05
threshold=0.0059559282592655657 0.0026761841100095833 0.31755368814192347 -0.0028024403876298894 0.94803879886566367 -0.0076482278287537389
decision_type=2 2 2 2 2 2
left_child=1 2 -1 4 -2 -5
right_child=3 -3 -4 5 -6 -7
leaf_value=-3.8382580884647786e-06 -7.3106185501082818e-06 4.4886285910867684e-05 -2.367293686393673e-05 4.2320476245462406e-05 -0.0001099079306915377 1.1472476936987902e-07
leaf_weight=1067 117 32 276 58 20 87207
leaf_count=1067 117 32 276 58 20 87207
internal_value=0 -6.68564e-06 -8.03694e-06 1.05734e-07 -2.34897e-05 1.44662e-07
internal_weight=0 1375 1343 87402 137 87265
internal_count=88777 1375 1343 87402 137 87265
is_linear=0
shrinkage=0.1


Tree=64
num_leaves=7
num_cat=0
split_feature=49 298 73 70 237 0
split_gain=5.86827e-06 9.79884e-06 1.31334e-05 8.81303e-06 1.02314e-05 8.20636e-06
threshold=0.50170068027210901 0.008696395053396767 0.013189276372039102 -0.00090826546319888724 0.47332859174964442 0.00404043885259009
decision_type=2 2 2 2 2 2
left_child=3 2 -2 4 -1 -3
right_child=1 5 -4 -5 -6 -7
leaf_value=1.1297372976587476e-05 -3.621640918347235e-06 -1.231954180267777e-07 -6.5315556291701079e-05 6.232735842638402e-07 -4.4371943854014834e-06 5.3077401087744567e-05
leaf_weight=1606 7721 48219 35 30628 539 29
leaf_count=1606 7721 48219 35 30628 539 29
internal_value=0 -6.2164e-07 -3.92126e-06 1.06312e-06 7.2669e-06 -8.78087e-08
internal_weight=0 56004 7756 32773 2145 48248
internal_count=88777 56004 7756 32773 2145 48248
is_linear=0
shrinkage=0.1


Tree=65
num_leaves=5
num_cat=0
split_feature=6 0 63 70
split_gain=6.24417e-06 6.89241e-06 1.14343e-05 7.24006e-06
threshold=0.0037209474051929097 0.00121359282880551 0.087245060420518952 0.0022909547525555856
decision_type=2 2 2 2
left_child=1 3 -3 -1
right_child=-2 2 -4 -5
leaf_value=-7.28590543751066e-09 -4.0003633154443733e-05 7.5794543813282261e-05 4.4463282043504772e-06 -6.9952161428808726e-06
leaf_weight=84693 39 23 2512 1510
leaf_count=84693 39 23 2512 1510
internal_value=0 1.76734e-08 5.15858e-06 -1.316e-07
internal_weight=0 88738 2535 86203
internal_count=88777 88738 2535 86203
is_linear=0
shrinkage=0.1


Tree=66
num_leaves=7
num_cat=0
split_feature=254 262 256 198 139 224
split_gain=5.80228e-06 9.1897e-06 8.61758e-06 7.66461e-06 1.57253e-05 1.09483e-05
threshold=0.29322044182412998 0.0065717730472742994 -0.0054739668206269512 -0.0044543558731531254 0.00091079196209847846 -0.0033351934282594971
decision_type=2 2 2 2 2 2
left_child=1 2 -1 4 -2 -5
right_child=3 -3 -4 5 -6 -7
leaf_value=-4.5488367351095325e-05 3.9399976412143593e-06 -5.2902566593408126e-05 -2.2861394210253011e-06 -1.0398261971715315e-05 5.4033804458490256e-05 2.7567483907157996e-07
leaf_weight=47 349 37 5992 972 79 81301
leaf_count=47 349 37 5992 972 79 81301
internal_value=0 -2.98271e-06 -2.64961e-06 2.19027e-07 1.35706e-05 1.47571e-07
internal_weight=0 6076 6039 82701 428 82273
internal_count=88777 6076 6039 82701 428 82273
is_linear=0
shrinkage=0.1


Tree=67
num_leaves=7
num_cat=0
split_feature=14 206 6 6 29 160
split_gain=5.94524e-06 1.40149e-05 1.05042e-05 9.94618e-06 1.33178e-05 1.03626e-05
threshold=0.21160814489641827 0.17538422745499302 0.0013477097108363092 -1.0000000180025095e-35 0.39305778491171756 -0.0017528609450874197
decision_type=2 2 2 2 2 2
left_child=1 -1 -3 4 -2 -5
right_child=3 2 -4 5 -6 -7
leaf_value=-2.8593271472274406e-07 1.357082919203284e-06 5.019185066897611e-06 -7.4017882305573586e-06 -7.3357494232215416e-06 1.9900744076583411e-05 -6.0756538059474387e-07
leaf_weight=23903 1556 9534 723 2406 526 50129
leaf_count=23903 1556 9534 723 2406 526 50129
internal_value=0 1.03448e-06 4.12762e-06 -6.47465e-07 6.12097e-06 -9.18833e-07
internal_weight=0 34160 10257 54617 2082 52535
internal_count=88777 34160 10257 54617 2082 52535
is_linear=0
shrinkage=0.1


Tree=68
num_leaves=7
num_cat=0
split_feature=288 33 143 128 170 198
split_gain=5.77379e-06 7.71151e-06 1.0303e-05 8.73685e-06 6.78016e-06 1.39685e-05
threshold=0.0018535702414097523 -0.067824933533055035 0.067344722103178725 0.0067590667204617825 0.0095539617650550451 -0.0049019779621999318
decision_type=2 2 2 2 2 2
left_child=4 3 -3 -2 -1 -6
right_child=1 2 -4 -5 5 -7
leaf_value=-1.6577178184902545e-06 -2.3159791670336271e-06 -7.2035948488141925e-06 6.6040670434830129e-06 4.6453464435917293e-05 3.2244791637595969e-05 2.6241383544613455e-07
leaf_weight=24107 2732 604 4455 37 137 56705
leaf_count=24107 2732 604 4455 37 137 56705
internal_value=0 2.59291e-06 4.92305e-06 -1.6049e-06 -2.5122e-07 3.42391e-07
internal_weight=0 7828 5059 2769 80949 56842
internal_count=88777 7828 5059 2769 80949 56842
is_linear=0
shrinkage=0.1


Tree=69
num_leaves=7
num_cat=0
split_feature=14 6 142 95 6 294
split_gain=5.66274e-06 1.44113e-05 1.95837e-05 1.10172e-05 8.23717e-06 1.26902e-05
threshold=0.13505977637060063 0.0013210047314191622 0.16334283329168242 0.16924730649009104 -1.0000000180025095e-35 1.0000000180025095e-35
decision_type=2 2 2 2 2 2
left_child=1 2 -1 -3 5 -2
right_child=4 3 -4 -5 -6 -7
leaf_value=5.661147770701934e-07 7.7246069878871101e-06 5.0681633733169787e-05 8.5849721418939548e-06 -1.0839413548059201e-05 -6.7232344455014295e-07 -1.6383207228247412e-05
leaf_weight=16849 2176 29 3733 1173 64578 239
leaf_count=16849 2176 29 3733 1173 64578 239
internal_value=0 1.40038e-06 2.0285e-06 -9.21826e-06 -4.55632e-07 5.27068e-06
internal_weight=0 21784 20582 1202 66993 2415
internal_count=88777 21784 20582 1202 66993 2415
is_linear=0
shrinkage=0.1


Tree=70
num_leaves=7
num_cat=0
split_feature=0 187 32 303 6 270
split_gain=5.91992e-06 1.0082e-05 1.07507e-05 9.32386e-06 8.45124e-06 1.21052e-05
threshold=-1.0000000180025095e-35 0.18993654021846304 -0.0027180086077467354 0.0029232644852918142 -0.0010976952817176586 0.013077390933807356
decision_type=2 2 2 2 2 2
left_child=1 2 -1 -3 5 -2
right_child=4 3 -4 -5 -6 -7
leaf_value=2.9341908183387075e-05 4.0186815004309914e-05 3.2308151917437854e-05 -4.3248482976490707e-05 -3.32859447045203e-06 5.6516573191464957e-08 5.0697745810820497e-06
leaf_weight=22 109 74 115 4200 83004 1253
leaf_count=22 109 74 115 4200 83004 1253
internal_value=0 -3.57127e-06 -3.03912e-05 -2.6731e-06 1.8672e-07 8.00094e-06
internal_weight=0 4411 137 4274 84366 1362
internal_count=88777 4411 137 4274 84366 1362
is_linear=0
shrinkage=0.1


Tree=71
num_leaves=7
num_cat=0
split_feature=44 288 171 166 254 134
split_gain=5.68374e-06 8.78127e-06 1.15234e-05 8.13605e-06 1.15017e-05 7.52931e-06
threshold=0.18926915080761239 0.0038492430233678658 0.0027305608953420483 0.0022857182662905377 0.19202230758894098 0.0038314258268536965
decision_type=2 2 2 2 2 2
left_child=3 5 -3 -1 -5 -2
right_child=1 2 -4 4 -6 -7
leaf_value=-4.5753421178405401e-07 7.1834441208314044e-07 7.933252092110023e-06 5.7494799183739689e-05 -5.048732036119604e-05 -5.5793195617825443e-06 -4.3176323216963415e-05
leaf_weight=46625 39386 708 52 60 1907 39
leaf_count=46625 39386 708 52 60 1907 39
internal_value=0 8.80422e-07 1.15408e-05 -7.27085e-07 -7.0328e-06 6.7075e-07
internal_weight=0 40185 760 48592 1967 39425
internal_count=88777 40185 760 48592 1967 39425
is_linear=0
shrinkage=0.1


Tree=72
num_leaves=7
num_cat=0
split_feature=15 23 158 192 170 294
split_gain=5.51393e-06 8.39287e-06 7.54332e-06 5.33013e-06 1.33929e-05 1.09807e-05
threshold=0.0059559282592655657 0.31084778650668338 0.19900031314553832 -0.0032555682936421522 0.0099849526913284876 -0.003780726217492258
decision_type=2 2 2 2 2 2
left_child=1 -1 -3 4 -2 -5
right_child=3 2 -4 5 -6 -7
leaf_value=1.2352287336084416e-05 -1.2439245460005444e-05 -5.6101747143247773e-05 -8.0049138054220683e-06 1.5509414614812216e-05 9.9042520993330391e-06 1.1271083570159722e-07
leaf_weight=199 963 35 1141 466 364 85609
leaf_count=199 963 35 1141 466 364 85609
internal_value=0 -6.28301e-06 -9.57627e-06 9.91631e-08 -6.18644e-06 1.97977e-07
internal_weight=0 1375 1176 87402 1327 86075
internal_count=88777 1375 1176 87402 1327 86075
is_linear=0
shrinkage=0.1


Tree=73
num_leaves=7
num_cat=0
split_feature=160 70 249 298 198 73
split_gain=5.416e-06 8.56189e-06 1.38072e-05 7.71048e-06 1.20462e-05 1.08991e-05
threshold=0.00089047218549742635 -0.0019212319507726503 0.3049813972715999 0.0083404980955520767 -0.0049019779621999318 0.012854602928607784
decision_type=2 2 2 2 2 2
left_child=3 2 -2 5 -5 -1
right_child=1 -3 -4 4 -6 -7
leaf_value=-2.6707840587706838e-06 0 1.7320432944680738e-06 7.0930519714156585e-05 2.3762777655361933e-05 0 -4.8342726786677084e-05
leaf_weight=9657 67 11449 47 214 67290 53
leaf_count=9657 67 11449 47 214 67290 53
internal_value=0 2.01884e-06 2.93793e-05 -3.01789e-07 7.48352e-08 -2.93702e-06
internal_weight=0 11563 114 77214 67504 9710
internal_count=88777 11563 114 77214 67504 9710
is_linear=0
shrinkage=0.1


Tree=74
num_leaves=7
num_cat=0
split_feature=15 299 6 0 0 54
split_gain=5.38862e-06 1.29048e-05 1.638e-05 7.89917e-06 7.5951e-06 1.13126e-05
threshold=0.34226162012782785 -0.00061487892856267902 -0.0026990618847788635 0.0009416198639824459 -0.0028024403876298894 0.51140362854079113
decision_type=2 2 2 2 2 2
left_child=1 3 -3 -1 5 -2
right_child=4 2 -4 -5 -6 -7
leaf_value=-4.8164703562976719e-06 3.0776718363365902e-06 8.2680486050582379e-05 3.4341470917277324e-08 7.3587231718830808e-06 8.545502871720538e-07 -6.7044646883580736e-05
leaf_weight=8794 43 24 35763 557 43555 41
leaf_count=8794 43 24 35763 557 43555 41
internal_value=0 -7.65459e-07 9.43654e-08 -4.07366e-06 7.92945e-07 -2.91919e-05
internal_weight=0 45138 35787 9351 43639 84
internal_count=88777 45138 35787 9351 43639 84
is_linear=0
shrinkage=0.1


Tree=75
num_leaves=7
num_cat=0
split_feature=256 166 171 96 38 105
split_gain=5.08698e-06 7.79853e-06 1.14034e-05 7.57526e-06 7.45464e-06 9.61067e-06
threshold=-1.0000000180025095e-35 0.0024479853061034622 -0.0019064796650677342 0.00226372551741072 -0.0017777796506668329 0.012905326302799754
decision_type=2 2 2 2 2 2
left_child=1 3 -3 -1 5 -2
right_child=4 2 -4 -5 -6 -7
leaf_value=-1.6740455465227712e-06 6.1579953697533043e-06 -7.2711608889526448e-05 0 3.0960935105258988e-05 2.0626141715092348e-07 5.3864392437038498e-05
leaf_weight=14672 1201 38 45 71 72705 45
leaf_count=14672 1201 38 45 71 72705 45
internal_value=0 -1.68951e-06 -3.23531e-05 -1.50572e-06 3.4002e-07 8.01298e-06
internal_weight=0 14826 83 14743 73951 1246
internal_count=88777 14826 83 14743 73951 1246
is_linear=0
shrinkage=0.1


Tree=76
num_leaves=5
num_cat=0
split_feature=6 288 164 262
split_gain=5.00105e-06 5.70976e-06 1.26877e-05 9.23122e-06
threshold=0.0037209474051929097 0.0057692681075915972 0.009542831878985995 0.0049261258073842748
decision_type=2 2 2 2
left_child=1 3 -3 -1
right_child=-2 2 -4 -5
leaf_value=1.0263878102614236e-08 -3.5799361692958442e-05 2.0528525004028712e-05 -1.2120156641822017e-05 -1.8680368792680755e-05
leaf_weight=87928 39 378 167 265
leaf_count=87928 39 378 167 265
internal_value=0 1.7168e-08 1.02225e-05 -4.40331e-08
internal_weight=0 88738 545 88193
internal_count=88777 88738 545 88193
is_linear=0
shrinkage=0.1


Tree=77
num_leaves=7
num_cat=0
split_feature=14 6 142 127 32 266
split_gain=4.99355e-06 1.27566e-05 1.81686e-05 1.02725e-05 7.0032e-06 1.57053e-05
threshold=0.12329776216116563 0.0013210047314191622 0.11760612537669816 0.14109097758811168 0.0026601657428924068 0.0070355015903714986
decision_type=2 2 2 2 2 2
left_child=1 2 -1 -3 -2 -6
right_child=4 3 -4 -5 5 -7
leaf_value=1.4180414528177508e-07 -4.7439982132723254e-07 5.9411340537570545e-05 7.2103921339956582e-06 -1.0164952277187694e-05 9.4248078842325365e-05 7.5323568380046328e-06
leaf_weight=13640 68650 21 4983 1136 23 324
leaf_count=13640 68650 21 4983 1136 23 324
internal_value=0 1.40184e-06 2.04199e-06 -8.75991e-06 -4.00457e-07 1.37544e-05
internal_weight=0 19780 18623 1157 68997 347
internal_count=88777 19780 18623 1157 68997 347
is_linear=0
shrinkage=0.1


Tree=78
num_leaves=7
num_cat=0
split_feature=15 303 134 171 0 237
split_gain=4.78198e-06 1.17872e-05 8.5974e-06 8.52311e-06 8.317e-06 1.27173e-05
threshold=0.14563957608811365 0.17701506389662316 -0.0018957368681311591 -0.0039359431147929043 -0.0028024403876298894 0.19678585258809864
decision_type=2 2 2 2 2 2
left_child=1 3 -3 -1 5 -2
right_child=4 2 -4 -5 -6 -7
leaf_value=-5.8069985993687517e-05 2.6410558114138704e-06 8.8377601100409852e-06 -5.9475752406183709e-06 3.4071064941273137e-07 4.5637191158956013e-07 -6.0270049256808211e-05
leaf_weight=25 63 413 5862 14496 67861 57
leaf_count=25 63 413 5862 14496 67861 57
internal_value=0 -1.32541e-06 -4.94825e-06 2.28818e-07 4.07478e-07 -2.58719e-05
internal_weight=0 20796 6275 14521 67981 120
internal_count=88777 20796 6275 14521 67981 120
is_linear=0
shrinkage=0.1


Tree=79
num_leaves=7
num_cat=0
split_feature=224 70 312 6 0 64
split_gain=4.95576e-06 8.3569e-06 1.2106e-05 8.15243e-06 1.47819e-05 6.52187e-06
threshold=0.00090579734917506382 -0.0025220734433388787 0.60386699047263226 0.0026560487424451833 0.0026578100469376591 -0.0011820336474404056
decision_type=2 2 2 2 2 2
left_child=3 2 -2 4 -1 -3
right_child=1 5 -4 -5 -6 -7
leaf_value=-3.1073419962829851e-07 0.00010290392497042847 -1.2519340855519104e-05 0 -6.1199335515046079e-05 7.23361363306169e-05 2.0598247295262802e-06
leaf_weight=76174 20 312 20 22 28 12201
leaf_count=76174 20 312 20 22 28 12201
internal_value=0 1.84267e-06 4.76284e-05 -3.01622e-07 -2.81881e-07 1.68316e-06
internal_weight=0 12553 40 76224 76202 12513
internal_count=88777 12553 40 76224 76202 12513
is_linear=0
shrinkage=0.1


Tree=80
num_leaves=7
num_cat=0
split_feature=45 32 6 53 233 26
split_gain=4.83929e-06 1.1108e-05 1.07724e-05 1.07717e-05 1.01821e-05 1.83227e-05
threshold=0.24117158288325721 0.004730938923072526 -0.00090744126541153481 0.53021175611537064 1.0000000180025095e-35 0.33364855511437214
decision_type=2 2 2 2 2 2
left_child=1 2 -1 -3 5 -2
right_child=4 3 -4 -5 -6 -7
leaf_value=9.6058850798037644e-06 -0.00010472183695157181 0 4.086361606054586e-07 9.8277530327238634e-05 -6.388946095573577e-07 -1.049868211947565e-05
leaf_weight=1315 25 20 43190 23 44049 155
leaf_count=1315 25 20 43190 23 44049 155
internal_value=0 7.36913e-07 6.84085e-07 5.15887e-05 -7.3972e-07 -2.44996e-05
internal_weight=0 44548 44505 43 44229 180
internal_count=88777 44548 44505 43 44229 180
is_linear=0
shrinkage=0.1


Tree=81
num_leaves=7
num_cat=0
split_feature=0 186 197 201 262 162
split_gain=4.6084e-06 9.37607e-06 1.48655e-05 1.04566e-05 6.06859e-06 1.28897e-05
threshold=-0.001800181962588798 0.52999969709350603 -0.005669351215838463 0.0072013033915507259 -0.0076482278287537389 1.0000000180025095e-35
decision_type=2 2 2 2 2 2
left_child=1 2 -1 -3 5 -2
right_child=4 3 -4 -5 -6 -7
leaf_value=3.1134729685405344e-05 8.7847377075217284e-05 5.1626445746818162e-05 -1.9924814973541463e-05 -1.1915633565918626e-06 7.7084372130855794e-08 -1.5284645335110689e-05
leaf_weight=61 24 39 574 895 87164 20
leaf_count=61 24 39 574 895 87164 20
internal_value=0 -5.37036e-06 -1.47609e-05 8.37936e-07 9.77175e-08 3.72334e-05
internal_weight=0 1569 635 934 87208 44
internal_count=88777 1569 635 934 87208 44
is_linear=0
shrinkage=0.1


Tree=82
num_leaves=7
num_cat=0
split_feature=160 294 142 19 167 6
split_gain=4.60034e-06 8.812e-06 8.82069e-06 6.21764e-06 1.11649e-05 6.44626e-06
threshold=-0.0011363641255015542 -0.0036166434268243282 0.087310279415038286 0.20893892926977406 -0.016616649908074693 -0.0026990618847788635
decision_type=2 2 2 2 2 2
left_child=3 2 -2 4 -1 -5
right_child=1 -3 -4 5 -6 -7
leaf_value=-3.845484656956084e-05 -7.2424737198846308e-06 1.828425211351728e-07 2.7236388238161531e-05 3.4520636876615906e-05 -2.3962940541024758e-06 -1.7053421128480391e-06
leaf_weight=130 99 78720 234 49 286 9259
leaf_count=130 99 78720 234 49 286 9259
internal_value=0 2.53624e-07 1.64921e-05 -2.05133e-06 -1.406e-05 -1.49697e-06
internal_weight=0 79053 333 9724 416 9308
internal_count=88777 79053 333 9724 416 9308
is_linear=0
shrinkage=0.1


Tree=83
num_leaves=7
num_cat=0
split_feature=49 5 243 265 0 163
split_gain=4.48924e-06 7.43414e-06 1.16901e-05 7.20098e-06 6.9978e-06 6.37125e-06
threshold=0.50170068027210901 -0.0011385648757767355 0.11278342933183738 0.0069723265940351336 0.00404043885259009 0.0065159448584054458
decision_type=2 2 2 2 2 2
left_child=1 3 -3 -1 5 -2
right_child=4 2 -4 -5 -6 -7
leaf_value=-2.2016830544670677e-05 -1.2132184362629196e-05 2.5320143901339979e-05 1.8614788307429021e-06 -6.8459451933476775e-07 4.4748116022980576e-05 -4.7189284551933747e-07
leaf_weight=161 474 216 19996 12400 34 55496
leaf_count=161 474 216 19996 12400 34 55496
internal_value=0 9.30436e-07 2.12031e-06 -9.71113e-07 -5.43128e-07 -5.7358e-07
internal_weight=0 32773 20212 12561 56004 55970
internal_count=88777 32773 20212 12561 56004 55970
is_linear=0
shrinkage=0.1


Tree=84
num_leaves=5
num_cat=0
split_feature=6 14 206 302
split_gain=4.61152e-06 4.4836e-06 8.00737e-06 7.37235e-06
threshold=0.0037209474051929097 0.25509473432969937 0.17538422745499302 0.30293210769523277
decision_type=2 2 2 2
left_child=1 2 -1 -3
right_child=-2 3 -4 -5
leaf_value=-3.2279515686437093e-07 -3.4377746069106945e-05 -2.7902082684825088e-06 2.5459167174946181e-06 7.2239552419555648e-08
leaf_weight=24967 39 11955 15859 35957
leaf_count=24967 39 11955 15859 35957
internal_value=0 1.56935e-08 7.87538e-07 -6.38566e-07
internal_weight=0 88738 40826 47912
internal_count=88777 88738 40826 47912
is_linear=0
shrinkage=0.1


Tree=85
num_leaves=7
num_cat=0
split_feature=15 128 231 76 0 192
split_gain=4.47589e-06 7.04776e-06 6.86441e-06 4.68225e-06 8.29674e-06 7.82075e-06
threshold=0.0059559282592655657 0.0026761841100095833 -0.068065145324052195 0.31153480636730818 -0.0024420072962123558 -0.0053333501894177173
decision_type=2 2 2 2 2 2
left_child=1 2 -1 5 -5 -2
right_child=3 -3 -4 4 -6 -7
leaf_value=-1.8043504104956359e-05 -1.8850947917115841e-05 3.9975976744177214e-05 -2.0754504314074611e-06 -1.929985513762229e-05 1.3537097809829851e-06 -3.2064794337363037e-07
leaf_weight=393 229 32 950 195 26444 60534
leaf_count=393 229 32 950 195 26444 60534
internal_value=0 -5.66073e-06 -6.87061e-06 8.93996e-08 1.19635e-06 -3.9319e-07
internal_weight=0 1375 1343 87402 26639 60763
internal_count=88777 1375 1343 87402 26639 60763
is_linear=0
shrinkage=0.1


Tree=86
num_leaves=7
num_cat=0
split_feature=11 267 6 6 6 115
split_gain=4.23467e-06 8.12136e-06 1.32139e-05 8.82937e-06 7.20844e-06 9.14375e-06
threshold=-0.0019806132098165214 -0.0018718637235974253 0.0025348596751255674 -0.0026560487424451824 0.0011049728254017845 0.75443144729480316
decision_type=2 2 2 2 2 2
left_child=4 2 -2 -3 -1 -6
right_child=1 3 -4 -5 5 -7
leaf_value=2.4624938671412644e-06 -4.0035468529063202e-06 3.770565836242023e-05 -8.3947076507413836e-05 -4.6159996381464699e-08 2.3282853492488785e-06 -1.9282480342608892e-05
leaf_weight=10785 4421 62 21 72723 408 357
leaf_count=10785 4421 62 21 72723 408 357
internal_value=0 -2.67345e-07 -4.41854e-06 -1.17421e-08 1.78563e-06 -7.54182e-06
internal_weight=0 77227 4442 72785 11550 765
internal_count=88777 77227 4442 72785 11550 765
is_linear=0
shrinkage=0.1


Tree=87
num_leaves=7
num_cat=0
split_feature=254 262 256 262 308 64
split_gain=4.29144e-06 7.71841e-06 5.98448e-06 5.52287e-06 1.06727e-05 5.27957e-06
threshold=0.29322044182412998 0.0065717730472742994 -0.0054739668206269512 -0.0076482278287537389 0.64014388489208651 0.0055814146680379659
decision_type=2 2 2 2 2 2
left_child=1 2 -1 4 -2 -5
right_child=3 -3 -4 5 -6 -7
leaf_value=-3.7992674860726382e-05 6.5539754557678123e-05 -4.8318352994222259e-05 -1.9501608797158704e-06 1.399842876015209e-07 -1.9514182677092606e-05 2.8448469973145344e-05
leaf_weight=47 36 37 5992 82578 21 66
leaf_count=47 36 37 5992 82578 21 66
internal_value=0 -2.56547e-06 -2.25791e-06 1.88044e-07 3.13197e-05 1.64582e-07
internal_weight=0 6076 6039 82701 57 82644
internal_count=88777 6076 6039 82701 57 82644
is_linear=0
shrinkage=0.1


Tree=88
num_leaves=7
num_cat=0
split_feature=24 64 22 70 262 203
split_gain=4.25215e-06 6.79801e-06 1.89748e-05 7.66227e-06 6.20084e-06 2.17856e-05
threshold=0.53693957115009761 -0.0028463023723714893 0.39916069508446433 -0.0017652268996917184 0.0079134153834563587 -0.00023898656498781525
decision_type=2 2 2 2 2 2
left_child=1 2 -1 -3 -2 -6
right_child=4 3 -4 -5 5 -7
leaf_value=1.9344642846414904e-05 -7.6796371942852487e-07 7.2273888889304064e-06 -4.0969704762150142e-05 4.8562078038945394e-07 -2.8322246935394849e-05 0.00011134860126855078
leaf_weight=82 42259 1758 132 44504 21 21
leaf_count=82 42259 1758 132 44504 21 21
internal_value=0 6.59706e-07 -1.70903e-05 7.45369e-07 -7.2598e-07 3.75999e-05
internal_weight=0 46476 214 46262 42301 42
internal_count=88777 46476 214 46262 42301 42
is_linear=0
shrinkage=0.1


Tree=89
num_leaves=7
num_cat=0
split_feature=68 96 224 230 145 70
split_gain=4.10284e-06 1.69348e-05 1.11087e-05 8.28057e-06 1.26712e-05 6.92232e-06
threshold=0.0079804466799924378 0.0064471817518438898 -0.0026519353853760026 -0.005633822685433997 0.93387978142076522 0.0025031341390717725
decision_type=2 2 2 2 2 2
left_child=1 2 -1 4 -2 -5
right_child=3 -3 -4 5 -6 -7
leaf_value=-1.3010739485667834e-05 0 6.694170247387251e-05 -9.945131852961001e-07 4.0330827887990802e-07 6.8541176492239057e-05 -7.136830137512352e-06
leaf_weight=815 66 36 15016 71562 45 1237
leaf_count=815 66 36 15016 71562 45 1237
internal_value=0 -1.45758e-06 -1.62351e-06 3.16823e-07 2.76236e-05 2.72927e-07
internal_weight=0 15867 15831 72910 111 72799
internal_count=88777 15867 15831 72910 111 72799
is_linear=0
shrinkage=0.1


Tree=90
num_leaves=7
num_cat=0
split_feature=56 166 171 32 230 109
split_gain=4.03141e-06 5.92909e-06 1.03742e-05 6.08492e-06 5.78447e-06 7.29863e-06
threshold=0.091895378841191658 0.0022857182662905377 0.0034811943318069139 0.00088809970062797572 1.0000000180025095e-35 0.34387500000000004
decision_type=2 2 2 2 2 2
left_child=4 3 -3 -2 -1 -6
right_child=1 2 -4 -5 5 -7
leaf_value=1.3420096275938037e-06 -2.2270208400594696e-07 -4.9592168213003526e-06 4.1542259599867295e-05 3.3348116031786122e-06 1.8661608989887533e-05 -2.1986502020499985e-06
leaf_weight=4495 75038 3357 48 5137 458 244
leaf_count=4495 75038 3357 48 5137 458 244
internal_value=0 -1.68339e-07 -4.25538e-06 3.1853e-09 2.70212e-06 1.11768e-05
internal_weight=0 83580 3405 80175 5197 702
internal_count=88777 83580 3405 80175 5197 702
is_linear=0
shrinkage=0.1


Tree=91
num_leaves=7
num_cat=0
split_feature=13 294 0 112 192 67
split_gain=3.87137e-06 8.90297e-06 8.11506e-06 1.23835e-05 1.08208e-05 7.77397e-06
threshold=0.42325017325017328 0.0080377283363106695 0.00088652505494257749 0.13520041780911349 0.004460808610081469 0.0097722786299534858
decision_type=2 2 2 2 2 2
left_child=2 5 4 -4 -1 -2
right_child=1 -3 3 -5 -6 -7
leaf_value=1.1204262368000871e-07 -4.7937769607061519e-06 -5.1393472223371437e-05 2.4930125847208316e-05 3.3417557603744203e-06 1.9098956922113268e-05 -1.9635802265604697e-07
leaf_weight=55172 4293 35 305 2341 302 26329
leaf_count=55172 4293 35 305 2341 302 26329
internal_value=0 -9.0933e-07 4.79518e-07 5.89237e-06 2.18372e-07 -8.46255e-07
internal_weight=0 30657 58120 2646 55474 30622
internal_count=88777 30657 58120 2646 55474 30622
is_linear=0
shrinkage=0.1


Tree=92
num_leaves=5
num_cat=0
split_feature=6 0 52 192
split_gain=3.84934e-06 3.90891e-06 1.22151e-05 4.25693e-06
threshold=0.0037209474051929097 0.00121359282880551 0.054158809972763469 -0.0032555682936421522
decision_type=2 2 2 2
left_child=1 3 -3 -1
right_child=-2 2 -4 -5
leaf_value=-5.7684715473929057e-06 -3.1409042907234545e-05 5.8926633635267246e-05 2.9374664989097054e-06 -9.0120018076896617e-09
leaf_weight=1304 39 40 2495 84899
leaf_count=1304 39 40 2495 84899
internal_value=0 1.39118e-08 3.88583e-06 -9.80434e-08
internal_weight=0 88738 2535 86203
internal_count=88777 88738 2535 86203
is_linear=0
shrinkage=0.1


Tree=93
num_leaves=7
num_cat=0
split_feature=299 15 96 134 242 18
split_gain=3.79973e-06 1.0314e-05 8.37109e-06 6.37397e-06 5.54709e-06 1.08623e-05
threshold=0.00030405477911946019 0.20340573786330576 0.0022050752387765553 -0.0026092654739007233 0.11039582625415428 0.27180418736867323
decision_type=2 2 2 2 2 2
left_child=1 2 -1 -3 5 -2
right_child=4 3 -4 -5 -6 -7
leaf_value=-4.0274357355102284e-06 4.6713480088139582e-06 -1.0248456898535818e-05 7.3856268390786653e-06 2.9942667348154557e-07 7.3984335765471469e-07 6.797656488817431e-05
leaf_weight=10062 139 580 677 43838 33445 36
leaf_count=10062 139 580 677 43838 33445 36
internal_value=0 -5.10858e-07 -3.29263e-06 1.57993e-07 8.3788e-07 1.86343e-05
internal_weight=0 55157 10739 44418 33620 175
internal_count=88777 55157 10739 44418 33620 175
is_linear=0
shrinkage=0.1


Tree=94
num_leaves=7
num_cat=0
split_feature=14 256 239 102 171 257
split_gain=3.8495e-06 6.25456e-06 1.51448e-05 7.38346e-06 5.76986e-06 8.06027e-06
threshold=0.57728265184597072 -0.0045792882662616377 0.16339472236851793 -0.0035847705880800436 0.0028129089616577047 -0.055694095478496158
decision_type=2 2 2 2 2 2
left_child=4 2 -2 -3 -1 -6
right_child=1 3 -4 -5 5 -7
leaf_value=2.3383007888327456e-07 3.6774773434485007e-05 5.0957083866864456e-05 -4.6872168514248008e-05 -1.2396253773307018e-06 6.5203905325569655e-07 2.1944422748345735e-05
leaf_weight=70060 27 27 84 17794 490 295
leaf_count=70060 27 27 84 17794 490 295
internal_value=0 -1.30838e-06 -2.5044e-05 -1.15131e-06 3.31769e-07 8.86313e-06
internal_weight=0 17932 111 17821 70845 785
internal_count=88777 17932 111 17821 70845 785
is_linear=0
shrinkage=0.1


Tree=95
num_leaves=7
num_cat=0
split_feature=134 168 12 86 64 206
split_gain=3.88102e-06 1.65124e-05 1.51585e-05 1.28118e-05 4.67958e-06 1.57341e-05
threshold=0.005056933118464447 0.9999822505795245 0.086268915901761375 0.49836865761758659 0.0026572208623627529 0.098186784836729643
decision_type=2 2 2 2 2 2
left_child=4 2 -2 -3 -1 -6
right_child=1 3 -4 -5 5 -7
leaf_value=-2.396611604740519e-08 8.6582076508747622e-06 4.6261716129386541e-05 -6.2357730328908758e-05 -2.5202528305515963e-05 4.2117774996820696e-05 6.2145273075719573e-07
leaf_weight=87950 41 60 84 40 115 487
leaf_count=87950 41 60 84 40 115 487
internal_value=0 -1.31158e-05 -3.77493e-05 1.60318e-05 3.43125e-08 8.82173e-06
internal_weight=0 225 125 100 88552 602
internal_count=88777 225 125 100 88552 602
is_linear=0
shrinkage=0.1


Tree=96
num_leaves=7
num_cat=0
split_feature=254 262 166 204 64 13
split_gain=3.61128e-06 6.35351e-06 5.15867e-06 1.07887e-05 5.28117e-06 4.83664e-06
threshold=0.29322044182412998 0.0070391857297407165 -0.0054200718923209648 0.07278747742323903 -0.0038759774840491086 0.16463142218912882
decision_type=2 2 2 2 2 2
left_child=1 5 3 -2 -4 -1
right_child=2 -3 4 -5 -6 -7
leaf_value=1.7329344241294776e-06 -3.1240579637131572e-05 -4.6346811085054263e-05 -1.7669578022781321e-05 3.4212284070236833e-05 1.7706093513398984e-07 -4.1637820628415156e-06
leaf_weight=2103 30 33 166 112 82393 3940
leaf_count=2103 30 33 166 112 82393 3940
internal_value=0 -2.35195e-06 1.73946e-07 1.92261e-05 1.39185e-07 -2.08448e-06
internal_weight=0 6076 82701 142 82559 6043
internal_count=88777 6076 82701 142 82559 6043
is_linear=0
shrinkage=0.1


Tree=97
num_leaves=7
num_cat=0
split_feature=44 186 156 102 198 215
split_gain=3.61445e-06 6.95399e-06 9.62261e-06 7.71117e-06 5.91295e-06 8.79354e-06
threshold=0.18926915080761239 0.12734161939165892 0.583077709611452 -0.0038535728925994657 0.0022598908528097543 0.2494165348459236
decision_type=2 2 2 2 2 2
left_child=4 2 -2 -3 -1 -6
right_child=1 3 -4 -5 5 -7
leaf_value=-3.2998407851462992e-07 -8.8926254747930669e-06 3.1316548461325553e-05 -8.0834715156390832e-05 7.5154719243276354e-07 -4.6136205458794584e-05 -4.5041147955291552e-06
leaf_weight=46295 273 83 21 39808 53 2244
leaf_count=46295 273 83 21 39808 53 2244
internal_value=0 7.02429e-07 -1.45911e-05 8.19266e-07 -5.79478e-07 -5.53633e-06
internal_weight=0 40185 294 39891 48592 2297
internal_count=88777 40185 294 39891 48592 2297
is_linear=0
shrinkage=0.1


Tree=98
num_leaves=7
num_cat=0
split_feature=14 206 38 107 192 28
split_gain=3.53685e-06 7.63807e-06 8.98788e-06 6.68408e-06 5.40882e-06 1.74845e-05
threshold=0.13505977637060063 0.17538422745499302 0.0017777796506668333 0.0014358607659305073 -0.0071524796544975002 0.42294785751161595
decision_type=2 2 2 2 2 2
left_child=1 3 -3 -1 5 -2
right_child=4 2 -4 -5 -6 -7
leaf_value=-9.0432619773866447e-08 -0.00010716341145643291 5.9675240731064886e-06 -9.0314443310082141e-06 2.0440823560076703e-05 -3.3039369266643465e-07 3.8729469067449582e-06
leaf_weight=16766 20 4427 431 160 66933 40
leaf_count=16766 20 4427 431 160 66933 40
internal_value=0 1.10703e-06 4.60297e-06 9.39348e-08 -3.5978e-07 -3.04007e-05
internal_weight=0 21784 4858 16926 66993 60
internal_count=88777 21784 4858 16926 66993 60
is_linear=0
shrinkage=0.1


Tree=99
num_leaves=7
num_cat=0
split_feature=6 133 303 16 230 101
split_gain=3.60827e-06 1.20509e-05 1.74495e-05 1.09263e-05 6.24459e-06 1.50463e-05
threshold=-1.0000000180025095e-35 -0.0011666634556310891 0.097936172394481755 0.91715686274509811 -0.0048192934316526595 0.0013467875182468349
decision_type=2 2 2 2 2 2
left_child=1 3 -3 -1 5 -2
right_child=4 2 -4 -5 -6 -7
leaf_value=-9.6368524308278413e-06 2.5531274154706996e-05 2.5572547300344671e-05 2.6019042408537916e-06 2.0193006816891864e-05 -1.6532072249436509e-07 -3.4360302846351793e-05
leaf_weight=845 236 450 1326 141 85730 49
leaf_count=845 236 450 1326 141 85730 49
internal_value=0 3.55769e-06 8.51477e-06 -5.20433e-06 -1.14297e-07 1.4657e-05
internal_weight=0 2762 1776 986 86015 285
internal_count=88777 2762 1776 986 86015 285
is_linear=0
shrinkage=0.1


end of trees

feature_importances:
sLaggingRtn_1=77
fLaggingRtn_1=43
sBidSize1_1=29
sAskSize1_1=26
fLaggingRtn_3=24
fLaggingRtn_7=19
fLaggingRtn_2=17
sLaggingRtn_3=17
fLaggingRtn_9=14
sLaggingRtn_10=14
fLaggingRtn_6=12
sLaggingRtn_6=12
sLaggingRtn_7=12
sLaggingRtn_9=11
fLaggingRtn_8=10
fLaggingRtn_4=9
sLaggingRtn_5=8
sLaggingRtn_2=7
fLaggingRtn_10=7
fBidSize1_1=6
sLaggingRtn_4=6
stockSlope_ab_6=6
sAskSize1_7=6
sBidSize1_10=6
slope_ab_1=5
sLaggingRtn_8=5
sAskSize5_8=5
stockSlope_ab_1=4
sBidSize3_1=4
fAskSize1_2=4
fLaggingRtn_5=4
stockSlope_a_10=4
sBidSize2_1=3
stockSlope_b_3=3
fAskSize1_4=3
sAskSize1_5=3
sBidSize5_5=3
sAskSize4_6=3
stockSlope_ab_10=3
slope_a_1=2
fAskSize2_1=2
fAskSize4_1=2
sAskSize4_1=2
sAskSize1_2=2
fBidSize2_2=2
fAskSize4_2=2
fBidSize4_2=2
sBidSize4_2=2
sBidSize5_3=2
slope_ab_4=2
fAskSize2_4=2
sBidSize2_4=2
sAskSize4_4=2
fAskSize5_5=2
sAskSize5_5=2
stockSlope_a_6=2
sBidSize1_7=2
fBidSize1_8=2
sBidSize1_8=2
sBidSize3_8=2
sAskSize1_9=2
fAskSize2_9=2
sAskSize3_9=2
sAskSize1_10=2
spreadRatio_1=1
slope_b_1=1
stockSlope_a_1=1
fAskSize1_1=1
sAskSize2_1=1
sAskSize3_1=1
fAskSize5_1=1
fBidSize5_1=1
spreadRatio_2=1
slope_a_2=1
slope_ab_2=1
fBidSize1_2=1
sBidSize1_2=1
fAskSize3_2=1
fBidSize3_2=1
sAskSize3_2=1
sBidSize3_2=1
sBidSize5_2=1
slope_b_3=1
slope_a_3=1
stockVolumeImbalanceRatio_3=1
fAskSize1_3=1
sBidSize1_3=1
fAskSize3_3=1
sAskSize3_3=1
spreadRatio_4=1
stockSlope_b_4=1
stockSlope_ab_4=1
fBidSize1_4=1
fBidSize3_4=1
fBidSize4_4=1
fAskSize5_4=1
sBidSize5_4=1
slope_ab_5=1
stockSlope_a_5=1
stockSlope_ab_5=1
sBidSize1_5=1
fBidSize2_5=1
sAskSize2_5=1
fAskSize3_5=1
sBidSize3_5=1
fBidSize4_5=1
sAskSize4_5=1
volumeImbalanceRatio_6=1
slope_b_6=1
slope_a_6=1
stockSpreadRatio_6=1
stockVolumeImbalanceRatio_6=1
sAskSize1_6=1
sBidSize1_6=1
sBidSize2_6=1
fBidSize3_6=1
sAskSize3_6=1
sBidSize3_6=1
sBidSize4_6=1
sAskSize5_6=1
slope_a_7=1
slope_ab_7=1
stockSlope_b_7=1
stockSlope_ab_7=1
fAskSize1_7=1
sBidSize2_7=1
fAskSize3_7=1
sBidSize3_7=1
fAskSize5_7=1
sAskSize5_7=1
sBidSize5_7=1
stockSpreadRatio_8=1
stockSlope_b_8=1
stockSlope_a_8=1
stockSlope_ab_8=1
fAskSize1_8=1
sAskSize2_8=1
sBidSize2_8=1
fBidSize4_8=1
spreadRatio_9=1
stockSlope_b_9=1
stockSlope_a_9=1
stockSlope_ab_9=1
sBidSize1_9=1
slope_b_10=1
stockVolumeImbalanceRatio_10=1
fAskSize3_10=1
fAskSize4_10=1
sAskSize4_10=1

parameters:
[boosting: gbdt]
[objective: regression]
[metric: l2]
[tree_learner: serial]
[device_type: cpu]
[data: ]
[valid: ]
[num_iterations: 100]
[learning_rate: 0.1]
[num_leaves: 7]
[num_threads: -1]
[deterministic: 0]
[force_col_wise: 0]
[force_row_wise: 0]
[histogram_pool_size: -1]
[max_depth: 3]
[min_data_in_leaf: 20]
[min_sum_hessian_in_leaf: 0.001]
[bagging_fraction: 0.8]
[pos_bagging_fraction: 1]
[neg_bagging_fraction: 1]
[bagging_freq: 0]
[bagging_seed: 3]
[feature_fraction: 0.8]
[feature_fraction_bynode: 1]
[feature_fraction_seed: 2]
[extra_trees: 0]
[extra_seed: 6]
[early_stopping_round: 0]
[first_metric_only: 0]
[max_delta_step: 0]
[lambda_l1: 0.00164432]
[lambda_l2: 0.00165864]
[linear_lambda: 0]
[min_gain_to_split: 0]
[drop_rate: 0.1]
[max_drop: 50]
[skip_drop: 0.5]
[xgboost_dart_mode: 0]
[uniform_drop: 0]
[drop_seed: 4]
[top_rate: 0.2]
[other_rate: 0.1]
[min_data_per_group: 100]
[max_cat_threshold: 32]
[cat_l2: 10]
[cat_smooth: 10]
[max_cat_to_onehot: 4]
[top_k: 20]
[monotone_constraints: ]
[monotone_constraints_method: basic]
[monotone_penalty: 0]
[feature_contri: ]
[forcedsplits_filename: ]
[refit_decay_rate: 0.9]
[cegb_tradeoff: 1]
[cegb_penalty_split: 0]
[cegb_penalty_feature_lazy: ]
[cegb_penalty_feature_coupled: ]
[path_smooth: 0]
[interaction_constraints: ]
[verbosity: -1]
[saved_feature_importance_type: 0]
[linear_tree: 0]
[max_bin: 255]
[max_bin_by_feature: ]
[min_data_in_bin: 3]
[bin_construct_sample_cnt: 200000]
[data_random_seed: 1]
[is_enable_sparse: 1]
[enable_bundle: 1]
[use_missing: 1]
[zero_as_missing: 0]
[feature_pre_filter: 1]
[pre_partition: 0]
[two_round: 0]
[header: 0]
[label_column: ]
[weight_column: ]
[group_column: ]
[ignore_column: ]
[categorical_feature: ]
[forcedbins_filename: ]
[precise_float_parser: 0]
[objective_seed: 5]
[num_class: 1]
[is_unbalance: 0]
[scale_pos_weight: 1]
[sigmoid: 1]
[boost_from_average: 1]
[reg_sqrt: 0]
[alpha: 0.9]
[fair_c: 1]
[poisson_max_delta_step: 0.7]
[tweedie_variance_power: 1.5]
[lambdarank_truncation_level: 30]
[lambdarank_norm: 1]
[label_gain: ]
[eval_at: ]
[multi_error_top_k: 1]
[auc_mu_weights: ]
[num_machines: 1]
[local_listen_port: 12400]
[time_out: 120]
[machine_list_filename: ]
[machines: ]
[gpu_platform_id: -1]
[gpu_device_id: -1]
[gpu_use_dp: 0]
[num_gpu: 1]

end of parameters

pandas_categorical:[]
